SVM-light Version V6.20
1 # kernel type
3 # kernel parameter -d 
1 # kernel parameter -g 
1 # kernel parameter -s 
1 # kernel parameter -r 
empty# kernel parameter -u 
13 # highest feature index 
53 # number of training documents 
1405 # number of support vectors plus 1 
0 # threshold b, each following line is a SV (starting with alpha*y)
-0 1:0.053944401 2:0.21277501 3:0.124362 4:0.4183 5:0.4075 6:3.1700799 7:9.20965 8:11.6565 9:12.6565 10:-24.9608 11:-17.4685 12:-24.966299 #
-0 1:0.039269999 2:0.39989901 3:0.130794 4:0.44319999 5:0.44299999 6:3.18209 7:8.4729099 8:11.4839 9:13.0927 10:-25.455099 11:-17.357401 12:-25.6504 #
-9.5715987931021568688436135358662e-13 1:0.037537601 2:0.67477101 3:0.120988 4:0.4632 5:0.4488 6:3.1828101 7:8.6810598 8:12.2865 9:13.1907 10:-25.974199 11:-17.7656 12:-26.2938 #
-1.9143197586204313737687227071732e-12 1:0.0287519 2:0.64277899 3:0.26264799 4:0.47400001 5:0.4686 6:3.1847301 7:8.9837103 8:12.68 9:14.379 10:-28.4708 11:-19.273399 12:-27.9254 #
-1.9143197586204313737687227071732e-12 1:0.017823899 2:0.664783 3:0.44897899 4:0.47979999 5:0.463 6:3.17853 7:9.1509104 8:12.1559 9:14.6132 10:-28.0774 11:-19.731701 12:-28.2542 #
2.8714796379306468587046923241808e-12 1:0.018034199 2:0.73889399 3:0.606341 4:0.4025 5:0.40189999 6:3.16394 7:8.0693903 8:10.6027 9:12.4731 10:-24.1457 11:-16.5968 12:-24.178499 #
1.9143197586204313737687227071732e-12 1:0.0177489 2:0.67880797 3:0.64064699 4:0.4869 5:0.3721 6:3.1477201 7:7.82129 8:10.1158 9:13.5141 10:-27.1157 11:-17.7279 12:-25.329 #
2.8714796379306468587046923241808e-12 1:0.053944401 2:0.21277501 3:0.124362 4:0.4183 5:0.4075 6:3.1700799 7:9.20965 8:11.6565 9:12.6565 10:-24.9608 11:-17.4685 12:-24.966299 #
1.9143197586204313737687227071732e-12 1:0.039269999 2:0.39989901 3:0.130794 4:0.44319999 5:0.44299999 6:3.18209 7:8.4729099 8:11.4839 9:13.0927 10:-25.455099 11:-17.357401 12:-25.6504 #
9.5715987931021568688436135358662e-13 1:0.037537601 2:0.67477101 3:0.120988 4:0.4632 5:0.4488 6:3.1828101 7:8.6810598 8:12.2865 9:13.1907 10:-25.974199 11:-17.7656 12:-26.2938 #
0 1:0.0287519 2:0.64277899 3:0.26264799 4:0.47400001 5:0.4686 6:3.1847301 7:8.9837103 8:12.68 9:14.379 10:-28.4708 11:-19.273399 12:-27.9254 #
-9.5715987931021568688436135358662e-13 1:0.017823899 2:0.664783 3:0.44897899 4:0.47979999 5:0.463 6:3.17853 7:9.1509104 8:12.1559 9:14.6132 10:-28.0774 11:-19.731701 12:-28.2542 #
-1.9143197586204313737687227071732e-12 1:0.018034199 2:0.73889399 3:0.606341 4:0.4025 5:0.40189999 6:3.16394 7:8.0693903 8:10.6027 9:12.4731 10:-24.1457 11:-16.5968 12:-24.178499 #
-2.8714796379306468587046923241808e-12 1:0.0177489 2:0.67880797 3:0.64064699 4:0.4869 5:0.3721 6:3.1477201 7:7.82129 8:10.1158 9:13.5141 10:-27.1157 11:-17.7279 12:-25.329 #
-1.9143197586204313737687227071732e-12 1:0.062651798 2:0.195392 3:0.134307 4:0.46200001 5:0.36680001 6:3.1879499 7:8.7458601 8:11.6789 9:13.2832 10:-25.959999 11:-17.6707 12:-25.8773 #
-1.9143197586204313737687227071732e-12 1:0.034203101 2:0.49172899 3:0.15575799 4:0.44459999 5:0.43399999 6:3.1826501 7:8.4365301 8:11.5517 9:14.183 10:-27.050501 11:-18.423599 12:-28.5623 #
9.5715987931021568688436135358662e-13 1:0.038259599 2:0.67477399 3:0.14748 4:0.43610001 5:0.4355 6:3.16998 7:7.9873099 8:11.3278 9:12.596 10:-24.8869 11:-16.816601 12:-24.6119 #
-9.5715987931021568688436135358662e-13 1:0.027355401 2:0.64210898 3:0.26188299 4:0.45109999 5:0.43889999 6:3.1872301 7:8.9459696 8:11.9342 9:13.0706 10:-25.5849 11:-17.574499 12:-26.2078 #
-9.5715987931021568688436135358662e-13 1:0.017204599 2:0.64348602 3:0.42925999 4:0.486 5:0.46259999 6:3.1812201 7:9.5397501 8:12.0418 9:14.3968 10:-27.6518 11:-19.2318 12:-28.025801 #
2.8714796379306468587046923241808e-12 1:0.018322101 2:0.69689399 3:0.58794999 4:0.42340001 5:0.4156 6:3.1633501 7:7.9699402 8:10.7861 9:12.3873 10:-24.5965 11:-16.3738 12:-23.9867 #
1.9143197586204313737687227071732e-12 1:0.0147465 2:0.70622802 3:0.63631302 4:0.48190001 5:0.3707 6:3.14433 7:7.7816401 8:10.0855 9:12.8597 10:-24.3946 11:-16.7812 12:-24.6341 #
2.8714796379306468587046923241808e-12 1:0.062651798 2:0.195392 3:0.134307 4:0.46200001 5:0.36680001 6:3.1879499 7:8.7458601 8:11.6789 9:13.2832 10:-25.959999 11:-17.6707 12:-25.8773 #
1.9143197586204313737687227071732e-12 1:0.034203101 2:0.49172899 3:0.15575799 4:0.44459999 5:0.43399999 6:3.1826501 7:8.4365301 8:11.5517 9:14.183 10:-27.050501 11:-18.423599 12:-28.5623 #
9.5715987931021568688436135358662e-13 1:0.038259599 2:0.67477399 3:0.14748 4:0.43610001 5:0.4355 6:3.16998 7:7.9873099 8:11.3278 9:12.596 10:-24.8869 11:-16.816601 12:-24.6119 #
0 1:0.027355401 2:0.64210898 3:0.26188299 4:0.45109999 5:0.43889999 6:3.1872301 7:8.9459696 8:11.9342 9:13.0706 10:-25.5849 11:-17.574499 12:-26.2078 #
-9.5715987931021568688436135358662e-13 1:0.017204599 2:0.64348602 3:0.42925999 4:0.486 5:0.46259999 6:3.1812201 7:9.5397501 8:12.0418 9:14.3968 10:-27.6518 11:-19.2318 12:-28.025801 #
-1.9143197586204313737687227071732e-12 1:0.018322101 2:0.69689399 3:0.58794999 4:0.42340001 5:0.4156 6:3.1633501 7:7.9699402 8:10.7861 9:12.3873 10:-24.5965 11:-16.3738 12:-23.9867 #
-2.8714796379306468587046923241808e-12 1:0.0147465 2:0.70622802 3:0.63631302 4:0.48190001 5:0.3707 6:3.14433 7:7.7816401 8:10.0855 9:12.8597 10:-24.3946 11:-16.7812 12:-24.6341 #
-1.4357398189653234293523461620904e-12 1:0.0603237 2:0.14560901 3:0.14518601 4:0.45879999 5:0.44240001 6:3.1313901 7:9.1846199 8:11.9781 9:12.2647 10:-24.396601 11:-17.171499 12:-25.0499 #
-2.392899698275539116236707515677e-12 1:0.0540471 2:0.33084899 3:0.14338399 4:0.4657 5:0.45289999 6:3.1856899 7:9.4240303 8:12.5098 9:13.8572 10:-27.657101 11:-18.858601 12:-27.0539 #
4.7857993965510784344218067679331e-13 1:0.035359401 2:0.442379 3:0.33222899 4:0.458 5:0.45100001 6:3.18927 7:9.0926399 8:11.273 9:13.4224 10:-25.7876 11:-17.988199 12:-26.325899 #
-4.7857993965510784344218067679331e-13 1:0.026026201 2:0.69989598 3:0.47556499 4:0.46340001 5:0.45899999 6:3.1788299 7:8.9221601 8:12.0997 9:14.4192 10:-27.8006 11:-18.9289 12:-27.8622 #
2.392899698275539116236707515677e-12 1:0.0284387 2:0.76458597 3:0.60720599 4:0.40169999 5:0.3953 6:3.1615 7:8.0266304 8:10.6513 9:12.6666 10:-24.546 11:-16.7304 12:-24.423201 #
1.4357398189653234293523461620904e-12 1:0.028643699 2:0.75094801 3:0.71522897 4:0.48010001 5:0.38229999 6:3.1477599 7:7.9918299 8:10.143 9:13.9821 10:-26.705601 11:-18.4149 12:-26.055201 #
2.392899698275539116236707515677e-12 1:0.0603237 2:0.14560901 3:0.14518601 4:0.45879999 5:0.44240001 6:3.1313901 7:9.1846199 8:11.9781 9:12.2647 10:-24.396601 11:-17.171499 12:-25.0499 #
1.4357398189653234293523461620904e-12 1:0.0540471 2:0.33084899 3:0.14338399 4:0.4657 5:0.45289999 6:3.1856899 7:9.4240303 8:12.5098 9:13.8572 10:-27.657101 11:-18.858601 12:-27.0539 #
4.7857993965510784344218067679331e-13 1:0.035359401 2:0.442379 3:0.33222899 4:0.458 5:0.45100001 6:3.18927 7:9.0926399 8:11.273 9:13.4224 10:-25.7876 11:-17.988199 12:-26.325899 #
-4.7857993965510784344218067679331e-13 1:0.026026201 2:0.69989598 3:0.47556499 4:0.46340001 5:0.45899999 6:3.1788299 7:8.9221601 8:12.0997 9:14.4192 10:-27.8006 11:-18.9289 12:-27.8622 #
-1.4357398189653234293523461620904e-12 1:0.0284387 2:0.76458597 3:0.60720599 4:0.40169999 5:0.3953 6:3.1615 7:8.0266304 8:10.6513 9:12.6666 10:-24.546 11:-16.7304 12:-24.423201 #
-2.392899698275539116236707515677e-12 1:0.028643699 2:0.75094801 3:0.71522897 4:0.48010001 5:0.38229999 6:3.1477599 7:7.9918299 8:10.143 9:13.9821 10:-26.705601 11:-18.4149 12:-26.055201 #
-4.7857993965510784344218067679331e-13 1:0.060358498 2:0.172152 3:0.16320001 4:0.4727 5:0.4655 6:3.18488 7:9.1752796 8:11.6739 9:13.2344 10:-25.9445 11:-18.0625 12:-25.7684 #
-1.4357398189653234293523461620904e-12 1:0.046989601 2:0.31788501 3:0.129776 4:0.4682 5:0.44440001 6:3.18416 7:8.3441801 8:11.3402 9:12.7352 10:-24.875 11:-17.0291 12:-24.9856 #
-2.392899698275539116236707515677e-12 1:0.038715102 2:0.363464 3:0.31999901 4:0.47009999 5:0.45289999 6:3.18349 7:8.6457005 8:11.5401 9:14.3563 10:-27.532801 11:-19.6632 12:-27.3979 #
1.4357398189653234293523461620904e-12 1:0.0259955 2:0.45379099 3:0.371223 4:0.45469999 5:0.4479 6:3.1921301 7:9.0158701 8:11.5828 9:13.1935 10:-26.2104 11:-17.7115 12:-25.594 #
4.7857993965510784344218067679331e-13 1:0.020736501 2:0.658943 3:0.43375599 4:0.4774 5:0.4686 6:3.1798601 7:9.4584198 8:12.0651 9:14.2677 10:-28.1642 11:-19.3262 12:-27.441799 #
2.392899698275539116236707515677e-12 1:0.019708499 2:0.75124902 3:0.68474001 4:0.4761 5:0.3795 6:3.1434801 7:7.8738399 8:10.1168 9:13.099 10:-24.7083 11:-17.0361 12:-25.7988 #
2.392899698275539116236707515677e-12 1:0.060358498 2:0.172152 3:0.16320001 4:0.4727 5:0.4655 6:3.18488 7:9.1752796 8:11.6739 9:13.2344 10:-25.9445 11:-18.0625 12:-25.7684 #
1.4357398189653234293523461620904e-12 1:0.046989601 2:0.31788501 3:0.129776 4:0.4682 5:0.44440001 6:3.18416 7:8.3441801 8:11.3402 9:12.7352 10:-24.875 11:-17.0291 12:-24.9856 #
4.7857993965510784344218067679331e-13 1:0.038715102 2:0.363464 3:0.31999901 4:0.47009999 5:0.45289999 6:3.18349 7:8.6457005 8:11.5401 9:14.3563 10:-27.532801 11:-19.6632 12:-27.3979 #
-4.7857993965510784344218067679331e-13 1:0.0259955 2:0.45379099 3:0.371223 4:0.45469999 5:0.4479 6:3.1921301 7:9.0158701 8:11.5828 9:13.1935 10:-26.2104 11:-17.7115 12:-25.594 #
-1.4357398189653234293523461620904e-12 1:0.020736501 2:0.658943 3:0.43375599 4:0.4774 5:0.4686 6:3.1798601 7:9.4584198 8:12.0651 9:14.2677 10:-28.1642 11:-19.3262 12:-27.441799 #
-2.392899698275539116236707515677e-12 1:0.019708499 2:0.75124902 3:0.68474001 4:0.4761 5:0.3795 6:3.1434801 7:7.8738399 8:10.1168 9:13.099 10:-24.7083 11:-17.0361 12:-25.7988 #
-4.7857993965510784344218067679331e-13 1:0.0453173 2:0.32592899 3:0.133448 4:0.46520001 5:0.42919999 6:3.1754799 7:8.3203602 8:10.9932 9:12.73 10:-24.594999 11:-16.9694 12:-25.498501 #
-4.7857993965510784344218067679331e-13 1:0.038143501 2:0.33056799 3:0.27429399 4:0.48089999 5:0.4289 6:3.18327 7:9.1567001 8:10.9809 9:12.8116 10:-24.7414 11:-17.513399 12:-25.1294 #
-2.392899698275539116236707515677e-12 1:0.0218403 2:0.435361 3:0.33956501 4:0.4774 5:0.45820001 6:3.18525 7:9.8547096 8:11.887 9:14.4361 10:-27.602501 11:-19.464701 12:-28.425301 #
-4.7857993965510784344218067679331e-13 1:0.018476199 2:0.661313 3:0.430713 4:0.48069999 5:0.46630001 6:3.1830399 7:10.2846 8:12.6164 9:13.6006 10:-27.2078 11:-18.751801 12:-26.732201 #
2.392899698275539116236707515677e-12 1:0.019220199 2:0.70259899 3:0.57624602 4:0.42219999 5:0.41479999 6:3.1689701 7:8.1097698 8:10.7625 9:12.5129 10:-24.3417 11:-16.6035 12:-24.2668 #
1.4357398189653234293523461620904e-12 1:0.019220199 2:0.73554999 3:0.68015999 4:0.4743 5:0.38029999 6:3.1459799 7:7.8710999 8:10.1377 9:13.0466 10:-24.8496 11:-17.079599 12:-24.742001 #
2.392899698275539116236707515677e-12 1:0.0453173 2:0.32592899 3:0.133448 4:0.46520001 5:0.42919999 6:3.1754799 7:8.3203602 8:10.9932 9:12.73 10:-24.594999 11:-16.9694 12:-25.498501 #
1.4357398189653234293523461620904e-12 1:0.038143501 2:0.33056799 3:0.27429399 4:0.48089999 5:0.4289 6:3.18327 7:9.1567001 8:10.9809 9:12.8116 10:-24.7414 11:-17.513399 12:-25.1294 #
4.7857993965510784344218067679331e-13 1:0.0218403 2:0.435361 3:0.33956501 4:0.4774 5:0.45820001 6:3.18525 7:9.8547096 8:11.887 9:14.4361 10:-27.602501 11:-19.464701 12:-28.425301 #
-4.7857993965510784344218067679331e-13 1:0.018476199 2:0.661313 3:0.430713 4:0.48069999 5:0.46630001 6:3.1830399 7:10.2846 8:12.6164 9:13.6006 10:-27.2078 11:-18.751801 12:-26.732201 #
-1.4357398189653234293523461620904e-12 1:0.019220199 2:0.70259899 3:0.57624602 4:0.42219999 5:0.41479999 6:3.1689701 7:8.1097698 8:10.7625 9:12.5129 10:-24.3417 11:-16.6035 12:-24.2668 #
-2.392899698275539116236707515677e-12 1:0.019220199 2:0.73554999 3:0.68015999 4:0.4743 5:0.38029999 6:3.1459799 7:7.8710999 8:10.1377 9:13.0466 10:-24.8496 11:-17.079599 12:-24.742001 #
-0 1:0.0292398 2:0.31283101 3:0.204413 4:0.46070001 5:0.4447 6:3.1909399 7:9.4037104 8:11.8669 9:14.1749 10:-27.5812 11:-19.5054 12:-27.2362 #
-9.5715987931021568688436135358662e-13 1:0.0375937 2:0.64505798 3:0.207716 4:0.4745 5:0.4391 6:3.17746 7:8.4046602 8:11.7977 9:12.6962 10:-24.944901 11:-16.9792 12:-25.984301 #
-1.9143197586204313737687227071732e-12 1:0.029130699 2:0.66058201 3:0.44511199 4:0.47510001 5:0.4747 6:3.1821301 7:9.3878298 8:13.2415 9:14.2089 10:-28.510599 11:-19.209101 12:-27.9499 #
1.9143197586204313737687227071732e-12 1:0.0266307 2:0.71306598 3:0.59963399 4:0.40450001 5:0.4039 6:3.15874 7:7.86414 8:10.6096 9:12.2195 10:-24.743401 11:-16.156601 12:-23.6353 #
9.5715987931021568688436135358662e-13 1:0.025699399 2:0.67037398 3:0.66553801 4:0.47690001 5:0.37869999 6:3.1505401 7:8.0638399 8:10.1443 9:12.946 10:-24.658001 11:-16.999399 12:-24.6264 #
1.9143197586204313737687227071732e-12 1:0.0292398 2:0.31283101 3:0.204413 4:0.46070001 5:0.4447 6:3.1909399 7:9.4037104 8:11.8669 9:14.1749 10:-27.5812 11:-19.5054 12:-27.2362 #
9.5715987931021568688436135358662e-13 1:0.0375937 2:0.64505798 3:0.207716 4:0.4745 5:0.4391 6:3.17746 7:8.4046602 8:11.7977 9:12.6962 10:-24.944901 11:-16.9792 12:-25.984301 #
0 1:0.029130699 2:0.66058201 3:0.44511199 4:0.47510001 5:0.4747 6:3.1821301 7:9.3878298 8:13.2415 9:14.2089 10:-28.510599 11:-19.209101 12:-27.9499 #
-9.5715987931021568688436135358662e-13 1:0.0266307 2:0.71306598 3:0.59963399 4:0.40450001 5:0.4039 6:3.15874 7:7.86414 8:10.6096 9:12.2195 10:-24.743401 11:-16.156601 12:-23.6353 #
-1.9143197586204313737687227071732e-12 1:0.025699399 2:0.67037398 3:0.66553801 4:0.47690001 5:0.37869999 6:3.1505401 7:8.0638399 8:10.1443 9:12.946 10:-24.658001 11:-16.999399 12:-24.6264 #
-0 1:0.0313324 2:0.38059399 3:0.238609 4:0.46340001 5:0.4366 6:3.1874399 7:9.4260397 8:11.6257 9:13.6619 10:-27.3591 11:-18.484301 12:-26.3074 #
-9.5715987931021568688436135358662e-13 1:0.025338501 2:0.64681798 3:0.198604 4:0.46689999 5:0.44949999 6:3.1798201 7:8.4866199 8:11.2941 9:13.0155 10:-25.267 11:-18.201599 12:-25.392401 #
-9.5715987931021568688436135358662e-13 1:0.0201337 2:0.640944 3:0.42205501 4:0.47189999 5:0.4707 6:3.18115 7:9.7831097 8:12.4702 9:14.1277 10:-28.5835 11:-19.0816 12:-27.4277 #
9.5715987931021568688436135358662e-13 1:0.0161759 2:0.70256501 3:0.56724298 4:0.43599999 5:0.4172 6:3.1650701 7:8.1500902 8:10.7873 9:12.6167 10:-24.471201 11:-16.780701 12:-24.467199 #
9.5715987931021568688436135358662e-13 1:0.0182685 2:0.69664103 3:0.66527098 4:0.47319999 5:0.37740001 6:3.1486101 7:8.0016499 8:10.1576 9:13.1634 10:-25.187799 11:-17.9708 12:-24.8689 #
1.9143197586204313737687227071732e-12 1:0.0313324 2:0.38059399 3:0.238609 4:0.46340001 5:0.4366 6:3.1874399 7:9.4260397 8:11.6257 9:13.6619 10:-27.3591 11:-18.484301 12:-26.3074 #
9.5715987931021568688436135358662e-13 1:0.025338501 2:0.64681798 3:0.198604 4:0.46689999 5:0.44949999 6:3.1798201 7:8.4866199 8:11.2941 9:13.0155 10:-25.267 11:-18.201599 12:-25.392401 #
0 1:0.0201337 2:0.640944 3:0.42205501 4:0.47189999 5:0.4707 6:3.18115 7:9.7831097 8:12.4702 9:14.1277 10:-28.5835 11:-19.0816 12:-27.4277 #
-9.5715987931021568688436135358662e-13 1:0.0161759 2:0.70256501 3:0.56724298 4:0.43599999 5:0.4172 6:3.1650701 7:8.1500902 8:10.7873 9:12.6167 10:-24.471201 11:-16.780701 12:-24.467199 #
-1.9143197586204313737687227071732e-12 1:0.0182685 2:0.69664103 3:0.66527098 4:0.47319999 5:0.37740001 6:3.1486101 7:8.0016499 8:10.1576 9:13.1634 10:-25.187799 11:-17.9708 12:-24.8689 #
-4.7857993965510784344218067679331e-13 1:0.0504013 2:0.246305 3:0.199349 4:0.42250001 5:0.4023 6:3.18221 7:8.6704102 8:11.1847 9:13.0093 10:-25.212601 11:-17.511801 12:-25.312401 #
4.7857993965510784344218067679331e-13 1:0.027113199 2:0.36834201 3:0.25248399 4:0.4542 5:0.41460001 6:3.1733401 7:8.5430498 8:11.0923 9:12.8809 10:-26.195999 11:-17.153299 12:-24.868 #
-2.392899698275539116236707515677e-12 1:0.02434 2:0.45974201 3:0.335026 4:0.47639999 5:0.4506 6:3.1837201 7:9.1473598 8:11.3803 9:14.3405 10:-27.399599 11:-21.0902 12:-27.312099 #
-1.4357398189653234293523461620904e-12 1:0.021097301 2:0.67324901 3:0.46879601 4:0.48370001 5:0.47530001 6:3.17676 7:8.6523504 8:12.4158 9:14.332 10:-28.0965 11:-18.854799 12:-27.745199 #
2.392899698275539116236707515677e-12 1:0.0210182 2:0.69478202 3:0.59130001 4:0.4368 5:0.42199999 6:3.1596501 7:7.9612298 8:10.7162 9:12.5463 10:-24.466499 11:-16.565901 12:-24.244301 #
1.4357398189653234293523461620904e-12 1:0.0169845 2:0.76289099 3:0.68848097 4:0.4716 5:0.3748 6:3.1446199 7:7.9057698 8:10.1392 9:12.8238 10:-24.3102 11:-16.777 12:-25.1292 #
2.392899698275539116236707515677e-12 1:0.0504013 2:0.246305 3:0.199349 4:0.42250001 5:0.4023 6:3.18221 7:8.6704102 8:11.1847 9:13.0093 10:-25.212601 11:-17.511801 12:-25.312401 #
1.4357398189653234293523461620904e-12 1:0.027113199 2:0.36834201 3:0.25248399 4:0.4542 5:0.41460001 6:3.1733401 7:8.5430498 8:11.0923 9:12.8809 10:-26.195999 11:-17.153299 12:-24.868 #
4.7857993965510784344218067679331e-13 1:0.02434 2:0.45974201 3:0.335026 4:0.47639999 5:0.4506 6:3.1837201 7:9.1473598 8:11.3803 9:14.3405 10:-27.399599 11:-21.0902 12:-27.312099 #
-4.7857993965510784344218067679331e-13 1:0.021097301 2:0.67324901 3:0.46879601 4:0.48370001 5:0.47530001 6:3.17676 7:8.6523504 8:12.4158 9:14.332 10:-28.0965 11:-18.854799 12:-27.745199 #
-1.4357398189653234293523461620904e-12 1:0.0210182 2:0.69478202 3:0.59130001 4:0.4368 5:0.42199999 6:3.1596501 7:7.9612298 8:10.7162 9:12.5463 10:-24.466499 11:-16.565901 12:-24.244301 #
-2.392899698275539116236707515677e-12 1:0.0169845 2:0.76289099 3:0.68848097 4:0.4716 5:0.3748 6:3.1446199 7:7.9057698 8:10.1392 9:12.8238 10:-24.3102 11:-16.777 12:-25.1292 #
4.7857993965510784344218067679331e-13 1:0.061196402 2:0.23819301 3:0.21864501 4:0.377 5:0.3714 6:3.1415801 7:7.65166 8:11.3656 9:11.4958 10:-23.539101 11:-15.7095 12:-22.9398 #
-2.392899698275539116236707515677e-12 1:0.031089099 2:0.33053699 3:0.208001 4:0.45950001 5:0.4427 6:3.19045 7:8.9536695 8:11.488 9:13.9112 10:-26.7425 11:-18.635201 12:-26.782 #
-4.7857993965510784344218067679331e-13 1:0.0250897 2:0.44382399 3:0.36068901 4:0.47220001 5:0.45660001 6:3.18467 7:9.80408 8:11.9505 9:13.9006 10:-27.8438 11:-18.805599 12:-26.8281 #
-1.4357398189653234293523461620904e-12 1:0.0303845 2:0.684506 3:0.470716 4:0.48199999 5:0.4682 6:3.1788199 7:8.6356697 8:12.2403 9:14.6017 10:-28.276899 11:-18.9839 12:-28.103399 #
2.392899698275539116236707515677e-12 1:0.0262616 2:0.76339799 3:0.64242798 4:0.40790001 5:0.39289999 6:3.15627 7:7.7997398 8:10.7499 9:12.235 10:-24.688101 11:-16.1374 12:-23.730101 #
1.4357398189653234293523461620904e-12 1:0.021263501 2:0.79717797 3:0.73971099 4:0.47260001 5:0.3784 6:3.14657 7:7.9779 8:10.1607 9:13.1192 10:-24.790001 11:-17.1115 12:-25.198 #
2.392899698275539116236707515677e-12 1:0.061196402 2:0.23819301 3:0.21864501 4:0.377 5:0.3714 6:3.1415801 7:7.65166 8:11.3656 9:11.4958 10:-23.539101 11:-15.7095 12:-22.9398 #
1.4357398189653234293523461620904e-12 1:0.031089099 2:0.33053699 3:0.208001 4:0.45950001 5:0.4427 6:3.19045 7:8.9536695 8:11.488 9:13.9112 10:-26.7425 11:-18.635201 12:-26.782 #
4.7857993965510784344218067679331e-13 1:0.0250897 2:0.44382399 3:0.36068901 4:0.47220001 5:0.45660001 6:3.18467 7:9.80408 8:11.9505 9:13.9006 10:-27.8438 11:-18.805599 12:-26.8281 #
-4.7857993965510784344218067679331e-13 1:0.0303845 2:0.684506 3:0.470716 4:0.48199999 5:0.4682 6:3.1788199 7:8.6356697 8:12.2403 9:14.6017 10:-28.276899 11:-18.9839 12:-28.103399 #
-1.4357398189653234293523461620904e-12 1:0.0262616 2:0.76339799 3:0.64242798 4:0.40790001 5:0.39289999 6:3.15627 7:7.7997398 8:10.7499 9:12.235 10:-24.688101 11:-16.1374 12:-23.730101 #
-2.392899698275539116236707515677e-12 1:0.021263501 2:0.79717797 3:0.73971099 4:0.47260001 5:0.3784 6:3.14657 7:7.9779 8:10.1607 9:13.1192 10:-24.790001 11:-17.1115 12:-25.198 #
-1.4357398189653234293523461620904e-12 1:0.064059697 2:0.220349 3:0.22587 4:0.4391 5:0.4341 6:3.17188 7:8.1187696 8:12.2811 9:13.0635 10:-25.9974 11:-17.1432 12:-25.8132 #
-1.4357398189653234293523461620904e-12 1:0.033984698 2:0.32521299 3:0.26847899 4:0.47679999 5:0.47240001 6:3.1871901 7:8.9252005 8:11.9587 9:13.9288 10:-26.9631 11:-18.410299 12:-27.106199 #
-1.4357398189653234293523461620904e-12 1:0.022193801 2:0.43593499 3:0.32876 4:0.47920001 5:0.46039999 6:3.1819401 7:9.9871101 8:11.8316 9:14.0938 10:-27.2764 11:-19.1126 12:-27.1546 #
2.392899698275539116236707515677e-12 1:0.0225804 2:0.687895 3:0.46621999 4:0.48120001 5:0.46160001 6:3.17818 7:8.6906204 8:11.7849 9:13.759 10:-27.826799 11:-18.175699 12:-26.5315 #
1.4357398189653234293523461620904e-12 1:0.0213608 2:0.75859898 3:0.662117 4:0.4005 5:0.40009999 6:3.15662 7:7.8260198 8:10.6807 9:12.2656 10:-24.489799 11:-16.1828 12:-23.745701 #
4.7857993965510784344218067679331e-13 1:0.0191509 2:0.75079203 3:0.68350399 4:0.47029999 5:0.37650001 6:3.1467099 7:7.9544001 8:10.1412 9:12.9532 10:-24.6572 11:-16.991501 12:-24.644699 #
2.392899698275539116236707515677e-12 1:0.064059697 2:0.220349 3:0.22587 4:0.4391 5:0.4341 6:3.17188 7:8.1187696 8:12.2811 9:13.0635 10:-25.9974 11:-17.1432 12:-25.8132 #
1.4357398189653234293523461620904e-12 1:0.033984698 2:0.32521299 3:0.26847899 4:0.47679999 5:0.47240001 6:3.1871901 7:8.9252005 8:11.9587 9:13.9288 10:-26.9631 11:-18.410299 12:-27.106199 #
4.7857993965510784344218067679331e-13 1:0.022193801 2:0.43593499 3:0.32876 4:0.47920001 5:0.46039999 6:3.1819401 7:9.9871101 8:11.8316 9:14.0938 10:-27.2764 11:-19.1126 12:-27.1546 #
-4.7857993965510784344218067679331e-13 1:0.0225804 2:0.687895 3:0.46621999 4:0.48120001 5:0.46160001 6:3.17818 7:8.6906204 8:11.7849 9:13.759 10:-27.826799 11:-18.175699 12:-26.5315 #
-1.4357398189653234293523461620904e-12 1:0.0213608 2:0.75859898 3:0.662117 4:0.4005 5:0.40009999 6:3.15662 7:7.8260198 8:10.6807 9:12.2656 10:-24.489799 11:-16.1828 12:-23.745701 #
-2.392899698275539116236707515677e-12 1:0.0191509 2:0.75079203 3:0.68350399 4:0.47029999 5:0.37650001 6:3.1467099 7:7.9544001 8:10.1412 9:12.9532 10:-24.6572 11:-16.991501 12:-24.644699 #
4.7857993965510784344218067679331e-13 1:0.060696501 2:0.23733699 3:0.21063399 4:0.4436 5:0.43399999 6:3.1916499 7:8.7008305 8:11.3724 9:13.4897 10:-26.748899 11:-17.8403 12:-25.9256 #
-4.7857993965510784344218067679331e-13 1:0.029510301 2:0.43004 3:0.21494401 4:0.4637 5:0.46329999 6:3.1902599 7:9.5348196 8:12.0196 9:13.1847 10:-25.9632 11:-18.8305 12:-25.9144 #
-1.4357398189653234293523461620904e-12 1:0.030223601 2:0.64024103 3:0.197998 4:0.46759999 5:0.4228 6:3.1792901 7:8.4372101 8:11.2549 9:12.4028 10:-24.2453 11:-16.7852 12:-24.8374 #
-2.392899698275539116236707515677e-12 1:0.021531699 2:0.681297 3:0.46094501 4:0.4788 5:0.4702 6:3.17752 7:8.9653196 8:13.9338 9:15.1707 10:-29.8519 11:-19.736799 12:-29.897301 #
2.392899698275539116236707515677e-12 1:0.018201901 2:0.74699199 3:0.60403299 4:0.4102 5:0.39579999 6:3.1612899 7:8.0304403 8:10.537 9:12.5304 10:-24.2108 11:-16.6339 12:-24.218399 #
1.4357398189653234293523461620904e-12 1:0.018303899 2:0.75614899 3:0.68526602 4:0.4756 5:0.373 6:3.1438999 7:7.8893299 8:10.0985 9:12.8741 10:-24.378 11:-16.828501 12:-24.915501 #
2.392899698275539116236707515677e-12 1:0.060696501 2:0.23733699 3:0.21063399 4:0.4436 5:0.43399999 6:3.1916499 7:8.7008305 8:11.3724 9:13.4897 10:-26.748899 11:-17.8403 12:-25.9256 #
1.4357398189653234293523461620904e-12 1:0.029510301 2:0.43004 3:0.21494401 4:0.4637 5:0.46329999 6:3.1902599 7:9.5348196 8:12.0196 9:13.1847 10:-25.9632 11:-18.8305 12:-25.9144 #
4.7857993965510784344218067679331e-13 1:0.030223601 2:0.64024103 3:0.197998 4:0.46759999 5:0.4228 6:3.1792901 7:8.4372101 8:11.2549 9:12.4028 10:-24.2453 11:-16.7852 12:-24.8374 #
-4.7857993965510784344218067679331e-13 1:0.021531699 2:0.681297 3:0.46094501 4:0.4788 5:0.4702 6:3.17752 7:8.9653196 8:13.9338 9:15.1707 10:-29.8519 11:-19.736799 12:-29.897301 #
-1.4357398189653234293523461620904e-12 1:0.018201901 2:0.74699199 3:0.60403299 4:0.4102 5:0.39579999 6:3.1612899 7:8.0304403 8:10.537 9:12.5304 10:-24.2108 11:-16.6339 12:-24.218399 #
-2.392899698275539116236707515677e-12 1:0.018303899 2:0.75614899 3:0.68526602 4:0.4756 5:0.373 6:3.1438999 7:7.8893299 8:10.0985 9:12.8741 10:-24.378 11:-16.828501 12:-24.915501 #
-1.4357398189653234293523461620904e-12 1:0.032359801 2:0.26468399 3:0.24982201 4:0.45210001 5:0.43130001 6:3.1839001 7:8.1909399 8:11.2841 9:16.4296 10:-30.329399 11:-20.928301 12:-30.659401 #
-2.392899698275539116236707515677e-12 1:0.022689501 2:0.42839399 3:0.24676301 4:0.46489999 5:0.4637 6:3.1877201 7:8.9630203 8:11.8607 9:13.7532 10:-26.560699 11:-18.279499 12:-27.8295 #
-4.7857993965510784344218067679331e-13 1:0.020496599 2:0.66839802 3:0.21857201 4:0.4497 5:0.43869999 6:3.1837101 7:8.5783901 8:11.3063 9:13.0673 10:-25.255699 11:-17.3566 12:-26.3325 #
1.4357398189653234293523461620904e-12 1:0.023891401 2:0.67887998 3:0.47402701 4:0.4716 5:0.47040001 6:3.1765001 7:8.6142702 8:12.1879 9:13.4719 10:-27.8755 11:-17.916599 12:-26.301901 #
1.4357398189653234293523461620904e-12 1:0.019849701 2:0.70895302 3:0.60560399 4:0.4364 5:0.42039999 6:3.1596301 7:7.8829002 8:10.7924 9:12.6551 10:-24.776899 11:-16.6201 12:-24.4168 #
1.4357398189653234293523461620904e-12 1:0.019849701 2:0.74891597 3:0.69090903 4:0.47549999 5:0.3761 6:3.1448801 7:7.8980999 8:10.1422 9:12.9654 10:-24.633301 11:-16.9606 12:-24.7136 #
2.392899698275539116236707515677e-12 1:0.032359801 2:0.26468399 3:0.24982201 4:0.45210001 5:0.43130001 6:3.1839001 7:8.1909399 8:11.2841 9:16.4296 10:-30.329399 11:-20.928301 12:-30.659401 #
1.4357398189653234293523461620904e-12 1:0.022689501 2:0.42839399 3:0.24676301 4:0.46489999 5:0.4637 6:3.1877201 7:8.9630203 8:11.8607 9:13.7532 10:-26.560699 11:-18.279499 12:-27.8295 #
4.7857993965510784344218067679331e-13 1:0.020496599 2:0.66839802 3:0.21857201 4:0.4497 5:0.43869999 6:3.1837101 7:8.5783901 8:11.3063 9:13.0673 10:-25.255699 11:-17.3566 12:-26.3325 #
-4.7857993965510784344218067679331e-13 1:0.023891401 2:0.67887998 3:0.47402701 4:0.4716 5:0.47040001 6:3.1765001 7:8.6142702 8:12.1879 9:13.4719 10:-27.8755 11:-17.916599 12:-26.301901 #
-1.4357398189653234293523461620904e-12 1:0.019849701 2:0.70895302 3:0.60560399 4:0.4364 5:0.42039999 6:3.1596301 7:7.8829002 8:10.7924 9:12.6551 10:-24.776899 11:-16.6201 12:-24.4168 #
-2.392899698275539116236707515677e-12 1:0.019849701 2:0.74891597 3:0.69090903 4:0.47549999 5:0.3761 6:3.1448801 7:7.8980999 8:10.1422 9:12.9654 10:-24.633301 11:-16.9606 12:-24.7136 #
-4.7857993965510784344218067679331e-13 1:0.0384642 2:0.215189 3:0.21676201 4:0.45680001 5:0.44159999 6:3.18308 7:8.5162096 8:11.8054 9:12.9188 10:-25.3314 11:-18.1359 12:-25.621799 #
-1.4357398189653234293523461620904e-12 1:0.0268114 2:0.46722001 3:0.232401 4:0.46610001 5:0.46349999 6:3.1863401 7:9.8326302 8:12.8178 9:13.4492 10:-27.4217 11:-19.876301 12:-26.5874 #
4.7857993965510784344218067679331e-13 1:0.0329316 2:0.67959797 3:0.227264 4:0.44069999 5:0.42250001 6:3.1748099 7:8.5063601 8:11.1937 9:12.364 10:-24.175301 11:-16.886299 12:-24.5714 #
-2.392899698275539116236707515677e-12 1:0.0173003 2:0.67840803 3:0.47546899 4:0.47749999 5:0.4747 6:3.17854 7:8.5448399 8:13.5684 9:14.1291 10:-28.1579 11:-18.6113 12:-28.1024 #
2.392899698275539116236707515677e-12 1:0.0161289 2:0.76822501 3:0.64524603 4:0.39669999 5:0.39629999 6:3.1566899 7:7.8534598 8:10.5605 9:12.2997 10:-24.3615 11:-16.255501 12:-23.741899 #
1.4357398189653234293523461620904e-12 1:0.0151435 2:0.749493 3:0.68471998 4:0.46740001 5:0.3752 6:3.1444099 7:7.8673701 8:10.1159 9:12.9337 10:-24.6108 11:-16.9345 12:-24.6071 #
2.392899698275539116236707515677e-12 1:0.0384642 2:0.215189 3:0.21676201 4:0.45680001 5:0.44159999 6:3.18308 7:8.5162096 8:11.8054 9:12.9188 10:-25.3314 11:-18.1359 12:-25.621799 #
1.4357398189653234293523461620904e-12 1:0.0268114 2:0.46722001 3:0.232401 4:0.46610001 5:0.46349999 6:3.1863401 7:9.8326302 8:12.8178 9:13.4492 10:-27.4217 11:-19.876301 12:-26.5874 #
4.7857993965510784344218067679331e-13 1:0.0329316 2:0.67959797 3:0.227264 4:0.44069999 5:0.42250001 6:3.1748099 7:8.5063601 8:11.1937 9:12.364 10:-24.175301 11:-16.886299 12:-24.5714 #
-4.7857993965510784344218067679331e-13 1:0.0173003 2:0.67840803 3:0.47546899 4:0.47749999 5:0.4747 6:3.17854 7:8.5448399 8:13.5684 9:14.1291 10:-28.1579 11:-18.6113 12:-28.1024 #
-1.4357398189653234293523461620904e-12 1:0.0161289 2:0.76822501 3:0.64524603 4:0.39669999 5:0.39629999 6:3.1566899 7:7.8534598 8:10.5605 9:12.2997 10:-24.3615 11:-16.255501 12:-23.741899 #
-2.392899698275539116236707515677e-12 1:0.0151435 2:0.749493 3:0.68471998 4:0.46740001 5:0.3752 6:3.1444099 7:7.8673701 8:10.1159 9:12.9337 10:-24.6108 11:-16.9345 12:-24.6071 #
-9.7338587686174360087748202308364e-12 1:0.053944401 2:0.21277501 3:0.124362 4:0.4183 5:0.4075 6:3.1700799 7:9.20965 8:11.6565 9:12.6565 10:-24.9608 11:-17.4685 12:-24.966299 #
-4.8669293843087180043874101154182e-12 1:0.039269999 2:0.39989901 3:0.130794 4:0.44319999 5:0.44299999 6:3.18209 7:8.4729099 8:11.4839 9:13.0927 10:-25.455099 11:-17.357401 12:-25.6504 #
-4.8669293843087180043874101154182e-12 1:0.037537601 2:0.67477101 3:0.120988 4:0.4632 5:0.4488 6:3.1828101 7:8.6810598 8:12.2865 9:13.1907 10:-25.974199 11:-17.7656 12:-26.2938 #
-9.7338587686174360087748202308364e-12 1:0.0287519 2:0.64277899 3:0.26264799 4:0.47400001 5:0.4686 6:3.1847301 7:8.9837103 8:12.68 9:14.379 10:-28.4708 11:-19.273399 12:-27.9254 #
4.8669293843087180043874101154182e-12 1:0.017823899 2:0.664783 3:0.44897899 4:0.47979999 5:0.463 6:3.17853 7:9.1509104 8:12.1559 9:14.6132 10:-28.0774 11:-19.731701 12:-28.2542 #
1.4600788152926152397575096453622e-11 1:0.018034199 2:0.73889399 3:0.606341 4:0.4025 5:0.40189999 6:3.16394 7:8.0693903 8:10.6027 9:12.4731 10:-24.1457 11:-16.5968 12:-24.178499 #
9.7338587686174360087748202308364e-12 1:0.0177489 2:0.67880797 3:0.64064699 4:0.4869 5:0.3721 6:3.1477201 7:7.82129 8:10.1158 9:13.5141 10:-27.1157 11:-17.7279 12:-25.329 #
1.4600788152926152397575096453622e-11 1:0.053944401 2:0.21277501 3:0.124362 4:0.4183 5:0.4075 6:3.1700799 7:9.20965 8:11.6565 9:12.6565 10:-24.9608 11:-17.4685 12:-24.966299 #
9.7338587686174360087748202308364e-12 1:0.039269999 2:0.39989901 3:0.130794 4:0.44319999 5:0.44299999 6:3.18209 7:8.4729099 8:11.4839 9:13.0927 10:-25.455099 11:-17.357401 12:-25.6504 #
4.8669293843087180043874101154182e-12 1:0.037537601 2:0.67477101 3:0.120988 4:0.4632 5:0.4488 6:3.1828101 7:8.6810598 8:12.2865 9:13.1907 10:-25.974199 11:-17.7656 12:-26.2938 #
0 1:0.0287519 2:0.64277899 3:0.26264799 4:0.47400001 5:0.4686 6:3.1847301 7:8.9837103 8:12.68 9:14.379 10:-28.4708 11:-19.273399 12:-27.9254 #
-4.8669293843087180043874101154182e-12 1:0.017823899 2:0.664783 3:0.44897899 4:0.47979999 5:0.463 6:3.17853 7:9.1509104 8:12.1559 9:14.6132 10:-28.0774 11:-19.731701 12:-28.2542 #
-9.7338587686174360087748202308364e-12 1:0.018034199 2:0.73889399 3:0.606341 4:0.4025 5:0.40189999 6:3.16394 7:8.0693903 8:10.6027 9:12.4731 10:-24.1457 11:-16.5968 12:-24.178499 #
-1.4600788152926152397575096453622e-11 1:0.0177489 2:0.67880797 3:0.64064699 4:0.4869 5:0.3721 6:3.1477201 7:7.82129 8:10.1158 9:13.5141 10:-27.1157 11:-17.7279 12:-25.329 #
-1.4600788152926152397575096453622e-11 1:0.062651798 2:0.195392 3:0.134307 4:0.46200001 5:0.36680001 6:3.1879499 7:8.7458601 8:11.6789 9:13.2832 10:-25.959999 11:-17.6707 12:-25.8773 #
-4.8669293843087180043874101154182e-12 1:0.034203101 2:0.49172899 3:0.15575799 4:0.44459999 5:0.43399999 6:3.1826501 7:8.4365301 8:11.5517 9:14.183 10:-27.050501 11:-18.423599 12:-28.5623 #
-4.8669293843087180043874101154182e-12 1:0.038259599 2:0.67477399 3:0.14748 4:0.43610001 5:0.4355 6:3.16998 7:7.9873099 8:11.3278 9:12.596 10:-24.8869 11:-16.816601 12:-24.6119 #
-4.8669293843087180043874101154182e-12 1:0.027355401 2:0.64210898 3:0.26188299 4:0.45109999 5:0.43889999 6:3.1872301 7:8.9459696 8:11.9342 9:13.0706 10:-25.5849 11:-17.574499 12:-26.2078 #
9.7338587686174360087748202308364e-12 1:0.017204599 2:0.64348602 3:0.42925999 4:0.486 5:0.46259999 6:3.1812201 7:9.5397501 8:12.0418 9:14.3968 10:-27.6518 11:-19.2318 12:-28.025801 #
9.7338587686174360087748202308364e-12 1:0.018322101 2:0.69689399 3:0.58794999 4:0.42340001 5:0.4156 6:3.1633501 7:7.9699402 8:10.7861 9:12.3873 10:-24.5965 11:-16.3738 12:-23.9867 #
9.7338587686174360087748202308364e-12 1:0.0147465 2:0.70622802 3:0.63631302 4:0.48190001 5:0.3707 6:3.14433 7:7.7816401 8:10.0855 9:12.8597 10:-24.3946 11:-16.7812 12:-24.6341 #
1.4600788152926152397575096453622e-11 1:0.062651798 2:0.195392 3:0.134307 4:0.46200001 5:0.36680001 6:3.1879499 7:8.7458601 8:11.6789 9:13.2832 10:-25.959999 11:-17.6707 12:-25.8773 #
9.7338587686174360087748202308364e-12 1:0.034203101 2:0.49172899 3:0.15575799 4:0.44459999 5:0.43399999 6:3.1826501 7:8.4365301 8:11.5517 9:14.183 10:-27.050501 11:-18.423599 12:-28.5623 #
4.8669293843087180043874101154182e-12 1:0.038259599 2:0.67477399 3:0.14748 4:0.43610001 5:0.4355 6:3.16998 7:7.9873099 8:11.3278 9:12.596 10:-24.8869 11:-16.816601 12:-24.6119 #
0 1:0.027355401 2:0.64210898 3:0.26188299 4:0.45109999 5:0.43889999 6:3.1872301 7:8.9459696 8:11.9342 9:13.0706 10:-25.5849 11:-17.574499 12:-26.2078 #
-4.8669293843087180043874101154182e-12 1:0.017204599 2:0.64348602 3:0.42925999 4:0.486 5:0.46259999 6:3.1812201 7:9.5397501 8:12.0418 9:14.3968 10:-27.6518 11:-19.2318 12:-28.025801 #
-9.7338587686174360087748202308364e-12 1:0.018322101 2:0.69689399 3:0.58794999 4:0.42340001 5:0.4156 6:3.1633501 7:7.9699402 8:10.7861 9:12.3873 10:-24.5965 11:-16.3738 12:-23.9867 #
-1.4600788152926152397575096453622e-11 1:0.0147465 2:0.70622802 3:0.63631302 4:0.48190001 5:0.3707 6:3.14433 7:7.7816401 8:10.0855 9:12.8597 10:-24.3946 11:-16.7812 12:-24.6341 #
-7.3003940764630761987875482268112e-12 1:0.0603237 2:0.14560901 3:0.14518601 4:0.45879999 5:0.44240001 6:3.1313901 7:9.1846199 8:11.9781 9:12.2647 10:-24.396601 11:-17.171499 12:-25.0499 #
-1.2167323460771794203174958342229e-11 1:0.0540471 2:0.33084899 3:0.14338399 4:0.4657 5:0.45289999 6:3.1856899 7:9.4240303 8:12.5098 9:13.8572 10:-27.657101 11:-18.858601 12:-27.0539 #
-2.4334646921543590021937050577091e-12 1:0.035359401 2:0.442379 3:0.33222899 4:0.458 5:0.45100001 6:3.18927 7:9.0926399 8:11.273 9:13.4224 10:-25.7876 11:-17.988199 12:-26.325899 #
2.4334646921543590021937050577091e-12 1:0.026026201 2:0.69989598 3:0.47556499 4:0.46340001 5:0.45899999 6:3.1788299 7:8.9221601 8:12.0997 9:14.4192 10:-27.8006 11:-18.9289 12:-27.8622 #
7.3003940764630761987875482268112e-12 1:0.0284387 2:0.76458597 3:0.60720599 4:0.40169999 5:0.3953 6:3.1615 7:8.0266304 8:10.6513 9:12.6666 10:-24.546 11:-16.7304 12:-24.423201 #
1.2167323460771794203174958342229e-11 1:0.028643699 2:0.75094801 3:0.71522897 4:0.48010001 5:0.38229999 6:3.1477599 7:7.9918299 8:10.143 9:13.9821 10:-26.705601 11:-18.4149 12:-26.055201 #
1.2167323460771794203174958342229e-11 1:0.0603237 2:0.14560901 3:0.14518601 4:0.45879999 5:0.44240001 6:3.1313901 7:9.1846199 8:11.9781 9:12.2647 10:-24.396601 11:-17.171499 12:-25.0499 #
7.3003940764630761987875482268112e-12 1:0.0540471 2:0.33084899 3:0.14338399 4:0.4657 5:0.45289999 6:3.1856899 7:9.4240303 8:12.5098 9:13.8572 10:-27.657101 11:-18.858601 12:-27.0539 #
2.4334646921543590021937050577091e-12 1:0.035359401 2:0.442379 3:0.33222899 4:0.458 5:0.45100001 6:3.18927 7:9.0926399 8:11.273 9:13.4224 10:-25.7876 11:-17.988199 12:-26.325899 #
-2.4334646921543590021937050577091e-12 1:0.026026201 2:0.69989598 3:0.47556499 4:0.46340001 5:0.45899999 6:3.1788299 7:8.9221601 8:12.0997 9:14.4192 10:-27.8006 11:-18.9289 12:-27.8622 #
-7.3003940764630761987875482268112e-12 1:0.0284387 2:0.76458597 3:0.60720599 4:0.40169999 5:0.3953 6:3.1615 7:8.0266304 8:10.6513 9:12.6666 10:-24.546 11:-16.7304 12:-24.423201 #
-1.2167323460771794203174958342229e-11 1:0.028643699 2:0.75094801 3:0.71522897 4:0.48010001 5:0.38229999 6:3.1477599 7:7.9918299 8:10.143 9:13.9821 10:-26.705601 11:-18.4149 12:-26.055201 #
-7.3003940764630761987875482268112e-12 1:0.060358498 2:0.172152 3:0.16320001 4:0.4727 5:0.4655 6:3.18488 7:9.1752796 8:11.6739 9:13.2344 10:-25.9445 11:-18.0625 12:-25.7684 #
-7.3003940764630761987875482268112e-12 1:0.046989601 2:0.31788501 3:0.129776 4:0.4682 5:0.44440001 6:3.18416 7:8.3441801 8:11.3402 9:12.7352 10:-24.875 11:-17.0291 12:-24.9856 #
-7.3003940764630761987875482268112e-12 1:0.038715102 2:0.363464 3:0.31999901 4:0.47009999 5:0.45289999 6:3.18349 7:8.6457005 8:11.5401 9:14.3563 10:-27.532801 11:-19.6632 12:-27.3979 #
2.4334646921543590021937050577091e-12 1:0.0259955 2:0.45379099 3:0.371223 4:0.45469999 5:0.4479 6:3.1921301 7:9.0158701 8:11.5828 9:13.1935 10:-26.2104 11:-17.7115 12:-25.594 #
7.3003940764630761987875482268112e-12 1:0.020736501 2:0.658943 3:0.43375599 4:0.4774 5:0.4686 6:3.1798601 7:9.4584198 8:12.0651 9:14.2677 10:-28.1642 11:-19.3262 12:-27.441799 #
1.2167323460771794203174958342229e-11 1:0.019708499 2:0.75124902 3:0.68474001 4:0.4761 5:0.3795 6:3.1434801 7:7.8738399 8:10.1168 9:13.099 10:-24.7083 11:-17.0361 12:-25.7988 #
1.2167323460771794203174958342229e-11 1:0.060358498 2:0.172152 3:0.16320001 4:0.4727 5:0.4655 6:3.18488 7:9.1752796 8:11.6739 9:13.2344 10:-25.9445 11:-18.0625 12:-25.7684 #
7.3003940764630761987875482268112e-12 1:0.046989601 2:0.31788501 3:0.129776 4:0.4682 5:0.44440001 6:3.18416 7:8.3441801 8:11.3402 9:12.7352 10:-24.875 11:-17.0291 12:-24.9856 #
2.4334646921543590021937050577091e-12 1:0.038715102 2:0.363464 3:0.31999901 4:0.47009999 5:0.45289999 6:3.18349 7:8.6457005 8:11.5401 9:14.3563 10:-27.532801 11:-19.6632 12:-27.3979 #
-2.4334646921543590021937050577091e-12 1:0.0259955 2:0.45379099 3:0.371223 4:0.45469999 5:0.4479 6:3.1921301 7:9.0158701 8:11.5828 9:13.1935 10:-26.2104 11:-17.7115 12:-25.594 #
-7.3003940764630761987875482268112e-12 1:0.020736501 2:0.658943 3:0.43375599 4:0.4774 5:0.4686 6:3.1798601 7:9.4584198 8:12.0651 9:14.2677 10:-28.1642 11:-19.3262 12:-27.441799 #
-1.2167323460771794203174958342229e-11 1:0.019708499 2:0.75124902 3:0.68474001 4:0.4761 5:0.3795 6:3.1434801 7:7.8738399 8:10.1168 9:13.099 10:-24.7083 11:-17.0361 12:-25.7988 #
-7.3003940764630761987875482268112e-12 1:0.0453173 2:0.32592899 3:0.133448 4:0.46520001 5:0.42919999 6:3.1754799 7:8.3203602 8:10.9932 9:12.73 10:-24.594999 11:-16.9694 12:-25.498501 #
-7.3003940764630761987875482268112e-12 1:0.038143501 2:0.33056799 3:0.27429399 4:0.48089999 5:0.4289 6:3.18327 7:9.1567001 8:10.9809 9:12.8116 10:-24.7414 11:-17.513399 12:-25.1294 #
-7.3003940764630761987875482268112e-12 1:0.0218403 2:0.435361 3:0.33956501 4:0.4774 5:0.45820001 6:3.18525 7:9.8547096 8:11.887 9:14.4361 10:-27.602501 11:-19.464701 12:-28.425301 #
7.3003940764630761987875482268112e-12 1:0.018476199 2:0.661313 3:0.430713 4:0.48069999 5:0.46630001 6:3.1830399 7:10.2846 8:12.6164 9:13.6006 10:-27.2078 11:-18.751801 12:-26.732201 #
7.3003940764630761987875482268112e-12 1:0.019220199 2:0.70259899 3:0.57624602 4:0.42219999 5:0.41479999 6:3.1689701 7:8.1097698 8:10.7625 9:12.5129 10:-24.3417 11:-16.6035 12:-24.2668 #
7.3003940764630761987875482268112e-12 1:0.019220199 2:0.73554999 3:0.68015999 4:0.4743 5:0.38029999 6:3.1459799 7:7.8710999 8:10.1377 9:13.0466 10:-24.8496 11:-17.079599 12:-24.742001 #
1.2167323460771794203174958342229e-11 1:0.0453173 2:0.32592899 3:0.133448 4:0.46520001 5:0.42919999 6:3.1754799 7:8.3203602 8:10.9932 9:12.73 10:-24.594999 11:-16.9694 12:-25.498501 #
7.3003940764630761987875482268112e-12 1:0.038143501 2:0.33056799 3:0.27429399 4:0.48089999 5:0.4289 6:3.18327 7:9.1567001 8:10.9809 9:12.8116 10:-24.7414 11:-17.513399 12:-25.1294 #
2.4334646921543590021937050577091e-12 1:0.0218403 2:0.435361 3:0.33956501 4:0.4774 5:0.45820001 6:3.18525 7:9.8547096 8:11.887 9:14.4361 10:-27.602501 11:-19.464701 12:-28.425301 #
-2.4334646921543590021937050577091e-12 1:0.018476199 2:0.661313 3:0.430713 4:0.48069999 5:0.46630001 6:3.1830399 7:10.2846 8:12.6164 9:13.6006 10:-27.2078 11:-18.751801 12:-26.732201 #
-7.3003940764630761987875482268112e-12 1:0.019220199 2:0.70259899 3:0.57624602 4:0.42219999 5:0.41479999 6:3.1689701 7:8.1097698 8:10.7625 9:12.5129 10:-24.3417 11:-16.6035 12:-24.2668 #
-1.2167323460771794203174958342229e-11 1:0.019220199 2:0.73554999 3:0.68015999 4:0.4743 5:0.38029999 6:3.1459799 7:7.8710999 8:10.1377 9:13.0466 10:-24.8496 11:-17.079599 12:-24.742001 #
-9.7338587686174360087748202308364e-12 1:0.0292398 2:0.31283101 3:0.204413 4:0.46070001 5:0.4447 6:3.1909399 7:9.4037104 8:11.8669 9:14.1749 10:-27.5812 11:-19.5054 12:-27.2362 #
-0 1:0.0375937 2:0.64505798 3:0.207716 4:0.4745 5:0.4391 6:3.17746 7:8.4046602 8:11.7977 9:12.6962 10:-24.944901 11:-16.9792 12:-25.984301 #
-4.8669293843087180043874101154182e-12 1:0.029130699 2:0.66058201 3:0.44511199 4:0.47510001 5:0.4747 6:3.1821301 7:9.3878298 8:13.2415 9:14.2089 10:-28.510599 11:-19.209101 12:-27.9499 #
9.7338587686174360087748202308364e-12 1:0.0266307 2:0.71306598 3:0.59963399 4:0.40450001 5:0.4039 6:3.15874 7:7.86414 8:10.6096 9:12.2195 10:-24.743401 11:-16.156601 12:-23.6353 #
4.8669293843087180043874101154182e-12 1:0.025699399 2:0.67037398 3:0.66553801 4:0.47690001 5:0.37869999 6:3.1505401 7:8.0638399 8:10.1443 9:12.946 10:-24.658001 11:-16.999399 12:-24.6264 #
9.7338587686174360087748202308364e-12 1:0.0292398 2:0.31283101 3:0.204413 4:0.46070001 5:0.4447 6:3.1909399 7:9.4037104 8:11.8669 9:14.1749 10:-27.5812 11:-19.5054 12:-27.2362 #
4.8669293843087180043874101154182e-12 1:0.0375937 2:0.64505798 3:0.207716 4:0.4745 5:0.4391 6:3.17746 7:8.4046602 8:11.7977 9:12.6962 10:-24.944901 11:-16.9792 12:-25.984301 #
0 1:0.029130699 2:0.66058201 3:0.44511199 4:0.47510001 5:0.4747 6:3.1821301 7:9.3878298 8:13.2415 9:14.2089 10:-28.510599 11:-19.209101 12:-27.9499 #
-4.8669293843087180043874101154182e-12 1:0.0266307 2:0.71306598 3:0.59963399 4:0.40450001 5:0.4039 6:3.15874 7:7.86414 8:10.6096 9:12.2195 10:-24.743401 11:-16.156601 12:-23.6353 #
-9.7338587686174360087748202308364e-12 1:0.025699399 2:0.67037398 3:0.66553801 4:0.47690001 5:0.37869999 6:3.1505401 7:8.0638399 8:10.1443 9:12.946 10:-24.658001 11:-16.999399 12:-24.6264 #
-4.8669293843087180043874101154182e-12 1:0.0313324 2:0.38059399 3:0.238609 4:0.46340001 5:0.4366 6:3.1874399 7:9.4260397 8:11.6257 9:13.6619 10:-27.3591 11:-18.484301 12:-26.3074 #
-9.7338587686174360087748202308364e-12 1:0.025338501 2:0.64681798 3:0.198604 4:0.46689999 5:0.44949999 6:3.1798201 7:8.4866199 8:11.2941 9:13.0155 10:-25.267 11:-18.201599 12:-25.392401 #
-0 1:0.0201337 2:0.640944 3:0.42205501 4:0.47189999 5:0.4707 6:3.18115 7:9.7831097 8:12.4702 9:14.1277 10:-28.5835 11:-19.0816 12:-27.4277 #
9.7338587686174360087748202308364e-12 1:0.0161759 2:0.70256501 3:0.56724298 4:0.43599999 5:0.4172 6:3.1650701 7:8.1500902 8:10.7873 9:12.6167 10:-24.471201 11:-16.780701 12:-24.467199 #
4.8669293843087180043874101154182e-12 1:0.0182685 2:0.69664103 3:0.66527098 4:0.47319999 5:0.37740001 6:3.1486101 7:8.0016499 8:10.1576 9:13.1634 10:-25.187799 11:-17.9708 12:-24.8689 #
9.7338587686174360087748202308364e-12 1:0.0313324 2:0.38059399 3:0.238609 4:0.46340001 5:0.4366 6:3.1874399 7:9.4260397 8:11.6257 9:13.6619 10:-27.3591 11:-18.484301 12:-26.3074 #
4.8669293843087180043874101154182e-12 1:0.025338501 2:0.64681798 3:0.198604 4:0.46689999 5:0.44949999 6:3.1798201 7:8.4866199 8:11.2941 9:13.0155 10:-25.267 11:-18.201599 12:-25.392401 #
0 1:0.0201337 2:0.640944 3:0.42205501 4:0.47189999 5:0.4707 6:3.18115 7:9.7831097 8:12.4702 9:14.1277 10:-28.5835 11:-19.0816 12:-27.4277 #
-4.8669293843087180043874101154182e-12 1:0.0161759 2:0.70256501 3:0.56724298 4:0.43599999 5:0.4172 6:3.1650701 7:8.1500902 8:10.7873 9:12.6167 10:-24.471201 11:-16.780701 12:-24.467199 #
-9.7338587686174360087748202308364e-12 1:0.0182685 2:0.69664103 3:0.66527098 4:0.47319999 5:0.37740001 6:3.1486101 7:8.0016499 8:10.1576 9:13.1634 10:-25.187799 11:-17.9708 12:-24.8689 #
-2.4334646921543590021937050577091e-12 1:0.0504013 2:0.246305 3:0.199349 4:0.42250001 5:0.4023 6:3.18221 7:8.6704102 8:11.1847 9:13.0093 10:-25.212601 11:-17.511801 12:-25.312401 #
-7.3003940764630761987875482268112e-12 1:0.027113199 2:0.36834201 3:0.25248399 4:0.4542 5:0.41460001 6:3.1733401 7:8.5430498 8:11.0923 9:12.8809 10:-26.195999 11:-17.153299 12:-24.868 #
-1.2167323460771794203174958342229e-11 1:0.02434 2:0.45974201 3:0.335026 4:0.47639999 5:0.4506 6:3.1837201 7:9.1473598 8:11.3803 9:14.3405 10:-27.399599 11:-21.0902 12:-27.312099 #
2.4334646921543590021937050577091e-12 1:0.021097301 2:0.67324901 3:0.46879601 4:0.48370001 5:0.47530001 6:3.17676 7:8.6523504 8:12.4158 9:14.332 10:-28.0965 11:-18.854799 12:-27.745199 #
7.3003940764630761987875482268112e-12 1:0.0210182 2:0.69478202 3:0.59130001 4:0.4368 5:0.42199999 6:3.1596501 7:7.9612298 8:10.7162 9:12.5463 10:-24.466499 11:-16.565901 12:-24.244301 #
1.2167323460771794203174958342229e-11 1:0.0169845 2:0.76289099 3:0.68848097 4:0.4716 5:0.3748 6:3.1446199 7:7.9057698 8:10.1392 9:12.8238 10:-24.3102 11:-16.777 12:-25.1292 #
1.2167323460771794203174958342229e-11 1:0.0504013 2:0.246305 3:0.199349 4:0.42250001 5:0.4023 6:3.18221 7:8.6704102 8:11.1847 9:13.0093 10:-25.212601 11:-17.511801 12:-25.312401 #
7.3003940764630761987875482268112e-12 1:0.027113199 2:0.36834201 3:0.25248399 4:0.4542 5:0.41460001 6:3.1733401 7:8.5430498 8:11.0923 9:12.8809 10:-26.195999 11:-17.153299 12:-24.868 #
2.4334646921543590021937050577091e-12 1:0.02434 2:0.45974201 3:0.335026 4:0.47639999 5:0.4506 6:3.1837201 7:9.1473598 8:11.3803 9:14.3405 10:-27.399599 11:-21.0902 12:-27.312099 #
-2.4334646921543590021937050577091e-12 1:0.021097301 2:0.67324901 3:0.46879601 4:0.48370001 5:0.47530001 6:3.17676 7:8.6523504 8:12.4158 9:14.332 10:-28.0965 11:-18.854799 12:-27.745199 #
-7.3003940764630761987875482268112e-12 1:0.0210182 2:0.69478202 3:0.59130001 4:0.4368 5:0.42199999 6:3.1596501 7:7.9612298 8:10.7162 9:12.5463 10:-24.466499 11:-16.565901 12:-24.244301 #
-1.2167323460771794203174958342229e-11 1:0.0169845 2:0.76289099 3:0.68848097 4:0.4716 5:0.3748 6:3.1446199 7:7.9057698 8:10.1392 9:12.8238 10:-24.3102 11:-16.777 12:-25.1292 #
-7.3003940764630761987875482268112e-12 1:0.061196402 2:0.23819301 3:0.21864501 4:0.377 5:0.3714 6:3.1415801 7:7.65166 8:11.3656 9:11.4958 10:-23.539101 11:-15.7095 12:-22.9398 #
-1.2167323460771794203174958342229e-11 1:0.031089099 2:0.33053699 3:0.208001 4:0.45950001 5:0.4427 6:3.19045 7:8.9536695 8:11.488 9:13.9112 10:-26.7425 11:-18.635201 12:-26.782 #
-2.4334646921543590021937050577091e-12 1:0.0250897 2:0.44382399 3:0.36068901 4:0.47220001 5:0.45660001 6:3.18467 7:9.80408 8:11.9505 9:13.9006 10:-27.8438 11:-18.805599 12:-26.8281 #
2.4334646921543590021937050577091e-12 1:0.0303845 2:0.684506 3:0.470716 4:0.48199999 5:0.4682 6:3.1788199 7:8.6356697 8:12.2403 9:14.6017 10:-28.276899 11:-18.9839 12:-28.103399 #
7.3003940764630761987875482268112e-12 1:0.0262616 2:0.76339799 3:0.64242798 4:0.40790001 5:0.39289999 6:3.15627 7:7.7997398 8:10.7499 9:12.235 10:-24.688101 11:-16.1374 12:-23.730101 #
1.2167323460771794203174958342229e-11 1:0.021263501 2:0.79717797 3:0.73971099 4:0.47260001 5:0.3784 6:3.14657 7:7.9779 8:10.1607 9:13.1192 10:-24.790001 11:-17.1115 12:-25.198 #
1.2167323460771794203174958342229e-11 1:0.061196402 2:0.23819301 3:0.21864501 4:0.377 5:0.3714 6:3.1415801 7:7.65166 8:11.3656 9:11.4958 10:-23.539101 11:-15.7095 12:-22.9398 #
7.3003940764630761987875482268112e-12 1:0.031089099 2:0.33053699 3:0.208001 4:0.45950001 5:0.4427 6:3.19045 7:8.9536695 8:11.488 9:13.9112 10:-26.7425 11:-18.635201 12:-26.782 #
2.4334646921543590021937050577091e-12 1:0.0250897 2:0.44382399 3:0.36068901 4:0.47220001 5:0.45660001 6:3.18467 7:9.80408 8:11.9505 9:13.9006 10:-27.8438 11:-18.805599 12:-26.8281 #
-2.4334646921543590021937050577091e-12 1:0.0303845 2:0.684506 3:0.470716 4:0.48199999 5:0.4682 6:3.1788199 7:8.6356697 8:12.2403 9:14.6017 10:-28.276899 11:-18.9839 12:-28.103399 #
-7.3003940764630761987875482268112e-12 1:0.0262616 2:0.76339799 3:0.64242798 4:0.40790001 5:0.39289999 6:3.15627 7:7.7997398 8:10.7499 9:12.235 10:-24.688101 11:-16.1374 12:-23.730101 #
-1.2167323460771794203174958342229e-11 1:0.021263501 2:0.79717797 3:0.73971099 4:0.47260001 5:0.3784 6:3.14657 7:7.9779 8:10.1607 9:13.1192 10:-24.790001 11:-17.1115 12:-25.198 #
-1.2167323460771794203174958342229e-11 1:0.064059697 2:0.220349 3:0.22587 4:0.4391 5:0.4341 6:3.17188 7:8.1187696 8:12.2811 9:13.0635 10:-25.9974 11:-17.1432 12:-25.8132 #
-7.3003940764630761987875482268112e-12 1:0.033984698 2:0.32521299 3:0.26847899 4:0.47679999 5:0.47240001 6:3.1871901 7:8.9252005 8:11.9587 9:13.9288 10:-26.9631 11:-18.410299 12:-27.106199 #
-2.4334646921543590021937050577091e-12 1:0.022193801 2:0.43593499 3:0.32876 4:0.47920001 5:0.46039999 6:3.1819401 7:9.9871101 8:11.8316 9:14.0938 10:-27.2764 11:-19.1126 12:-27.1546 #
2.4334646921543590021937050577091e-12 1:0.0225804 2:0.687895 3:0.46621999 4:0.48120001 5:0.46160001 6:3.17818 7:8.6906204 8:11.7849 9:13.759 10:-27.826799 11:-18.175699 12:-26.5315 #
1.2167323460771794203174958342229e-11 1:0.0213608 2:0.75859898 3:0.662117 4:0.4005 5:0.40009999 6:3.15662 7:7.8260198 8:10.6807 9:12.2656 10:-24.489799 11:-16.1828 12:-23.745701 #
7.3003940764630761987875482268112e-12 1:0.0191509 2:0.75079203 3:0.68350399 4:0.47029999 5:0.37650001 6:3.1467099 7:7.9544001 8:10.1412 9:12.9532 10:-24.6572 11:-16.991501 12:-24.644699 #
1.2167323460771794203174958342229e-11 1:0.064059697 2:0.220349 3:0.22587 4:0.4391 5:0.4341 6:3.17188 7:8.1187696 8:12.2811 9:13.0635 10:-25.9974 11:-17.1432 12:-25.8132 #
7.3003940764630761987875482268112e-12 1:0.033984698 2:0.32521299 3:0.26847899 4:0.47679999 5:0.47240001 6:3.1871901 7:8.9252005 8:11.9587 9:13.9288 10:-26.9631 11:-18.410299 12:-27.106199 #
2.4334646921543590021937050577091e-12 1:0.022193801 2:0.43593499 3:0.32876 4:0.47920001 5:0.46039999 6:3.1819401 7:9.9871101 8:11.8316 9:14.0938 10:-27.2764 11:-19.1126 12:-27.1546 #
-2.4334646921543590021937050577091e-12 1:0.0225804 2:0.687895 3:0.46621999 4:0.48120001 5:0.46160001 6:3.17818 7:8.6906204 8:11.7849 9:13.759 10:-27.826799 11:-18.175699 12:-26.5315 #
-7.3003940764630761987875482268112e-12 1:0.0213608 2:0.75859898 3:0.662117 4:0.4005 5:0.40009999 6:3.15662 7:7.8260198 8:10.6807 9:12.2656 10:-24.489799 11:-16.1828 12:-23.745701 #
-1.2167323460771794203174958342229e-11 1:0.0191509 2:0.75079203 3:0.68350399 4:0.47029999 5:0.37650001 6:3.1467099 7:7.9544001 8:10.1412 9:12.9532 10:-24.6572 11:-16.991501 12:-24.644699 #
-7.3003940764630761987875482268112e-12 1:0.060696501 2:0.23733699 3:0.21063399 4:0.4436 5:0.43399999 6:3.1916499 7:8.7008305 8:11.3724 9:13.4897 10:-26.748899 11:-17.8403 12:-25.9256 #
-1.2167323460771794203174958342229e-11 1:0.029510301 2:0.43004 3:0.21494401 4:0.4637 5:0.46329999 6:3.1902599 7:9.5348196 8:12.0196 9:13.1847 10:-25.9632 11:-18.8305 12:-25.9144 #
2.4334646921543590021937050577091e-12 1:0.030223601 2:0.64024103 3:0.197998 4:0.46759999 5:0.4228 6:3.1792901 7:8.4372101 8:11.2549 9:12.4028 10:-24.2453 11:-16.7852 12:-24.8374 #
-2.4334646921543590021937050577091e-12 1:0.021531699 2:0.681297 3:0.46094501 4:0.4788 5:0.4702 6:3.17752 7:8.9653196 8:13.9338 9:15.1707 10:-29.8519 11:-19.736799 12:-29.897301 #
1.2167323460771794203174958342229e-11 1:0.018201901 2:0.74699199 3:0.60403299 4:0.4102 5:0.39579999 6:3.1612899 7:8.0304403 8:10.537 9:12.5304 10:-24.2108 11:-16.6339 12:-24.218399 #
7.3003940764630761987875482268112e-12 1:0.018303899 2:0.75614899 3:0.68526602 4:0.4756 5:0.373 6:3.1438999 7:7.8893299 8:10.0985 9:12.8741 10:-24.378 11:-16.828501 12:-24.915501 #
1.2167323460771794203174958342229e-11 1:0.060696501 2:0.23733699 3:0.21063399 4:0.4436 5:0.43399999 6:3.1916499 7:8.7008305 8:11.3724 9:13.4897 10:-26.748899 11:-17.8403 12:-25.9256 #
7.3003940764630761987875482268112e-12 1:0.029510301 2:0.43004 3:0.21494401 4:0.4637 5:0.46329999 6:3.1902599 7:9.5348196 8:12.0196 9:13.1847 10:-25.9632 11:-18.8305 12:-25.9144 #
2.4334646921543590021937050577091e-12 1:0.030223601 2:0.64024103 3:0.197998 4:0.46759999 5:0.4228 6:3.1792901 7:8.4372101 8:11.2549 9:12.4028 10:-24.2453 11:-16.7852 12:-24.8374 #
-2.4334646921543590021937050577091e-12 1:0.021531699 2:0.681297 3:0.46094501 4:0.4788 5:0.4702 6:3.17752 7:8.9653196 8:13.9338 9:15.1707 10:-29.8519 11:-19.736799 12:-29.897301 #
-7.3003940764630761987875482268112e-12 1:0.018201901 2:0.74699199 3:0.60403299 4:0.4102 5:0.39579999 6:3.1612899 7:8.0304403 8:10.537 9:12.5304 10:-24.2108 11:-16.6339 12:-24.218399 #
-1.2167323460771794203174958342229e-11 1:0.018303899 2:0.75614899 3:0.68526602 4:0.4756 5:0.373 6:3.1438999 7:7.8893299 8:10.0985 9:12.8741 10:-24.378 11:-16.828501 12:-24.915501 #
-1.2167323460771794203174958342229e-11 1:0.032359801 2:0.26468399 3:0.24982201 4:0.45210001 5:0.43130001 6:3.1839001 7:8.1909399 8:11.2841 9:16.4296 10:-30.329399 11:-20.928301 12:-30.659401 #
-7.3003940764630761987875482268112e-12 1:0.022689501 2:0.42839399 3:0.24676301 4:0.46489999 5:0.4637 6:3.1877201 7:8.9630203 8:11.8607 9:13.7532 10:-26.560699 11:-18.279499 12:-27.8295 #
2.4334646921543590021937050577091e-12 1:0.020496599 2:0.66839802 3:0.21857201 4:0.4497 5:0.43869999 6:3.1837101 7:8.5783901 8:11.3063 9:13.0673 10:-25.255699 11:-17.3566 12:-26.3325 #
-2.4334646921543590021937050577091e-12 1:0.023891401 2:0.67887998 3:0.47402701 4:0.4716 5:0.47040001 6:3.1765001 7:8.6142702 8:12.1879 9:13.4719 10:-27.8755 11:-17.916599 12:-26.301901 #
1.2167323460771794203174958342229e-11 1:0.019849701 2:0.70895302 3:0.60560399 4:0.4364 5:0.42039999 6:3.1596301 7:7.8829002 8:10.7924 9:12.6551 10:-24.776899 11:-16.6201 12:-24.4168 #
7.3003940764630761987875482268112e-12 1:0.019849701 2:0.74891597 3:0.69090903 4:0.47549999 5:0.3761 6:3.1448801 7:7.8980999 8:10.1422 9:12.9654 10:-24.633301 11:-16.9606 12:-24.7136 #
1.2167323460771794203174958342229e-11 1:0.032359801 2:0.26468399 3:0.24982201 4:0.45210001 5:0.43130001 6:3.1839001 7:8.1909399 8:11.2841 9:16.4296 10:-30.329399 11:-20.928301 12:-30.659401 #
7.3003940764630761987875482268112e-12 1:0.022689501 2:0.42839399 3:0.24676301 4:0.46489999 5:0.4637 6:3.1877201 7:8.9630203 8:11.8607 9:13.7532 10:-26.560699 11:-18.279499 12:-27.8295 #
2.4334646921543590021937050577091e-12 1:0.020496599 2:0.66839802 3:0.21857201 4:0.4497 5:0.43869999 6:3.1837101 7:8.5783901 8:11.3063 9:13.0673 10:-25.255699 11:-17.3566 12:-26.3325 #
-2.4334646921543590021937050577091e-12 1:0.023891401 2:0.67887998 3:0.47402701 4:0.4716 5:0.47040001 6:3.1765001 7:8.6142702 8:12.1879 9:13.4719 10:-27.8755 11:-17.916599 12:-26.301901 #
-7.3003940764630761987875482268112e-12 1:0.019849701 2:0.70895302 3:0.60560399 4:0.4364 5:0.42039999 6:3.1596301 7:7.8829002 8:10.7924 9:12.6551 10:-24.776899 11:-16.6201 12:-24.4168 #
-1.2167323460771794203174958342229e-11 1:0.019849701 2:0.74891597 3:0.69090903 4:0.47549999 5:0.3761 6:3.1448801 7:7.8980999 8:10.1422 9:12.9654 10:-24.633301 11:-16.9606 12:-24.7136 #
-7.3003940764630761987875482268112e-12 1:0.0384642 2:0.215189 3:0.21676201 4:0.45680001 5:0.44159999 6:3.18308 7:8.5162096 8:11.8054 9:12.9188 10:-25.3314 11:-18.1359 12:-25.621799 #
-1.2167323460771794203174958342229e-11 1:0.0268114 2:0.46722001 3:0.232401 4:0.46610001 5:0.46349999 6:3.1863401 7:9.8326302 8:12.8178 9:13.4492 10:-27.4217 11:-19.876301 12:-26.5874 #
2.4334646921543590021937050577091e-12 1:0.0329316 2:0.67959797 3:0.227264 4:0.44069999 5:0.42250001 6:3.1748099 7:8.5063601 8:11.1937 9:12.364 10:-24.175301 11:-16.886299 12:-24.5714 #
-2.4334646921543590021937050577091e-12 1:0.0173003 2:0.67840803 3:0.47546899 4:0.47749999 5:0.4747 6:3.17854 7:8.5448399 8:13.5684 9:14.1291 10:-28.1579 11:-18.6113 12:-28.1024 #
1.2167323460771794203174958342229e-11 1:0.0161289 2:0.76822501 3:0.64524603 4:0.39669999 5:0.39629999 6:3.1566899 7:7.8534598 8:10.5605 9:12.2997 10:-24.3615 11:-16.255501 12:-23.741899 #
7.3003940764630761987875482268112e-12 1:0.0151435 2:0.749493 3:0.68471998 4:0.46740001 5:0.3752 6:3.1444099 7:7.8673701 8:10.1159 9:12.9337 10:-24.6108 11:-16.9345 12:-24.6071 #
1.2167323460771794203174958342229e-11 1:0.0384642 2:0.215189 3:0.21676201 4:0.45680001 5:0.44159999 6:3.18308 7:8.5162096 8:11.8054 9:12.9188 10:-25.3314 11:-18.1359 12:-25.621799 #
7.3003940764630761987875482268112e-12 1:0.0268114 2:0.46722001 3:0.232401 4:0.46610001 5:0.46349999 6:3.1863401 7:9.8326302 8:12.8178 9:13.4492 10:-27.4217 11:-19.876301 12:-26.5874 #
2.4334646921543590021937050577091e-12 1:0.0329316 2:0.67959797 3:0.227264 4:0.44069999 5:0.42250001 6:3.1748099 7:8.5063601 8:11.1937 9:12.364 10:-24.175301 11:-16.886299 12:-24.5714 #
-2.4334646921543590021937050577091e-12 1:0.0173003 2:0.67840803 3:0.47546899 4:0.47749999 5:0.4747 6:3.17854 7:8.5448399 8:13.5684 9:14.1291 10:-28.1579 11:-18.6113 12:-28.1024 #
-7.3003940764630761987875482268112e-12 1:0.0161289 2:0.76822501 3:0.64524603 4:0.39669999 5:0.39629999 6:3.1566899 7:7.8534598 8:10.5605 9:12.2997 10:-24.3615 11:-16.255501 12:-23.741899 #
-1.2167323460771794203174958342229e-11 1:0.0151435 2:0.749493 3:0.68471998 4:0.46740001 5:0.3752 6:3.1444099 7:7.8673701 8:10.1159 9:12.9337 10:-24.6108 11:-16.9345 12:-24.6071 #
-3.9661005527219344551684266329816e-07 1:0.053944401 2:0.21277501 3:0.124362 4:0.4183 5:0.4075 6:3.1700799 7:9.20965 8:11.6565 9:12.6565 10:-24.9608 11:-17.4685 12:-24.966299 #
-2.6440670351479563034456177553211e-07 1:0.039269999 2:0.39989901 3:0.130794 4:0.44319999 5:0.44299999 6:3.18209 7:8.4729099 8:11.4839 9:13.0927 10:-25.455099 11:-17.357401 12:-25.6504 #
-1.3220335175739781517228088776605e-07 1:0.037537601 2:0.67477101 3:0.120988 4:0.4632 5:0.4488 6:3.1828101 7:8.6810598 8:12.2865 9:13.1907 10:-25.974199 11:-17.7656 12:-26.2938 #
-0 1:0.0287519 2:0.64277899 3:0.26264799 4:0.47400001 5:0.4686 6:3.1847301 7:8.9837103 8:12.68 9:14.379 10:-28.4708 11:-19.273399 12:-27.9254 #
1.3220335175739781517228088776605e-07 1:0.017823899 2:0.664783 3:0.44897899 4:0.47979999 5:0.463 6:3.17853 7:9.1509104 8:12.1559 9:14.6132 10:-28.0774 11:-19.731701 12:-28.2542 #
2.6440670351479563034456177553211e-07 1:0.018034199 2:0.73889399 3:0.606341 4:0.4025 5:0.40189999 6:3.16394 7:8.0693903 8:10.6027 9:12.4731 10:-24.1457 11:-16.5968 12:-24.178499 #
3.9661005527219344551684266329816e-07 1:0.0177489 2:0.67880797 3:0.64064699 4:0.4869 5:0.3721 6:3.1477201 7:7.82129 8:10.1158 9:13.5141 10:-27.1157 11:-17.7279 12:-25.329 #
3.9661005527219344551684266329816e-07 1:0.053944401 2:0.21277501 3:0.124362 4:0.4183 5:0.4075 6:3.1700799 7:9.20965 8:11.6565 9:12.6565 10:-24.9608 11:-17.4685 12:-24.966299 #
2.6440670351479563034456177553211e-07 1:0.039269999 2:0.39989901 3:0.130794 4:0.44319999 5:0.44299999 6:3.18209 7:8.4729099 8:11.4839 9:13.0927 10:-25.455099 11:-17.357401 12:-25.6504 #
1.3220335175739781517228088776605e-07 1:0.037537601 2:0.67477101 3:0.120988 4:0.4632 5:0.4488 6:3.1828101 7:8.6810598 8:12.2865 9:13.1907 10:-25.974199 11:-17.7656 12:-26.2938 #
0 1:0.0287519 2:0.64277899 3:0.26264799 4:0.47400001 5:0.4686 6:3.1847301 7:8.9837103 8:12.68 9:14.379 10:-28.4708 11:-19.273399 12:-27.9254 #
-1.3220335175739781517228088776605e-07 1:0.017823899 2:0.664783 3:0.44897899 4:0.47979999 5:0.463 6:3.17853 7:9.1509104 8:12.1559 9:14.6132 10:-28.0774 11:-19.731701 12:-28.2542 #
-2.6440670351479563034456177553211e-07 1:0.018034199 2:0.73889399 3:0.606341 4:0.4025 5:0.40189999 6:3.16394 7:8.0693903 8:10.6027 9:12.4731 10:-24.1457 11:-16.5968 12:-24.178499 #
-3.9661005527219344551684266329816e-07 1:0.0177489 2:0.67880797 3:0.64064699 4:0.4869 5:0.3721 6:3.1477201 7:7.82129 8:10.1158 9:13.5141 10:-27.1157 11:-17.7279 12:-25.329 #
-3.9661005527219344551684266329816e-07 1:0.062651798 2:0.195392 3:0.134307 4:0.46200001 5:0.36680001 6:3.1879499 7:8.7458601 8:11.6789 9:13.2832 10:-25.959999 11:-17.6707 12:-25.8773 #
-2.6440670351479563034456177553211e-07 1:0.034203101 2:0.49172899 3:0.15575799 4:0.44459999 5:0.43399999 6:3.1826501 7:8.4365301 8:11.5517 9:14.183 10:-27.050501 11:-18.423599 12:-28.5623 #
-0 1:0.038259599 2:0.67477399 3:0.14748 4:0.43610001 5:0.4355 6:3.16998 7:7.9873099 8:11.3278 9:12.596 10:-24.8869 11:-16.816601 12:-24.6119 #
-1.3220335175739781517228088776605e-07 1:0.027355401 2:0.64210898 3:0.26188299 4:0.45109999 5:0.43889999 6:3.1872301 7:8.9459696 8:11.9342 9:13.0706 10:-25.5849 11:-17.574499 12:-26.2078 #
1.3220335175739781517228088776605e-07 1:0.017204599 2:0.64348602 3:0.42925999 4:0.486 5:0.46259999 6:3.1812201 7:9.5397501 8:12.0418 9:14.3968 10:-27.6518 11:-19.2318 12:-28.025801 #
2.6440670351479563034456177553211e-07 1:0.018322101 2:0.69689399 3:0.58794999 4:0.42340001 5:0.4156 6:3.1633501 7:7.9699402 8:10.7861 9:12.3873 10:-24.5965 11:-16.3738 12:-23.9867 #
3.9661005527219344551684266329816e-07 1:0.0147465 2:0.70622802 3:0.63631302 4:0.48190001 5:0.3707 6:3.14433 7:7.7816401 8:10.0855 9:12.8597 10:-24.3946 11:-16.7812 12:-24.6341 #
3.9661005527219344551684266329816e-07 1:0.062651798 2:0.195392 3:0.134307 4:0.46200001 5:0.36680001 6:3.1879499 7:8.7458601 8:11.6789 9:13.2832 10:-25.959999 11:-17.6707 12:-25.8773 #
2.6440670351479563034456177553211e-07 1:0.034203101 2:0.49172899 3:0.15575799 4:0.44459999 5:0.43399999 6:3.1826501 7:8.4365301 8:11.5517 9:14.183 10:-27.050501 11:-18.423599 12:-28.5623 #
1.3220335175739781517228088776605e-07 1:0.038259599 2:0.67477399 3:0.14748 4:0.43610001 5:0.4355 6:3.16998 7:7.9873099 8:11.3278 9:12.596 10:-24.8869 11:-16.816601 12:-24.6119 #
0 1:0.027355401 2:0.64210898 3:0.26188299 4:0.45109999 5:0.43889999 6:3.1872301 7:8.9459696 8:11.9342 9:13.0706 10:-25.5849 11:-17.574499 12:-26.2078 #
-1.3220335175739781517228088776605e-07 1:0.017204599 2:0.64348602 3:0.42925999 4:0.486 5:0.46259999 6:3.1812201 7:9.5397501 8:12.0418 9:14.3968 10:-27.6518 11:-19.2318 12:-28.025801 #
-2.6440670351479563034456177553211e-07 1:0.018322101 2:0.69689399 3:0.58794999 4:0.42340001 5:0.4156 6:3.1633501 7:7.9699402 8:10.7861 9:12.3873 10:-24.5965 11:-16.3738 12:-23.9867 #
-3.9661005527219344551684266329816e-07 1:0.0147465 2:0.70622802 3:0.63631302 4:0.48190001 5:0.3707 6:3.14433 7:7.7816401 8:10.0855 9:12.8597 10:-24.3946 11:-16.7812 12:-24.6341 #
-1.9830502763609672275842133164908e-07 1:0.0603237 2:0.14560901 3:0.14518601 4:0.45879999 5:0.44240001 6:3.1313901 7:9.1846199 8:11.9781 9:12.2647 10:-24.396601 11:-17.171499 12:-25.0499 #
-3.3050837939349456440048182111202e-07 1:0.0540471 2:0.33084899 3:0.14338399 4:0.4657 5:0.45289999 6:3.1856899 7:9.4240303 8:12.5098 9:13.8572 10:-27.657101 11:-18.858601 12:-27.0539 #
-6.6101675878698907586140443883027e-08 1:0.035359401 2:0.442379 3:0.33222899 4:0.458 5:0.45100001 6:3.18927 7:9.0926399 8:11.273 9:13.4224 10:-25.7876 11:-17.988199 12:-26.325899 #
6.6101675878698907586140443883027e-08 1:0.026026201 2:0.69989598 3:0.47556499 4:0.46340001 5:0.45899999 6:3.1788299 7:8.9221601 8:12.0997 9:14.4192 10:-27.8006 11:-18.9289 12:-27.8622 #
1.9830502763609672275842133164908e-07 1:0.0284387 2:0.76458597 3:0.60720599 4:0.40169999 5:0.3953 6:3.1615 7:8.0266304 8:10.6513 9:12.6666 10:-24.546 11:-16.7304 12:-24.423201 #
3.3050837939349456440048182111202e-07 1:0.028643699 2:0.75094801 3:0.71522897 4:0.48010001 5:0.38229999 6:3.1477599 7:7.9918299 8:10.143 9:13.9821 10:-26.705601 11:-18.4149 12:-26.055201 #
3.3050837939349456440048182111202e-07 1:0.0603237 2:0.14560901 3:0.14518601 4:0.45879999 5:0.44240001 6:3.1313901 7:9.1846199 8:11.9781 9:12.2647 10:-24.396601 11:-17.171499 12:-25.0499 #
1.9830502763609672275842133164908e-07 1:0.0540471 2:0.33084899 3:0.14338399 4:0.4657 5:0.45289999 6:3.1856899 7:9.4240303 8:12.5098 9:13.8572 10:-27.657101 11:-18.858601 12:-27.0539 #
6.6101675878698907586140443883027e-08 1:0.035359401 2:0.442379 3:0.33222899 4:0.458 5:0.45100001 6:3.18927 7:9.0926399 8:11.273 9:13.4224 10:-25.7876 11:-17.988199 12:-26.325899 #
-6.6101675878698907586140443883027e-08 1:0.026026201 2:0.69989598 3:0.47556499 4:0.46340001 5:0.45899999 6:3.1788299 7:8.9221601 8:12.0997 9:14.4192 10:-27.8006 11:-18.9289 12:-27.8622 #
-1.9830502763609672275842133164908e-07 1:0.0284387 2:0.76458597 3:0.60720599 4:0.40169999 5:0.3953 6:3.1615 7:8.0266304 8:10.6513 9:12.6666 10:-24.546 11:-16.7304 12:-24.423201 #
-3.3050837939349456440048182111202e-07 1:0.028643699 2:0.75094801 3:0.71522897 4:0.48010001 5:0.38229999 6:3.1477599 7:7.9918299 8:10.143 9:13.9821 10:-26.705601 11:-18.4149 12:-26.055201 #
-1.9830502763609672275842133164908e-07 1:0.060358498 2:0.172152 3:0.16320001 4:0.4727 5:0.4655 6:3.18488 7:9.1752796 8:11.6739 9:13.2344 10:-25.9445 11:-18.0625 12:-25.7684 #
-3.3050837939349456440048182111202e-07 1:0.046989601 2:0.31788501 3:0.129776 4:0.4682 5:0.44440001 6:3.18416 7:8.3441801 8:11.3402 9:12.7352 10:-24.875 11:-17.0291 12:-24.9856 #
-6.6101675878698907586140443883027e-08 1:0.038715102 2:0.363464 3:0.31999901 4:0.47009999 5:0.45289999 6:3.18349 7:8.6457005 8:11.5401 9:14.3563 10:-27.532801 11:-19.6632 12:-27.3979 #
6.6101675878698907586140443883027e-08 1:0.0259955 2:0.45379099 3:0.371223 4:0.45469999 5:0.4479 6:3.1921301 7:9.0158701 8:11.5828 9:13.1935 10:-26.2104 11:-17.7115 12:-25.594 #
1.9830502763609672275842133164908e-07 1:0.020736501 2:0.658943 3:0.43375599 4:0.4774 5:0.4686 6:3.1798601 7:9.4584198 8:12.0651 9:14.2677 10:-28.1642 11:-19.3262 12:-27.441799 #
3.3050837939349456440048182111202e-07 1:0.019708499 2:0.75124902 3:0.68474001 4:0.4761 5:0.3795 6:3.1434801 7:7.8738399 8:10.1168 9:13.099 10:-24.7083 11:-17.0361 12:-25.7988 #
3.3050837939349456440048182111202e-07 1:0.060358498 2:0.172152 3:0.16320001 4:0.4727 5:0.4655 6:3.18488 7:9.1752796 8:11.6739 9:13.2344 10:-25.9445 11:-18.0625 12:-25.7684 #
1.9830502763609672275842133164908e-07 1:0.046989601 2:0.31788501 3:0.129776 4:0.4682 5:0.44440001 6:3.18416 7:8.3441801 8:11.3402 9:12.7352 10:-24.875 11:-17.0291 12:-24.9856 #
6.6101675878698907586140443883027e-08 1:0.038715102 2:0.363464 3:0.31999901 4:0.47009999 5:0.45289999 6:3.18349 7:8.6457005 8:11.5401 9:14.3563 10:-27.532801 11:-19.6632 12:-27.3979 #
-6.6101675878698907586140443883027e-08 1:0.0259955 2:0.45379099 3:0.371223 4:0.45469999 5:0.4479 6:3.1921301 7:9.0158701 8:11.5828 9:13.1935 10:-26.2104 11:-17.7115 12:-25.594 #
-1.9830502763609672275842133164908e-07 1:0.020736501 2:0.658943 3:0.43375599 4:0.4774 5:0.4686 6:3.1798601 7:9.4584198 8:12.0651 9:14.2677 10:-28.1642 11:-19.3262 12:-27.441799 #
-3.3050837939349456440048182111202e-07 1:0.019708499 2:0.75124902 3:0.68474001 4:0.4761 5:0.3795 6:3.1434801 7:7.8738399 8:10.1168 9:13.099 10:-24.7083 11:-17.0361 12:-25.7988 #
-3.3050837939349456440048182111202e-07 1:0.0453173 2:0.32592899 3:0.133448 4:0.46520001 5:0.42919999 6:3.1754799 7:8.3203602 8:10.9932 9:12.73 10:-24.594999 11:-16.9694 12:-25.498501 #
-1.9830502763609672275842133164908e-07 1:0.038143501 2:0.33056799 3:0.27429399 4:0.48089999 5:0.4289 6:3.18327 7:9.1567001 8:10.9809 9:12.8116 10:-24.7414 11:-17.513399 12:-25.1294 #
-6.6101675878698907586140443883027e-08 1:0.0218403 2:0.435361 3:0.33956501 4:0.4774 5:0.45820001 6:3.18525 7:9.8547096 8:11.887 9:14.4361 10:-27.602501 11:-19.464701 12:-28.425301 #
6.6101675878698907586140443883027e-08 1:0.018476199 2:0.661313 3:0.430713 4:0.48069999 5:0.46630001 6:3.1830399 7:10.2846 8:12.6164 9:13.6006 10:-27.2078 11:-18.751801 12:-26.732201 #
1.9830502763609672275842133164908e-07 1:0.019220199 2:0.70259899 3:0.57624602 4:0.42219999 5:0.41479999 6:3.1689701 7:8.1097698 8:10.7625 9:12.5129 10:-24.3417 11:-16.6035 12:-24.2668 #
3.3050837939349456440048182111202e-07 1:0.019220199 2:0.73554999 3:0.68015999 4:0.4743 5:0.38029999 6:3.1459799 7:7.8710999 8:10.1377 9:13.0466 10:-24.8496 11:-17.079599 12:-24.742001 #
3.3050837939349456440048182111202e-07 1:0.0453173 2:0.32592899 3:0.133448 4:0.46520001 5:0.42919999 6:3.1754799 7:8.3203602 8:10.9932 9:12.73 10:-24.594999 11:-16.9694 12:-25.498501 #
1.9830502763609672275842133164908e-07 1:0.038143501 2:0.33056799 3:0.27429399 4:0.48089999 5:0.4289 6:3.18327 7:9.1567001 8:10.9809 9:12.8116 10:-24.7414 11:-17.513399 12:-25.1294 #
6.6101675878698907586140443883027e-08 1:0.0218403 2:0.435361 3:0.33956501 4:0.4774 5:0.45820001 6:3.18525 7:9.8547096 8:11.887 9:14.4361 10:-27.602501 11:-19.464701 12:-28.425301 #
-6.6101675878698907586140443883027e-08 1:0.018476199 2:0.661313 3:0.430713 4:0.48069999 5:0.46630001 6:3.1830399 7:10.2846 8:12.6164 9:13.6006 10:-27.2078 11:-18.751801 12:-26.732201 #
-1.9830502763609672275842133164908e-07 1:0.019220199 2:0.70259899 3:0.57624602 4:0.42219999 5:0.41479999 6:3.1689701 7:8.1097698 8:10.7625 9:12.5129 10:-24.3417 11:-16.6035 12:-24.2668 #
-3.3050837939349456440048182111202e-07 1:0.019220199 2:0.73554999 3:0.68015999 4:0.4743 5:0.38029999 6:3.1459799 7:7.8710999 8:10.1377 9:13.0466 10:-24.8496 11:-17.079599 12:-24.742001 #
-2.6440670351479563034456177553211e-07 1:0.0292398 2:0.31283101 3:0.204413 4:0.46070001 5:0.4447 6:3.1909399 7:9.4037104 8:11.8669 9:14.1749 10:-27.5812 11:-19.5054 12:-27.2362 #
-1.3220335175739781517228088776605e-07 1:0.0375937 2:0.64505798 3:0.207716 4:0.4745 5:0.4391 6:3.17746 7:8.4046602 8:11.7977 9:12.6962 10:-24.944901 11:-16.9792 12:-25.984301 #
-0 1:0.029130699 2:0.66058201 3:0.44511199 4:0.47510001 5:0.4747 6:3.1821301 7:9.3878298 8:13.2415 9:14.2089 10:-28.510599 11:-19.209101 12:-27.9499 #
1.3220335175739781517228088776605e-07 1:0.0266307 2:0.71306598 3:0.59963399 4:0.40450001 5:0.4039 6:3.15874 7:7.86414 8:10.6096 9:12.2195 10:-24.743401 11:-16.156601 12:-23.6353 #
2.6440670351479563034456177553211e-07 1:0.025699399 2:0.67037398 3:0.66553801 4:0.47690001 5:0.37869999 6:3.1505401 7:8.0638399 8:10.1443 9:12.946 10:-24.658001 11:-16.999399 12:-24.6264 #
2.6440670351479563034456177553211e-07 1:0.0292398 2:0.31283101 3:0.204413 4:0.46070001 5:0.4447 6:3.1909399 7:9.4037104 8:11.8669 9:14.1749 10:-27.5812 11:-19.5054 12:-27.2362 #
1.3220335175739781517228088776605e-07 1:0.0375937 2:0.64505798 3:0.207716 4:0.4745 5:0.4391 6:3.17746 7:8.4046602 8:11.7977 9:12.6962 10:-24.944901 11:-16.9792 12:-25.984301 #
0 1:0.029130699 2:0.66058201 3:0.44511199 4:0.47510001 5:0.4747 6:3.1821301 7:9.3878298 8:13.2415 9:14.2089 10:-28.510599 11:-19.209101 12:-27.9499 #
-1.3220335175739781517228088776605e-07 1:0.0266307 2:0.71306598 3:0.59963399 4:0.40450001 5:0.4039 6:3.15874 7:7.86414 8:10.6096 9:12.2195 10:-24.743401 11:-16.156601 12:-23.6353 #
-2.6440670351479563034456177553211e-07 1:0.025699399 2:0.67037398 3:0.66553801 4:0.47690001 5:0.37869999 6:3.1505401 7:8.0638399 8:10.1443 9:12.946 10:-24.658001 11:-16.999399 12:-24.6264 #
-2.6440670351479563034456177553211e-07 1:0.0313324 2:0.38059399 3:0.238609 4:0.46340001 5:0.4366 6:3.1874399 7:9.4260397 8:11.6257 9:13.6619 10:-27.3591 11:-18.484301 12:-26.3074 #
-1.3220335175739781517228088776605e-07 1:0.025338501 2:0.64681798 3:0.198604 4:0.46689999 5:0.44949999 6:3.1798201 7:8.4866199 8:11.2941 9:13.0155 10:-25.267 11:-18.201599 12:-25.392401 #
-0 1:0.0201337 2:0.640944 3:0.42205501 4:0.47189999 5:0.4707 6:3.18115 7:9.7831097 8:12.4702 9:14.1277 10:-28.5835 11:-19.0816 12:-27.4277 #
1.3220335175739781517228088776605e-07 1:0.0161759 2:0.70256501 3:0.56724298 4:0.43599999 5:0.4172 6:3.1650701 7:8.1500902 8:10.7873 9:12.6167 10:-24.471201 11:-16.780701 12:-24.467199 #
2.6440670351479563034456177553211e-07 1:0.0182685 2:0.69664103 3:0.66527098 4:0.47319999 5:0.37740001 6:3.1486101 7:8.0016499 8:10.1576 9:13.1634 10:-25.187799 11:-17.9708 12:-24.8689 #
2.6440670351479563034456177553211e-07 1:0.0313324 2:0.38059399 3:0.238609 4:0.46340001 5:0.4366 6:3.1874399 7:9.4260397 8:11.6257 9:13.6619 10:-27.3591 11:-18.484301 12:-26.3074 #
1.3220335175739781517228088776605e-07 1:0.025338501 2:0.64681798 3:0.198604 4:0.46689999 5:0.44949999 6:3.1798201 7:8.4866199 8:11.2941 9:13.0155 10:-25.267 11:-18.201599 12:-25.392401 #
0 1:0.0201337 2:0.640944 3:0.42205501 4:0.47189999 5:0.4707 6:3.18115 7:9.7831097 8:12.4702 9:14.1277 10:-28.5835 11:-19.0816 12:-27.4277 #
-1.3220335175739781517228088776605e-07 1:0.0161759 2:0.70256501 3:0.56724298 4:0.43599999 5:0.4172 6:3.1650701 7:8.1500902 8:10.7873 9:12.6167 10:-24.471201 11:-16.780701 12:-24.467199 #
-2.6440670351479563034456177553211e-07 1:0.0182685 2:0.69664103 3:0.66527098 4:0.47319999 5:0.37740001 6:3.1486101 7:8.0016499 8:10.1576 9:13.1634 10:-25.187799 11:-17.9708 12:-24.8689 #
-3.3050837939349456440048182111202e-07 1:0.0504013 2:0.246305 3:0.199349 4:0.42250001 5:0.4023 6:3.18221 7:8.6704102 8:11.1847 9:13.0093 10:-25.212601 11:-17.511801 12:-25.312401 #
-1.9830502763609672275842133164908e-07 1:0.027113199 2:0.36834201 3:0.25248399 4:0.4542 5:0.41460001 6:3.1733401 7:8.5430498 8:11.0923 9:12.8809 10:-26.195999 11:-17.153299 12:-24.868 #
-6.6101675878698907586140443883027e-08 1:0.02434 2:0.45974201 3:0.335026 4:0.47639999 5:0.4506 6:3.1837201 7:9.1473598 8:11.3803 9:14.3405 10:-27.399599 11:-21.0902 12:-27.312099 #
6.6101675878698907586140443883027e-08 1:0.021097301 2:0.67324901 3:0.46879601 4:0.48370001 5:0.47530001 6:3.17676 7:8.6523504 8:12.4158 9:14.332 10:-28.0965 11:-18.854799 12:-27.745199 #
1.9830502763609672275842133164908e-07 1:0.0210182 2:0.69478202 3:0.59130001 4:0.4368 5:0.42199999 6:3.1596501 7:7.9612298 8:10.7162 9:12.5463 10:-24.466499 11:-16.565901 12:-24.244301 #
3.3050837939349456440048182111202e-07 1:0.0169845 2:0.76289099 3:0.68848097 4:0.4716 5:0.3748 6:3.1446199 7:7.9057698 8:10.1392 9:12.8238 10:-24.3102 11:-16.777 12:-25.1292 #
3.3050837939349456440048182111202e-07 1:0.0504013 2:0.246305 3:0.199349 4:0.42250001 5:0.4023 6:3.18221 7:8.6704102 8:11.1847 9:13.0093 10:-25.212601 11:-17.511801 12:-25.312401 #
1.9830502763609672275842133164908e-07 1:0.027113199 2:0.36834201 3:0.25248399 4:0.4542 5:0.41460001 6:3.1733401 7:8.5430498 8:11.0923 9:12.8809 10:-26.195999 11:-17.153299 12:-24.868 #
6.6101675878698907586140443883027e-08 1:0.02434 2:0.45974201 3:0.335026 4:0.47639999 5:0.4506 6:3.1837201 7:9.1473598 8:11.3803 9:14.3405 10:-27.399599 11:-21.0902 12:-27.312099 #
-6.6101675878698907586140443883027e-08 1:0.021097301 2:0.67324901 3:0.46879601 4:0.48370001 5:0.47530001 6:3.17676 7:8.6523504 8:12.4158 9:14.332 10:-28.0965 11:-18.854799 12:-27.745199 #
-1.9830502763609672275842133164908e-07 1:0.0210182 2:0.69478202 3:0.59130001 4:0.4368 5:0.42199999 6:3.1596501 7:7.9612298 8:10.7162 9:12.5463 10:-24.466499 11:-16.565901 12:-24.244301 #
-3.3050837939349456440048182111202e-07 1:0.0169845 2:0.76289099 3:0.68848097 4:0.4716 5:0.3748 6:3.1446199 7:7.9057698 8:10.1392 9:12.8238 10:-24.3102 11:-16.777 12:-25.1292 #
-1.9830502763609672275842133164908e-07 1:0.061196402 2:0.23819301 3:0.21864501 4:0.377 5:0.3714 6:3.1415801 7:7.65166 8:11.3656 9:11.4958 10:-23.539101 11:-15.7095 12:-22.9398 #
-3.3050837939349456440048182111202e-07 1:0.031089099 2:0.33053699 3:0.208001 4:0.45950001 5:0.4427 6:3.19045 7:8.9536695 8:11.488 9:13.9112 10:-26.7425 11:-18.635201 12:-26.782 #
-6.6101675878698907586140443883027e-08 1:0.0250897 2:0.44382399 3:0.36068901 4:0.47220001 5:0.45660001 6:3.18467 7:9.80408 8:11.9505 9:13.9006 10:-27.8438 11:-18.805599 12:-26.8281 #
6.6101675878698907586140443883027e-08 1:0.0303845 2:0.684506 3:0.470716 4:0.48199999 5:0.4682 6:3.1788199 7:8.6356697 8:12.2403 9:14.6017 10:-28.276899 11:-18.9839 12:-28.103399 #
1.9830502763609672275842133164908e-07 1:0.0262616 2:0.76339799 3:0.64242798 4:0.40790001 5:0.39289999 6:3.15627 7:7.7997398 8:10.7499 9:12.235 10:-24.688101 11:-16.1374 12:-23.730101 #
3.3050837939349456440048182111202e-07 1:0.021263501 2:0.79717797 3:0.73971099 4:0.47260001 5:0.3784 6:3.14657 7:7.9779 8:10.1607 9:13.1192 10:-24.790001 11:-17.1115 12:-25.198 #
3.3050837939349456440048182111202e-07 1:0.061196402 2:0.23819301 3:0.21864501 4:0.377 5:0.3714 6:3.1415801 7:7.65166 8:11.3656 9:11.4958 10:-23.539101 11:-15.7095 12:-22.9398 #
1.9830502763609672275842133164908e-07 1:0.031089099 2:0.33053699 3:0.208001 4:0.45950001 5:0.4427 6:3.19045 7:8.9536695 8:11.488 9:13.9112 10:-26.7425 11:-18.635201 12:-26.782 #
6.6101675878698907586140443883027e-08 1:0.0250897 2:0.44382399 3:0.36068901 4:0.47220001 5:0.45660001 6:3.18467 7:9.80408 8:11.9505 9:13.9006 10:-27.8438 11:-18.805599 12:-26.8281 #
-6.6101675878698907586140443883027e-08 1:0.0303845 2:0.684506 3:0.470716 4:0.48199999 5:0.4682 6:3.1788199 7:8.6356697 8:12.2403 9:14.6017 10:-28.276899 11:-18.9839 12:-28.103399 #
-1.9830502763609672275842133164908e-07 1:0.0262616 2:0.76339799 3:0.64242798 4:0.40790001 5:0.39289999 6:3.15627 7:7.7997398 8:10.7499 9:12.235 10:-24.688101 11:-16.1374 12:-23.730101 #
-3.3050837939349456440048182111202e-07 1:0.021263501 2:0.79717797 3:0.73971099 4:0.47260001 5:0.3784 6:3.14657 7:7.9779 8:10.1607 9:13.1192 10:-24.790001 11:-17.1115 12:-25.198 #
-3.3050837939349456440048182111202e-07 1:0.064059697 2:0.220349 3:0.22587 4:0.4391 5:0.4341 6:3.17188 7:8.1187696 8:12.2811 9:13.0635 10:-25.9974 11:-17.1432 12:-25.8132 #
-1.9830502763609672275842133164908e-07 1:0.033984698 2:0.32521299 3:0.26847899 4:0.47679999 5:0.47240001 6:3.1871901 7:8.9252005 8:11.9587 9:13.9288 10:-26.9631 11:-18.410299 12:-27.106199 #
-6.6101675878698907586140443883027e-08 1:0.022193801 2:0.43593499 3:0.32876 4:0.47920001 5:0.46039999 6:3.1819401 7:9.9871101 8:11.8316 9:14.0938 10:-27.2764 11:-19.1126 12:-27.1546 #
6.6101675878698907586140443883027e-08 1:0.0225804 2:0.687895 3:0.46621999 4:0.48120001 5:0.46160001 6:3.17818 7:8.6906204 8:11.7849 9:13.759 10:-27.826799 11:-18.175699 12:-26.5315 #
1.9830502763609672275842133164908e-07 1:0.0213608 2:0.75859898 3:0.662117 4:0.4005 5:0.40009999 6:3.15662 7:7.8260198 8:10.6807 9:12.2656 10:-24.489799 11:-16.1828 12:-23.745701 #
3.3050837939349456440048182111202e-07 1:0.0191509 2:0.75079203 3:0.68350399 4:0.47029999 5:0.37650001 6:3.1467099 7:7.9544001 8:10.1412 9:12.9532 10:-24.6572 11:-16.991501 12:-24.644699 #
3.3050837939349456440048182111202e-07 1:0.064059697 2:0.220349 3:0.22587 4:0.4391 5:0.4341 6:3.17188 7:8.1187696 8:12.2811 9:13.0635 10:-25.9974 11:-17.1432 12:-25.8132 #
1.9830502763609672275842133164908e-07 1:0.033984698 2:0.32521299 3:0.26847899 4:0.47679999 5:0.47240001 6:3.1871901 7:8.9252005 8:11.9587 9:13.9288 10:-26.9631 11:-18.410299 12:-27.106199 #
6.6101675878698907586140443883027e-08 1:0.022193801 2:0.43593499 3:0.32876 4:0.47920001 5:0.46039999 6:3.1819401 7:9.9871101 8:11.8316 9:14.0938 10:-27.2764 11:-19.1126 12:-27.1546 #
-6.6101675878698907586140443883027e-08 1:0.0225804 2:0.687895 3:0.46621999 4:0.48120001 5:0.46160001 6:3.17818 7:8.6906204 8:11.7849 9:13.759 10:-27.826799 11:-18.175699 12:-26.5315 #
-1.9830502763609672275842133164908e-07 1:0.0213608 2:0.75859898 3:0.662117 4:0.4005 5:0.40009999 6:3.15662 7:7.8260198 8:10.6807 9:12.2656 10:-24.489799 11:-16.1828 12:-23.745701 #
-3.3050837939349456440048182111202e-07 1:0.0191509 2:0.75079203 3:0.68350399 4:0.47029999 5:0.37650001 6:3.1467099 7:7.9544001 8:10.1412 9:12.9532 10:-24.6572 11:-16.991501 12:-24.644699 #
-1.9830502763609672275842133164908e-07 1:0.060696501 2:0.23733699 3:0.21063399 4:0.4436 5:0.43399999 6:3.1916499 7:8.7008305 8:11.3724 9:13.4897 10:-26.748899 11:-17.8403 12:-25.9256 #
-3.3050837939349456440048182111202e-07 1:0.029510301 2:0.43004 3:0.21494401 4:0.4637 5:0.46329999 6:3.1902599 7:9.5348196 8:12.0196 9:13.1847 10:-25.9632 11:-18.8305 12:-25.9144 #
-6.6101675878698907586140443883027e-08 1:0.030223601 2:0.64024103 3:0.197998 4:0.46759999 5:0.4228 6:3.1792901 7:8.4372101 8:11.2549 9:12.4028 10:-24.2453 11:-16.7852 12:-24.8374 #
6.6101675878698907586140443883027e-08 1:0.021531699 2:0.681297 3:0.46094501 4:0.4788 5:0.4702 6:3.17752 7:8.9653196 8:13.9338 9:15.1707 10:-29.8519 11:-19.736799 12:-29.897301 #
1.9830502763609672275842133164908e-07 1:0.018201901 2:0.74699199 3:0.60403299 4:0.4102 5:0.39579999 6:3.1612899 7:8.0304403 8:10.537 9:12.5304 10:-24.2108 11:-16.6339 12:-24.218399 #
3.3050837939349456440048182111202e-07 1:0.018303899 2:0.75614899 3:0.68526602 4:0.4756 5:0.373 6:3.1438999 7:7.8893299 8:10.0985 9:12.8741 10:-24.378 11:-16.828501 12:-24.915501 #
3.3050837939349456440048182111202e-07 1:0.060696501 2:0.23733699 3:0.21063399 4:0.4436 5:0.43399999 6:3.1916499 7:8.7008305 8:11.3724 9:13.4897 10:-26.748899 11:-17.8403 12:-25.9256 #
1.9830502763609672275842133164908e-07 1:0.029510301 2:0.43004 3:0.21494401 4:0.4637 5:0.46329999 6:3.1902599 7:9.5348196 8:12.0196 9:13.1847 10:-25.9632 11:-18.8305 12:-25.9144 #
6.6101675878698907586140443883027e-08 1:0.030223601 2:0.64024103 3:0.197998 4:0.46759999 5:0.4228 6:3.1792901 7:8.4372101 8:11.2549 9:12.4028 10:-24.2453 11:-16.7852 12:-24.8374 #
-6.6101675878698907586140443883027e-08 1:0.021531699 2:0.681297 3:0.46094501 4:0.4788 5:0.4702 6:3.17752 7:8.9653196 8:13.9338 9:15.1707 10:-29.8519 11:-19.736799 12:-29.897301 #
-1.9830502763609672275842133164908e-07 1:0.018201901 2:0.74699199 3:0.60403299 4:0.4102 5:0.39579999 6:3.1612899 7:8.0304403 8:10.537 9:12.5304 10:-24.2108 11:-16.6339 12:-24.218399 #
-3.3050837939349456440048182111202e-07 1:0.018303899 2:0.75614899 3:0.68526602 4:0.4756 5:0.373 6:3.1438999 7:7.8893299 8:10.0985 9:12.8741 10:-24.378 11:-16.828501 12:-24.915501 #
-3.3050837939349456440048182111202e-07 1:0.032359801 2:0.26468399 3:0.24982201 4:0.45210001 5:0.43130001 6:3.1839001 7:8.1909399 8:11.2841 9:16.4296 10:-30.329399 11:-20.928301 12:-30.659401 #
-1.9830502763609672275842133164908e-07 1:0.022689501 2:0.42839399 3:0.24676301 4:0.46489999 5:0.4637 6:3.1877201 7:8.9630203 8:11.8607 9:13.7532 10:-26.560699 11:-18.279499 12:-27.8295 #
-6.6101675878698907586140443883027e-08 1:0.020496599 2:0.66839802 3:0.21857201 4:0.4497 5:0.43869999 6:3.1837101 7:8.5783901 8:11.3063 9:13.0673 10:-25.255699 11:-17.3566 12:-26.3325 #
6.6101675878698907586140443883027e-08 1:0.023891401 2:0.67887998 3:0.47402701 4:0.4716 5:0.47040001 6:3.1765001 7:8.6142702 8:12.1879 9:13.4719 10:-27.8755 11:-17.916599 12:-26.301901 #
1.9830502763609672275842133164908e-07 1:0.019849701 2:0.70895302 3:0.60560399 4:0.4364 5:0.42039999 6:3.1596301 7:7.8829002 8:10.7924 9:12.6551 10:-24.776899 11:-16.6201 12:-24.4168 #
3.3050837939349456440048182111202e-07 1:0.019849701 2:0.74891597 3:0.69090903 4:0.47549999 5:0.3761 6:3.1448801 7:7.8980999 8:10.1422 9:12.9654 10:-24.633301 11:-16.9606 12:-24.7136 #
3.3050837939349456440048182111202e-07 1:0.032359801 2:0.26468399 3:0.24982201 4:0.45210001 5:0.43130001 6:3.1839001 7:8.1909399 8:11.2841 9:16.4296 10:-30.329399 11:-20.928301 12:-30.659401 #
1.9830502763609672275842133164908e-07 1:0.022689501 2:0.42839399 3:0.24676301 4:0.46489999 5:0.4637 6:3.1877201 7:8.9630203 8:11.8607 9:13.7532 10:-26.560699 11:-18.279499 12:-27.8295 #
6.6101675878698907586140443883027e-08 1:0.020496599 2:0.66839802 3:0.21857201 4:0.4497 5:0.43869999 6:3.1837101 7:8.5783901 8:11.3063 9:13.0673 10:-25.255699 11:-17.3566 12:-26.3325 #
-6.6101675878698907586140443883027e-08 1:0.023891401 2:0.67887998 3:0.47402701 4:0.4716 5:0.47040001 6:3.1765001 7:8.6142702 8:12.1879 9:13.4719 10:-27.8755 11:-17.916599 12:-26.301901 #
-1.9830502763609672275842133164908e-07 1:0.019849701 2:0.70895302 3:0.60560399 4:0.4364 5:0.42039999 6:3.1596301 7:7.8829002 8:10.7924 9:12.6551 10:-24.776899 11:-16.6201 12:-24.4168 #
-3.3050837939349456440048182111202e-07 1:0.019849701 2:0.74891597 3:0.69090903 4:0.47549999 5:0.3761 6:3.1448801 7:7.8980999 8:10.1422 9:12.9654 10:-24.633301 11:-16.9606 12:-24.7136 #
-3.3050837939349456440048182111202e-07 1:0.0384642 2:0.215189 3:0.21676201 4:0.45680001 5:0.44159999 6:3.18308 7:8.5162096 8:11.8054 9:12.9188 10:-25.3314 11:-18.1359 12:-25.621799 #
-1.9830502763609672275842133164908e-07 1:0.0268114 2:0.46722001 3:0.232401 4:0.46610001 5:0.46349999 6:3.1863401 7:9.8326302 8:12.8178 9:13.4492 10:-27.4217 11:-19.876301 12:-26.5874 #
-6.6101675878698907586140443883027e-08 1:0.0329316 2:0.67959797 3:0.227264 4:0.44069999 5:0.42250001 6:3.1748099 7:8.5063601 8:11.1937 9:12.364 10:-24.175301 11:-16.886299 12:-24.5714 #
6.6101675878698907586140443883027e-08 1:0.0173003 2:0.67840803 3:0.47546899 4:0.47749999 5:0.4747 6:3.17854 7:8.5448399 8:13.5684 9:14.1291 10:-28.1579 11:-18.6113 12:-28.1024 #
1.9830502763609672275842133164908e-07 1:0.0161289 2:0.76822501 3:0.64524603 4:0.39669999 5:0.39629999 6:3.1566899 7:7.8534598 8:10.5605 9:12.2997 10:-24.3615 11:-16.255501 12:-23.741899 #
3.3050837939349456440048182111202e-07 1:0.0151435 2:0.749493 3:0.68471998 4:0.46740001 5:0.3752 6:3.1444099 7:7.8673701 8:10.1159 9:12.9337 10:-24.6108 11:-16.9345 12:-24.6071 #
3.3050837939349456440048182111202e-07 1:0.0384642 2:0.215189 3:0.21676201 4:0.45680001 5:0.44159999 6:3.18308 7:8.5162096 8:11.8054 9:12.9188 10:-25.3314 11:-18.1359 12:-25.621799 #
1.9830502763609672275842133164908e-07 1:0.0268114 2:0.46722001 3:0.232401 4:0.46610001 5:0.46349999 6:3.1863401 7:9.8326302 8:12.8178 9:13.4492 10:-27.4217 11:-19.876301 12:-26.5874 #
6.6101675878698907586140443883027e-08 1:0.0329316 2:0.67959797 3:0.227264 4:0.44069999 5:0.42250001 6:3.1748099 7:8.5063601 8:11.1937 9:12.364 10:-24.175301 11:-16.886299 12:-24.5714 #
-6.6101675878698907586140443883027e-08 1:0.0173003 2:0.67840803 3:0.47546899 4:0.47749999 5:0.4747 6:3.17854 7:8.5448399 8:13.5684 9:14.1291 10:-28.1579 11:-18.6113 12:-28.1024 #
-1.9830502763609672275842133164908e-07 1:0.0161289 2:0.76822501 3:0.64524603 4:0.39669999 5:0.39629999 6:3.1566899 7:7.8534598 8:10.5605 9:12.2997 10:-24.3615 11:-16.255501 12:-23.741899 #
-3.3050837939349456440048182111202e-07 1:0.0151435 2:0.749493 3:0.68471998 4:0.46740001 5:0.3752 6:3.1444099 7:7.8673701 8:10.1159 9:12.9337 10:-24.6108 11:-16.9345 12:-24.6071 #
-9.3540477572274476725466786294905e-07 1:0.053944401 2:0.21277501 3:0.124362 4:0.4183 5:0.4075 6:3.1700799 7:9.20965 8:11.6565 9:12.6565 10:-24.9608 11:-17.4685 12:-24.966299 #
-6.2360318381516317816977857529936e-07 1:0.039269999 2:0.39989901 3:0.130794 4:0.44319999 5:0.44299999 6:3.18209 7:8.4729099 8:11.4839 9:13.0927 10:-25.455099 11:-17.357401 12:-25.6504 #
-3.1180159190758158908488928764968e-07 1:0.037537601 2:0.67477101 3:0.120988 4:0.4632 5:0.4488 6:3.1828101 7:8.6810598 8:12.2865 9:13.1907 10:-25.974199 11:-17.7656 12:-26.2938 #
-0 1:0.0287519 2:0.64277899 3:0.26264799 4:0.47400001 5:0.4686 6:3.1847301 7:8.9837103 8:12.68 9:14.379 10:-28.4708 11:-19.273399 12:-27.9254 #
3.1180159190758158908488928764968e-07 1:0.017823899 2:0.664783 3:0.44897899 4:0.47979999 5:0.463 6:3.17853 7:9.1509104 8:12.1559 9:14.6132 10:-28.0774 11:-19.731701 12:-28.2542 #
6.2360318381516317816977857529936e-07 1:0.018034199 2:0.73889399 3:0.606341 4:0.4025 5:0.40189999 6:3.16394 7:8.0693903 8:10.6027 9:12.4731 10:-24.1457 11:-16.5968 12:-24.178499 #
9.3540477572274476725466786294905e-07 1:0.0177489 2:0.67880797 3:0.64064699 4:0.4869 5:0.3721 6:3.1477201 7:7.82129 8:10.1158 9:13.5141 10:-27.1157 11:-17.7279 12:-25.329 #
9.3540477572274476725466786294905e-07 1:0.053944401 2:0.21277501 3:0.124362 4:0.4183 5:0.4075 6:3.1700799 7:9.20965 8:11.6565 9:12.6565 10:-24.9608 11:-17.4685 12:-24.966299 #
6.2360318381516317816977857529936e-07 1:0.039269999 2:0.39989901 3:0.130794 4:0.44319999 5:0.44299999 6:3.18209 7:8.4729099 8:11.4839 9:13.0927 10:-25.455099 11:-17.357401 12:-25.6504 #
3.1180159190758158908488928764968e-07 1:0.037537601 2:0.67477101 3:0.120988 4:0.4632 5:0.4488 6:3.1828101 7:8.6810598 8:12.2865 9:13.1907 10:-25.974199 11:-17.7656 12:-26.2938 #
0 1:0.0287519 2:0.64277899 3:0.26264799 4:0.47400001 5:0.4686 6:3.1847301 7:8.9837103 8:12.68 9:14.379 10:-28.4708 11:-19.273399 12:-27.9254 #
-3.1180159190758158908488928764968e-07 1:0.017823899 2:0.664783 3:0.44897899 4:0.47979999 5:0.463 6:3.17853 7:9.1509104 8:12.1559 9:14.6132 10:-28.0774 11:-19.731701 12:-28.2542 #
-6.2360318381516317816977857529936e-07 1:0.018034199 2:0.73889399 3:0.606341 4:0.4025 5:0.40189999 6:3.16394 7:8.0693903 8:10.6027 9:12.4731 10:-24.1457 11:-16.5968 12:-24.178499 #
-9.3540477572274476725466786294905e-07 1:0.0177489 2:0.67880797 3:0.64064699 4:0.4869 5:0.3721 6:3.1477201 7:7.82129 8:10.1158 9:13.5141 10:-27.1157 11:-17.7279 12:-25.329 #
-9.3540477572274476725466786294905e-07 1:0.062651798 2:0.195392 3:0.134307 4:0.46200001 5:0.36680001 6:3.1879499 7:8.7458601 8:11.6789 9:13.2832 10:-25.959999 11:-17.6707 12:-25.8773 #
-6.2360318381516317816977857529936e-07 1:0.034203101 2:0.49172899 3:0.15575799 4:0.44459999 5:0.43399999 6:3.1826501 7:8.4365301 8:11.5517 9:14.183 10:-27.050501 11:-18.423599 12:-28.5623 #
-0 1:0.038259599 2:0.67477399 3:0.14748 4:0.43610001 5:0.4355 6:3.16998 7:7.9873099 8:11.3278 9:12.596 10:-24.8869 11:-16.816601 12:-24.6119 #
-3.1180159190758158908488928764968e-07 1:0.027355401 2:0.64210898 3:0.26188299 4:0.45109999 5:0.43889999 6:3.1872301 7:8.9459696 8:11.9342 9:13.0706 10:-25.5849 11:-17.574499 12:-26.2078 #
3.1180159190758158908488928764968e-07 1:0.017204599 2:0.64348602 3:0.42925999 4:0.486 5:0.46259999 6:3.1812201 7:9.5397501 8:12.0418 9:14.3968 10:-27.6518 11:-19.2318 12:-28.025801 #
6.2360318381516317816977857529936e-07 1:0.018322101 2:0.69689399 3:0.58794999 4:0.42340001 5:0.4156 6:3.1633501 7:7.9699402 8:10.7861 9:12.3873 10:-24.5965 11:-16.3738 12:-23.9867 #
9.3540477572274476725466786294905e-07 1:0.0147465 2:0.70622802 3:0.63631302 4:0.48190001 5:0.3707 6:3.14433 7:7.7816401 8:10.0855 9:12.8597 10:-24.3946 11:-16.7812 12:-24.6341 #
9.3540477572274476725466786294905e-07 1:0.062651798 2:0.195392 3:0.134307 4:0.46200001 5:0.36680001 6:3.1879499 7:8.7458601 8:11.6789 9:13.2832 10:-25.959999 11:-17.6707 12:-25.8773 #
6.2360318381516317816977857529936e-07 1:0.034203101 2:0.49172899 3:0.15575799 4:0.44459999 5:0.43399999 6:3.1826501 7:8.4365301 8:11.5517 9:14.183 10:-27.050501 11:-18.423599 12:-28.5623 #
3.1180159190758158908488928764968e-07 1:0.038259599 2:0.67477399 3:0.14748 4:0.43610001 5:0.4355 6:3.16998 7:7.9873099 8:11.3278 9:12.596 10:-24.8869 11:-16.816601 12:-24.6119 #
0 1:0.027355401 2:0.64210898 3:0.26188299 4:0.45109999 5:0.43889999 6:3.1872301 7:8.9459696 8:11.9342 9:13.0706 10:-25.5849 11:-17.574499 12:-26.2078 #
-3.1180159190758158908488928764968e-07 1:0.017204599 2:0.64348602 3:0.42925999 4:0.486 5:0.46259999 6:3.1812201 7:9.5397501 8:12.0418 9:14.3968 10:-27.6518 11:-19.2318 12:-28.025801 #
-6.2360318381516317816977857529936e-07 1:0.018322101 2:0.69689399 3:0.58794999 4:0.42340001 5:0.4156 6:3.1633501 7:7.9699402 8:10.7861 9:12.3873 10:-24.5965 11:-16.3738 12:-23.9867 #
-9.3540477572274476725466786294905e-07 1:0.0147465 2:0.70622802 3:0.63631302 4:0.48190001 5:0.3707 6:3.14433 7:7.7816401 8:10.0855 9:12.8597 10:-24.3946 11:-16.7812 12:-24.6341 #
-7.7950397976895402565178242251798e-07 1:0.0603237 2:0.14560901 3:0.14518601 4:0.45879999 5:0.44240001 6:3.1313901 7:9.1846199 8:11.9781 9:12.2647 10:-24.396601 11:-17.171499 12:-25.0499 #
-4.6770238786137238362733393147452e-07 1:0.0540471 2:0.33084899 3:0.14338399 4:0.4657 5:0.45289999 6:3.1856899 7:9.4240303 8:12.5098 9:13.8572 10:-27.657101 11:-18.858601 12:-27.0539 #
-1.5590079595379079454244464382484e-07 1:0.035359401 2:0.442379 3:0.33222899 4:0.458 5:0.45100001 6:3.18927 7:9.0926399 8:11.273 9:13.4224 10:-25.7876 11:-17.988199 12:-26.325899 #
1.5590079595379079454244464382484e-07 1:0.026026201 2:0.69989598 3:0.47556499 4:0.46340001 5:0.45899999 6:3.1788299 7:8.9221601 8:12.0997 9:14.4192 10:-27.8006 11:-18.9289 12:-27.8622 #
4.6770238786137238362733393147452e-07 1:0.0284387 2:0.76458597 3:0.60720599 4:0.40169999 5:0.3953 6:3.1615 7:8.0266304 8:10.6513 9:12.6666 10:-24.546 11:-16.7304 12:-24.423201 #
7.7950397976895402565178242251798e-07 1:0.028643699 2:0.75094801 3:0.71522897 4:0.48010001 5:0.38229999 6:3.1477599 7:7.9918299 8:10.143 9:13.9821 10:-26.705601 11:-18.4149 12:-26.055201 #
7.7950397976895402565178242251798e-07 1:0.0603237 2:0.14560901 3:0.14518601 4:0.45879999 5:0.44240001 6:3.1313901 7:9.1846199 8:11.9781 9:12.2647 10:-24.396601 11:-17.171499 12:-25.0499 #
4.6770238786137238362733393147452e-07 1:0.0540471 2:0.33084899 3:0.14338399 4:0.4657 5:0.45289999 6:3.1856899 7:9.4240303 8:12.5098 9:13.8572 10:-27.657101 11:-18.858601 12:-27.0539 #
1.5590079595379079454244464382484e-07 1:0.035359401 2:0.442379 3:0.33222899 4:0.458 5:0.45100001 6:3.18927 7:9.0926399 8:11.273 9:13.4224 10:-25.7876 11:-17.988199 12:-26.325899 #
-1.5590079595379079454244464382484e-07 1:0.026026201 2:0.69989598 3:0.47556499 4:0.46340001 5:0.45899999 6:3.1788299 7:8.9221601 8:12.0997 9:14.4192 10:-27.8006 11:-18.9289 12:-27.8622 #
-4.6770238786137238362733393147452e-07 1:0.0284387 2:0.76458597 3:0.60720599 4:0.40169999 5:0.3953 6:3.1615 7:8.0266304 8:10.6513 9:12.6666 10:-24.546 11:-16.7304 12:-24.423201 #
-7.7950397976895402565178242251798e-07 1:0.028643699 2:0.75094801 3:0.71522897 4:0.48010001 5:0.38229999 6:3.1477599 7:7.9918299 8:10.143 9:13.9821 10:-26.705601 11:-18.4149 12:-26.055201 #
-7.7950397976895402565178242251798e-07 1:0.060358498 2:0.172152 3:0.16320001 4:0.4727 5:0.4655 6:3.18488 7:9.1752796 8:11.6739 9:13.2344 10:-25.9445 11:-18.0625 12:-25.7684 #
-4.6770238786137238362733393147452e-07 1:0.046989601 2:0.31788501 3:0.129776 4:0.4682 5:0.44440001 6:3.18416 7:8.3441801 8:11.3402 9:12.7352 10:-24.875 11:-17.0291 12:-24.9856 #
-1.5590079595379079454244464382484e-07 1:0.038715102 2:0.363464 3:0.31999901 4:0.47009999 5:0.45289999 6:3.18349 7:8.6457005 8:11.5401 9:14.3563 10:-27.532801 11:-19.6632 12:-27.3979 #
1.5590079595379079454244464382484e-07 1:0.0259955 2:0.45379099 3:0.371223 4:0.45469999 5:0.4479 6:3.1921301 7:9.0158701 8:11.5828 9:13.1935 10:-26.2104 11:-17.7115 12:-25.594 #
4.6770238786137238362733393147452e-07 1:0.020736501 2:0.658943 3:0.43375599 4:0.4774 5:0.4686 6:3.1798601 7:9.4584198 8:12.0651 9:14.2677 10:-28.1642 11:-19.3262 12:-27.441799 #
7.7950397976895402565178242251798e-07 1:0.019708499 2:0.75124902 3:0.68474001 4:0.4761 5:0.3795 6:3.1434801 7:7.8738399 8:10.1168 9:13.099 10:-24.7083 11:-17.0361 12:-25.7988 #
7.7950397976895402565178242251798e-07 1:0.060358498 2:0.172152 3:0.16320001 4:0.4727 5:0.4655 6:3.18488 7:9.1752796 8:11.6739 9:13.2344 10:-25.9445 11:-18.0625 12:-25.7684 #
4.6770238786137238362733393147452e-07 1:0.046989601 2:0.31788501 3:0.129776 4:0.4682 5:0.44440001 6:3.18416 7:8.3441801 8:11.3402 9:12.7352 10:-24.875 11:-17.0291 12:-24.9856 #
1.5590079595379079454244464382484e-07 1:0.038715102 2:0.363464 3:0.31999901 4:0.47009999 5:0.45289999 6:3.18349 7:8.6457005 8:11.5401 9:14.3563 10:-27.532801 11:-19.6632 12:-27.3979 #
-1.5590079595379079454244464382484e-07 1:0.0259955 2:0.45379099 3:0.371223 4:0.45469999 5:0.4479 6:3.1921301 7:9.0158701 8:11.5828 9:13.1935 10:-26.2104 11:-17.7115 12:-25.594 #
-4.6770238786137238362733393147452e-07 1:0.020736501 2:0.658943 3:0.43375599 4:0.4774 5:0.4686 6:3.1798601 7:9.4584198 8:12.0651 9:14.2677 10:-28.1642 11:-19.3262 12:-27.441799 #
-7.7950397976895402565178242251798e-07 1:0.019708499 2:0.75124902 3:0.68474001 4:0.4761 5:0.3795 6:3.1434801 7:7.8738399 8:10.1168 9:13.099 10:-24.7083 11:-17.0361 12:-25.7988 #
-7.7950397976895402565178242251798e-07 1:0.0453173 2:0.32592899 3:0.133448 4:0.46520001 5:0.42919999 6:3.1754799 7:8.3203602 8:10.9932 9:12.73 10:-24.594999 11:-16.9694 12:-25.498501 #
-4.6770238786137238362733393147452e-07 1:0.038143501 2:0.33056799 3:0.27429399 4:0.48089999 5:0.4289 6:3.18327 7:9.1567001 8:10.9809 9:12.8116 10:-24.7414 11:-17.513399 12:-25.1294 #
-1.5590079595379079454244464382484e-07 1:0.0218403 2:0.435361 3:0.33956501 4:0.4774 5:0.45820001 6:3.18525 7:9.8547096 8:11.887 9:14.4361 10:-27.602501 11:-19.464701 12:-28.425301 #
1.5590079595379079454244464382484e-07 1:0.018476199 2:0.661313 3:0.430713 4:0.48069999 5:0.46630001 6:3.1830399 7:10.2846 8:12.6164 9:13.6006 10:-27.2078 11:-18.751801 12:-26.732201 #
4.6770238786137238362733393147452e-07 1:0.019220199 2:0.70259899 3:0.57624602 4:0.42219999 5:0.41479999 6:3.1689701 7:8.1097698 8:10.7625 9:12.5129 10:-24.3417 11:-16.6035 12:-24.2668 #
7.7950397976895402565178242251798e-07 1:0.019220199 2:0.73554999 3:0.68015999 4:0.4743 5:0.38029999 6:3.1459799 7:7.8710999 8:10.1377 9:13.0466 10:-24.8496 11:-17.079599 12:-24.742001 #
7.7950397976895402565178242251798e-07 1:0.0453173 2:0.32592899 3:0.133448 4:0.46520001 5:0.42919999 6:3.1754799 7:8.3203602 8:10.9932 9:12.73 10:-24.594999 11:-16.9694 12:-25.498501 #
4.6770238786137238362733393147452e-07 1:0.038143501 2:0.33056799 3:0.27429399 4:0.48089999 5:0.4289 6:3.18327 7:9.1567001 8:10.9809 9:12.8116 10:-24.7414 11:-17.513399 12:-25.1294 #
1.5590079595379079454244464382484e-07 1:0.0218403 2:0.435361 3:0.33956501 4:0.4774 5:0.45820001 6:3.18525 7:9.8547096 8:11.887 9:14.4361 10:-27.602501 11:-19.464701 12:-28.425301 #
-1.5590079595379079454244464382484e-07 1:0.018476199 2:0.661313 3:0.430713 4:0.48069999 5:0.46630001 6:3.1830399 7:10.2846 8:12.6164 9:13.6006 10:-27.2078 11:-18.751801 12:-26.732201 #
-4.6770238786137238362733393147452e-07 1:0.019220199 2:0.70259899 3:0.57624602 4:0.42219999 5:0.41479999 6:3.1689701 7:8.1097698 8:10.7625 9:12.5129 10:-24.3417 11:-16.6035 12:-24.2668 #
-7.7950397976895402565178242251798e-07 1:0.019220199 2:0.73554999 3:0.68015999 4:0.4743 5:0.38029999 6:3.1459799 7:7.8710999 8:10.1377 9:13.0466 10:-24.8496 11:-17.079599 12:-24.742001 #
-6.2360318381516317816977857529936e-07 1:0.0292398 2:0.31283101 3:0.204413 4:0.46070001 5:0.4447 6:3.1909399 7:9.4037104 8:11.8669 9:14.1749 10:-27.5812 11:-19.5054 12:-27.2362 #
-3.1180159190758158908488928764968e-07 1:0.0375937 2:0.64505798 3:0.207716 4:0.4745 5:0.4391 6:3.17746 7:8.4046602 8:11.7977 9:12.6962 10:-24.944901 11:-16.9792 12:-25.984301 #
-0 1:0.029130699 2:0.66058201 3:0.44511199 4:0.47510001 5:0.4747 6:3.1821301 7:9.3878298 8:13.2415 9:14.2089 10:-28.510599 11:-19.209101 12:-27.9499 #
6.2360318381516317816977857529936e-07 1:0.0266307 2:0.71306598 3:0.59963399 4:0.40450001 5:0.4039 6:3.15874 7:7.86414 8:10.6096 9:12.2195 10:-24.743401 11:-16.156601 12:-23.6353 #
3.1180159190758158908488928764968e-07 1:0.025699399 2:0.67037398 3:0.66553801 4:0.47690001 5:0.37869999 6:3.1505401 7:8.0638399 8:10.1443 9:12.946 10:-24.658001 11:-16.999399 12:-24.6264 #
6.2360318381516317816977857529936e-07 1:0.0292398 2:0.31283101 3:0.204413 4:0.46070001 5:0.4447 6:3.1909399 7:9.4037104 8:11.8669 9:14.1749 10:-27.5812 11:-19.5054 12:-27.2362 #
3.1180159190758158908488928764968e-07 1:0.0375937 2:0.64505798 3:0.207716 4:0.4745 5:0.4391 6:3.17746 7:8.4046602 8:11.7977 9:12.6962 10:-24.944901 11:-16.9792 12:-25.984301 #
0 1:0.029130699 2:0.66058201 3:0.44511199 4:0.47510001 5:0.4747 6:3.1821301 7:9.3878298 8:13.2415 9:14.2089 10:-28.510599 11:-19.209101 12:-27.9499 #
-3.1180159190758158908488928764968e-07 1:0.0266307 2:0.71306598 3:0.59963399 4:0.40450001 5:0.4039 6:3.15874 7:7.86414 8:10.6096 9:12.2195 10:-24.743401 11:-16.156601 12:-23.6353 #
-6.2360318381516317816977857529936e-07 1:0.025699399 2:0.67037398 3:0.66553801 4:0.47690001 5:0.37869999 6:3.1505401 7:8.0638399 8:10.1443 9:12.946 10:-24.658001 11:-16.999399 12:-24.6264 #
-6.2360318381516317816977857529936e-07 1:0.0313324 2:0.38059399 3:0.238609 4:0.46340001 5:0.4366 6:3.1874399 7:9.4260397 8:11.6257 9:13.6619 10:-27.3591 11:-18.484301 12:-26.3074 #
-3.1180159190758158908488928764968e-07 1:0.025338501 2:0.64681798 3:0.198604 4:0.46689999 5:0.44949999 6:3.1798201 7:8.4866199 8:11.2941 9:13.0155 10:-25.267 11:-18.201599 12:-25.392401 #
-0 1:0.0201337 2:0.640944 3:0.42205501 4:0.47189999 5:0.4707 6:3.18115 7:9.7831097 8:12.4702 9:14.1277 10:-28.5835 11:-19.0816 12:-27.4277 #
3.1180159190758158908488928764968e-07 1:0.0161759 2:0.70256501 3:0.56724298 4:0.43599999 5:0.4172 6:3.1650701 7:8.1500902 8:10.7873 9:12.6167 10:-24.471201 11:-16.780701 12:-24.467199 #
6.2360318381516317816977857529936e-07 1:0.0182685 2:0.69664103 3:0.66527098 4:0.47319999 5:0.37740001 6:3.1486101 7:8.0016499 8:10.1576 9:13.1634 10:-25.187799 11:-17.9708 12:-24.8689 #
6.2360318381516317816977857529936e-07 1:0.0313324 2:0.38059399 3:0.238609 4:0.46340001 5:0.4366 6:3.1874399 7:9.4260397 8:11.6257 9:13.6619 10:-27.3591 11:-18.484301 12:-26.3074 #
3.1180159190758158908488928764968e-07 1:0.025338501 2:0.64681798 3:0.198604 4:0.46689999 5:0.44949999 6:3.1798201 7:8.4866199 8:11.2941 9:13.0155 10:-25.267 11:-18.201599 12:-25.392401 #
0 1:0.0201337 2:0.640944 3:0.42205501 4:0.47189999 5:0.4707 6:3.18115 7:9.7831097 8:12.4702 9:14.1277 10:-28.5835 11:-19.0816 12:-27.4277 #
-3.1180159190758158908488928764968e-07 1:0.0161759 2:0.70256501 3:0.56724298 4:0.43599999 5:0.4172 6:3.1650701 7:8.1500902 8:10.7873 9:12.6167 10:-24.471201 11:-16.780701 12:-24.467199 #
-6.2360318381516317816977857529936e-07 1:0.0182685 2:0.69664103 3:0.66527098 4:0.47319999 5:0.37740001 6:3.1486101 7:8.0016499 8:10.1576 9:13.1634 10:-25.187799 11:-17.9708 12:-24.8689 #
