SVM-light Version V6.20
1 # kernel type
3 # kernel parameter -d 
1 # kernel parameter -g 
1 # kernel parameter -s 
1 # kernel parameter -r 
empty# kernel parameter -u 
13 # highest feature index 
54 # number of training documents 
1855 # number of support vectors plus 1 
0 # threshold b, each following line is a SV (starting with alpha*y)
-2.5810750882918094886565035645683e-12 1:0.061717901 2:0.214276 3:0.16282199 4:0.45899999 5:0.45820001 6:3.1852 7:8.1819897 8:13.0537 9:13.3597 10:-26.567699 11:-17.5065 12:-27.682699 #
2.5810750882918094886565035645683e-12 1:0.036607299 2:0.342343 3:0.221829 4:0.45140001 5:0.4404 6:3.18818 7:8.6331902 8:12.0015 9:13.1779 10:-26.302 11:-17.515699 12:-25.787001 #
-1.2905375441459048251076084769158e-11 1:0.028344201 2:0.42942601 3:0.32578301 4:0.48210001 5:0.45930001 6:3.1845701 7:9.4694405 8:12.3903 9:14.6595 10:-28.1847 11:-19.5464 12:-29.579399 #
-7.7432252648754276581759437473888e-12 1:0.023954401 2:0.679645 3:0.464533 4:0.47119999 5:0.4666 6:3.1784999 7:8.73489 8:12.1111 9:13.4056 10:-26.412701 11:-17.818399 12:-26.247 #
1.2905375441459048251076084769158e-11 1:0.0263725 2:0.78007799 3:0.65075201 4:0.39120001 5:0.3858 6:3.1597199 7:7.8916302 8:10.6346 9:12.3606 10:-24.519899 11:-16.306499 12:-23.868799 #
7.7432252648754276581759437473888e-12 1:0.019978501 2:0.73060101 3:0.68176299 4:0.479 5:0.3748 6:3.1461201 7:8.0235596 8:10.1099 9:13.0918 10:-24.9737 11:-17.223499 12:-24.762199 #
1.2905375441459048251076084769158e-11 1:0.061717901 2:0.214276 3:0.16282199 4:0.45899999 5:0.45820001 6:3.1852 7:8.1819897 8:13.0537 9:13.3597 10:-26.567699 11:-17.5065 12:-27.682699 #
7.7432252648754276581759437473888e-12 1:0.036607299 2:0.342343 3:0.221829 4:0.45140001 5:0.4404 6:3.18818 7:8.6331902 8:12.0015 9:13.1779 10:-26.302 11:-17.515699 12:-25.787001 #
2.5810750882918094886565035645683e-12 1:0.028344201 2:0.42942601 3:0.32578301 4:0.48210001 5:0.45930001 6:3.1845701 7:9.4694405 8:12.3903 9:14.6595 10:-28.1847 11:-19.5464 12:-29.579399 #
-2.5810750882918094886565035645683e-12 1:0.023954401 2:0.679645 3:0.464533 4:0.47119999 5:0.4666 6:3.1784999 7:8.73489 8:12.1111 9:13.4056 10:-26.412701 11:-17.818399 12:-26.247 #
-7.7432252648754276581759437473888e-12 1:0.0263725 2:0.78007799 3:0.65075201 4:0.39120001 5:0.3858 6:3.1597199 7:7.8916302 8:10.6346 9:12.3606 10:-24.519899 11:-16.306499 12:-23.868799 #
-1.2905375441459048251076084769158e-11 1:0.019978501 2:0.73060101 3:0.68176299 4:0.479 5:0.3748 6:3.1461201 7:8.0235596 8:10.1099 9:13.0918 10:-24.9737 11:-17.223499 12:-24.762199 #
2.5810750882918094886565035645683e-12 1:0.063808396 2:0.22414801 3:0.230884 4:0.45550001 5:0.4479 6:3.1730299 7:8.6868896 8:12.1783 9:13.2656 10:-26.7124 11:-17.7101 12:-25.995399 #
-7.7432252648754276581759437473888e-12 1:0.0298556 2:0.43734601 3:0.21441799 4:0.46619999 5:0.46079999 6:3.19293 7:9.48283 8:12.0081 9:13.9915 10:-26.9951 11:-18.7789 12:-27.868601 #
2.5810750882918094886565035645683e-12 1:0.031711299 2:0.63616103 3:0.20388301 4:0.4698 5:0.46360001 6:3.1770899 7:8.3049402 8:11.446 9:13.1579 10:-26.080601 11:-17.327299 12:-25.4727 #
-1.2905375441459048251076084769158e-11 1:0.023559701 2:0.66042602 3:0.45060501 4:0.48159999 5:0.479 6:3.1791101 7:9.1256704 8:13.4413 9:15.2183 10:-29.6912 11:-19.807199 12:-29.7064 #
1.2905375441459048251076084769158e-11 1:0.0209851 2:0.68513697 3:0.55806798 4:0.42989999 5:0.41589999 6:3.1645701 7:8.1208296 8:10.6857 9:12.4077 10:-24.810499 11:-16.468201 12:-23.9587 #
2.5810750882918094886565035645683e-12 1:0.0207392 2:0.70586401 3:0.678765 4:0.47299999 5:0.37279999 6:3.14838 7:8.0108604 8:10.0921 9:13.2294 10:-25.129299 11:-18.4321 12:-24.9779 #
1.2905375441459048251076084769158e-11 1:0.063808396 2:0.22414801 3:0.230884 4:0.45550001 5:0.4479 6:3.1730299 7:8.6868896 8:12.1783 9:13.2656 10:-26.7124 11:-17.7101 12:-25.995399 #
7.7432252648754276581759437473888e-12 1:0.0298556 2:0.43734601 3:0.21441799 4:0.46619999 5:0.46079999 6:3.19293 7:9.48283 8:12.0081 9:13.9915 10:-26.9951 11:-18.7789 12:-27.868601 #
2.5810750882918094886565035645683e-12 1:0.031711299 2:0.63616103 3:0.20388301 4:0.4698 5:0.46360001 6:3.1770899 7:8.3049402 8:11.446 9:13.1579 10:-26.080601 11:-17.327299 12:-25.4727 #
-2.5810750882918094886565035645683e-12 1:0.023559701 2:0.66042602 3:0.45060501 4:0.48159999 5:0.479 6:3.1791101 7:9.1256704 8:13.4413 9:15.2183 10:-29.6912 11:-19.807199 12:-29.7064 #
-7.7432252648754276581759437473888e-12 1:0.0209851 2:0.68513697 3:0.55806798 4:0.42989999 5:0.41589999 6:3.1645701 7:8.1208296 8:10.6857 9:12.4077 10:-24.810499 11:-16.468201 12:-23.9587 #
-1.2905375441459048251076084769158e-11 1:0.0207392 2:0.70586401 3:0.678765 4:0.47299999 5:0.37279999 6:3.14838 7:8.0108604 8:10.0921 9:13.2294 10:-25.129299 11:-18.4321 12:-24.9779 #
2.5810750882918094886565035645683e-12 1:0.052926101 2:0.21851 3:0.151601 4:0.45370001 5:0.45210001 6:3.18431 7:8.5915699 8:11.712 9:13.6332 10:-26.313801 11:-17.993799 12:-27.0271 #
-2.5810750882918094886565035645683e-12 1:0.0301772 2:0.33936301 3:0.222817 4:0.4691 5:0.4621 6:3.19259 7:10.623 8:11.9587 9:13.8586 10:-26.788401 11:-21.8664 12:-27.2838 #
-7.7432252648754276581759437473888e-12 1:0.0265602 2:0.66437203 3:0.21386699 4:0.47240001 5:0.46340001 6:3.1837699 7:9.1595697 8:13.2161 9:14.6748 10:-28.669001 11:-19.700399 12:-28.968 #
-1.2905375441459048251076084769158e-11 1:0.0206437 2:0.65777898 3:0.42061901 4:0.47710001 5:0.4693 6:3.1840899 7:11.3645 8:12.9096 9:14.268 10:-28.2036 11:-20.1439 12:-27.906 #
1.2905375441459048251076084769158e-11 1:0.0214829 2:0.745332 3:0.60580897 4:0.39829999 5:0.3915 6:3.1608801 7:7.9128199 8:10.5804 9:12.309 10:-24.164801 11:-16.299601 12:-23.789101 #
7.7432252648754276581759437473888e-12 1:0.0152145 2:0.676884 3:0.64348102 4:0.4734 5:0.36379999 6:3.1486499 7:7.9513602 8:10.0512 9:13.337 10:-26.0425 11:-17.692301 12:-25.0331 #
1.2905375441459048251076084769158e-11 1:0.052926101 2:0.21851 3:0.151601 4:0.45370001 5:0.45210001 6:3.18431 7:8.5915699 8:11.712 9:13.6332 10:-26.313801 11:-17.993799 12:-27.0271 #
7.7432252648754276581759437473888e-12 1:0.0301772 2:0.33936301 3:0.222817 4:0.4691 5:0.4621 6:3.19259 7:10.623 8:11.9587 9:13.8586 10:-26.788401 11:-21.8664 12:-27.2838 #
2.5810750882918094886565035645683e-12 1:0.0265602 2:0.66437203 3:0.21386699 4:0.47240001 5:0.46340001 6:3.1837699 7:9.1595697 8:13.2161 9:14.6748 10:-28.669001 11:-19.700399 12:-28.968 #
-2.5810750882918094886565035645683e-12 1:0.0206437 2:0.65777898 3:0.42061901 4:0.47710001 5:0.4693 6:3.1840899 7:11.3645 8:12.9096 9:14.268 10:-28.2036 11:-20.1439 12:-27.906 #
-7.7432252648754276581759437473888e-12 1:0.0214829 2:0.745332 3:0.60580897 4:0.39829999 5:0.3915 6:3.1608801 7:7.9128199 8:10.5804 9:12.309 10:-24.164801 11:-16.299601 12:-23.789101 #
-1.2905375441459048251076084769158e-11 1:0.0152145 2:0.676884 3:0.64348102 4:0.4734 5:0.36379999 6:3.1486499 7:7.9513602 8:10.0512 9:13.337 10:-26.0425 11:-17.692301 12:-25.0331 #
-0 1:0.073229499 2:0.201967 3:0.15759 4:0.4506 5:0.4224 6:3.19014 7:9.5557499 8:12.665 9:13.3743 10:-26.394199 11:-18.289801 12:-27.839199 #
-0 1:0.0372306 2:0.42338401 3:0.161431 4:0.4637 5:0.44909999 6:3.1879101 7:9.2467699 8:11.5348 9:13.8894 10:-26.665899 11:-18.7442 12:-26.896999 #
-0 1:0.0331783 2:0.65323502 3:0.141415 4:0.4716 5:0.47040001 6:3.17959 7:8.44205 8:11.5778 9:13.3459 10:-27.1056 11:-17.8414 12:-25.8083 #
-1.0324300353167237954626014258273e-11 1:0.034329001 2:0.667018 3:0.27897099 4:0.4646 5:0.46160001 6:3.1844399 7:10.3989 8:12.1874 9:13.4963 10:-26.808901 11:-18.7651 12:-26.364599 #
-1.5486450529750855316351887494778e-11 1:0.02706 2:0.664002 3:0.42019299 4:0.4826 5:0.47499999 6:3.187 7:10.2358 8:13.9297 9:13.86 10:-27.8382 11:-19.030399 12:-28.002899 #
1.5486450529750855316351887494778e-11 1:0.0196844 2:0.67582101 3:0.55082101 4:0.43900001 5:0.4066 6:3.1675999 7:8.21486 8:10.5749 9:12.6851 10:-24.3167 11:-16.9361 12:-25.3778 #
1.0324300353167237954626014258273e-11 1:0.017887499 2:0.67826998 3:0.64748698 4:0.47409999 5:0.3673 6:3.1503301 7:7.9893498 8:10.0686 9:13.1124 10:-24.7397 11:-17.5268 12:-25.106701 #
1.5486450529750855316351887494778e-11 1:0.073229499 2:0.201967 3:0.15759 4:0.4506 5:0.4224 6:3.19014 7:9.5557499 8:12.665 9:13.3743 10:-26.394199 11:-18.289801 12:-27.839199 #
1.0324300353167237954626014258273e-11 1:0.0372306 2:0.42338401 3:0.161431 4:0.4637 5:0.44909999 6:3.1879101 7:9.2467699 8:11.5348 9:13.8894 10:-26.665899 11:-18.7442 12:-26.896999 #
5.1621501765836189773130071291366e-12 1:0.0331783 2:0.65323502 3:0.141415 4:0.4716 5:0.47040001 6:3.17959 7:8.44205 8:11.5778 9:13.3459 10:-27.1056 11:-17.8414 12:-25.8083 #
0 1:0.034329001 2:0.667018 3:0.27897099 4:0.4646 5:0.46160001 6:3.1844399 7:10.3989 8:12.1874 9:13.4963 10:-26.808901 11:-18.7651 12:-26.364599 #
-5.1621501765836189773130071291366e-12 1:0.02706 2:0.664002 3:0.42019299 4:0.4826 5:0.47499999 6:3.187 7:10.2358 8:13.9297 9:13.86 10:-27.8382 11:-19.030399 12:-28.002899 #
-1.0324300353167237954626014258273e-11 1:0.0196844 2:0.67582101 3:0.55082101 4:0.43900001 5:0.4066 6:3.1675999 7:8.21486 8:10.5749 9:12.6851 10:-24.3167 11:-16.9361 12:-25.3778 #
-1.5486450529750855316351887494778e-11 1:0.017887499 2:0.67826998 3:0.64748698 4:0.47409999 5:0.3673 6:3.1503301 7:7.9893498 8:10.0686 9:13.1124 10:-24.7397 11:-17.5268 12:-25.106701 #
1.0324300353167237954626014258273e-11 1:0.053944401 2:0.21277501 3:0.124362 4:0.4183 5:0.4075 6:3.1700799 7:9.20965 8:11.6565 9:12.6565 10:-24.9608 11:-17.4685 12:-24.966299 #
5.1621501765836189773130071291366e-12 1:0.039269999 2:0.39989901 3:0.130794 4:0.44319999 5:0.44299999 6:3.18209 7:8.4729099 8:11.4839 9:13.0927 10:-25.455099 11:-17.357401 12:-25.6504 #
-0 1:0.037537601 2:0.67477101 3:0.120988 4:0.4632 5:0.4488 6:3.1828101 7:8.6810598 8:12.2865 9:13.1907 10:-25.974199 11:-17.7656 12:-26.2938 #
-1.0324300353167237954626014258273e-11 1:0.0287519 2:0.64277899 3:0.26264799 4:0.47400001 5:0.4686 6:3.1847301 7:8.9837103 8:12.68 9:14.379 10:-28.4708 11:-19.273399 12:-27.9254 #
-1.5486450529750855316351887494778e-11 1:0.017823899 2:0.664783 3:0.44897899 4:0.47979999 5:0.463 6:3.17853 7:9.1509104 8:12.1559 9:14.6132 10:-28.0774 11:-19.731701 12:-28.2542 #
1.5486450529750855316351887494778e-11 1:0.018034199 2:0.73889399 3:0.606341 4:0.4025 5:0.40189999 6:3.16394 7:8.0693903 8:10.6027 9:12.4731 10:-24.1457 11:-16.5968 12:-24.178499 #
-5.1621501765836189773130071291366e-12 1:0.0177489 2:0.67880797 3:0.64064699 4:0.4869 5:0.3721 6:3.1477201 7:7.82129 8:10.1158 9:13.5141 10:-27.1157 11:-17.7279 12:-25.329 #
1.5486450529750855316351887494778e-11 1:0.053944401 2:0.21277501 3:0.124362 4:0.4183 5:0.4075 6:3.1700799 7:9.20965 8:11.6565 9:12.6565 10:-24.9608 11:-17.4685 12:-24.966299 #
1.0324300353167237954626014258273e-11 1:0.039269999 2:0.39989901 3:0.130794 4:0.44319999 5:0.44299999 6:3.18209 7:8.4729099 8:11.4839 9:13.0927 10:-25.455099 11:-17.357401 12:-25.6504 #
5.1621501765836189773130071291366e-12 1:0.037537601 2:0.67477101 3:0.120988 4:0.4632 5:0.4488 6:3.1828101 7:8.6810598 8:12.2865 9:13.1907 10:-25.974199 11:-17.7656 12:-26.2938 #
0 1:0.0287519 2:0.64277899 3:0.26264799 4:0.47400001 5:0.4686 6:3.1847301 7:8.9837103 8:12.68 9:14.379 10:-28.4708 11:-19.273399 12:-27.9254 #
-5.1621501765836189773130071291366e-12 1:0.017823899 2:0.664783 3:0.44897899 4:0.47979999 5:0.463 6:3.17853 7:9.1509104 8:12.1559 9:14.6132 10:-28.0774 11:-19.731701 12:-28.2542 #
-1.0324300353167237954626014258273e-11 1:0.018034199 2:0.73889399 3:0.606341 4:0.4025 5:0.40189999 6:3.16394 7:8.0693903 8:10.6027 9:12.4731 10:-24.1457 11:-16.5968 12:-24.178499 #
-1.5486450529750855316351887494778e-11 1:0.0177489 2:0.67880797 3:0.64064699 4:0.4869 5:0.3721 6:3.1477201 7:7.82129 8:10.1158 9:13.5141 10:-27.1157 11:-17.7279 12:-25.329 #
-0 1:0.062651798 2:0.195392 3:0.134307 4:0.46200001 5:0.36680001 6:3.1879499 7:8.7458601 8:11.6789 9:13.2832 10:-25.959999 11:-17.6707 12:-25.8773 #
-1.0324300353167237954626014258273e-11 1:0.034203101 2:0.49172899 3:0.15575799 4:0.44459999 5:0.43399999 6:3.1826501 7:8.4365301 8:11.5517 9:14.183 10:-27.050501 11:-18.423599 12:-28.5623 #
1.5486450529750855316351887494778e-11 1:0.038259599 2:0.67477399 3:0.14748 4:0.43610001 5:0.4355 6:3.16998 7:7.9873099 8:11.3278 9:12.596 10:-24.8869 11:-16.816601 12:-24.6119 #
-5.1621501765836189773130071291366e-12 1:0.027355401 2:0.64210898 3:0.26188299 4:0.45109999 5:0.43889999 6:3.1872301 7:8.9459696 8:11.9342 9:13.0706 10:-25.5849 11:-17.574499 12:-26.2078 #
-1.5486450529750855316351887494778e-11 1:0.017204599 2:0.64348602 3:0.42925999 4:0.486 5:0.46259999 6:3.1812201 7:9.5397501 8:12.0418 9:14.3968 10:-27.6518 11:-19.2318 12:-28.025801 #
1.0324300353167237954626014258273e-11 1:0.018322101 2:0.69689399 3:0.58794999 4:0.42340001 5:0.4156 6:3.1633501 7:7.9699402 8:10.7861 9:12.3873 10:-24.5965 11:-16.3738 12:-23.9867 #
5.1621501765836189773130071291366e-12 1:0.0147465 2:0.70622802 3:0.63631302 4:0.48190001 5:0.3707 6:3.14433 7:7.7816401 8:10.0855 9:12.8597 10:-24.3946 11:-16.7812 12:-24.6341 #
1.5486450529750855316351887494778e-11 1:0.062651798 2:0.195392 3:0.134307 4:0.46200001 5:0.36680001 6:3.1879499 7:8.7458601 8:11.6789 9:13.2832 10:-25.959999 11:-17.6707 12:-25.8773 #
1.0324300353167237954626014258273e-11 1:0.034203101 2:0.49172899 3:0.15575799 4:0.44459999 5:0.43399999 6:3.1826501 7:8.4365301 8:11.5517 9:14.183 10:-27.050501 11:-18.423599 12:-28.5623 #
5.1621501765836189773130071291366e-12 1:0.038259599 2:0.67477399 3:0.14748 4:0.43610001 5:0.4355 6:3.16998 7:7.9873099 8:11.3278 9:12.596 10:-24.8869 11:-16.816601 12:-24.6119 #
0 1:0.027355401 2:0.64210898 3:0.26188299 4:0.45109999 5:0.43889999 6:3.1872301 7:8.9459696 8:11.9342 9:13.0706 10:-25.5849 11:-17.574499 12:-26.2078 #
-5.1621501765836189773130071291366e-12 1:0.017204599 2:0.64348602 3:0.42925999 4:0.486 5:0.46259999 6:3.1812201 7:9.5397501 8:12.0418 9:14.3968 10:-27.6518 11:-19.2318 12:-28.025801 #
-1.0324300353167237954626014258273e-11 1:0.018322101 2:0.69689399 3:0.58794999 4:0.42340001 5:0.4156 6:3.1633501 7:7.9699402 8:10.7861 9:12.3873 10:-24.5965 11:-16.3738 12:-23.9867 #
-1.5486450529750855316351887494778e-11 1:0.0147465 2:0.70622802 3:0.63631302 4:0.48190001 5:0.3707 6:3.14433 7:7.7816401 8:10.0855 9:12.8597 10:-24.3946 11:-16.7812 12:-24.6341 #
1.2905375441459048251076084769158e-11 1:0.0603237 2:0.14560901 3:0.14518601 4:0.45879999 5:0.44240001 6:3.1313901 7:9.1846199 8:11.9781 9:12.2647 10:-24.396601 11:-17.171499 12:-25.0499 #
-7.7432252648754276581759437473888e-12 1:0.0540471 2:0.33084899 3:0.14338399 4:0.4657 5:0.45289999 6:3.1856899 7:9.4240303 8:12.5098 9:13.8572 10:-27.657101 11:-18.858601 12:-27.0539 #
2.5810750882918094886565035645683e-12 1:0.035359401 2:0.442379 3:0.33222899 4:0.458 5:0.45100001 6:3.18927 7:9.0926399 8:11.273 9:13.4224 10:-25.7876 11:-17.988199 12:-26.325899 #
-1.2905375441459048251076084769158e-11 1:0.026026201 2:0.69989598 3:0.47556499 4:0.46340001 5:0.45899999 6:3.1788299 7:8.9221601 8:12.0997 9:14.4192 10:-27.8006 11:-18.9289 12:-27.8622 #
7.7432252648754276581759437473888e-12 1:0.0284387 2:0.76458597 3:0.60720599 4:0.40169999 5:0.3953 6:3.1615 7:8.0266304 8:10.6513 9:12.6666 10:-24.546 11:-16.7304 12:-24.423201 #
-2.5810750882918094886565035645683e-12 1:0.028643699 2:0.75094801 3:0.71522897 4:0.48010001 5:0.38229999 6:3.1477599 7:7.9918299 8:10.143 9:13.9821 10:-26.705601 11:-18.4149 12:-26.055201 #
1.2905375441459048251076084769158e-11 1:0.0603237 2:0.14560901 3:0.14518601 4:0.45879999 5:0.44240001 6:3.1313901 7:9.1846199 8:11.9781 9:12.2647 10:-24.396601 11:-17.171499 12:-25.0499 #
7.7432252648754276581759437473888e-12 1:0.0540471 2:0.33084899 3:0.14338399 4:0.4657 5:0.45289999 6:3.1856899 7:9.4240303 8:12.5098 9:13.8572 10:-27.657101 11:-18.858601 12:-27.0539 #
2.5810750882918094886565035645683e-12 1:0.035359401 2:0.442379 3:0.33222899 4:0.458 5:0.45100001 6:3.18927 7:9.0926399 8:11.273 9:13.4224 10:-25.7876 11:-17.988199 12:-26.325899 #
-2.5810750882918094886565035645683e-12 1:0.026026201 2:0.69989598 3:0.47556499 4:0.46340001 5:0.45899999 6:3.1788299 7:8.9221601 8:12.0997 9:14.4192 10:-27.8006 11:-18.9289 12:-27.8622 #
-7.7432252648754276581759437473888e-12 1:0.0284387 2:0.76458597 3:0.60720599 4:0.40169999 5:0.3953 6:3.1615 7:8.0266304 8:10.6513 9:12.6666 10:-24.546 11:-16.7304 12:-24.423201 #
-1.2905375441459048251076084769158e-11 1:0.028643699 2:0.75094801 3:0.71522897 4:0.48010001 5:0.38229999 6:3.1477599 7:7.9918299 8:10.143 9:13.9821 10:-26.705601 11:-18.4149 12:-26.055201 #
2.5810750882918094886565035645683e-12 1:0.060358498 2:0.172152 3:0.16320001 4:0.4727 5:0.4655 6:3.18488 7:9.1752796 8:11.6739 9:13.2344 10:-25.9445 11:-18.0625 12:-25.7684 #
1.2905375441459048251076084769158e-11 1:0.046989601 2:0.31788501 3:0.129776 4:0.4682 5:0.44440001 6:3.18416 7:8.3441801 8:11.3402 9:12.7352 10:-24.875 11:-17.0291 12:-24.9856 #
-7.7432252648754276581759437473888e-12 1:0.038715102 2:0.363464 3:0.31999901 4:0.47009999 5:0.45289999 6:3.18349 7:8.6457005 8:11.5401 9:14.3563 10:-27.532801 11:-19.6632 12:-27.3979 #
-2.5810750882918094886565035645683e-12 1:0.0259955 2:0.45379099 3:0.371223 4:0.45469999 5:0.4479 6:3.1921301 7:9.0158701 8:11.5828 9:13.1935 10:-26.2104 11:-17.7115 12:-25.594 #
-1.2905375441459048251076084769158e-11 1:0.020736501 2:0.658943 3:0.43375599 4:0.4774 5:0.4686 6:3.1798601 7:9.4584198 8:12.0651 9:14.2677 10:-28.1642 11:-19.3262 12:-27.441799 #
7.7432252648754276581759437473888e-12 1:0.019708499 2:0.75124902 3:0.68474001 4:0.4761 5:0.3795 6:3.1434801 7:7.8738399 8:10.1168 9:13.099 10:-24.7083 11:-17.0361 12:-25.7988 #
1.2905375441459048251076084769158e-11 1:0.060358498 2:0.172152 3:0.16320001 4:0.4727 5:0.4655 6:3.18488 7:9.1752796 8:11.6739 9:13.2344 10:-25.9445 11:-18.0625 12:-25.7684 #
7.7432252648754276581759437473888e-12 1:0.046989601 2:0.31788501 3:0.129776 4:0.4682 5:0.44440001 6:3.18416 7:8.3441801 8:11.3402 9:12.7352 10:-24.875 11:-17.0291 12:-24.9856 #
2.5810750882918094886565035645683e-12 1:0.038715102 2:0.363464 3:0.31999901 4:0.47009999 5:0.45289999 6:3.18349 7:8.6457005 8:11.5401 9:14.3563 10:-27.532801 11:-19.6632 12:-27.3979 #
-2.5810750882918094886565035645683e-12 1:0.0259955 2:0.45379099 3:0.371223 4:0.45469999 5:0.4479 6:3.1921301 7:9.0158701 8:11.5828 9:13.1935 10:-26.2104 11:-17.7115 12:-25.594 #
-7.7432252648754276581759437473888e-12 1:0.020736501 2:0.658943 3:0.43375599 4:0.4774 5:0.4686 6:3.1798601 7:9.4584198 8:12.0651 9:14.2677 10:-28.1642 11:-19.3262 12:-27.441799 #
-1.2905375441459048251076084769158e-11 1:0.019708499 2:0.75124902 3:0.68474001 4:0.4761 5:0.3795 6:3.1434801 7:7.8738399 8:10.1168 9:13.099 10:-24.7083 11:-17.0361 12:-25.7988 #
1.2905375441459048251076084769158e-11 1:0.0453173 2:0.32592899 3:0.133448 4:0.46520001 5:0.42919999 6:3.1754799 7:8.3203602 8:10.9932 9:12.73 10:-24.594999 11:-16.9694 12:-25.498501 #
2.5810750882918094886565035645683e-12 1:0.038143501 2:0.33056799 3:0.27429399 4:0.48089999 5:0.4289 6:3.18327 7:9.1567001 8:10.9809 9:12.8116 10:-24.7414 11:-17.513399 12:-25.1294 #
-1.2905375441459048251076084769158e-11 1:0.0218403 2:0.435361 3:0.33956501 4:0.4774 5:0.45820001 6:3.18525 7:9.8547096 8:11.887 9:14.4361 10:-27.602501 11:-19.464701 12:-28.425301 #
-7.7432252648754276581759437473888e-12 1:0.018476199 2:0.661313 3:0.430713 4:0.48069999 5:0.46630001 6:3.1830399 7:10.2846 8:12.6164 9:13.6006 10:-27.2078 11:-18.751801 12:-26.732201 #
7.7432252648754276581759437473888e-12 1:0.019220199 2:0.70259899 3:0.57624602 4:0.42219999 5:0.41479999 6:3.1689701 7:8.1097698 8:10.7625 9:12.5129 10:-24.3417 11:-16.6035 12:-24.2668 #
-2.5810750882918094886565035645683e-12 1:0.019220199 2:0.73554999 3:0.68015999 4:0.4743 5:0.38029999 6:3.1459799 7:7.8710999 8:10.1377 9:13.0466 10:-24.8496 11:-17.079599 12:-24.742001 #
1.2905375441459048251076084769158e-11 1:0.0453173 2:0.32592899 3:0.133448 4:0.46520001 5:0.42919999 6:3.1754799 7:8.3203602 8:10.9932 9:12.73 10:-24.594999 11:-16.9694 12:-25.498501 #
7.7432252648754276581759437473888e-12 1:0.038143501 2:0.33056799 3:0.27429399 4:0.48089999 5:0.4289 6:3.18327 7:9.1567001 8:10.9809 9:12.8116 10:-24.7414 11:-17.513399 12:-25.1294 #
2.5810750882918094886565035645683e-12 1:0.0218403 2:0.435361 3:0.33956501 4:0.4774 5:0.45820001 6:3.18525 7:9.8547096 8:11.887 9:14.4361 10:-27.602501 11:-19.464701 12:-28.425301 #
-2.5810750882918094886565035645683e-12 1:0.018476199 2:0.661313 3:0.430713 4:0.48069999 5:0.46630001 6:3.1830399 7:10.2846 8:12.6164 9:13.6006 10:-27.2078 11:-18.751801 12:-26.732201 #
-7.7432252648754276581759437473888e-12 1:0.019220199 2:0.70259899 3:0.57624602 4:0.42219999 5:0.41479999 6:3.1689701 7:8.1097698 8:10.7625 9:12.5129 10:-24.3417 11:-16.6035 12:-24.2668 #
-1.2905375441459048251076084769158e-11 1:0.019220199 2:0.73554999 3:0.68015999 4:0.4743 5:0.38029999 6:3.1459799 7:7.8710999 8:10.1377 9:13.0466 10:-24.8496 11:-17.079599 12:-24.742001 #
-5.1621501765836189773130071291366e-12 1:0.0292398 2:0.31283101 3:0.204413 4:0.46070001 5:0.4447 6:3.1909399 7:9.4037104 8:11.8669 9:14.1749 10:-27.5812 11:-19.5054 12:-27.2362 #
-0 1:0.0375937 2:0.64505798 3:0.207716 4:0.4745 5:0.4391 6:3.17746 7:8.4046602 8:11.7977 9:12.6962 10:-24.944901 11:-16.9792 12:-25.984301 #
-1.0324300353167237954626014258273e-11 1:0.029130699 2:0.66058201 3:0.44511199 4:0.47510001 5:0.4747 6:3.1821301 7:9.3878298 8:13.2415 9:14.2089 10:-28.510599 11:-19.209101 12:-27.9499 #
1.0324300353167237954626014258273e-11 1:0.0266307 2:0.71306598 3:0.59963399 4:0.40450001 5:0.4039 6:3.15874 7:7.86414 8:10.6096 9:12.2195 10:-24.743401 11:-16.156601 12:-23.6353 #
5.1621501765836189773130071291366e-12 1:0.025699399 2:0.67037398 3:0.66553801 4:0.47690001 5:0.37869999 6:3.1505401 7:8.0638399 8:10.1443 9:12.946 10:-24.658001 11:-16.999399 12:-24.6264 #
1.0324300353167237954626014258273e-11 1:0.0292398 2:0.31283101 3:0.204413 4:0.46070001 5:0.4447 6:3.1909399 7:9.4037104 8:11.8669 9:14.1749 10:-27.5812 11:-19.5054 12:-27.2362 #
5.1621501765836189773130071291366e-12 1:0.0375937 2:0.64505798 3:0.207716 4:0.4745 5:0.4391 6:3.17746 7:8.4046602 8:11.7977 9:12.6962 10:-24.944901 11:-16.9792 12:-25.984301 #
0 1:0.029130699 2:0.66058201 3:0.44511199 4:0.47510001 5:0.4747 6:3.1821301 7:9.3878298 8:13.2415 9:14.2089 10:-28.510599 11:-19.209101 12:-27.9499 #
-5.1621501765836189773130071291366e-12 1:0.0266307 2:0.71306598 3:0.59963399 4:0.40450001 5:0.4039 6:3.15874 7:7.86414 8:10.6096 9:12.2195 10:-24.743401 11:-16.156601 12:-23.6353 #
-1.0324300353167237954626014258273e-11 1:0.025699399 2:0.67037398 3:0.66553801 4:0.47690001 5:0.37869999 6:3.1505401 7:8.0638399 8:10.1443 9:12.946 10:-24.658001 11:-16.999399 12:-24.6264 #
-5.1621501765836189773130071291366e-12 1:0.0313324 2:0.38059399 3:0.238609 4:0.46340001 5:0.4366 6:3.1874399 7:9.4260397 8:11.6257 9:13.6619 10:-27.3591 11:-18.484301 12:-26.3074 #
5.1621501765836189773130071291366e-12 1:0.025338501 2:0.64681798 3:0.198604 4:0.46689999 5:0.44949999 6:3.1798201 7:8.4866199 8:11.2941 9:13.0155 10:-25.267 11:-18.201599 12:-25.392401 #
-1.0324300353167237954626014258273e-11 1:0.0201337 2:0.640944 3:0.42205501 4:0.47189999 5:0.4707 6:3.18115 7:9.7831097 8:12.4702 9:14.1277 10:-28.5835 11:-19.0816 12:-27.4277 #
1.0324300353167237954626014258273e-11 1:0.0161759 2:0.70256501 3:0.56724298 4:0.43599999 5:0.4172 6:3.1650701 7:8.1500902 8:10.7873 9:12.6167 10:-24.471201 11:-16.780701 12:-24.467199 #
-0 1:0.0182685 2:0.69664103 3:0.66527098 4:0.47319999 5:0.37740001 6:3.1486101 7:8.0016499 8:10.1576 9:13.1634 10:-25.187799 11:-17.9708 12:-24.8689 #
1.0324300353167237954626014258273e-11 1:0.0313324 2:0.38059399 3:0.238609 4:0.46340001 5:0.4366 6:3.1874399 7:9.4260397 8:11.6257 9:13.6619 10:-27.3591 11:-18.484301 12:-26.3074 #
5.1621501765836189773130071291366e-12 1:0.025338501 2:0.64681798 3:0.198604 4:0.46689999 5:0.44949999 6:3.1798201 7:8.4866199 8:11.2941 9:13.0155 10:-25.267 11:-18.201599 12:-25.392401 #
0 1:0.0201337 2:0.640944 3:0.42205501 4:0.47189999 5:0.4707 6:3.18115 7:9.7831097 8:12.4702 9:14.1277 10:-28.5835 11:-19.0816 12:-27.4277 #
-5.1621501765836189773130071291366e-12 1:0.0161759 2:0.70256501 3:0.56724298 4:0.43599999 5:0.4172 6:3.1650701 7:8.1500902 8:10.7873 9:12.6167 10:-24.471201 11:-16.780701 12:-24.467199 #
-1.0324300353167237954626014258273e-11 1:0.0182685 2:0.69664103 3:0.66527098 4:0.47319999 5:0.37740001 6:3.1486101 7:8.0016499 8:10.1576 9:13.1634 10:-25.187799 11:-17.9708 12:-24.8689 #
2.5810750882918094886565035645683e-12 1:0.0504013 2:0.246305 3:0.199349 4:0.42250001 5:0.4023 6:3.18221 7:8.6704102 8:11.1847 9:13.0093 10:-25.212601 11:-17.511801 12:-25.312401 #
-2.5810750882918094886565035645683e-12 1:0.027113199 2:0.36834201 3:0.25248399 4:0.4542 5:0.41460001 6:3.1733401 7:8.5430498 8:11.0923 9:12.8809 10:-26.195999 11:-17.153299 12:-24.868 #
-7.7432252648754276581759437473888e-12 1:0.02434 2:0.45974201 3:0.335026 4:0.47639999 5:0.4506 6:3.1837201 7:9.1473598 8:11.3803 9:14.3405 10:-27.399599 11:-21.0902 12:-27.312099 #
-1.2905375441459048251076084769158e-11 1:0.021097301 2:0.67324901 3:0.46879601 4:0.48370001 5:0.47530001 6:3.17676 7:8.6523504 8:12.4158 9:14.332 10:-28.0965 11:-18.854799 12:-27.745199 #
1.2905375441459048251076084769158e-11 1:0.0210182 2:0.69478202 3:0.59130001 4:0.4368 5:0.42199999 6:3.1596501 7:7.9612298 8:10.7162 9:12.5463 10:-24.466499 11:-16.565901 12:-24.244301 #
7.7432252648754276581759437473888e-12 1:0.0169845 2:0.76289099 3:0.68848097 4:0.4716 5:0.3748 6:3.1446199 7:7.9057698 8:10.1392 9:12.8238 10:-24.3102 11:-16.777 12:-25.1292 #
1.2905375441459048251076084769158e-11 1:0.0504013 2:0.246305 3:0.199349 4:0.42250001 5:0.4023 6:3.18221 7:8.6704102 8:11.1847 9:13.0093 10:-25.212601 11:-17.511801 12:-25.312401 #
7.7432252648754276581759437473888e-12 1:0.027113199 2:0.36834201 3:0.25248399 4:0.4542 5:0.41460001 6:3.1733401 7:8.5430498 8:11.0923 9:12.8809 10:-26.195999 11:-17.153299 12:-24.868 #
2.5810750882918094886565035645683e-12 1:0.02434 2:0.45974201 3:0.335026 4:0.47639999 5:0.4506 6:3.1837201 7:9.1473598 8:11.3803 9:14.3405 10:-27.399599 11:-21.0902 12:-27.312099 #
-2.5810750882918094886565035645683e-12 1:0.021097301 2:0.67324901 3:0.46879601 4:0.48370001 5:0.47530001 6:3.17676 7:8.6523504 8:12.4158 9:14.332 10:-28.0965 11:-18.854799 12:-27.745199 #
-7.7432252648754276581759437473888e-12 1:0.0210182 2:0.69478202 3:0.59130001 4:0.4368 5:0.42199999 6:3.1596501 7:7.9612298 8:10.7162 9:12.5463 10:-24.466499 11:-16.565901 12:-24.244301 #
-1.2905375441459048251076084769158e-11 1:0.0169845 2:0.76289099 3:0.68848097 4:0.4716 5:0.3748 6:3.1446199 7:7.9057698 8:10.1392 9:12.8238 10:-24.3102 11:-16.777 12:-25.1292 #
1.2905375441459048251076084769158e-11 1:0.061196402 2:0.23819301 3:0.21864501 4:0.377 5:0.3714 6:3.1415801 7:7.65166 8:11.3656 9:11.4958 10:-23.539101 11:-15.7095 12:-22.9398 #
-2.5810750882918094886565035645683e-12 1:0.031089099 2:0.33053699 3:0.208001 4:0.45950001 5:0.4427 6:3.19045 7:8.9536695 8:11.488 9:13.9112 10:-26.7425 11:-18.635201 12:-26.782 #
-7.7432252648754276581759437473888e-12 1:0.0250897 2:0.44382399 3:0.36068901 4:0.47220001 5:0.45660001 6:3.18467 7:9.80408 8:11.9505 9:13.9006 10:-27.8438 11:-18.805599 12:-26.8281 #
-1.2905375441459048251076084769158e-11 1:0.0303845 2:0.684506 3:0.470716 4:0.48199999 5:0.4682 6:3.1788199 7:8.6356697 8:12.2403 9:14.6017 10:-28.276899 11:-18.9839 12:-28.103399 #
7.7432252648754276581759437473888e-12 1:0.0262616 2:0.76339799 3:0.64242798 4:0.40790001 5:0.39289999 6:3.15627 7:7.7997398 8:10.7499 9:12.235 10:-24.688101 11:-16.1374 12:-23.730101 #
2.5810750882918094886565035645683e-12 1:0.021263501 2:0.79717797 3:0.73971099 4:0.47260001 5:0.3784 6:3.14657 7:7.9779 8:10.1607 9:13.1192 10:-24.790001 11:-17.1115 12:-25.198 #
1.2905375441459048251076084769158e-11 1:0.061196402 2:0.23819301 3:0.21864501 4:0.377 5:0.3714 6:3.1415801 7:7.65166 8:11.3656 9:11.4958 10:-23.539101 11:-15.7095 12:-22.9398 #
7.7432252648754276581759437473888e-12 1:0.031089099 2:0.33053699 3:0.208001 4:0.45950001 5:0.4427 6:3.19045 7:8.9536695 8:11.488 9:13.9112 10:-26.7425 11:-18.635201 12:-26.782 #
2.5810750882918094886565035645683e-12 1:0.0250897 2:0.44382399 3:0.36068901 4:0.47220001 5:0.45660001 6:3.18467 7:9.80408 8:11.9505 9:13.9006 10:-27.8438 11:-18.805599 12:-26.8281 #
-2.5810750882918094886565035645683e-12 1:0.0303845 2:0.684506 3:0.470716 4:0.48199999 5:0.4682 6:3.1788199 7:8.6356697 8:12.2403 9:14.6017 10:-28.276899 11:-18.9839 12:-28.103399 #
-7.7432252648754276581759437473888e-12 1:0.0262616 2:0.76339799 3:0.64242798 4:0.40790001 5:0.39289999 6:3.15627 7:7.7997398 8:10.7499 9:12.235 10:-24.688101 11:-16.1374 12:-23.730101 #
-1.2905375441459048251076084769158e-11 1:0.021263501 2:0.79717797 3:0.73971099 4:0.47260001 5:0.3784 6:3.14657 7:7.9779 8:10.1607 9:13.1192 10:-24.790001 11:-17.1115 12:-25.198 #
2.5810750882918094886565035645683e-12 1:0.064059697 2:0.220349 3:0.22587 4:0.4391 5:0.4341 6:3.17188 7:8.1187696 8:12.2811 9:13.0635 10:-25.9974 11:-17.1432 12:-25.8132 #
-2.5810750882918094886565035645683e-12 1:0.033984698 2:0.32521299 3:0.26847899 4:0.47679999 5:0.47240001 6:3.1871901 7:8.9252005 8:11.9587 9:13.9288 10:-26.9631 11:-18.410299 12:-27.106199 #
-7.7432252648754276581759437473888e-12 1:0.022193801 2:0.43593499 3:0.32876 4:0.47920001 5:0.46039999 6:3.1819401 7:9.9871101 8:11.8316 9:14.0938 10:-27.2764 11:-19.1126 12:-27.1546 #
-1.2905375441459048251076084769158e-11 1:0.0225804 2:0.687895 3:0.46621999 4:0.48120001 5:0.46160001 6:3.17818 7:8.6906204 8:11.7849 9:13.759 10:-27.826799 11:-18.175699 12:-26.5315 #
1.2905375441459048251076084769158e-11 1:0.0213608 2:0.75859898 3:0.662117 4:0.4005 5:0.40009999 6:3.15662 7:7.8260198 8:10.6807 9:12.2656 10:-24.489799 11:-16.1828 12:-23.745701 #
7.7432252648754276581759437473888e-12 1:0.0191509 2:0.75079203 3:0.68350399 4:0.47029999 5:0.37650001 6:3.1467099 7:7.9544001 8:10.1412 9:12.9532 10:-24.6572 11:-16.991501 12:-24.644699 #
1.2905375441459048251076084769158e-11 1:0.064059697 2:0.220349 3:0.22587 4:0.4391 5:0.4341 6:3.17188 7:8.1187696 8:12.2811 9:13.0635 10:-25.9974 11:-17.1432 12:-25.8132 #
7.7432252648754276581759437473888e-12 1:0.033984698 2:0.32521299 3:0.26847899 4:0.47679999 5:0.47240001 6:3.1871901 7:8.9252005 8:11.9587 9:13.9288 10:-26.9631 11:-18.410299 12:-27.106199 #
2.5810750882918094886565035645683e-12 1:0.022193801 2:0.43593499 3:0.32876 4:0.47920001 5:0.46039999 6:3.1819401 7:9.9871101 8:11.8316 9:14.0938 10:-27.2764 11:-19.1126 12:-27.1546 #
-2.5810750882918094886565035645683e-12 1:0.0225804 2:0.687895 3:0.46621999 4:0.48120001 5:0.46160001 6:3.17818 7:8.6906204 8:11.7849 9:13.759 10:-27.826799 11:-18.175699 12:-26.5315 #
-7.7432252648754276581759437473888e-12 1:0.0213608 2:0.75859898 3:0.662117 4:0.4005 5:0.40009999 6:3.15662 7:7.8260198 8:10.6807 9:12.2656 10:-24.489799 11:-16.1828 12:-23.745701 #
-1.2905375441459048251076084769158e-11 1:0.0191509 2:0.75079203 3:0.68350399 4:0.47029999 5:0.37650001 6:3.1467099 7:7.9544001 8:10.1412 9:12.9532 10:-24.6572 11:-16.991501 12:-24.644699 #
-2.5810750882918094886565035645683e-12 1:0.060696501 2:0.23733699 3:0.21063399 4:0.4436 5:0.43399999 6:3.1916499 7:8.7008305 8:11.3724 9:13.4897 10:-26.748899 11:-17.8403 12:-25.9256 #
-7.7432252648754276581759437473888e-12 1:0.029510301 2:0.43004 3:0.21494401 4:0.4637 5:0.46329999 6:3.1902599 7:9.5348196 8:12.0196 9:13.1847 10:-25.9632 11:-18.8305 12:-25.9144 #
1.2905375441459048251076084769158e-11 1:0.030223601 2:0.64024103 3:0.197998 4:0.46759999 5:0.4228 6:3.1792901 7:8.4372101 8:11.2549 9:12.4028 10:-24.2453 11:-16.7852 12:-24.8374 #
-1.2905375441459048251076084769158e-11 1:0.021531699 2:0.681297 3:0.46094501 4:0.4788 5:0.4702 6:3.17752 7:8.9653196 8:13.9338 9:15.1707 10:-29.8519 11:-19.736799 12:-29.897301 #
7.7432252648754276581759437473888e-12 1:0.018201901 2:0.74699199 3:0.60403299 4:0.4102 5:0.39579999 6:3.1612899 7:8.0304403 8:10.537 9:12.5304 10:-24.2108 11:-16.6339 12:-24.218399 #
2.5810750882918094886565035645683e-12 1:0.018303899 2:0.75614899 3:0.68526602 4:0.4756 5:0.373 6:3.1438999 7:7.8893299 8:10.0985 9:12.8741 10:-24.378 11:-16.828501 12:-24.915501 #
1.2905375441459048251076084769158e-11 1:0.060696501 2:0.23733699 3:0.21063399 4:0.4436 5:0.43399999 6:3.1916499 7:8.7008305 8:11.3724 9:13.4897 10:-26.748899 11:-17.8403 12:-25.9256 #
7.7432252648754276581759437473888e-12 1:0.029510301 2:0.43004 3:0.21494401 4:0.4637 5:0.46329999 6:3.1902599 7:9.5348196 8:12.0196 9:13.1847 10:-25.9632 11:-18.8305 12:-25.9144 #
2.5810750882918094886565035645683e-12 1:0.030223601 2:0.64024103 3:0.197998 4:0.46759999 5:0.4228 6:3.1792901 7:8.4372101 8:11.2549 9:12.4028 10:-24.2453 11:-16.7852 12:-24.8374 #
-2.5810750882918094886565035645683e-12 1:0.021531699 2:0.681297 3:0.46094501 4:0.4788 5:0.4702 6:3.17752 7:8.9653196 8:13.9338 9:15.1707 10:-29.8519 11:-19.736799 12:-29.897301 #
-7.7432252648754276581759437473888e-12 1:0.018201901 2:0.74699199 3:0.60403299 4:0.4102 5:0.39579999 6:3.1612899 7:8.0304403 8:10.537 9:12.5304 10:-24.2108 11:-16.6339 12:-24.218399 #
-1.2905375441459048251076084769158e-11 1:0.018303899 2:0.75614899 3:0.68526602 4:0.4756 5:0.373 6:3.1438999 7:7.8893299 8:10.0985 9:12.8741 10:-24.378 11:-16.828501 12:-24.915501 #
-1.2905375441459048251076084769158e-11 1:0.032359801 2:0.26468399 3:0.24982201 4:0.45210001 5:0.43130001 6:3.1839001 7:8.1909399 8:11.2841 9:16.4296 10:-30.329399 11:-20.928301 12:-30.659401 #
-2.5810750882918094886565035645683e-12 1:0.022689501 2:0.42839399 3:0.24676301 4:0.46489999 5:0.4637 6:3.1877201 7:8.9630203 8:11.8607 9:13.7532 10:-26.560699 11:-18.279499 12:-27.8295 #
2.5810750882918094886565035645683e-12 1:0.020496599 2:0.66839802 3:0.21857201 4:0.4497 5:0.43869999 6:3.1837101 7:8.5783901 8:11.3063 9:13.0673 10:-25.255699 11:-17.3566 12:-26.3325 #
-7.7432252648754276581759437473888e-12 1:0.023891401 2:0.67887998 3:0.47402701 4:0.4716 5:0.47040001 6:3.1765001 7:8.6142702 8:12.1879 9:13.4719 10:-27.8755 11:-17.916599 12:-26.301901 #
1.2905375441459048251076084769158e-11 1:0.019849701 2:0.70895302 3:0.60560399 4:0.4364 5:0.42039999 6:3.1596301 7:7.8829002 8:10.7924 9:12.6551 10:-24.776899 11:-16.6201 12:-24.4168 #
7.7432252648754276581759437473888e-12 1:0.019849701 2:0.74891597 3:0.69090903 4:0.47549999 5:0.3761 6:3.1448801 7:7.8980999 8:10.1422 9:12.9654 10:-24.633301 11:-16.9606 12:-24.7136 #
1.2905375441459048251076084769158e-11 1:0.032359801 2:0.26468399 3:0.24982201 4:0.45210001 5:0.43130001 6:3.1839001 7:8.1909399 8:11.2841 9:16.4296 10:-30.329399 11:-20.928301 12:-30.659401 #
7.7432252648754276581759437473888e-12 1:0.022689501 2:0.42839399 3:0.24676301 4:0.46489999 5:0.4637 6:3.1877201 7:8.9630203 8:11.8607 9:13.7532 10:-26.560699 11:-18.279499 12:-27.8295 #
2.5810750882918094886565035645683e-12 1:0.020496599 2:0.66839802 3:0.21857201 4:0.4497 5:0.43869999 6:3.1837101 7:8.5783901 8:11.3063 9:13.0673 10:-25.255699 11:-17.3566 12:-26.3325 #
-2.5810750882918094886565035645683e-12 1:0.023891401 2:0.67887998 3:0.47402701 4:0.4716 5:0.47040001 6:3.1765001 7:8.6142702 8:12.1879 9:13.4719 10:-27.8755 11:-17.916599 12:-26.301901 #
-7.7432252648754276581759437473888e-12 1:0.019849701 2:0.70895302 3:0.60560399 4:0.4364 5:0.42039999 6:3.1596301 7:7.8829002 8:10.7924 9:12.6551 10:-24.776899 11:-16.6201 12:-24.4168 #
-1.2905375441459048251076084769158e-11 1:0.019849701 2:0.74891597 3:0.69090903 4:0.47549999 5:0.3761 6:3.1448801 7:7.8980999 8:10.1422 9:12.9654 10:-24.633301 11:-16.9606 12:-24.7136 #
-2.5810750882918094886565035645683e-12 1:0.0384642 2:0.215189 3:0.21676201 4:0.45680001 5:0.44159999 6:3.18308 7:8.5162096 8:11.8054 9:12.9188 10:-25.3314 11:-18.1359 12:-25.621799 #
-7.7432252648754276581759437473888e-12 1:0.0268114 2:0.46722001 3:0.232401 4:0.46610001 5:0.46349999 6:3.1863401 7:9.8326302 8:12.8178 9:13.4492 10:-27.4217 11:-19.876301 12:-26.5874 #
1.2905375441459048251076084769158e-11 1:0.0329316 2:0.67959797 3:0.227264 4:0.44069999 5:0.42250001 6:3.1748099 7:8.5063601 8:11.1937 9:12.364 10:-24.175301 11:-16.886299 12:-24.5714 #
-1.2905375441459048251076084769158e-11 1:0.0173003 2:0.67840803 3:0.47546899 4:0.47749999 5:0.4747 6:3.17854 7:8.5448399 8:13.5684 9:14.1291 10:-28.1579 11:-18.6113 12:-28.1024 #
7.7432252648754276581759437473888e-12 1:0.0161289 2:0.76822501 3:0.64524603 4:0.39669999 5:0.39629999 6:3.1566899 7:7.8534598 8:10.5605 9:12.2997 10:-24.3615 11:-16.255501 12:-23.741899 #
2.5810750882918094886565035645683e-12 1:0.0151435 2:0.749493 3:0.68471998 4:0.46740001 5:0.3752 6:3.1444099 7:7.8673701 8:10.1159 9:12.9337 10:-24.6108 11:-16.9345 12:-24.6071 #
1.2905375441459048251076084769158e-11 1:0.0384642 2:0.215189 3:0.21676201 4:0.45680001 5:0.44159999 6:3.18308 7:8.5162096 8:11.8054 9:12.9188 10:-25.3314 11:-18.1359 12:-25.621799 #
7.7432252648754276581759437473888e-12 1:0.0268114 2:0.46722001 3:0.232401 4:0.46610001 5:0.46349999 6:3.1863401 7:9.8326302 8:12.8178 9:13.4492 10:-27.4217 11:-19.876301 12:-26.5874 #
2.5810750882918094886565035645683e-12 1:0.0329316 2:0.67959797 3:0.227264 4:0.44069999 5:0.42250001 6:3.1748099 7:8.5063601 8:11.1937 9:12.364 10:-24.175301 11:-16.886299 12:-24.5714 #
-2.5810750882918094886565035645683e-12 1:0.0173003 2:0.67840803 3:0.47546899 4:0.47749999 5:0.4747 6:3.17854 7:8.5448399 8:13.5684 9:14.1291 10:-28.1579 11:-18.6113 12:-28.1024 #
-7.7432252648754276581759437473888e-12 1:0.0161289 2:0.76822501 3:0.64524603 4:0.39669999 5:0.39629999 6:3.1566899 7:7.8534598 8:10.5605 9:12.2997 10:-24.3615 11:-16.255501 12:-23.741899 #
-1.2905375441459048251076084769158e-11 1:0.0151435 2:0.749493 3:0.68471998 4:0.46740001 5:0.3752 6:3.1444099 7:7.8673701 8:10.1159 9:12.9337 10:-24.6108 11:-16.9345 12:-24.6071 #
-1.9450209349007049604552658118167e-07 1:0.061717901 2:0.214276 3:0.16282199 4:0.45899999 5:0.45820001 6:3.1852 7:8.1819897 8:13.0537 9:13.3597 10:-26.567699 11:-17.5065 12:-27.682699 #
-1.1670125609404227909847022752118e-07 1:0.036607299 2:0.342343 3:0.221829 4:0.45140001 5:0.4404 6:3.18818 7:8.6331902 8:12.0015 9:13.1779 10:-26.302 11:-17.515699 12:-25.787001 #
-3.8900418698014095238638375981802e-08 1:0.028344201 2:0.42942601 3:0.32578301 4:0.48210001 5:0.45930001 6:3.1845701 7:9.4694405 8:12.3903 9:14.6595 10:-28.1847 11:-19.5464 12:-29.579399 #
3.8900418698014095238638375981802e-08 1:0.023954401 2:0.679645 3:0.464533 4:0.47119999 5:0.4666 6:3.1784999 7:8.73489 8:12.1111 9:13.4056 10:-26.412701 11:-17.818399 12:-26.247 #
1.1670125609404227909847022752118e-07 1:0.0263725 2:0.78007799 3:0.65075201 4:0.39120001 5:0.3858 6:3.1597199 7:7.8916302 8:10.6346 9:12.3606 10:-24.519899 11:-16.306499 12:-23.868799 #
1.9450209349007049604552658118167e-07 1:0.019978501 2:0.73060101 3:0.68176299 4:0.479 5:0.3748 6:3.1461201 7:8.0235596 8:10.1099 9:13.0918 10:-24.9737 11:-17.223499 12:-24.762199 #
1.9450209349007049604552658118167e-07 1:0.061717901 2:0.214276 3:0.16282199 4:0.45899999 5:0.45820001 6:3.1852 7:8.1819897 8:13.0537 9:13.3597 10:-26.567699 11:-17.5065 12:-27.682699 #
1.1670125609404227909847022752118e-07 1:0.036607299 2:0.342343 3:0.221829 4:0.45140001 5:0.4404 6:3.18818 7:8.6331902 8:12.0015 9:13.1779 10:-26.302 11:-17.515699 12:-25.787001 #
3.8900418698014095238638375981802e-08 1:0.028344201 2:0.42942601 3:0.32578301 4:0.48210001 5:0.45930001 6:3.1845701 7:9.4694405 8:12.3903 9:14.6595 10:-28.1847 11:-19.5464 12:-29.579399 #
-3.8900418698014095238638375981802e-08 1:0.023954401 2:0.679645 3:0.464533 4:0.47119999 5:0.4666 6:3.1784999 7:8.73489 8:12.1111 9:13.4056 10:-26.412701 11:-17.818399 12:-26.247 #
-1.1670125609404227909847022752118e-07 1:0.0263725 2:0.78007799 3:0.65075201 4:0.39120001 5:0.3858 6:3.1597199 7:7.8916302 8:10.6346 9:12.3606 10:-24.519899 11:-16.306499 12:-23.868799 #
-1.9450209349007049604552658118167e-07 1:0.019978501 2:0.73060101 3:0.68176299 4:0.479 5:0.3748 6:3.1461201 7:8.0235596 8:10.1099 9:13.0918 10:-24.9737 11:-17.223499 12:-24.762199 #
-1.9450209349007049604552658118167e-07 1:0.063808396 2:0.22414801 3:0.230884 4:0.45550001 5:0.4479 6:3.1730299 7:8.6868896 8:12.1783 9:13.2656 10:-26.7124 11:-17.7101 12:-25.995399 #
-1.1670125609404227909847022752118e-07 1:0.0298556 2:0.43734601 3:0.21441799 4:0.46619999 5:0.46079999 6:3.19293 7:9.48283 8:12.0081 9:13.9915 10:-26.9951 11:-18.7789 12:-27.868601 #
-3.8900418698014095238638375981802e-08 1:0.031711299 2:0.63616103 3:0.20388301 4:0.4698 5:0.46360001 6:3.1770899 7:8.3049402 8:11.446 9:13.1579 10:-26.080601 11:-17.327299 12:-25.4727 #
3.8900418698014095238638375981802e-08 1:0.023559701 2:0.66042602 3:0.45060501 4:0.48159999 5:0.479 6:3.1791101 7:9.1256704 8:13.4413 9:15.2183 10:-29.6912 11:-19.807199 12:-29.7064 #
1.1670125609404227909847022752118e-07 1:0.0209851 2:0.68513697 3:0.55806798 4:0.42989999 5:0.41589999 6:3.1645701 7:8.1208296 8:10.6857 9:12.4077 10:-24.810499 11:-16.468201 12:-23.9587 #
1.9450209349007049604552658118167e-07 1:0.0207392 2:0.70586401 3:0.678765 4:0.47299999 5:0.37279999 6:3.14838 7:8.0108604 8:10.0921 9:13.2294 10:-25.129299 11:-18.4321 12:-24.9779 #
1.9450209349007049604552658118167e-07 1:0.063808396 2:0.22414801 3:0.230884 4:0.45550001 5:0.4479 6:3.1730299 7:8.6868896 8:12.1783 9:13.2656 10:-26.7124 11:-17.7101 12:-25.995399 #
1.1670125609404227909847022752118e-07 1:0.0298556 2:0.43734601 3:0.21441799 4:0.46619999 5:0.46079999 6:3.19293 7:9.48283 8:12.0081 9:13.9915 10:-26.9951 11:-18.7789 12:-27.868601 #
3.8900418698014095238638375981802e-08 1:0.031711299 2:0.63616103 3:0.20388301 4:0.4698 5:0.46360001 6:3.1770899 7:8.3049402 8:11.446 9:13.1579 10:-26.080601 11:-17.327299 12:-25.4727 #
-3.8900418698014095238638375981802e-08 1:0.023559701 2:0.66042602 3:0.45060501 4:0.48159999 5:0.479 6:3.1791101 7:9.1256704 8:13.4413 9:15.2183 10:-29.6912 11:-19.807199 12:-29.7064 #
-1.1670125609404227909847022752118e-07 1:0.0209851 2:0.68513697 3:0.55806798 4:0.42989999 5:0.41589999 6:3.1645701 7:8.1208296 8:10.6857 9:12.4077 10:-24.810499 11:-16.468201 12:-23.9587 #
-1.9450209349007049604552658118167e-07 1:0.0207392 2:0.70586401 3:0.678765 4:0.47299999 5:0.37279999 6:3.14838 7:8.0108604 8:10.0921 9:13.2294 10:-25.129299 11:-18.4321 12:-24.9779 #
-1.1670125609404227909847022752118e-07 1:0.052926101 2:0.21851 3:0.151601 4:0.45370001 5:0.45210001 6:3.18431 7:8.5915699 8:11.712 9:13.6332 10:-26.313801 11:-17.993799 12:-27.0271 #
-1.9450209349007049604552658118167e-07 1:0.0301772 2:0.33936301 3:0.222817 4:0.4691 5:0.4621 6:3.19259 7:10.623 8:11.9587 9:13.8586 10:-26.788401 11:-21.8664 12:-27.2838 #
-3.8900418698014095238638375981802e-08 1:0.0265602 2:0.66437203 3:0.21386699 4:0.47240001 5:0.46340001 6:3.1837699 7:9.1595697 8:13.2161 9:14.6748 10:-28.669001 11:-19.700399 12:-28.968 #
3.8900418698014095238638375981802e-08 1:0.0206437 2:0.65777898 3:0.42061901 4:0.47710001 5:0.4693 6:3.1840899 7:11.3645 8:12.9096 9:14.268 10:-28.2036 11:-20.1439 12:-27.906 #
1.1670125609404227909847022752118e-07 1:0.0214829 2:0.745332 3:0.60580897 4:0.39829999 5:0.3915 6:3.1608801 7:7.9128199 8:10.5804 9:12.309 10:-24.164801 11:-16.299601 12:-23.789101 #
1.9450209349007049604552658118167e-07 1:0.0152145 2:0.676884 3:0.64348102 4:0.4734 5:0.36379999 6:3.1486499 7:7.9513602 8:10.0512 9:13.337 10:-26.0425 11:-17.692301 12:-25.0331 #
1.9450209349007049604552658118167e-07 1:0.052926101 2:0.21851 3:0.151601 4:0.45370001 5:0.45210001 6:3.18431 7:8.5915699 8:11.712 9:13.6332 10:-26.313801 11:-17.993799 12:-27.0271 #
1.1670125609404227909847022752118e-07 1:0.0301772 2:0.33936301 3:0.222817 4:0.4691 5:0.4621 6:3.19259 7:10.623 8:11.9587 9:13.8586 10:-26.788401 11:-21.8664 12:-27.2838 #
3.8900418698014095238638375981802e-08 1:0.0265602 2:0.66437203 3:0.21386699 4:0.47240001 5:0.46340001 6:3.1837699 7:9.1595697 8:13.2161 9:14.6748 10:-28.669001 11:-19.700399 12:-28.968 #
-3.8900418698014095238638375981802e-08 1:0.0206437 2:0.65777898 3:0.42061901 4:0.47710001 5:0.4693 6:3.1840899 7:11.3645 8:12.9096 9:14.268 10:-28.2036 11:-20.1439 12:-27.906 #
-1.1670125609404227909847022752118e-07 1:0.0214829 2:0.745332 3:0.60580897 4:0.39829999 5:0.3915 6:3.1608801 7:7.9128199 8:10.5804 9:12.309 10:-24.164801 11:-16.299601 12:-23.789101 #
-1.9450209349007049604552658118167e-07 1:0.0152145 2:0.676884 3:0.64348102 4:0.4734 5:0.36379999 6:3.1486499 7:7.9513602 8:10.0512 9:13.337 10:-26.0425 11:-17.692301 12:-25.0331 #
-2.3340251218808455819694045504237e-07 1:0.073229499 2:0.201967 3:0.15759 4:0.4506 5:0.4224 6:3.19014 7:9.5557499 8:12.665 9:13.3743 10:-26.394199 11:-18.289801 12:-27.839199 #
-7.7800837396028190477276751963603e-08 1:0.0372306 2:0.42338401 3:0.161431 4:0.4637 5:0.44909999 6:3.1879101 7:9.2467699 8:11.5348 9:13.8894 10:-26.665899 11:-18.7442 12:-26.896999 #
-1.5560167479205638095455350392721e-07 1:0.0331783 2:0.65323502 3:0.141415 4:0.4716 5:0.47040001 6:3.17959 7:8.44205 8:11.5778 9:13.3459 10:-27.1056 11:-17.8414 12:-25.8083 #
7.7800837396028190477276751963603e-08 1:0.034329001 2:0.667018 3:0.27897099 4:0.4646 5:0.46160001 6:3.1844399 7:10.3989 8:12.1874 9:13.4963 10:-26.808901 11:-18.7651 12:-26.364599 #
-0 1:0.02706 2:0.664002 3:0.42019299 4:0.4826 5:0.47499999 6:3.187 7:10.2358 8:13.9297 9:13.86 10:-27.8382 11:-19.030399 12:-28.002899 #
1.5560167479205638095455350392721e-07 1:0.0196844 2:0.67582101 3:0.55082101 4:0.43900001 5:0.4066 6:3.1675999 7:8.21486 8:10.5749 9:12.6851 10:-24.3167 11:-16.9361 12:-25.3778 #
2.3340251218808455819694045504237e-07 1:0.017887499 2:0.67826998 3:0.64748698 4:0.47409999 5:0.3673 6:3.1503301 7:7.9893498 8:10.0686 9:13.1124 10:-24.7397 11:-17.5268 12:-25.106701 #
2.3340251218808455819694045504237e-07 1:0.073229499 2:0.201967 3:0.15759 4:0.4506 5:0.4224 6:3.19014 7:9.5557499 8:12.665 9:13.3743 10:-26.394199 11:-18.289801 12:-27.839199 #
1.5560167479205638095455350392721e-07 1:0.0372306 2:0.42338401 3:0.161431 4:0.4637 5:0.44909999 6:3.1879101 7:9.2467699 8:11.5348 9:13.8894 10:-26.665899 11:-18.7442 12:-26.896999 #
7.7800837396028190477276751963603e-08 1:0.0331783 2:0.65323502 3:0.141415 4:0.4716 5:0.47040001 6:3.17959 7:8.44205 8:11.5778 9:13.3459 10:-27.1056 11:-17.8414 12:-25.8083 #
0 1:0.034329001 2:0.667018 3:0.27897099 4:0.4646 5:0.46160001 6:3.1844399 7:10.3989 8:12.1874 9:13.4963 10:-26.808901 11:-18.7651 12:-26.364599 #
-7.7800837396028190477276751963603e-08 1:0.02706 2:0.664002 3:0.42019299 4:0.4826 5:0.47499999 6:3.187 7:10.2358 8:13.9297 9:13.86 10:-27.8382 11:-19.030399 12:-28.002899 #
-1.5560167479205638095455350392721e-07 1:0.0196844 2:0.67582101 3:0.55082101 4:0.43900001 5:0.4066 6:3.1675999 7:8.21486 8:10.5749 9:12.6851 10:-24.3167 11:-16.9361 12:-25.3778 #
-2.3340251218808455819694045504237e-07 1:0.017887499 2:0.67826998 3:0.64748698 4:0.47409999 5:0.3673 6:3.1503301 7:7.9893498 8:10.0686 9:13.1124 10:-24.7397 11:-17.5268 12:-25.106701 #
-2.3340251218808455819694045504237e-07 1:0.053944401 2:0.21277501 3:0.124362 4:0.4183 5:0.4075 6:3.1700799 7:9.20965 8:11.6565 9:12.6565 10:-24.9608 11:-17.4685 12:-24.966299 #
-1.5560167479205638095455350392721e-07 1:0.039269999 2:0.39989901 3:0.130794 4:0.44319999 5:0.44299999 6:3.18209 7:8.4729099 8:11.4839 9:13.0927 10:-25.455099 11:-17.357401 12:-25.6504 #
-7.7800837396028190477276751963603e-08 1:0.037537601 2:0.67477101 3:0.120988 4:0.4632 5:0.4488 6:3.1828101 7:8.6810598 8:12.2865 9:13.1907 10:-25.974199 11:-17.7656 12:-26.2938 #
-0 1:0.0287519 2:0.64277899 3:0.26264799 4:0.47400001 5:0.4686 6:3.1847301 7:8.9837103 8:12.68 9:14.379 10:-28.4708 11:-19.273399 12:-27.9254 #
7.7800837396028190477276751963603e-08 1:0.017823899 2:0.664783 3:0.44897899 4:0.47979999 5:0.463 6:3.17853 7:9.1509104 8:12.1559 9:14.6132 10:-28.0774 11:-19.731701 12:-28.2542 #
2.3340251218808455819694045504237e-07 1:0.018034199 2:0.73889399 3:0.606341 4:0.4025 5:0.40189999 6:3.16394 7:8.0693903 8:10.6027 9:12.4731 10:-24.1457 11:-16.5968 12:-24.178499 #
1.5560167479205638095455350392721e-07 1:0.0177489 2:0.67880797 3:0.64064699 4:0.4869 5:0.3721 6:3.1477201 7:7.82129 8:10.1158 9:13.5141 10:-27.1157 11:-17.7279 12:-25.329 #
2.3340251218808455819694045504237e-07 1:0.053944401 2:0.21277501 3:0.124362 4:0.4183 5:0.4075 6:3.1700799 7:9.20965 8:11.6565 9:12.6565 10:-24.9608 11:-17.4685 12:-24.966299 #
1.5560167479205638095455350392721e-07 1:0.039269999 2:0.39989901 3:0.130794 4:0.44319999 5:0.44299999 6:3.18209 7:8.4729099 8:11.4839 9:13.0927 10:-25.455099 11:-17.357401 12:-25.6504 #
7.7800837396028190477276751963603e-08 1:0.037537601 2:0.67477101 3:0.120988 4:0.4632 5:0.4488 6:3.1828101 7:8.6810598 8:12.2865 9:13.1907 10:-25.974199 11:-17.7656 12:-26.2938 #
0 1:0.0287519 2:0.64277899 3:0.26264799 4:0.47400001 5:0.4686 6:3.1847301 7:8.9837103 8:12.68 9:14.379 10:-28.4708 11:-19.273399 12:-27.9254 #
-7.7800837396028190477276751963603e-08 1:0.017823899 2:0.664783 3:0.44897899 4:0.47979999 5:0.463 6:3.17853 7:9.1509104 8:12.1559 9:14.6132 10:-28.0774 11:-19.731701 12:-28.2542 #
-1.5560167479205638095455350392721e-07 1:0.018034199 2:0.73889399 3:0.606341 4:0.4025 5:0.40189999 6:3.16394 7:8.0693903 8:10.6027 9:12.4731 10:-24.1457 11:-16.5968 12:-24.178499 #
-2.3340251218808455819694045504237e-07 1:0.0177489 2:0.67880797 3:0.64064699 4:0.4869 5:0.3721 6:3.1477201 7:7.82129 8:10.1158 9:13.5141 10:-27.1157 11:-17.7279 12:-25.329 #
-2.3340251218808455819694045504237e-07 1:0.062651798 2:0.195392 3:0.134307 4:0.46200001 5:0.36680001 6:3.1879499 7:8.7458601 8:11.6789 9:13.2832 10:-25.959999 11:-17.6707 12:-25.8773 #
-1.5560167479205638095455350392721e-07 1:0.034203101 2:0.49172899 3:0.15575799 4:0.44459999 5:0.43399999 6:3.1826501 7:8.4365301 8:11.5517 9:14.183 10:-27.050501 11:-18.423599 12:-28.5623 #
-7.7800837396028190477276751963603e-08 1:0.038259599 2:0.67477399 3:0.14748 4:0.43610001 5:0.4355 6:3.16998 7:7.9873099 8:11.3278 9:12.596 10:-24.8869 11:-16.816601 12:-24.6119 #
-0 1:0.027355401 2:0.64210898 3:0.26188299 4:0.45109999 5:0.43889999 6:3.1872301 7:8.9459696 8:11.9342 9:13.0706 10:-25.5849 11:-17.574499 12:-26.2078 #
7.7800837396028190477276751963603e-08 1:0.017204599 2:0.64348602 3:0.42925999 4:0.486 5:0.46259999 6:3.1812201 7:9.5397501 8:12.0418 9:14.3968 10:-27.6518 11:-19.2318 12:-28.025801 #
1.5560167479205638095455350392721e-07 1:0.018322101 2:0.69689399 3:0.58794999 4:0.42340001 5:0.4156 6:3.1633501 7:7.9699402 8:10.7861 9:12.3873 10:-24.5965 11:-16.3738 12:-23.9867 #
2.3340251218808455819694045504237e-07 1:0.0147465 2:0.70622802 3:0.63631302 4:0.48190001 5:0.3707 6:3.14433 7:7.7816401 8:10.0855 9:12.8597 10:-24.3946 11:-16.7812 12:-24.6341 #
2.3340251218808455819694045504237e-07 1:0.062651798 2:0.195392 3:0.134307 4:0.46200001 5:0.36680001 6:3.1879499 7:8.7458601 8:11.6789 9:13.2832 10:-25.959999 11:-17.6707 12:-25.8773 #
1.5560167479205638095455350392721e-07 1:0.034203101 2:0.49172899 3:0.15575799 4:0.44459999 5:0.43399999 6:3.1826501 7:8.4365301 8:11.5517 9:14.183 10:-27.050501 11:-18.423599 12:-28.5623 #
7.7800837396028190477276751963603e-08 1:0.038259599 2:0.67477399 3:0.14748 4:0.43610001 5:0.4355 6:3.16998 7:7.9873099 8:11.3278 9:12.596 10:-24.8869 11:-16.816601 12:-24.6119 #
0 1:0.027355401 2:0.64210898 3:0.26188299 4:0.45109999 5:0.43889999 6:3.1872301 7:8.9459696 8:11.9342 9:13.0706 10:-25.5849 11:-17.574499 12:-26.2078 #
-7.7800837396028190477276751963603e-08 1:0.017204599 2:0.64348602 3:0.42925999 4:0.486 5:0.46259999 6:3.1812201 7:9.5397501 8:12.0418 9:14.3968 10:-27.6518 11:-19.2318 12:-28.025801 #
-1.5560167479205638095455350392721e-07 1:0.018322101 2:0.69689399 3:0.58794999 4:0.42340001 5:0.4156 6:3.1633501 7:7.9699402 8:10.7861 9:12.3873 10:-24.5965 11:-16.3738 12:-23.9867 #
-2.3340251218808455819694045504237e-07 1:0.0147465 2:0.70622802 3:0.63631302 4:0.48190001 5:0.3707 6:3.14433 7:7.7816401 8:10.0855 9:12.8597 10:-24.3946 11:-16.7812 12:-24.6341 #
-1.1670125609404227909847022752118e-07 1:0.0603237 2:0.14560901 3:0.14518601 4:0.45879999 5:0.44240001 6:3.1313901 7:9.1846199 8:11.9781 9:12.2647 10:-24.396601 11:-17.171499 12:-25.0499 #
-1.9450209349007049604552658118167e-07 1:0.0540471 2:0.33084899 3:0.14338399 4:0.4657 5:0.45289999 6:3.1856899 7:9.4240303 8:12.5098 9:13.8572 10:-27.657101 11:-18.858601 12:-27.0539 #
-3.8900418698014095238638375981802e-08 1:0.035359401 2:0.442379 3:0.33222899 4:0.458 5:0.45100001 6:3.18927 7:9.0926399 8:11.273 9:13.4224 10:-25.7876 11:-17.988199 12:-26.325899 #
3.8900418698014095238638375981802e-08 1:0.026026201 2:0.69989598 3:0.47556499 4:0.46340001 5:0.45899999 6:3.1788299 7:8.9221601 8:12.0997 9:14.4192 10:-27.8006 11:-18.9289 12:-27.8622 #
1.1670125609404227909847022752118e-07 1:0.0284387 2:0.76458597 3:0.60720599 4:0.40169999 5:0.3953 6:3.1615 7:8.0266304 8:10.6513 9:12.6666 10:-24.546 11:-16.7304 12:-24.423201 #
1.9450209349007049604552658118167e-07 1:0.028643699 2:0.75094801 3:0.71522897 4:0.48010001 5:0.38229999 6:3.1477599 7:7.9918299 8:10.143 9:13.9821 10:-26.705601 11:-18.4149 12:-26.055201 #
1.9450209349007049604552658118167e-07 1:0.0603237 2:0.14560901 3:0.14518601 4:0.45879999 5:0.44240001 6:3.1313901 7:9.1846199 8:11.9781 9:12.2647 10:-24.396601 11:-17.171499 12:-25.0499 #
1.1670125609404227909847022752118e-07 1:0.0540471 2:0.33084899 3:0.14338399 4:0.4657 5:0.45289999 6:3.1856899 7:9.4240303 8:12.5098 9:13.8572 10:-27.657101 11:-18.858601 12:-27.0539 #
3.8900418698014095238638375981802e-08 1:0.035359401 2:0.442379 3:0.33222899 4:0.458 5:0.45100001 6:3.18927 7:9.0926399 8:11.273 9:13.4224 10:-25.7876 11:-17.988199 12:-26.325899 #
-3.8900418698014095238638375981802e-08 1:0.026026201 2:0.69989598 3:0.47556499 4:0.46340001 5:0.45899999 6:3.1788299 7:8.9221601 8:12.0997 9:14.4192 10:-27.8006 11:-18.9289 12:-27.8622 #
-1.1670125609404227909847022752118e-07 1:0.0284387 2:0.76458597 3:0.60720599 4:0.40169999 5:0.3953 6:3.1615 7:8.0266304 8:10.6513 9:12.6666 10:-24.546 11:-16.7304 12:-24.423201 #
-1.9450209349007049604552658118167e-07 1:0.028643699 2:0.75094801 3:0.71522897 4:0.48010001 5:0.38229999 6:3.1477599 7:7.9918299 8:10.143 9:13.9821 10:-26.705601 11:-18.4149 12:-26.055201 #
-1.1670125609404227909847022752118e-07 1:0.060358498 2:0.172152 3:0.16320001 4:0.4727 5:0.4655 6:3.18488 7:9.1752796 8:11.6739 9:13.2344 10:-25.9445 11:-18.0625 12:-25.7684 #
-1.9450209349007049604552658118167e-07 1:0.046989601 2:0.31788501 3:0.129776 4:0.4682 5:0.44440001 6:3.18416 7:8.3441801 8:11.3402 9:12.7352 10:-24.875 11:-17.0291 12:-24.9856 #
-3.8900418698014095238638375981802e-08 1:0.038715102 2:0.363464 3:0.31999901 4:0.47009999 5:0.45289999 6:3.18349 7:8.6457005 8:11.5401 9:14.3563 10:-27.532801 11:-19.6632 12:-27.3979 #
3.8900418698014095238638375981802e-08 1:0.0259955 2:0.45379099 3:0.371223 4:0.45469999 5:0.4479 6:3.1921301 7:9.0158701 8:11.5828 9:13.1935 10:-26.2104 11:-17.7115 12:-25.594 #
1.1670125609404227909847022752118e-07 1:0.020736501 2:0.658943 3:0.43375599 4:0.4774 5:0.4686 6:3.1798601 7:9.4584198 8:12.0651 9:14.2677 10:-28.1642 11:-19.3262 12:-27.441799 #
1.9450209349007049604552658118167e-07 1:0.019708499 2:0.75124902 3:0.68474001 4:0.4761 5:0.3795 6:3.1434801 7:7.8738399 8:10.1168 9:13.099 10:-24.7083 11:-17.0361 12:-25.7988 #
1.9450209349007049604552658118167e-07 1:0.060358498 2:0.172152 3:0.16320001 4:0.4727 5:0.4655 6:3.18488 7:9.1752796 8:11.6739 9:13.2344 10:-25.9445 11:-18.0625 12:-25.7684 #
1.1670125609404227909847022752118e-07 1:0.046989601 2:0.31788501 3:0.129776 4:0.4682 5:0.44440001 6:3.18416 7:8.3441801 8:11.3402 9:12.7352 10:-24.875 11:-17.0291 12:-24.9856 #
3.8900418698014095238638375981802e-08 1:0.038715102 2:0.363464 3:0.31999901 4:0.47009999 5:0.45289999 6:3.18349 7:8.6457005 8:11.5401 9:14.3563 10:-27.532801 11:-19.6632 12:-27.3979 #
-3.8900418698014095238638375981802e-08 1:0.0259955 2:0.45379099 3:0.371223 4:0.45469999 5:0.4479 6:3.1921301 7:9.0158701 8:11.5828 9:13.1935 10:-26.2104 11:-17.7115 12:-25.594 #
-1.1670125609404227909847022752118e-07 1:0.020736501 2:0.658943 3:0.43375599 4:0.4774 5:0.4686 6:3.1798601 7:9.4584198 8:12.0651 9:14.2677 10:-28.1642 11:-19.3262 12:-27.441799 #
-1.9450209349007049604552658118167e-07 1:0.019708499 2:0.75124902 3:0.68474001 4:0.4761 5:0.3795 6:3.1434801 7:7.8738399 8:10.1168 9:13.099 10:-24.7083 11:-17.0361 12:-25.7988 #
-1.9450209349007049604552658118167e-07 1:0.0453173 2:0.32592899 3:0.133448 4:0.46520001 5:0.42919999 6:3.1754799 7:8.3203602 8:10.9932 9:12.73 10:-24.594999 11:-16.9694 12:-25.498501 #
-1.1670125609404227909847022752118e-07 1:0.038143501 2:0.33056799 3:0.27429399 4:0.48089999 5:0.4289 6:3.18327 7:9.1567001 8:10.9809 9:12.8116 10:-24.7414 11:-17.513399 12:-25.1294 #
-3.8900418698014095238638375981802e-08 1:0.0218403 2:0.435361 3:0.33956501 4:0.4774 5:0.45820001 6:3.18525 7:9.8547096 8:11.887 9:14.4361 10:-27.602501 11:-19.464701 12:-28.425301 #
3.8900418698014095238638375981802e-08 1:0.018476199 2:0.661313 3:0.430713 4:0.48069999 5:0.46630001 6:3.1830399 7:10.2846 8:12.6164 9:13.6006 10:-27.2078 11:-18.751801 12:-26.732201 #
1.1670125609404227909847022752118e-07 1:0.019220199 2:0.70259899 3:0.57624602 4:0.42219999 5:0.41479999 6:3.1689701 7:8.1097698 8:10.7625 9:12.5129 10:-24.3417 11:-16.6035 12:-24.2668 #
1.9450209349007049604552658118167e-07 1:0.019220199 2:0.73554999 3:0.68015999 4:0.4743 5:0.38029999 6:3.1459799 7:7.8710999 8:10.1377 9:13.0466 10:-24.8496 11:-17.079599 12:-24.742001 #
1.9450209349007049604552658118167e-07 1:0.0453173 2:0.32592899 3:0.133448 4:0.46520001 5:0.42919999 6:3.1754799 7:8.3203602 8:10.9932 9:12.73 10:-24.594999 11:-16.9694 12:-25.498501 #
1.1670125609404227909847022752118e-07 1:0.038143501 2:0.33056799 3:0.27429399 4:0.48089999 5:0.4289 6:3.18327 7:9.1567001 8:10.9809 9:12.8116 10:-24.7414 11:-17.513399 12:-25.1294 #
3.8900418698014095238638375981802e-08 1:0.0218403 2:0.435361 3:0.33956501 4:0.4774 5:0.45820001 6:3.18525 7:9.8547096 8:11.887 9:14.4361 10:-27.602501 11:-19.464701 12:-28.425301 #
-3.8900418698014095238638375981802e-08 1:0.018476199 2:0.661313 3:0.430713 4:0.48069999 5:0.46630001 6:3.1830399 7:10.2846 8:12.6164 9:13.6006 10:-27.2078 11:-18.751801 12:-26.732201 #
-1.1670125609404227909847022752118e-07 1:0.019220199 2:0.70259899 3:0.57624602 4:0.42219999 5:0.41479999 6:3.1689701 7:8.1097698 8:10.7625 9:12.5129 10:-24.3417 11:-16.6035 12:-24.2668 #
-1.9450209349007049604552658118167e-07 1:0.019220199 2:0.73554999 3:0.68015999 4:0.4743 5:0.38029999 6:3.1459799 7:7.8710999 8:10.1377 9:13.0466 10:-24.8496 11:-17.079599 12:-24.742001 #
-1.5560167479205638095455350392721e-07 1:0.0292398 2:0.31283101 3:0.204413 4:0.46070001 5:0.4447 6:3.1909399 7:9.4037104 8:11.8669 9:14.1749 10:-27.5812 11:-19.5054 12:-27.2362 #
-7.7800837396028190477276751963603e-08 1:0.0375937 2:0.64505798 3:0.207716 4:0.4745 5:0.4391 6:3.17746 7:8.4046602 8:11.7977 9:12.6962 10:-24.944901 11:-16.9792 12:-25.984301 #
-0 1:0.029130699 2:0.66058201 3:0.44511199 4:0.47510001 5:0.4747 6:3.1821301 7:9.3878298 8:13.2415 9:14.2089 10:-28.510599 11:-19.209101 12:-27.9499 #
7.7800837396028190477276751963603e-08 1:0.0266307 2:0.71306598 3:0.59963399 4:0.40450001 5:0.4039 6:3.15874 7:7.86414 8:10.6096 9:12.2195 10:-24.743401 11:-16.156601 12:-23.6353 #
1.5560167479205638095455350392721e-07 1:0.025699399 2:0.67037398 3:0.66553801 4:0.47690001 5:0.37869999 6:3.1505401 7:8.0638399 8:10.1443 9:12.946 10:-24.658001 11:-16.999399 12:-24.6264 #
1.5560167479205638095455350392721e-07 1:0.0292398 2:0.31283101 3:0.204413 4:0.46070001 5:0.4447 6:3.1909399 7:9.4037104 8:11.8669 9:14.1749 10:-27.5812 11:-19.5054 12:-27.2362 #
7.7800837396028190477276751963603e-08 1:0.0375937 2:0.64505798 3:0.207716 4:0.4745 5:0.4391 6:3.17746 7:8.4046602 8:11.7977 9:12.6962 10:-24.944901 11:-16.9792 12:-25.984301 #
0 1:0.029130699 2:0.66058201 3:0.44511199 4:0.47510001 5:0.4747 6:3.1821301 7:9.3878298 8:13.2415 9:14.2089 10:-28.510599 11:-19.209101 12:-27.9499 #
-7.7800837396028190477276751963603e-08 1:0.0266307 2:0.71306598 3:0.59963399 4:0.40450001 5:0.4039 6:3.15874 7:7.86414 8:10.6096 9:12.2195 10:-24.743401 11:-16.156601 12:-23.6353 #
-1.5560167479205638095455350392721e-07 1:0.025699399 2:0.67037398 3:0.66553801 4:0.47690001 5:0.37869999 6:3.1505401 7:8.0638399 8:10.1443 9:12.946 10:-24.658001 11:-16.999399 12:-24.6264 #
-1.5560167479205638095455350392721e-07 1:0.0313324 2:0.38059399 3:0.238609 4:0.46340001 5:0.4366 6:3.1874399 7:9.4260397 8:11.6257 9:13.6619 10:-27.3591 11:-18.484301 12:-26.3074 #
-7.7800837396028190477276751963603e-08 1:0.025338501 2:0.64681798 3:0.198604 4:0.46689999 5:0.44949999 6:3.1798201 7:8.4866199 8:11.2941 9:13.0155 10:-25.267 11:-18.201599 12:-25.392401 #
-0 1:0.0201337 2:0.640944 3:0.42205501 4:0.47189999 5:0.4707 6:3.18115 7:9.7831097 8:12.4702 9:14.1277 10:-28.5835 11:-19.0816 12:-27.4277 #
7.7800837396028190477276751963603e-08 1:0.0161759 2:0.70256501 3:0.56724298 4:0.43599999 5:0.4172 6:3.1650701 7:8.1500902 8:10.7873 9:12.6167 10:-24.471201 11:-16.780701 12:-24.467199 #
1.5560167479205638095455350392721e-07 1:0.0182685 2:0.69664103 3:0.66527098 4:0.47319999 5:0.37740001 6:3.1486101 7:8.0016499 8:10.1576 9:13.1634 10:-25.187799 11:-17.9708 12:-24.8689 #
1.5560167479205638095455350392721e-07 1:0.0313324 2:0.38059399 3:0.238609 4:0.46340001 5:0.4366 6:3.1874399 7:9.4260397 8:11.6257 9:13.6619 10:-27.3591 11:-18.484301 12:-26.3074 #
7.7800837396028190477276751963603e-08 1:0.025338501 2:0.64681798 3:0.198604 4:0.46689999 5:0.44949999 6:3.1798201 7:8.4866199 8:11.2941 9:13.0155 10:-25.267 11:-18.201599 12:-25.392401 #
0 1:0.0201337 2:0.640944 3:0.42205501 4:0.47189999 5:0.4707 6:3.18115 7:9.7831097 8:12.4702 9:14.1277 10:-28.5835 11:-19.0816 12:-27.4277 #
-7.7800837396028190477276751963603e-08 1:0.0161759 2:0.70256501 3:0.56724298 4:0.43599999 5:0.4172 6:3.1650701 7:8.1500902 8:10.7873 9:12.6167 10:-24.471201 11:-16.780701 12:-24.467199 #
-1.5560167479205638095455350392721e-07 1:0.0182685 2:0.69664103 3:0.66527098 4:0.47319999 5:0.37740001 6:3.1486101 7:8.0016499 8:10.1576 9:13.1634 10:-25.187799 11:-17.9708 12:-24.8689 #
-1.9450209349007049604552658118167e-07 1:0.0504013 2:0.246305 3:0.199349 4:0.42250001 5:0.4023 6:3.18221 7:8.6704102 8:11.1847 9:13.0093 10:-25.212601 11:-17.511801 12:-25.312401 #
-1.1670125609404227909847022752118e-07 1:0.027113199 2:0.36834201 3:0.25248399 4:0.4542 5:0.41460001 6:3.1733401 7:8.5430498 8:11.0923 9:12.8809 10:-26.195999 11:-17.153299 12:-24.868 #
-3.8900418698014095238638375981802e-08 1:0.02434 2:0.45974201 3:0.335026 4:0.47639999 5:0.4506 6:3.1837201 7:9.1473598 8:11.3803 9:14.3405 10:-27.399599 11:-21.0902 12:-27.312099 #
3.8900418698014095238638375981802e-08 1:0.021097301 2:0.67324901 3:0.46879601 4:0.48370001 5:0.47530001 6:3.17676 7:8.6523504 8:12.4158 9:14.332 10:-28.0965 11:-18.854799 12:-27.745199 #
1.1670125609404227909847022752118e-07 1:0.0210182 2:0.69478202 3:0.59130001 4:0.4368 5:0.42199999 6:3.1596501 7:7.9612298 8:10.7162 9:12.5463 10:-24.466499 11:-16.565901 12:-24.244301 #
1.9450209349007049604552658118167e-07 1:0.0169845 2:0.76289099 3:0.68848097 4:0.4716 5:0.3748 6:3.1446199 7:7.9057698 8:10.1392 9:12.8238 10:-24.3102 11:-16.777 12:-25.1292 #
1.9450209349007049604552658118167e-07 1:0.0504013 2:0.246305 3:0.199349 4:0.42250001 5:0.4023 6:3.18221 7:8.6704102 8:11.1847 9:13.0093 10:-25.212601 11:-17.511801 12:-25.312401 #
1.1670125609404227909847022752118e-07 1:0.027113199 2:0.36834201 3:0.25248399 4:0.4542 5:0.41460001 6:3.1733401 7:8.5430498 8:11.0923 9:12.8809 10:-26.195999 11:-17.153299 12:-24.868 #
3.8900418698014095238638375981802e-08 1:0.02434 2:0.45974201 3:0.335026 4:0.47639999 5:0.4506 6:3.1837201 7:9.1473598 8:11.3803 9:14.3405 10:-27.399599 11:-21.0902 12:-27.312099 #
-3.8900418698014095238638375981802e-08 1:0.021097301 2:0.67324901 3:0.46879601 4:0.48370001 5:0.47530001 6:3.17676 7:8.6523504 8:12.4158 9:14.332 10:-28.0965 11:-18.854799 12:-27.745199 #
-1.1670125609404227909847022752118e-07 1:0.0210182 2:0.69478202 3:0.59130001 4:0.4368 5:0.42199999 6:3.1596501 7:7.9612298 8:10.7162 9:12.5463 10:-24.466499 11:-16.565901 12:-24.244301 #
-1.9450209349007049604552658118167e-07 1:0.0169845 2:0.76289099 3:0.68848097 4:0.4716 5:0.3748 6:3.1446199 7:7.9057698 8:10.1392 9:12.8238 10:-24.3102 11:-16.777 12:-25.1292 #
-1.9450209349007049604552658118167e-07 1:0.061196402 2:0.23819301 3:0.21864501 4:0.377 5:0.3714 6:3.1415801 7:7.65166 8:11.3656 9:11.4958 10:-23.539101 11:-15.7095 12:-22.9398 #
-1.1670125609404227909847022752118e-07 1:0.031089099 2:0.33053699 3:0.208001 4:0.45950001 5:0.4427 6:3.19045 7:8.9536695 8:11.488 9:13.9112 10:-26.7425 11:-18.635201 12:-26.782 #
-3.8900418698014095238638375981802e-08 1:0.0250897 2:0.44382399 3:0.36068901 4:0.47220001 5:0.45660001 6:3.18467 7:9.80408 8:11.9505 9:13.9006 10:-27.8438 11:-18.805599 12:-26.8281 #
3.8900418698014095238638375981802e-08 1:0.0303845 2:0.684506 3:0.470716 4:0.48199999 5:0.4682 6:3.1788199 7:8.6356697 8:12.2403 9:14.6017 10:-28.276899 11:-18.9839 12:-28.103399 #
1.1670125609404227909847022752118e-07 1:0.0262616 2:0.76339799 3:0.64242798 4:0.40790001 5:0.39289999 6:3.15627 7:7.7997398 8:10.7499 9:12.235 10:-24.688101 11:-16.1374 12:-23.730101 #
1.9450209349007049604552658118167e-07 1:0.021263501 2:0.79717797 3:0.73971099 4:0.47260001 5:0.3784 6:3.14657 7:7.9779 8:10.1607 9:13.1192 10:-24.790001 11:-17.1115 12:-25.198 #
1.9450209349007049604552658118167e-07 1:0.061196402 2:0.23819301 3:0.21864501 4:0.377 5:0.3714 6:3.1415801 7:7.65166 8:11.3656 9:11.4958 10:-23.539101 11:-15.7095 12:-22.9398 #
1.1670125609404227909847022752118e-07 1:0.031089099 2:0.33053699 3:0.208001 4:0.45950001 5:0.4427 6:3.19045 7:8.9536695 8:11.488 9:13.9112 10:-26.7425 11:-18.635201 12:-26.782 #
3.8900418698014095238638375981802e-08 1:0.0250897 2:0.44382399 3:0.36068901 4:0.47220001 5:0.45660001 6:3.18467 7:9.80408 8:11.9505 9:13.9006 10:-27.8438 11:-18.805599 12:-26.8281 #
-3.8900418698014095238638375981802e-08 1:0.0303845 2:0.684506 3:0.470716 4:0.48199999 5:0.4682 6:3.1788199 7:8.6356697 8:12.2403 9:14.6017 10:-28.276899 11:-18.9839 12:-28.103399 #
-1.1670125609404227909847022752118e-07 1:0.0262616 2:0.76339799 3:0.64242798 4:0.40790001 5:0.39289999 6:3.15627 7:7.7997398 8:10.7499 9:12.235 10:-24.688101 11:-16.1374 12:-23.730101 #
-1.9450209349007049604552658118167e-07 1:0.021263501 2:0.79717797 3:0.73971099 4:0.47260001 5:0.3784 6:3.14657 7:7.9779 8:10.1607 9:13.1192 10:-24.790001 11:-17.1115 12:-25.198 #
-1.9450209349007049604552658118167e-07 1:0.064059697 2:0.220349 3:0.22587 4:0.4391 5:0.4341 6:3.17188 7:8.1187696 8:12.2811 9:13.0635 10:-25.9974 11:-17.1432 12:-25.8132 #
-1.1670125609404227909847022752118e-07 1:0.033984698 2:0.32521299 3:0.26847899 4:0.47679999 5:0.47240001 6:3.1871901 7:8.9252005 8:11.9587 9:13.9288 10:-26.9631 11:-18.410299 12:-27.106199 #
-3.8900418698014095238638375981802e-08 1:0.022193801 2:0.43593499 3:0.32876 4:0.47920001 5:0.46039999 6:3.1819401 7:9.9871101 8:11.8316 9:14.0938 10:-27.2764 11:-19.1126 12:-27.1546 #
3.8900418698014095238638375981802e-08 1:0.0225804 2:0.687895 3:0.46621999 4:0.48120001 5:0.46160001 6:3.17818 7:8.6906204 8:11.7849 9:13.759 10:-27.826799 11:-18.175699 12:-26.5315 #
1.1670125609404227909847022752118e-07 1:0.0213608 2:0.75859898 3:0.662117 4:0.4005 5:0.40009999 6:3.15662 7:7.8260198 8:10.6807 9:12.2656 10:-24.489799 11:-16.1828 12:-23.745701 #
1.9450209349007049604552658118167e-07 1:0.0191509 2:0.75079203 3:0.68350399 4:0.47029999 5:0.37650001 6:3.1467099 7:7.9544001 8:10.1412 9:12.9532 10:-24.6572 11:-16.991501 12:-24.644699 #
1.9450209349007049604552658118167e-07 1:0.064059697 2:0.220349 3:0.22587 4:0.4391 5:0.4341 6:3.17188 7:8.1187696 8:12.2811 9:13.0635 10:-25.9974 11:-17.1432 12:-25.8132 #
1.1670125609404227909847022752118e-07 1:0.033984698 2:0.32521299 3:0.26847899 4:0.47679999 5:0.47240001 6:3.1871901 7:8.9252005 8:11.9587 9:13.9288 10:-26.9631 11:-18.410299 12:-27.106199 #
3.8900418698014095238638375981802e-08 1:0.022193801 2:0.43593499 3:0.32876 4:0.47920001 5:0.46039999 6:3.1819401 7:9.9871101 8:11.8316 9:14.0938 10:-27.2764 11:-19.1126 12:-27.1546 #
-3.8900418698014095238638375981802e-08 1:0.0225804 2:0.687895 3:0.46621999 4:0.48120001 5:0.46160001 6:3.17818 7:8.6906204 8:11.7849 9:13.759 10:-27.826799 11:-18.175699 12:-26.5315 #
-1.1670125609404227909847022752118e-07 1:0.0213608 2:0.75859898 3:0.662117 4:0.4005 5:0.40009999 6:3.15662 7:7.8260198 8:10.6807 9:12.2656 10:-24.489799 11:-16.1828 12:-23.745701 #
-1.9450209349007049604552658118167e-07 1:0.0191509 2:0.75079203 3:0.68350399 4:0.47029999 5:0.37650001 6:3.1467099 7:7.9544001 8:10.1412 9:12.9532 10:-24.6572 11:-16.991501 12:-24.644699 #
-1.9450209349007049604552658118167e-07 1:0.060696501 2:0.23733699 3:0.21063399 4:0.4436 5:0.43399999 6:3.1916499 7:8.7008305 8:11.3724 9:13.4897 10:-26.748899 11:-17.8403 12:-25.9256 #
-1.1670125609404227909847022752118e-07 1:0.029510301 2:0.43004 3:0.21494401 4:0.4637 5:0.46329999 6:3.1902599 7:9.5348196 8:12.0196 9:13.1847 10:-25.9632 11:-18.8305 12:-25.9144 #
-3.8900418698014095238638375981802e-08 1:0.030223601 2:0.64024103 3:0.197998 4:0.46759999 5:0.4228 6:3.1792901 7:8.4372101 8:11.2549 9:12.4028 10:-24.2453 11:-16.7852 12:-24.8374 #
3.8900418698014095238638375981802e-08 1:0.021531699 2:0.681297 3:0.46094501 4:0.4788 5:0.4702 6:3.17752 7:8.9653196 8:13.9338 9:15.1707 10:-29.8519 11:-19.736799 12:-29.897301 #
1.1670125609404227909847022752118e-07 1:0.018201901 2:0.74699199 3:0.60403299 4:0.4102 5:0.39579999 6:3.1612899 7:8.0304403 8:10.537 9:12.5304 10:-24.2108 11:-16.6339 12:-24.218399 #
1.9450209349007049604552658118167e-07 1:0.018303899 2:0.75614899 3:0.68526602 4:0.4756 5:0.373 6:3.1438999 7:7.8893299 8:10.0985 9:12.8741 10:-24.378 11:-16.828501 12:-24.915501 #
1.9450209349007049604552658118167e-07 1:0.060696501 2:0.23733699 3:0.21063399 4:0.4436 5:0.43399999 6:3.1916499 7:8.7008305 8:11.3724 9:13.4897 10:-26.748899 11:-17.8403 12:-25.9256 #
1.1670125609404227909847022752118e-07 1:0.029510301 2:0.43004 3:0.21494401 4:0.4637 5:0.46329999 6:3.1902599 7:9.5348196 8:12.0196 9:13.1847 10:-25.9632 11:-18.8305 12:-25.9144 #
3.8900418698014095238638375981802e-08 1:0.030223601 2:0.64024103 3:0.197998 4:0.46759999 5:0.4228 6:3.1792901 7:8.4372101 8:11.2549 9:12.4028 10:-24.2453 11:-16.7852 12:-24.8374 #
-3.8900418698014095238638375981802e-08 1:0.021531699 2:0.681297 3:0.46094501 4:0.4788 5:0.4702 6:3.17752 7:8.9653196 8:13.9338 9:15.1707 10:-29.8519 11:-19.736799 12:-29.897301 #
-1.1670125609404227909847022752118e-07 1:0.018201901 2:0.74699199 3:0.60403299 4:0.4102 5:0.39579999 6:3.1612899 7:8.0304403 8:10.537 9:12.5304 10:-24.2108 11:-16.6339 12:-24.218399 #
-1.9450209349007049604552658118167e-07 1:0.018303899 2:0.75614899 3:0.68526602 4:0.4756 5:0.373 6:3.1438999 7:7.8893299 8:10.0985 9:12.8741 10:-24.378 11:-16.828501 12:-24.915501 #
-1.1670125609404227909847022752118e-07 1:0.032359801 2:0.26468399 3:0.24982201 4:0.45210001 5:0.43130001 6:3.1839001 7:8.1909399 8:11.2841 9:16.4296 10:-30.329399 11:-20.928301 12:-30.659401 #
-1.9450209349007049604552658118167e-07 1:0.022689501 2:0.42839399 3:0.24676301 4:0.46489999 5:0.4637 6:3.1877201 7:8.9630203 8:11.8607 9:13.7532 10:-26.560699 11:-18.279499 12:-27.8295 #
-3.8900418698014095238638375981802e-08 1:0.020496599 2:0.66839802 3:0.21857201 4:0.4497 5:0.43869999 6:3.1837101 7:8.5783901 8:11.3063 9:13.0673 10:-25.255699 11:-17.3566 12:-26.3325 #
3.8900418698014095238638375981802e-08 1:0.023891401 2:0.67887998 3:0.47402701 4:0.4716 5:0.47040001 6:3.1765001 7:8.6142702 8:12.1879 9:13.4719 10:-27.8755 11:-17.916599 12:-26.301901 #
1.1670125609404227909847022752118e-07 1:0.019849701 2:0.70895302 3:0.60560399 4:0.4364 5:0.42039999 6:3.1596301 7:7.8829002 8:10.7924 9:12.6551 10:-24.776899 11:-16.6201 12:-24.4168 #
1.9450209349007049604552658118167e-07 1:0.019849701 2:0.74891597 3:0.69090903 4:0.47549999 5:0.3761 6:3.1448801 7:7.8980999 8:10.1422 9:12.9654 10:-24.633301 11:-16.9606 12:-24.7136 #
1.9450209349007049604552658118167e-07 1:0.032359801 2:0.26468399 3:0.24982201 4:0.45210001 5:0.43130001 6:3.1839001 7:8.1909399 8:11.2841 9:16.4296 10:-30.329399 11:-20.928301 12:-30.659401 #
1.1670125609404227909847022752118e-07 1:0.022689501 2:0.42839399 3:0.24676301 4:0.46489999 5:0.4637 6:3.1877201 7:8.9630203 8:11.8607 9:13.7532 10:-26.560699 11:-18.279499 12:-27.8295 #
3.8900418698014095238638375981802e-08 1:0.020496599 2:0.66839802 3:0.21857201 4:0.4497 5:0.43869999 6:3.1837101 7:8.5783901 8:11.3063 9:13.0673 10:-25.255699 11:-17.3566 12:-26.3325 #
-3.8900418698014095238638375981802e-08 1:0.023891401 2:0.67887998 3:0.47402701 4:0.4716 5:0.47040001 6:3.1765001 7:8.6142702 8:12.1879 9:13.4719 10:-27.8755 11:-17.916599 12:-26.301901 #
-1.1670125609404227909847022752118e-07 1:0.019849701 2:0.70895302 3:0.60560399 4:0.4364 5:0.42039999 6:3.1596301 7:7.8829002 8:10.7924 9:12.6551 10:-24.776899 11:-16.6201 12:-24.4168 #
-1.9450209349007049604552658118167e-07 1:0.019849701 2:0.74891597 3:0.69090903 4:0.47549999 5:0.3761 6:3.1448801 7:7.8980999 8:10.1422 9:12.9654 10:-24.633301 11:-16.9606 12:-24.7136 #
-1.9450209349007049604552658118167e-07 1:0.0384642 2:0.215189 3:0.21676201 4:0.45680001 5:0.44159999 6:3.18308 7:8.5162096 8:11.8054 9:12.9188 10:-25.3314 11:-18.1359 12:-25.621799 #
-1.1670125609404227909847022752118e-07 1:0.0268114 2:0.46722001 3:0.232401 4:0.46610001 5:0.46349999 6:3.1863401 7:9.8326302 8:12.8178 9:13.4492 10:-27.4217 11:-19.876301 12:-26.5874 #
-3.8900418698014095238638375981802e-08 1:0.0329316 2:0.67959797 3:0.227264 4:0.44069999 5:0.42250001 6:3.1748099 7:8.5063601 8:11.1937 9:12.364 10:-24.175301 11:-16.886299 12:-24.5714 #
3.8900418698014095238638375981802e-08 1:0.0173003 2:0.67840803 3:0.47546899 4:0.47749999 5:0.4747 6:3.17854 7:8.5448399 8:13.5684 9:14.1291 10:-28.1579 11:-18.6113 12:-28.1024 #
1.1670125609404227909847022752118e-07 1:0.0161289 2:0.76822501 3:0.64524603 4:0.39669999 5:0.39629999 6:3.1566899 7:7.8534598 8:10.5605 9:12.2997 10:-24.3615 11:-16.255501 12:-23.741899 #
1.9450209349007049604552658118167e-07 1:0.0151435 2:0.749493 3:0.68471998 4:0.46740001 5:0.3752 6:3.1444099 7:7.8673701 8:10.1159 9:12.9337 10:-24.6108 11:-16.9345 12:-24.6071 #
1.9450209349007049604552658118167e-07 1:0.0384642 2:0.215189 3:0.21676201 4:0.45680001 5:0.44159999 6:3.18308 7:8.5162096 8:11.8054 9:12.9188 10:-25.3314 11:-18.1359 12:-25.621799 #
1.1670125609404227909847022752118e-07 1:0.0268114 2:0.46722001 3:0.232401 4:0.46610001 5:0.46349999 6:3.1863401 7:9.8326302 8:12.8178 9:13.4492 10:-27.4217 11:-19.876301 12:-26.5874 #
3.8900418698014095238638375981802e-08 1:0.0329316 2:0.67959797 3:0.227264 4:0.44069999 5:0.42250001 6:3.1748099 7:8.5063601 8:11.1937 9:12.364 10:-24.175301 11:-16.886299 12:-24.5714 #
-3.8900418698014095238638375981802e-08 1:0.0173003 2:0.67840803 3:0.47546899 4:0.47749999 5:0.4747 6:3.17854 7:8.5448399 8:13.5684 9:14.1291 10:-28.1579 11:-18.6113 12:-28.1024 #
-1.1670125609404227909847022752118e-07 1:0.0161289 2:0.76822501 3:0.64524603 4:0.39669999 5:0.39629999 6:3.1566899 7:7.8534598 8:10.5605 9:12.2997 10:-24.3615 11:-16.255501 12:-23.741899 #
-1.9450209349007049604552658118167e-07 1:0.0151435 2:0.749493 3:0.68471998 4:0.46740001 5:0.3752 6:3.1444099 7:7.8673701 8:10.1159 9:12.9337 10:-24.6108 11:-16.9345 12:-24.6071 #
-3.2476710817971789907465662849972e-07 1:0.061717901 2:0.214276 3:0.16282199 4:0.45899999 5:0.45820001 6:3.1852 7:8.1819897 8:13.0537 9:13.3597 10:-26.567699 11:-17.5065 12:-27.682699 #
-1.9486026490783071297501437540295e-07 1:0.036607299 2:0.342343 3:0.221829 4:0.45140001 5:0.4404 6:3.18818 7:8.6331902 8:12.0015 9:13.1779 10:-26.302 11:-17.515699 12:-25.787001 #
-6.4953421635943579814931325699945e-08 1:0.028344201 2:0.42942601 3:0.32578301 4:0.48210001 5:0.45930001 6:3.1845701 7:9.4694405 8:12.3903 9:14.6595 10:-28.1847 11:-19.5464 12:-29.579399 #
6.4953421635943579814931325699945e-08 1:0.023954401 2:0.679645 3:0.464533 4:0.47119999 5:0.4666 6:3.1784999 7:8.73489 8:12.1111 9:13.4056 10:-26.412701 11:-17.818399 12:-26.247 #
1.9486026490783071297501437540295e-07 1:0.0263725 2:0.78007799 3:0.65075201 4:0.39120001 5:0.3858 6:3.1597199 7:7.8916302 8:10.6346 9:12.3606 10:-24.519899 11:-16.306499 12:-23.868799 #
3.2476710817971789907465662849972e-07 1:0.019978501 2:0.73060101 3:0.68176299 4:0.479 5:0.3748 6:3.1461201 7:8.0235596 8:10.1099 9:13.0918 10:-24.9737 11:-17.223499 12:-24.762199 #
3.2476710817971789907465662849972e-07 1:0.061717901 2:0.214276 3:0.16282199 4:0.45899999 5:0.45820001 6:3.1852 7:8.1819897 8:13.0537 9:13.3597 10:-26.567699 11:-17.5065 12:-27.682699 #
1.9486026490783071297501437540295e-07 1:0.036607299 2:0.342343 3:0.221829 4:0.45140001 5:0.4404 6:3.18818 7:8.6331902 8:12.0015 9:13.1779 10:-26.302 11:-17.515699 12:-25.787001 #
6.4953421635943579814931325699945e-08 1:0.028344201 2:0.42942601 3:0.32578301 4:0.48210001 5:0.45930001 6:3.1845701 7:9.4694405 8:12.3903 9:14.6595 10:-28.1847 11:-19.5464 12:-29.579399 #
-6.4953421635943579814931325699945e-08 1:0.023954401 2:0.679645 3:0.464533 4:0.47119999 5:0.4666 6:3.1784999 7:8.73489 8:12.1111 9:13.4056 10:-26.412701 11:-17.818399 12:-26.247 #
-1.9486026490783071297501437540295e-07 1:0.0263725 2:0.78007799 3:0.65075201 4:0.39120001 5:0.3858 6:3.1597199 7:7.8916302 8:10.6346 9:12.3606 10:-24.519899 11:-16.306499 12:-23.868799 #
-3.2476710817971789907465662849972e-07 1:0.019978501 2:0.73060101 3:0.68176299 4:0.479 5:0.3748 6:3.1461201 7:8.0235596 8:10.1099 9:13.0918 10:-24.9737 11:-17.223499 12:-24.762199 #
-3.2476710817971789907465662849972e-07 1:0.063808396 2:0.22414801 3:0.230884 4:0.45550001 5:0.4479 6:3.1730299 7:8.6868896 8:12.1783 9:13.2656 10:-26.7124 11:-17.7101 12:-25.995399 #
-1.9486026490783071297501437540295e-07 1:0.0298556 2:0.43734601 3:0.21441799 4:0.46619999 5:0.46079999 6:3.19293 7:9.48283 8:12.0081 9:13.9915 10:-26.9951 11:-18.7789 12:-27.868601 #
-6.4953421635943579814931325699945e-08 1:0.031711299 2:0.63616103 3:0.20388301 4:0.4698 5:0.46360001 6:3.1770899 7:8.3049402 8:11.446 9:13.1579 10:-26.080601 11:-17.327299 12:-25.4727 #
6.4953421635943579814931325699945e-08 1:0.023559701 2:0.66042602 3:0.45060501 4:0.48159999 5:0.479 6:3.1791101 7:9.1256704 8:13.4413 9:15.2183 10:-29.6912 11:-19.807199 12:-29.7064 #
1.9486026490783071297501437540295e-07 1:0.0209851 2:0.68513697 3:0.55806798 4:0.42989999 5:0.41589999 6:3.1645701 7:8.1208296 8:10.6857 9:12.4077 10:-24.810499 11:-16.468201 12:-23.9587 #
3.2476710817971789907465662849972e-07 1:0.0207392 2:0.70586401 3:0.678765 4:0.47299999 5:0.37279999 6:3.14838 7:8.0108604 8:10.0921 9:13.2294 10:-25.129299 11:-18.4321 12:-24.9779 #
3.2476710817971789907465662849972e-07 1:0.063808396 2:0.22414801 3:0.230884 4:0.45550001 5:0.4479 6:3.1730299 7:8.6868896 8:12.1783 9:13.2656 10:-26.7124 11:-17.7101 12:-25.995399 #
1.9486026490783071297501437540295e-07 1:0.0298556 2:0.43734601 3:0.21441799 4:0.46619999 5:0.46079999 6:3.19293 7:9.48283 8:12.0081 9:13.9915 10:-26.9951 11:-18.7789 12:-27.868601 #
6.4953421635943579814931325699945e-08 1:0.031711299 2:0.63616103 3:0.20388301 4:0.4698 5:0.46360001 6:3.1770899 7:8.3049402 8:11.446 9:13.1579 10:-26.080601 11:-17.327299 12:-25.4727 #
-6.4953421635943579814931325699945e-08 1:0.023559701 2:0.66042602 3:0.45060501 4:0.48159999 5:0.479 6:3.1791101 7:9.1256704 8:13.4413 9:15.2183 10:-29.6912 11:-19.807199 12:-29.7064 #
-1.9486026490783071297501437540295e-07 1:0.0209851 2:0.68513697 3:0.55806798 4:0.42989999 5:0.41589999 6:3.1645701 7:8.1208296 8:10.6857 9:12.4077 10:-24.810499 11:-16.468201 12:-23.9587 #
-3.2476710817971789907465662849972e-07 1:0.0207392 2:0.70586401 3:0.678765 4:0.47299999 5:0.37279999 6:3.14838 7:8.0108604 8:10.0921 9:13.2294 10:-25.129299 11:-18.4321 12:-24.9779 #
-1.9486026490783071297501437540295e-07 1:0.052926101 2:0.21851 3:0.151601 4:0.45370001 5:0.45210001 6:3.18431 7:8.5915699 8:11.712 9:13.6332 10:-26.313801 11:-17.993799 12:-27.0271 #
-3.2476710817971789907465662849972e-07 1:0.0301772 2:0.33936301 3:0.222817 4:0.4691 5:0.4621 6:3.19259 7:10.623 8:11.9587 9:13.8586 10:-26.788401 11:-21.8664 12:-27.2838 #
-6.4953421635943579814931325699945e-08 1:0.0265602 2:0.66437203 3:0.21386699 4:0.47240001 5:0.46340001 6:3.1837699 7:9.1595697 8:13.2161 9:14.6748 10:-28.669001 11:-19.700399 12:-28.968 #
6.4953421635943579814931325699945e-08 1:0.0206437 2:0.65777898 3:0.42061901 4:0.47710001 5:0.4693 6:3.1840899 7:11.3645 8:12.9096 9:14.268 10:-28.2036 11:-20.1439 12:-27.906 #
1.9486026490783071297501437540295e-07 1:0.0214829 2:0.745332 3:0.60580897 4:0.39829999 5:0.3915 6:3.1608801 7:7.9128199 8:10.5804 9:12.309 10:-24.164801 11:-16.299601 12:-23.789101 #
3.2476710817971789907465662849972e-07 1:0.0152145 2:0.676884 3:0.64348102 4:0.4734 5:0.36379999 6:3.1486499 7:7.9513602 8:10.0512 9:13.337 10:-26.0425 11:-17.692301 12:-25.0331 #
3.2476710817971789907465662849972e-07 1:0.052926101 2:0.21851 3:0.151601 4:0.45370001 5:0.45210001 6:3.18431 7:8.5915699 8:11.712 9:13.6332 10:-26.313801 11:-17.993799 12:-27.0271 #
1.9486026490783071297501437540295e-07 1:0.0301772 2:0.33936301 3:0.222817 4:0.4691 5:0.4621 6:3.19259 7:10.623 8:11.9587 9:13.8586 10:-26.788401 11:-21.8664 12:-27.2838 #
6.4953421635943579814931325699945e-08 1:0.0265602 2:0.66437203 3:0.21386699 4:0.47240001 5:0.46340001 6:3.1837699 7:9.1595697 8:13.2161 9:14.6748 10:-28.669001 11:-19.700399 12:-28.968 #
-6.4953421635943579814931325699945e-08 1:0.0206437 2:0.65777898 3:0.42061901 4:0.47710001 5:0.4693 6:3.1840899 7:11.3645 8:12.9096 9:14.268 10:-28.2036 11:-20.1439 12:-27.906 #
-1.9486026490783071297501437540295e-07 1:0.0214829 2:0.745332 3:0.60580897 4:0.39829999 5:0.3915 6:3.1608801 7:7.9128199 8:10.5804 9:12.309 10:-24.164801 11:-16.299601 12:-23.789101 #
-3.2476710817971789907465662849972e-07 1:0.0152145 2:0.676884 3:0.64348102 4:0.4734 5:0.36379999 6:3.1486499 7:7.9513602 8:10.0512 9:13.337 10:-26.0425 11:-17.692301 12:-25.0331 #
-3.897205298156614259500287508059e-07 1:0.073229499 2:0.201967 3:0.15759 4:0.4506 5:0.4224 6:3.19014 7:9.5557499 8:12.665 9:13.3743 10:-26.394199 11:-18.289801 12:-27.839199 #
-2.5981368654377431925972530279978e-07 1:0.0372306 2:0.42338401 3:0.161431 4:0.4637 5:0.44909999 6:3.1879101 7:9.2467699 8:11.5348 9:13.8894 10:-26.665899 11:-18.7442 12:-26.896999 #
-1.2990684327188715962986265139989e-07 1:0.0331783 2:0.65323502 3:0.141415 4:0.4716 5:0.47040001 6:3.17959 7:8.44205 8:11.5778 9:13.3459 10:-27.1056 11:-17.8414 12:-25.8083 #
1.2990684327188715962986265139989e-07 1:0.034329001 2:0.667018 3:0.27897099 4:0.4646 5:0.46160001 6:3.1844399 7:10.3989 8:12.1874 9:13.4963 10:-26.808901 11:-18.7651 12:-26.364599 #
-0 1:0.02706 2:0.664002 3:0.42019299 4:0.4826 5:0.47499999 6:3.187 7:10.2358 8:13.9297 9:13.86 10:-27.8382 11:-19.030399 12:-28.002899 #
2.5981368654377431925972530279978e-07 1:0.0196844 2:0.67582101 3:0.55082101 4:0.43900001 5:0.4066 6:3.1675999 7:8.21486 8:10.5749 9:12.6851 10:-24.3167 11:-16.9361 12:-25.3778 #
3.897205298156614259500287508059e-07 1:0.017887499 2:0.67826998 3:0.64748698 4:0.47409999 5:0.3673 6:3.1503301 7:7.9893498 8:10.0686 9:13.1124 10:-24.7397 11:-17.5268 12:-25.106701 #
3.897205298156614259500287508059e-07 1:0.073229499 2:0.201967 3:0.15759 4:0.4506 5:0.4224 6:3.19014 7:9.5557499 8:12.665 9:13.3743 10:-26.394199 11:-18.289801 12:-27.839199 #
2.5981368654377431925972530279978e-07 1:0.0372306 2:0.42338401 3:0.161431 4:0.4637 5:0.44909999 6:3.1879101 7:9.2467699 8:11.5348 9:13.8894 10:-26.665899 11:-18.7442 12:-26.896999 #
1.2990684327188715962986265139989e-07 1:0.0331783 2:0.65323502 3:0.141415 4:0.4716 5:0.47040001 6:3.17959 7:8.44205 8:11.5778 9:13.3459 10:-27.1056 11:-17.8414 12:-25.8083 #
0 1:0.034329001 2:0.667018 3:0.27897099 4:0.4646 5:0.46160001 6:3.1844399 7:10.3989 8:12.1874 9:13.4963 10:-26.808901 11:-18.7651 12:-26.364599 #
-1.2990684327188715962986265139989e-07 1:0.02706 2:0.664002 3:0.42019299 4:0.4826 5:0.47499999 6:3.187 7:10.2358 8:13.9297 9:13.86 10:-27.8382 11:-19.030399 12:-28.002899 #
-2.5981368654377431925972530279978e-07 1:0.0196844 2:0.67582101 3:0.55082101 4:0.43900001 5:0.4066 6:3.1675999 7:8.21486 8:10.5749 9:12.6851 10:-24.3167 11:-16.9361 12:-25.3778 #
-3.897205298156614259500287508059e-07 1:0.017887499 2:0.67826998 3:0.64748698 4:0.47409999 5:0.3673 6:3.1503301 7:7.9893498 8:10.0686 9:13.1124 10:-24.7397 11:-17.5268 12:-25.106701 #
-3.897205298156614259500287508059e-07 1:0.053944401 2:0.21277501 3:0.124362 4:0.4183 5:0.4075 6:3.1700799 7:9.20965 8:11.6565 9:12.6565 10:-24.9608 11:-17.4685 12:-24.966299 #
-2.5981368654377431925972530279978e-07 1:0.039269999 2:0.39989901 3:0.130794 4:0.44319999 5:0.44299999 6:3.18209 7:8.4729099 8:11.4839 9:13.0927 10:-25.455099 11:-17.357401 12:-25.6504 #
-1.2990684327188715962986265139989e-07 1:0.037537601 2:0.67477101 3:0.120988 4:0.4632 5:0.4488 6:3.1828101 7:8.6810598 8:12.2865 9:13.1907 10:-25.974199 11:-17.7656 12:-26.2938 #
-0 1:0.0287519 2:0.64277899 3:0.26264799 4:0.47400001 5:0.4686 6:3.1847301 7:8.9837103 8:12.68 9:14.379 10:-28.4708 11:-19.273399 12:-27.9254 #
1.2990684327188715962986265139989e-07 1:0.017823899 2:0.664783 3:0.44897899 4:0.47979999 5:0.463 6:3.17853 7:9.1509104 8:12.1559 9:14.6132 10:-28.0774 11:-19.731701 12:-28.2542 #
2.5981368654377431925972530279978e-07 1:0.018034199 2:0.73889399 3:0.606341 4:0.4025 5:0.40189999 6:3.16394 7:8.0693903 8:10.6027 9:12.4731 10:-24.1457 11:-16.5968 12:-24.178499 #
3.897205298156614259500287508059e-07 1:0.0177489 2:0.67880797 3:0.64064699 4:0.4869 5:0.3721 6:3.1477201 7:7.82129 8:10.1158 9:13.5141 10:-27.1157 11:-17.7279 12:-25.329 #
3.897205298156614259500287508059e-07 1:0.053944401 2:0.21277501 3:0.124362 4:0.4183 5:0.4075 6:3.1700799 7:9.20965 8:11.6565 9:12.6565 10:-24.9608 11:-17.4685 12:-24.966299 #
2.5981368654377431925972530279978e-07 1:0.039269999 2:0.39989901 3:0.130794 4:0.44319999 5:0.44299999 6:3.18209 7:8.4729099 8:11.4839 9:13.0927 10:-25.455099 11:-17.357401 12:-25.6504 #
1.2990684327188715962986265139989e-07 1:0.037537601 2:0.67477101 3:0.120988 4:0.4632 5:0.4488 6:3.1828101 7:8.6810598 8:12.2865 9:13.1907 10:-25.974199 11:-17.7656 12:-26.2938 #
0 1:0.0287519 2:0.64277899 3:0.26264799 4:0.47400001 5:0.4686 6:3.1847301 7:8.9837103 8:12.68 9:14.379 10:-28.4708 11:-19.273399 12:-27.9254 #
-1.2990684327188715962986265139989e-07 1:0.017823899 2:0.664783 3:0.44897899 4:0.47979999 5:0.463 6:3.17853 7:9.1509104 8:12.1559 9:14.6132 10:-28.0774 11:-19.731701 12:-28.2542 #
-2.5981368654377431925972530279978e-07 1:0.018034199 2:0.73889399 3:0.606341 4:0.4025 5:0.40189999 6:3.16394 7:8.0693903 8:10.6027 9:12.4731 10:-24.1457 11:-16.5968 12:-24.178499 #
-3.897205298156614259500287508059e-07 1:0.0177489 2:0.67880797 3:0.64064699 4:0.4869 5:0.3721 6:3.1477201 7:7.82129 8:10.1158 9:13.5141 10:-27.1157 11:-17.7279 12:-25.329 #
-3.897205298156614259500287508059e-07 1:0.062651798 2:0.195392 3:0.134307 4:0.46200001 5:0.36680001 6:3.1879499 7:8.7458601 8:11.6789 9:13.2832 10:-25.959999 11:-17.6707 12:-25.8773 #
-2.5981368654377431925972530279978e-07 1:0.034203101 2:0.49172899 3:0.15575799 4:0.44459999 5:0.43399999 6:3.1826501 7:8.4365301 8:11.5517 9:14.183 10:-27.050501 11:-18.423599 12:-28.5623 #
-0 1:0.038259599 2:0.67477399 3:0.14748 4:0.43610001 5:0.4355 6:3.16998 7:7.9873099 8:11.3278 9:12.596 10:-24.8869 11:-16.816601 12:-24.6119 #
-1.2990684327188715962986265139989e-07 1:0.027355401 2:0.64210898 3:0.26188299 4:0.45109999 5:0.43889999 6:3.1872301 7:8.9459696 8:11.9342 9:13.0706 10:-25.5849 11:-17.574499 12:-26.2078 #
2.5981368654377431925972530279978e-07 1:0.017204599 2:0.64348602 3:0.42925999 4:0.486 5:0.46259999 6:3.1812201 7:9.5397501 8:12.0418 9:14.3968 10:-27.6518 11:-19.2318 12:-28.025801 #
1.2990684327188715962986265139989e-07 1:0.018322101 2:0.69689399 3:0.58794999 4:0.42340001 5:0.4156 6:3.1633501 7:7.9699402 8:10.7861 9:12.3873 10:-24.5965 11:-16.3738 12:-23.9867 #
3.897205298156614259500287508059e-07 1:0.0147465 2:0.70622802 3:0.63631302 4:0.48190001 5:0.3707 6:3.14433 7:7.7816401 8:10.0855 9:12.8597 10:-24.3946 11:-16.7812 12:-24.6341 #
3.897205298156614259500287508059e-07 1:0.062651798 2:0.195392 3:0.134307 4:0.46200001 5:0.36680001 6:3.1879499 7:8.7458601 8:11.6789 9:13.2832 10:-25.959999 11:-17.6707 12:-25.8773 #
2.5981368654377431925972530279978e-07 1:0.034203101 2:0.49172899 3:0.15575799 4:0.44459999 5:0.43399999 6:3.1826501 7:8.4365301 8:11.5517 9:14.183 10:-27.050501 11:-18.423599 12:-28.5623 #
1.2990684327188715962986265139989e-07 1:0.038259599 2:0.67477399 3:0.14748 4:0.43610001 5:0.4355 6:3.16998 7:7.9873099 8:11.3278 9:12.596 10:-24.8869 11:-16.816601 12:-24.6119 #
0 1:0.027355401 2:0.64210898 3:0.26188299 4:0.45109999 5:0.43889999 6:3.1872301 7:8.9459696 8:11.9342 9:13.0706 10:-25.5849 11:-17.574499 12:-26.2078 #
-1.2990684327188715962986265139989e-07 1:0.017204599 2:0.64348602 3:0.42925999 4:0.486 5:0.46259999 6:3.1812201 7:9.5397501 8:12.0418 9:14.3968 10:-27.6518 11:-19.2318 12:-28.025801 #
-2.5981368654377431925972530279978e-07 1:0.018322101 2:0.69689399 3:0.58794999 4:0.42340001 5:0.4156 6:3.1633501 7:7.9699402 8:10.7861 9:12.3873 10:-24.5965 11:-16.3738 12:-23.9867 #
-3.897205298156614259500287508059e-07 1:0.0147465 2:0.70622802 3:0.63631302 4:0.48190001 5:0.3707 6:3.14433 7:7.7816401 8:10.0855 9:12.8597 10:-24.3946 11:-16.7812 12:-24.6341 #
-1.9486026490783071297501437540295e-07 1:0.0603237 2:0.14560901 3:0.14518601 4:0.45879999 5:0.44240001 6:3.1313901 7:9.1846199 8:11.9781 9:12.2647 10:-24.396601 11:-17.171499 12:-25.0499 #
-3.2476710817971789907465662849972e-07 1:0.0540471 2:0.33084899 3:0.14338399 4:0.4657 5:0.45289999 6:3.1856899 7:9.4240303 8:12.5098 9:13.8572 10:-27.657101 11:-18.858601 12:-27.0539 #
-6.4953421635943579814931325699945e-08 1:0.035359401 2:0.442379 3:0.33222899 4:0.458 5:0.45100001 6:3.18927 7:9.0926399 8:11.273 9:13.4224 10:-25.7876 11:-17.988199 12:-26.325899 #
1.9486026490783071297501437540295e-07 1:0.026026201 2:0.69989598 3:0.47556499 4:0.46340001 5:0.45899999 6:3.1788299 7:8.9221601 8:12.0997 9:14.4192 10:-27.8006 11:-18.9289 12:-27.8622 #
6.4953421635943579814931325699945e-08 1:0.0284387 2:0.76458597 3:0.60720599 4:0.40169999 5:0.3953 6:3.1615 7:8.0266304 8:10.6513 9:12.6666 10:-24.546 11:-16.7304 12:-24.423201 #
3.2476710817971789907465662849972e-07 1:0.028643699 2:0.75094801 3:0.71522897 4:0.48010001 5:0.38229999 6:3.1477599 7:7.9918299 8:10.143 9:13.9821 10:-26.705601 11:-18.4149 12:-26.055201 #
3.2476710817971789907465662849972e-07 1:0.0603237 2:0.14560901 3:0.14518601 4:0.45879999 5:0.44240001 6:3.1313901 7:9.1846199 8:11.9781 9:12.2647 10:-24.396601 11:-17.171499 12:-25.0499 #
1.9486026490783071297501437540295e-07 1:0.0540471 2:0.33084899 3:0.14338399 4:0.4657 5:0.45289999 6:3.1856899 7:9.4240303 8:12.5098 9:13.8572 10:-27.657101 11:-18.858601 12:-27.0539 #
6.4953421635943579814931325699945e-08 1:0.035359401 2:0.442379 3:0.33222899 4:0.458 5:0.45100001 6:3.18927 7:9.0926399 8:11.273 9:13.4224 10:-25.7876 11:-17.988199 12:-26.325899 #
-6.4953421635943579814931325699945e-08 1:0.026026201 2:0.69989598 3:0.47556499 4:0.46340001 5:0.45899999 6:3.1788299 7:8.9221601 8:12.0997 9:14.4192 10:-27.8006 11:-18.9289 12:-27.8622 #
-1.9486026490783071297501437540295e-07 1:0.0284387 2:0.76458597 3:0.60720599 4:0.40169999 5:0.3953 6:3.1615 7:8.0266304 8:10.6513 9:12.6666 10:-24.546 11:-16.7304 12:-24.423201 #
-3.2476710817971789907465662849972e-07 1:0.028643699 2:0.75094801 3:0.71522897 4:0.48010001 5:0.38229999 6:3.1477599 7:7.9918299 8:10.143 9:13.9821 10:-26.705601 11:-18.4149 12:-26.055201 #
-1.9486026490783071297501437540295e-07 1:0.060358498 2:0.172152 3:0.16320001 4:0.4727 5:0.4655 6:3.18488 7:9.1752796 8:11.6739 9:13.2344 10:-25.9445 11:-18.0625 12:-25.7684 #
-3.2476710817971789907465662849972e-07 1:0.046989601 2:0.31788501 3:0.129776 4:0.4682 5:0.44440001 6:3.18416 7:8.3441801 8:11.3402 9:12.7352 10:-24.875 11:-17.0291 12:-24.9856 #
-6.4953421635943579814931325699945e-08 1:0.038715102 2:0.363464 3:0.31999901 4:0.47009999 5:0.45289999 6:3.18349 7:8.6457005 8:11.5401 9:14.3563 10:-27.532801 11:-19.6632 12:-27.3979 #
6.4953421635943579814931325699945e-08 1:0.0259955 2:0.45379099 3:0.371223 4:0.45469999 5:0.4479 6:3.1921301 7:9.0158701 8:11.5828 9:13.1935 10:-26.2104 11:-17.7115 12:-25.594 #
1.9486026490783071297501437540295e-07 1:0.020736501 2:0.658943 3:0.43375599 4:0.4774 5:0.4686 6:3.1798601 7:9.4584198 8:12.0651 9:14.2677 10:-28.1642 11:-19.3262 12:-27.441799 #
3.2476710817971789907465662849972e-07 1:0.019708499 2:0.75124902 3:0.68474001 4:0.4761 5:0.3795 6:3.1434801 7:7.8738399 8:10.1168 9:13.099 10:-24.7083 11:-17.0361 12:-25.7988 #
3.2476710817971789907465662849972e-07 1:0.060358498 2:0.172152 3:0.16320001 4:0.4727 5:0.4655 6:3.18488 7:9.1752796 8:11.6739 9:13.2344 10:-25.9445 11:-18.0625 12:-25.7684 #
1.9486026490783071297501437540295e-07 1:0.046989601 2:0.31788501 3:0.129776 4:0.4682 5:0.44440001 6:3.18416 7:8.3441801 8:11.3402 9:12.7352 10:-24.875 11:-17.0291 12:-24.9856 #
6.4953421635943579814931325699945e-08 1:0.038715102 2:0.363464 3:0.31999901 4:0.47009999 5:0.45289999 6:3.18349 7:8.6457005 8:11.5401 9:14.3563 10:-27.532801 11:-19.6632 12:-27.3979 #
-6.4953421635943579814931325699945e-08 1:0.0259955 2:0.45379099 3:0.371223 4:0.45469999 5:0.4479 6:3.1921301 7:9.0158701 8:11.5828 9:13.1935 10:-26.2104 11:-17.7115 12:-25.594 #
-1.9486026490783071297501437540295e-07 1:0.020736501 2:0.658943 3:0.43375599 4:0.4774 5:0.4686 6:3.1798601 7:9.4584198 8:12.0651 9:14.2677 10:-28.1642 11:-19.3262 12:-27.441799 #
-3.2476710817971789907465662849972e-07 1:0.019708499 2:0.75124902 3:0.68474001 4:0.4761 5:0.3795 6:3.1434801 7:7.8738399 8:10.1168 9:13.099 10:-24.7083 11:-17.0361 12:-25.7988 #
-3.2476710817971789907465662849972e-07 1:0.0453173 2:0.32592899 3:0.133448 4:0.46520001 5:0.42919999 6:3.1754799 7:8.3203602 8:10.9932 9:12.73 10:-24.594999 11:-16.9694 12:-25.498501 #
-1.9486026490783071297501437540295e-07 1:0.038143501 2:0.33056799 3:0.27429399 4:0.48089999 5:0.4289 6:3.18327 7:9.1567001 8:10.9809 9:12.8116 10:-24.7414 11:-17.513399 12:-25.1294 #
-6.4953421635943579814931325699945e-08 1:0.0218403 2:0.435361 3:0.33956501 4:0.4774 5:0.45820001 6:3.18525 7:9.8547096 8:11.887 9:14.4361 10:-27.602501 11:-19.464701 12:-28.425301 #
6.4953421635943579814931325699945e-08 1:0.018476199 2:0.661313 3:0.430713 4:0.48069999 5:0.46630001 6:3.1830399 7:10.2846 8:12.6164 9:13.6006 10:-27.2078 11:-18.751801 12:-26.732201 #
1.9486026490783071297501437540295e-07 1:0.019220199 2:0.70259899 3:0.57624602 4:0.42219999 5:0.41479999 6:3.1689701 7:8.1097698 8:10.7625 9:12.5129 10:-24.3417 11:-16.6035 12:-24.2668 #
3.2476710817971789907465662849972e-07 1:0.019220199 2:0.73554999 3:0.68015999 4:0.4743 5:0.38029999 6:3.1459799 7:7.8710999 8:10.1377 9:13.0466 10:-24.8496 11:-17.079599 12:-24.742001 #
3.2476710817971789907465662849972e-07 1:0.0453173 2:0.32592899 3:0.133448 4:0.46520001 5:0.42919999 6:3.1754799 7:8.3203602 8:10.9932 9:12.73 10:-24.594999 11:-16.9694 12:-25.498501 #
1.9486026490783071297501437540295e-07 1:0.038143501 2:0.33056799 3:0.27429399 4:0.48089999 5:0.4289 6:3.18327 7:9.1567001 8:10.9809 9:12.8116 10:-24.7414 11:-17.513399 12:-25.1294 #
6.4953421635943579814931325699945e-08 1:0.0218403 2:0.435361 3:0.33956501 4:0.4774 5:0.45820001 6:3.18525 7:9.8547096 8:11.887 9:14.4361 10:-27.602501 11:-19.464701 12:-28.425301 #
-6.4953421635943579814931325699945e-08 1:0.018476199 2:0.661313 3:0.430713 4:0.48069999 5:0.46630001 6:3.1830399 7:10.2846 8:12.6164 9:13.6006 10:-27.2078 11:-18.751801 12:-26.732201 #
-1.9486026490783071297501437540295e-07 1:0.019220199 2:0.70259899 3:0.57624602 4:0.42219999 5:0.41479999 6:3.1689701 7:8.1097698 8:10.7625 9:12.5129 10:-24.3417 11:-16.6035 12:-24.2668 #
-3.2476710817971789907465662849972e-07 1:0.019220199 2:0.73554999 3:0.68015999 4:0.4743 5:0.38029999 6:3.1459799 7:7.8710999 8:10.1377 9:13.0466 10:-24.8496 11:-17.079599 12:-24.742001 #
-2.5981368654377431925972530279978e-07 1:0.0292398 2:0.31283101 3:0.204413 4:0.46070001 5:0.4447 6:3.1909399 7:9.4037104 8:11.8669 9:14.1749 10:-27.5812 11:-19.5054 12:-27.2362 #
-1.2990684327188715962986265139989e-07 1:0.0375937 2:0.64505798 3:0.207716 4:0.4745 5:0.4391 6:3.17746 7:8.4046602 8:11.7977 9:12.6962 10:-24.944901 11:-16.9792 12:-25.984301 #
-0 1:0.029130699 2:0.66058201 3:0.44511199 4:0.47510001 5:0.4747 6:3.1821301 7:9.3878298 8:13.2415 9:14.2089 10:-28.510599 11:-19.209101 12:-27.9499 #
1.2990684327188715962986265139989e-07 1:0.0266307 2:0.71306598 3:0.59963399 4:0.40450001 5:0.4039 6:3.15874 7:7.86414 8:10.6096 9:12.2195 10:-24.743401 11:-16.156601 12:-23.6353 #
2.5981368654377431925972530279978e-07 1:0.025699399 2:0.67037398 3:0.66553801 4:0.47690001 5:0.37869999 6:3.1505401 7:8.0638399 8:10.1443 9:12.946 10:-24.658001 11:-16.999399 12:-24.6264 #
2.5981368654377431925972530279978e-07 1:0.0292398 2:0.31283101 3:0.204413 4:0.46070001 5:0.4447 6:3.1909399 7:9.4037104 8:11.8669 9:14.1749 10:-27.5812 11:-19.5054 12:-27.2362 #
1.2990684327188715962986265139989e-07 1:0.0375937 2:0.64505798 3:0.207716 4:0.4745 5:0.4391 6:3.17746 7:8.4046602 8:11.7977 9:12.6962 10:-24.944901 11:-16.9792 12:-25.984301 #
0 1:0.029130699 2:0.66058201 3:0.44511199 4:0.47510001 5:0.4747 6:3.1821301 7:9.3878298 8:13.2415 9:14.2089 10:-28.510599 11:-19.209101 12:-27.9499 #
-1.2990684327188715962986265139989e-07 1:0.0266307 2:0.71306598 3:0.59963399 4:0.40450001 5:0.4039 6:3.15874 7:7.86414 8:10.6096 9:12.2195 10:-24.743401 11:-16.156601 12:-23.6353 #
-2.5981368654377431925972530279978e-07 1:0.025699399 2:0.67037398 3:0.66553801 4:0.47690001 5:0.37869999 6:3.1505401 7:8.0638399 8:10.1443 9:12.946 10:-24.658001 11:-16.999399 12:-24.6264 #
-2.5981368654377431925972530279978e-07 1:0.0313324 2:0.38059399 3:0.238609 4:0.46340001 5:0.4366 6:3.1874399 7:9.4260397 8:11.6257 9:13.6619 10:-27.3591 11:-18.484301 12:-26.3074 #
-1.2990684327188715962986265139989e-07 1:0.025338501 2:0.64681798 3:0.198604 4:0.46689999 5:0.44949999 6:3.1798201 7:8.4866199 8:11.2941 9:13.0155 10:-25.267 11:-18.201599 12:-25.392401 #
-0 1:0.0201337 2:0.640944 3:0.42205501 4:0.47189999 5:0.4707 6:3.18115 7:9.7831097 8:12.4702 9:14.1277 10:-28.5835 11:-19.0816 12:-27.4277 #
1.2990684327188715962986265139989e-07 1:0.0161759 2:0.70256501 3:0.56724298 4:0.43599999 5:0.4172 6:3.1650701 7:8.1500902 8:10.7873 9:12.6167 10:-24.471201 11:-16.780701 12:-24.467199 #
2.5981368654377431925972530279978e-07 1:0.0182685 2:0.69664103 3:0.66527098 4:0.47319999 5:0.37740001 6:3.1486101 7:8.0016499 8:10.1576 9:13.1634 10:-25.187799 11:-17.9708 12:-24.8689 #
2.5981368654377431925972530279978e-07 1:0.0313324 2:0.38059399 3:0.238609 4:0.46340001 5:0.4366 6:3.1874399 7:9.4260397 8:11.6257 9:13.6619 10:-27.3591 11:-18.484301 12:-26.3074 #
1.2990684327188715962986265139989e-07 1:0.025338501 2:0.64681798 3:0.198604 4:0.46689999 5:0.44949999 6:3.1798201 7:8.4866199 8:11.2941 9:13.0155 10:-25.267 11:-18.201599 12:-25.392401 #
0 1:0.0201337 2:0.640944 3:0.42205501 4:0.47189999 5:0.4707 6:3.18115 7:9.7831097 8:12.4702 9:14.1277 10:-28.5835 11:-19.0816 12:-27.4277 #
-1.2990684327188715962986265139989e-07 1:0.0161759 2:0.70256501 3:0.56724298 4:0.43599999 5:0.4172 6:3.1650701 7:8.1500902 8:10.7873 9:12.6167 10:-24.471201 11:-16.780701 12:-24.467199 #
-2.5981368654377431925972530279978e-07 1:0.0182685 2:0.69664103 3:0.66527098 4:0.47319999 5:0.37740001 6:3.1486101 7:8.0016499 8:10.1576 9:13.1634 10:-25.187799 11:-17.9708 12:-24.8689 #
-3.2476710817971789907465662849972e-07 1:0.0504013 2:0.246305 3:0.199349 4:0.42250001 5:0.4023 6:3.18221 7:8.6704102 8:11.1847 9:13.0093 10:-25.212601 11:-17.511801 12:-25.312401 #
-1.9486026490783071297501437540295e-07 1:0.027113199 2:0.36834201 3:0.25248399 4:0.4542 5:0.41460001 6:3.1733401 7:8.5430498 8:11.0923 9:12.8809 10:-26.195999 11:-17.153299 12:-24.868 #
-6.4953421635943579814931325699945e-08 1:0.02434 2:0.45974201 3:0.335026 4:0.47639999 5:0.4506 6:3.1837201 7:9.1473598 8:11.3803 9:14.3405 10:-27.399599 11:-21.0902 12:-27.312099 #
1.9486026490783071297501437540295e-07 1:0.021097301 2:0.67324901 3:0.46879601 4:0.48370001 5:0.47530001 6:3.17676 7:8.6523504 8:12.4158 9:14.332 10:-28.0965 11:-18.854799 12:-27.745199 #
6.4953421635943579814931325699945e-08 1:0.0210182 2:0.69478202 3:0.59130001 4:0.4368 5:0.42199999 6:3.1596501 7:7.9612298 8:10.7162 9:12.5463 10:-24.466499 11:-16.565901 12:-24.244301 #
3.2476710817971789907465662849972e-07 1:0.0169845 2:0.76289099 3:0.68848097 4:0.4716 5:0.3748 6:3.1446199 7:7.9057698 8:10.1392 9:12.8238 10:-24.3102 11:-16.777 12:-25.1292 #
3.2476710817971789907465662849972e-07 1:0.0504013 2:0.246305 3:0.199349 4:0.42250001 5:0.4023 6:3.18221 7:8.6704102 8:11.1847 9:13.0093 10:-25.212601 11:-17.511801 12:-25.312401 #
