SVM-light Version V6.20
1 # kernel type
3 # kernel parameter -d 
1 # kernel parameter -g 
1 # kernel parameter -s 
1 # kernel parameter -r 
empty# kernel parameter -u 
13 # highest feature index 
40 # number of training documents 
385 # number of support vectors plus 1 
0 # threshold b, each following line is a SV (starting with alpha*y)
-7.3066316841584580617544823072373e-07 1:0.064059697 2:0.220349 3:0.22587 4:0.4391 5:0.4341 6:3.17188 7:8.1187696 8:12.2811 9:13.0635 10:-25.9974 11:-17.1432 12:-25.8132 #
-4.3839790104950745194153341639798e-07 1:0.033984698 2:0.32521299 3:0.26847899 4:0.47679999 5:0.47240001 6:3.1871901 7:8.9252005 8:11.9587 9:13.9288 10:-26.9631 11:-18.410299 12:-27.106199 #
-1.4613263368316915064717780546599e-07 1:0.022193801 2:0.43593499 3:0.32876 4:0.47920001 5:0.46039999 6:3.1819401 7:9.9871101 8:11.8316 9:14.0938 10:-27.2764 11:-19.1126 12:-27.1546 #
4.3839790104950745194153341639798e-07 1:0.0225804 2:0.687895 3:0.46621999 4:0.48120001 5:0.46160001 6:3.17818 7:8.6906204 8:11.7849 9:13.759 10:-27.826799 11:-18.175699 12:-26.5315 #
1.4613263368316915064717780546599e-07 1:0.0213608 2:0.75859898 3:0.662117 4:0.4005 5:0.40009999 6:3.15662 7:7.8260198 8:10.6807 9:12.2656 10:-24.489799 11:-16.1828 12:-23.745701 #
7.3066316841584580617544823072373e-07 1:0.0191509 2:0.75079203 3:0.68350399 4:0.47029999 5:0.37650001 6:3.1467099 7:7.9544001 8:10.1412 9:12.9532 10:-24.6572 11:-16.991501 12:-24.644699 #
7.3066316841584580617544823072373e-07 1:0.064059697 2:0.220349 3:0.22587 4:0.4391 5:0.4341 6:3.17188 7:8.1187696 8:12.2811 9:13.0635 10:-25.9974 11:-17.1432 12:-25.8132 #
4.3839790104950745194153341639798e-07 1:0.033984698 2:0.32521299 3:0.26847899 4:0.47679999 5:0.47240001 6:3.1871901 7:8.9252005 8:11.9587 9:13.9288 10:-26.9631 11:-18.410299 12:-27.106199 #
1.4613263368316915064717780546599e-07 1:0.022193801 2:0.43593499 3:0.32876 4:0.47920001 5:0.46039999 6:3.1819401 7:9.9871101 8:11.8316 9:14.0938 10:-27.2764 11:-19.1126 12:-27.1546 #
-1.4613263368316915064717780546599e-07 1:0.0225804 2:0.687895 3:0.46621999 4:0.48120001 5:0.46160001 6:3.17818 7:8.6906204 8:11.7849 9:13.759 10:-27.826799 11:-18.175699 12:-26.5315 #
-4.3839790104950745194153341639798e-07 1:0.0213608 2:0.75859898 3:0.662117 4:0.4005 5:0.40009999 6:3.15662 7:7.8260198 8:10.6807 9:12.2656 10:-24.489799 11:-16.1828 12:-23.745701 #
-7.3066316841584580617544823072373e-07 1:0.0191509 2:0.75079203 3:0.68350399 4:0.47029999 5:0.37650001 6:3.1467099 7:7.9544001 8:10.1412 9:12.9532 10:-24.6572 11:-16.991501 12:-24.644699 #
-7.3066316841584580617544823072373e-07 1:0.060696501 2:0.23733699 3:0.21063399 4:0.4436 5:0.43399999 6:3.1916499 7:8.7008305 8:11.3724 9:13.4897 10:-26.748899 11:-17.8403 12:-25.9256 #
-4.3839790104950745194153341639798e-07 1:0.029510301 2:0.43004 3:0.21494401 4:0.4637 5:0.46329999 6:3.1902599 7:9.5348196 8:12.0196 9:13.1847 10:-25.9632 11:-18.8305 12:-25.9144 #
-1.4613263368316915064717780546599e-07 1:0.030223601 2:0.64024103 3:0.197998 4:0.46759999 5:0.4228 6:3.1792901 7:8.4372101 8:11.2549 9:12.4028 10:-24.2453 11:-16.7852 12:-24.8374 #
1.4613263368316915064717780546599e-07 1:0.021531699 2:0.681297 3:0.46094501 4:0.4788 5:0.4702 6:3.17752 7:8.9653196 8:13.9338 9:15.1707 10:-29.8519 11:-19.736799 12:-29.897301 #
4.3839790104950745194153341639798e-07 1:0.018201901 2:0.74699199 3:0.60403299 4:0.4102 5:0.39579999 6:3.1612899 7:8.0304403 8:10.537 9:12.5304 10:-24.2108 11:-16.6339 12:-24.218399 #
7.3066316841584580617544823072373e-07 1:0.018303899 2:0.75614899 3:0.68526602 4:0.4756 5:0.373 6:3.1438999 7:7.8893299 8:10.0985 9:12.8741 10:-24.378 11:-16.828501 12:-24.915501 #
7.3066316841584580617544823072373e-07 1:0.060696501 2:0.23733699 3:0.21063399 4:0.4436 5:0.43399999 6:3.1916499 7:8.7008305 8:11.3724 9:13.4897 10:-26.748899 11:-17.8403 12:-25.9256 #
4.3839790104950745194153341639798e-07 1:0.029510301 2:0.43004 3:0.21494401 4:0.4637 5:0.46329999 6:3.1902599 7:9.5348196 8:12.0196 9:13.1847 10:-25.9632 11:-18.8305 12:-25.9144 #
1.4613263368316915064717780546599e-07 1:0.030223601 2:0.64024103 3:0.197998 4:0.46759999 5:0.4228 6:3.1792901 7:8.4372101 8:11.2549 9:12.4028 10:-24.2453 11:-16.7852 12:-24.8374 #
-1.4613263368316915064717780546599e-07 1:0.021531699 2:0.681297 3:0.46094501 4:0.4788 5:0.4702 6:3.17752 7:8.9653196 8:13.9338 9:15.1707 10:-29.8519 11:-19.736799 12:-29.897301 #
-4.3839790104950745194153341639798e-07 1:0.018201901 2:0.74699199 3:0.60403299 4:0.4102 5:0.39579999 6:3.1612899 7:8.0304403 8:10.537 9:12.5304 10:-24.2108 11:-16.6339 12:-24.218399 #
-7.3066316841584580617544823072373e-07 1:0.018303899 2:0.75614899 3:0.68526602 4:0.4756 5:0.373 6:3.1438999 7:7.8893299 8:10.0985 9:12.8741 10:-24.378 11:-16.828501 12:-24.915501 #
-7.3066316841584580617544823072373e-07 1:0.032359801 2:0.26468399 3:0.24982201 4:0.45210001 5:0.43130001 6:3.1839001 7:8.1909399 8:11.2841 9:16.4296 10:-30.329399 11:-20.928301 12:-30.659401 #
-4.3839790104950745194153341639798e-07 1:0.022689501 2:0.42839399 3:0.24676301 4:0.46489999 5:0.4637 6:3.1877201 7:8.9630203 8:11.8607 9:13.7532 10:-26.560699 11:-18.279499 12:-27.8295 #
1.4613263368316915064717780546599e-07 1:0.020496599 2:0.66839802 3:0.21857201 4:0.4497 5:0.43869999 6:3.1837101 7:8.5783901 8:11.3063 9:13.0673 10:-25.255699 11:-17.3566 12:-26.3325 #
-1.4613263368316915064717780546599e-07 1:0.023891401 2:0.67887998 3:0.47402701 4:0.4716 5:0.47040001 6:3.1765001 7:8.6142702 8:12.1879 9:13.4719 10:-27.8755 11:-17.916599 12:-26.301901 #
4.3839790104950745194153341639798e-07 1:0.019849701 2:0.70895302 3:0.60560399 4:0.4364 5:0.42039999 6:3.1596301 7:7.8829002 8:10.7924 9:12.6551 10:-24.776899 11:-16.6201 12:-24.4168 #
7.3066316841584580617544823072373e-07 1:0.019849701 2:0.74891597 3:0.69090903 4:0.47549999 5:0.3761 6:3.1448801 7:7.8980999 8:10.1422 9:12.9654 10:-24.633301 11:-16.9606 12:-24.7136 #
7.3066316841584580617544823072373e-07 1:0.032359801 2:0.26468399 3:0.24982201 4:0.45210001 5:0.43130001 6:3.1839001 7:8.1909399 8:11.2841 9:16.4296 10:-30.329399 11:-20.928301 12:-30.659401 #
4.3839790104950745194153341639798e-07 1:0.022689501 2:0.42839399 3:0.24676301 4:0.46489999 5:0.4637 6:3.1877201 7:8.9630203 8:11.8607 9:13.7532 10:-26.560699 11:-18.279499 12:-27.8295 #
1.4613263368316915064717780546599e-07 1:0.020496599 2:0.66839802 3:0.21857201 4:0.4497 5:0.43869999 6:3.1837101 7:8.5783901 8:11.3063 9:13.0673 10:-25.255699 11:-17.3566 12:-26.3325 #
-1.4613263368316915064717780546599e-07 1:0.023891401 2:0.67887998 3:0.47402701 4:0.4716 5:0.47040001 6:3.1765001 7:8.6142702 8:12.1879 9:13.4719 10:-27.8755 11:-17.916599 12:-26.301901 #
-4.3839790104950745194153341639798e-07 1:0.019849701 2:0.70895302 3:0.60560399 4:0.4364 5:0.42039999 6:3.1596301 7:7.8829002 8:10.7924 9:12.6551 10:-24.776899 11:-16.6201 12:-24.4168 #
-7.3066316841584580617544823072373e-07 1:0.019849701 2:0.74891597 3:0.69090903 4:0.47549999 5:0.3761 6:3.1448801 7:7.8980999 8:10.1422 9:12.9654 10:-24.633301 11:-16.9606 12:-24.7136 #
-4.3839790104950745194153341639798e-07 1:0.0384642 2:0.215189 3:0.21676201 4:0.45680001 5:0.44159999 6:3.18308 7:8.5162096 8:11.8054 9:12.9188 10:-25.3314 11:-18.1359 12:-25.621799 #
-7.3066316841584580617544823072373e-07 1:0.0268114 2:0.46722001 3:0.232401 4:0.46610001 5:0.46349999 6:3.1863401 7:9.8326302 8:12.8178 9:13.4492 10:-27.4217 11:-19.876301 12:-26.5874 #
-1.4613263368316915064717780546599e-07 1:0.0329316 2:0.67959797 3:0.227264 4:0.44069999 5:0.42250001 6:3.1748099 7:8.5063601 8:11.1937 9:12.364 10:-24.175301 11:-16.886299 12:-24.5714 #
1.4613263368316915064717780546599e-07 1:0.0173003 2:0.67840803 3:0.47546899 4:0.47749999 5:0.4747 6:3.17854 7:8.5448399 8:13.5684 9:14.1291 10:-28.1579 11:-18.6113 12:-28.1024 #
7.3066316841584580617544823072373e-07 1:0.0161289 2:0.76822501 3:0.64524603 4:0.39669999 5:0.39629999 6:3.1566899 7:7.8534598 8:10.5605 9:12.2997 10:-24.3615 11:-16.255501 12:-23.741899 #
4.3839790104950745194153341639798e-07 1:0.0151435 2:0.749493 3:0.68471998 4:0.46740001 5:0.3752 6:3.1444099 7:7.8673701 8:10.1159 9:12.9337 10:-24.6108 11:-16.9345 12:-24.6071 #
7.3066316841584580617544823072373e-07 1:0.0384642 2:0.215189 3:0.21676201 4:0.45680001 5:0.44159999 6:3.18308 7:8.5162096 8:11.8054 9:12.9188 10:-25.3314 11:-18.1359 12:-25.621799 #
4.3839790104950745194153341639798e-07 1:0.0268114 2:0.46722001 3:0.232401 4:0.46610001 5:0.46349999 6:3.1863401 7:9.8326302 8:12.8178 9:13.4492 10:-27.4217 11:-19.876301 12:-26.5874 #
1.4613263368316915064717780546599e-07 1:0.0329316 2:0.67959797 3:0.227264 4:0.44069999 5:0.42250001 6:3.1748099 7:8.5063601 8:11.1937 9:12.364 10:-24.175301 11:-16.886299 12:-24.5714 #
-1.4613263368316915064717780546599e-07 1:0.0173003 2:0.67840803 3:0.47546899 4:0.47749999 5:0.4747 6:3.17854 7:8.5448399 8:13.5684 9:14.1291 10:-28.1579 11:-18.6113 12:-28.1024 #
-4.3839790104950745194153341639798e-07 1:0.0161289 2:0.76822501 3:0.64524603 4:0.39669999 5:0.39629999 6:3.1566899 7:7.8534598 8:10.5605 9:12.2997 10:-24.3615 11:-16.255501 12:-23.741899 #
-7.3066316841584580617544823072373e-07 1:0.0151435 2:0.749493 3:0.68471998 4:0.46740001 5:0.3752 6:3.1444099 7:7.8673701 8:10.1159 9:12.9337 10:-24.6108 11:-16.9345 12:-24.6071 #
-2.8407168797486293148861903438973e-07 1:0.064059697 2:0.220349 3:0.22587 4:0.4391 5:0.4341 6:3.17188 7:8.1187696 8:12.2811 9:13.0635 10:-25.9974 11:-17.1432 12:-25.8132 #
-1.7044301278491774830525957995508e-07 1:0.033984698 2:0.32521299 3:0.26847899 4:0.47679999 5:0.47240001 6:3.1871901 7:8.9252005 8:11.9587 9:13.9288 10:-26.9631 11:-18.410299 12:-27.106199 #
-5.6814337594972584974234826793102e-08 1:0.022193801 2:0.43593499 3:0.32876 4:0.47920001 5:0.46039999 6:3.1819401 7:9.9871101 8:11.8316 9:14.0938 10:-27.2764 11:-19.1126 12:-27.1546 #
1.7044301278491774830525957995508e-07 1:0.0225804 2:0.687895 3:0.46621999 4:0.48120001 5:0.46160001 6:3.17818 7:8.6906204 8:11.7849 9:13.759 10:-27.826799 11:-18.175699 12:-26.5315 #
1.7044301278491774830525957995508e-07 1:0.0213608 2:0.75859898 3:0.662117 4:0.4005 5:0.40009999 6:3.15662 7:7.8260198 8:10.6807 9:12.2656 10:-24.489799 11:-16.1828 12:-23.745701 #
1.7044301278491774830525957995508e-07 1:0.0191509 2:0.75079203 3:0.68350399 4:0.47029999 5:0.37650001 6:3.1467099 7:7.9544001 8:10.1412 9:12.9532 10:-24.6572 11:-16.991501 12:-24.644699 #
2.8407168797486293148861903438973e-07 1:0.064059697 2:0.220349 3:0.22587 4:0.4391 5:0.4341 6:3.17188 7:8.1187696 8:12.2811 9:13.0635 10:-25.9974 11:-17.1432 12:-25.8132 #
1.7044301278491774830525957995508e-07 1:0.033984698 2:0.32521299 3:0.26847899 4:0.47679999 5:0.47240001 6:3.1871901 7:8.9252005 8:11.9587 9:13.9288 10:-26.9631 11:-18.410299 12:-27.106199 #
5.6814337594972584974234826793102e-08 1:0.022193801 2:0.43593499 3:0.32876 4:0.47920001 5:0.46039999 6:3.1819401 7:9.9871101 8:11.8316 9:14.0938 10:-27.2764 11:-19.1126 12:-27.1546 #
-5.6814337594972584974234826793102e-08 1:0.0225804 2:0.687895 3:0.46621999 4:0.48120001 5:0.46160001 6:3.17818 7:8.6906204 8:11.7849 9:13.759 10:-27.826799 11:-18.175699 12:-26.5315 #
-1.7044301278491774830525957995508e-07 1:0.0213608 2:0.75859898 3:0.662117 4:0.4005 5:0.40009999 6:3.15662 7:7.8260198 8:10.6807 9:12.2656 10:-24.489799 11:-16.1828 12:-23.745701 #
-2.8407168797486293148861903438973e-07 1:0.0191509 2:0.75079203 3:0.68350399 4:0.47029999 5:0.37650001 6:3.1467099 7:7.9544001 8:10.1412 9:12.9532 10:-24.6572 11:-16.991501 12:-24.644699 #
-2.8407168797486293148861903438973e-07 1:0.060696501 2:0.23733699 3:0.21063399 4:0.4436 5:0.43399999 6:3.1916499 7:8.7008305 8:11.3724 9:13.4897 10:-26.748899 11:-17.8403 12:-25.9256 #
-5.6814337594972584974234826793102e-08 1:0.029510301 2:0.43004 3:0.21494401 4:0.4637 5:0.46329999 6:3.1902599 7:9.5348196 8:12.0196 9:13.1847 10:-25.9632 11:-18.8305 12:-25.9144 #
-1.7044301278491774830525957995508e-07 1:0.030223601 2:0.64024103 3:0.197998 4:0.46759999 5:0.4228 6:3.1792901 7:8.4372101 8:11.2549 9:12.4028 10:-24.2453 11:-16.7852 12:-24.8374 #
5.6814337594972584974234826793102e-08 1:0.021531699 2:0.681297 3:0.46094501 4:0.4788 5:0.4702 6:3.17752 7:8.9653196 8:13.9338 9:15.1707 10:-29.8519 11:-19.736799 12:-29.897301 #
1.7044301278491774830525957995508e-07 1:0.018201901 2:0.74699199 3:0.60403299 4:0.4102 5:0.39579999 6:3.1612899 7:8.0304403 8:10.537 9:12.5304 10:-24.2108 11:-16.6339 12:-24.218399 #
2.8407168797486293148861903438973e-07 1:0.018303899 2:0.75614899 3:0.68526602 4:0.4756 5:0.373 6:3.1438999 7:7.8893299 8:10.0985 9:12.8741 10:-24.378 11:-16.828501 12:-24.915501 #
2.8407168797486293148861903438973e-07 1:0.060696501 2:0.23733699 3:0.21063399 4:0.4436 5:0.43399999 6:3.1916499 7:8.7008305 8:11.3724 9:13.4897 10:-26.748899 11:-17.8403 12:-25.9256 #
1.7044301278491774830525957995508e-07 1:0.029510301 2:0.43004 3:0.21494401 4:0.4637 5:0.46329999 6:3.1902599 7:9.5348196 8:12.0196 9:13.1847 10:-25.9632 11:-18.8305 12:-25.9144 #
5.6814337594972584974234826793102e-08 1:0.030223601 2:0.64024103 3:0.197998 4:0.46759999 5:0.4228 6:3.1792901 7:8.4372101 8:11.2549 9:12.4028 10:-24.2453 11:-16.7852 12:-24.8374 #
-5.6814337594972584974234826793102e-08 1:0.021531699 2:0.681297 3:0.46094501 4:0.4788 5:0.4702 6:3.17752 7:8.9653196 8:13.9338 9:15.1707 10:-29.8519 11:-19.736799 12:-29.897301 #
-1.7044301278491774830525957995508e-07 1:0.018201901 2:0.74699199 3:0.60403299 4:0.4102 5:0.39579999 6:3.1612899 7:8.0304403 8:10.537 9:12.5304 10:-24.2108 11:-16.6339 12:-24.218399 #
-2.8407168797486293148861903438973e-07 1:0.018303899 2:0.75614899 3:0.68526602 4:0.4756 5:0.373 6:3.1438999 7:7.8893299 8:10.0985 9:12.8741 10:-24.378 11:-16.828501 12:-24.915501 #
-2.8407168797486293148861903438973e-07 1:0.032359801 2:0.26468399 3:0.24982201 4:0.45210001 5:0.43130001 6:3.1839001 7:8.1909399 8:11.2841 9:16.4296 10:-30.329399 11:-20.928301 12:-30.659401 #
-1.7044301278491774830525957995508e-07 1:0.022689501 2:0.42839399 3:0.24676301 4:0.46489999 5:0.4637 6:3.1877201 7:8.9630203 8:11.8607 9:13.7532 10:-26.560699 11:-18.279499 12:-27.8295 #
5.6814337594972584974234826793102e-08 1:0.020496599 2:0.66839802 3:0.21857201 4:0.4497 5:0.43869999 6:3.1837101 7:8.5783901 8:11.3063 9:13.0673 10:-25.255699 11:-17.3566 12:-26.3325 #
-5.6814337594972584974234826793102e-08 1:0.023891401 2:0.67887998 3:0.47402701 4:0.4716 5:0.47040001 6:3.1765001 7:8.6142702 8:12.1879 9:13.4719 10:-27.8755 11:-17.916599 12:-26.301901 #
1.7044301278491774830525957995508e-07 1:0.019849701 2:0.70895302 3:0.60560399 4:0.4364 5:0.42039999 6:3.1596301 7:7.8829002 8:10.7924 9:12.6551 10:-24.776899 11:-16.6201 12:-24.4168 #
2.8407168797486293148861903438973e-07 1:0.019849701 2:0.74891597 3:0.69090903 4:0.47549999 5:0.3761 6:3.1448801 7:7.8980999 8:10.1422 9:12.9654 10:-24.633301 11:-16.9606 12:-24.7136 #
2.8407168797486293148861903438973e-07 1:0.032359801 2:0.26468399 3:0.24982201 4:0.45210001 5:0.43130001 6:3.1839001 7:8.1909399 8:11.2841 9:16.4296 10:-30.329399 11:-20.928301 12:-30.659401 #
1.7044301278491774830525957995508e-07 1:0.022689501 2:0.42839399 3:0.24676301 4:0.46489999 5:0.4637 6:3.1877201 7:8.9630203 8:11.8607 9:13.7532 10:-26.560699 11:-18.279499 12:-27.8295 #
5.6814337594972584974234826793102e-08 1:0.020496599 2:0.66839802 3:0.21857201 4:0.4497 5:0.43869999 6:3.1837101 7:8.5783901 8:11.3063 9:13.0673 10:-25.255699 11:-17.3566 12:-26.3325 #
-5.6814337594972584974234826793102e-08 1:0.023891401 2:0.67887998 3:0.47402701 4:0.4716 5:0.47040001 6:3.1765001 7:8.6142702 8:12.1879 9:13.4719 10:-27.8755 11:-17.916599 12:-26.301901 #
-1.7044301278491774830525957995508e-07 1:0.019849701 2:0.70895302 3:0.60560399 4:0.4364 5:0.42039999 6:3.1596301 7:7.8829002 8:10.7924 9:12.6551 10:-24.776899 11:-16.6201 12:-24.4168 #
-2.8407168797486293148861903438973e-07 1:0.019849701 2:0.74891597 3:0.69090903 4:0.47549999 5:0.3761 6:3.1448801 7:7.8980999 8:10.1422 9:12.9654 10:-24.633301 11:-16.9606 12:-24.7136 #
-2.8407168797486293148861903438973e-07 1:0.0384642 2:0.215189 3:0.21676201 4:0.45680001 5:0.44159999 6:3.18308 7:8.5162096 8:11.8054 9:12.9188 10:-25.3314 11:-18.1359 12:-25.621799 #
-1.7044301278491774830525957995508e-07 1:0.0268114 2:0.46722001 3:0.232401 4:0.46610001 5:0.46349999 6:3.1863401 7:9.8326302 8:12.8178 9:13.4492 10:-27.4217 11:-19.876301 12:-26.5874 #
-5.6814337594972584974234826793102e-08 1:0.0329316 2:0.67959797 3:0.227264 4:0.44069999 5:0.42250001 6:3.1748099 7:8.5063601 8:11.1937 9:12.364 10:-24.175301 11:-16.886299 12:-24.5714 #
5.6814337594972584974234826793102e-08 1:0.0173003 2:0.67840803 3:0.47546899 4:0.47749999 5:0.4747 6:3.17854 7:8.5448399 8:13.5684 9:14.1291 10:-28.1579 11:-18.6113 12:-28.1024 #
2.8407168797486293148861903438973e-07 1:0.0161289 2:0.76822501 3:0.64524603 4:0.39669999 5:0.39629999 6:3.1566899 7:7.8534598 8:10.5605 9:12.2997 10:-24.3615 11:-16.255501 12:-23.741899 #
1.7044301278491774830525957995508e-07 1:0.0151435 2:0.749493 3:0.68471998 4:0.46740001 5:0.3752 6:3.1444099 7:7.8673701 8:10.1159 9:12.9337 10:-24.6108 11:-16.9345 12:-24.6071 #
2.8407168797486293148861903438973e-07 1:0.0384642 2:0.215189 3:0.21676201 4:0.45680001 5:0.44159999 6:3.18308 7:8.5162096 8:11.8054 9:12.9188 10:-25.3314 11:-18.1359 12:-25.621799 #
1.7044301278491774830525957995508e-07 1:0.0268114 2:0.46722001 3:0.232401 4:0.46610001 5:0.46349999 6:3.1863401 7:9.8326302 8:12.8178 9:13.4492 10:-27.4217 11:-19.876301 12:-26.5874 #
5.6814337594972584974234826793102e-08 1:0.0329316 2:0.67959797 3:0.227264 4:0.44069999 5:0.42250001 6:3.1748099 7:8.5063601 8:11.1937 9:12.364 10:-24.175301 11:-16.886299 12:-24.5714 #
-5.6814337594972584974234826793102e-08 1:0.0173003 2:0.67840803 3:0.47546899 4:0.47749999 5:0.4747 6:3.17854 7:8.5448399 8:13.5684 9:14.1291 10:-28.1579 11:-18.6113 12:-28.1024 #
-1.7044301278491774830525957995508e-07 1:0.0161289 2:0.76822501 3:0.64524603 4:0.39669999 5:0.39629999 6:3.1566899 7:7.8534598 8:10.5605 9:12.2997 10:-24.3615 11:-16.255501 12:-23.741899 #
-2.8407168797486293148861903438973e-07 1:0.0151435 2:0.749493 3:0.68471998 4:0.46740001 5:0.3752 6:3.1444099 7:7.8673701 8:10.1159 9:12.9337 10:-24.6108 11:-16.9345 12:-24.6071 #
-2.0220188473201739507486424107796e-06 1:0.064059697 2:0.220349 3:0.22587 4:0.4391 5:0.4341 6:3.17188 7:8.1187696 8:12.2811 9:13.0635 10:-25.9974 11:-17.1432 12:-25.8132 #
-1.2132113083921044975041275346128e-06 1:0.033984698 2:0.32521299 3:0.26847899 4:0.47679999 5:0.47240001 6:3.1871901 7:8.9252005 8:11.9587 9:13.9288 10:-26.9631 11:-18.410299 12:-27.106199 #
-4.0440376946403483250137584487094e-07 1:0.022193801 2:0.43593499 3:0.32876 4:0.47920001 5:0.46039999 6:3.1819401 7:9.9871101 8:11.8316 9:14.0938 10:-27.2764 11:-19.1126 12:-27.1546 #
4.0440376946403483250137584487094e-07 1:0.0225804 2:0.687895 3:0.46621999 4:0.48120001 5:0.46160001 6:3.17818 7:8.6906204 8:11.7849 9:13.759 10:-27.826799 11:-18.175699 12:-26.5315 #
2.0220188473201739507486424107796e-06 1:0.0213608 2:0.75859898 3:0.662117 4:0.4005 5:0.40009999 6:3.15662 7:7.8260198 8:10.6807 9:12.2656 10:-24.489799 11:-16.1828 12:-23.745701 #
1.2132113083921044975041275346128e-06 1:0.0191509 2:0.75079203 3:0.68350399 4:0.47029999 5:0.37650001 6:3.1467099 7:7.9544001 8:10.1412 9:12.9532 10:-24.6572 11:-16.991501 12:-24.644699 #
2.0220188473201739507486424107796e-06 1:0.064059697 2:0.220349 3:0.22587 4:0.4391 5:0.4341 6:3.17188 7:8.1187696 8:12.2811 9:13.0635 10:-25.9974 11:-17.1432 12:-25.8132 #
1.2132113083921044975041275346128e-06 1:0.033984698 2:0.32521299 3:0.26847899 4:0.47679999 5:0.47240001 6:3.1871901 7:8.9252005 8:11.9587 9:13.9288 10:-26.9631 11:-18.410299 12:-27.106199 #
4.0440376946403483250137584487094e-07 1:0.022193801 2:0.43593499 3:0.32876 4:0.47920001 5:0.46039999 6:3.1819401 7:9.9871101 8:11.8316 9:14.0938 10:-27.2764 11:-19.1126 12:-27.1546 #
-4.0440376946403483250137584487094e-07 1:0.0225804 2:0.687895 3:0.46621999 4:0.48120001 5:0.46160001 6:3.17818 7:8.6906204 8:11.7849 9:13.759 10:-27.826799 11:-18.175699 12:-26.5315 #
-1.2132113083921044975041275346128e-06 1:0.0213608 2:0.75859898 3:0.662117 4:0.4005 5:0.40009999 6:3.15662 7:7.8260198 8:10.6807 9:12.2656 10:-24.489799 11:-16.1828 12:-23.745701 #
-2.0220188473201739507486424107796e-06 1:0.0191509 2:0.75079203 3:0.68350399 4:0.47029999 5:0.37650001 6:3.1467099 7:7.9544001 8:10.1412 9:12.9532 10:-24.6572 11:-16.991501 12:-24.644699 #
-2.0220188473201739507486424107796e-06 1:0.060696501 2:0.23733699 3:0.21063399 4:0.4436 5:0.43399999 6:3.1916499 7:8.7008305 8:11.3724 9:13.4897 10:-26.748899 11:-17.8403 12:-25.9256 #
-1.2132113083921044975041275346128e-06 1:0.029510301 2:0.43004 3:0.21494401 4:0.4637 5:0.46329999 6:3.1902599 7:9.5348196 8:12.0196 9:13.1847 10:-25.9632 11:-18.8305 12:-25.9144 #
-4.0440376946403483250137584487094e-07 1:0.030223601 2:0.64024103 3:0.197998 4:0.46759999 5:0.4228 6:3.1792901 7:8.4372101 8:11.2549 9:12.4028 10:-24.2453 11:-16.7852 12:-24.8374 #
4.0440376946403483250137584487094e-07 1:0.021531699 2:0.681297 3:0.46094501 4:0.4788 5:0.4702 6:3.17752 7:8.9653196 8:13.9338 9:15.1707 10:-29.8519 11:-19.736799 12:-29.897301 #
1.2132113083921044975041275346128e-06 1:0.018201901 2:0.74699199 3:0.60403299 4:0.4102 5:0.39579999 6:3.1612899 7:8.0304403 8:10.537 9:12.5304 10:-24.2108 11:-16.6339 12:-24.218399 #
2.0220188473201739507486424107796e-06 1:0.018303899 2:0.75614899 3:0.68526602 4:0.4756 5:0.373 6:3.1438999 7:7.8893299 8:10.0985 9:12.8741 10:-24.378 11:-16.828501 12:-24.915501 #
2.0220188473201739507486424107796e-06 1:0.060696501 2:0.23733699 3:0.21063399 4:0.4436 5:0.43399999 6:3.1916499 7:8.7008305 8:11.3724 9:13.4897 10:-26.748899 11:-17.8403 12:-25.9256 #
1.2132113083921044975041275346128e-06 1:0.029510301 2:0.43004 3:0.21494401 4:0.4637 5:0.46329999 6:3.1902599 7:9.5348196 8:12.0196 9:13.1847 10:-25.9632 11:-18.8305 12:-25.9144 #
4.0440376946403483250137584487094e-07 1:0.030223601 2:0.64024103 3:0.197998 4:0.46759999 5:0.4228 6:3.1792901 7:8.4372101 8:11.2549 9:12.4028 10:-24.2453 11:-16.7852 12:-24.8374 #
-4.0440376946403483250137584487094e-07 1:0.021531699 2:0.681297 3:0.46094501 4:0.4788 5:0.4702 6:3.17752 7:8.9653196 8:13.9338 9:15.1707 10:-29.8519 11:-19.736799 12:-29.897301 #
-1.2132113083921044975041275346128e-06 1:0.018201901 2:0.74699199 3:0.60403299 4:0.4102 5:0.39579999 6:3.1612899 7:8.0304403 8:10.537 9:12.5304 10:-24.2108 11:-16.6339 12:-24.218399 #
-2.0220188473201739507486424107796e-06 1:0.018303899 2:0.75614899 3:0.68526602 4:0.4756 5:0.373 6:3.1438999 7:7.8893299 8:10.0985 9:12.8741 10:-24.378 11:-16.828501 12:-24.915501 #
-2.0220188473201739507486424107796e-06 1:0.032359801 2:0.26468399 3:0.24982201 4:0.45210001 5:0.43130001 6:3.1839001 7:8.1909399 8:11.2841 9:16.4296 10:-30.329399 11:-20.928301 12:-30.659401 #
-1.2132113083921044975041275346128e-06 1:0.022689501 2:0.42839399 3:0.24676301 4:0.46489999 5:0.4637 6:3.1877201 7:8.9630203 8:11.8607 9:13.7532 10:-26.560699 11:-18.279499 12:-27.8295 #
-4.0440376946403483250137584487094e-07 1:0.020496599 2:0.66839802 3:0.21857201 4:0.4497 5:0.43869999 6:3.1837101 7:8.5783901 8:11.3063 9:13.0673 10:-25.255699 11:-17.3566 12:-26.3325 #
4.0440376946403483250137584487094e-07 1:0.023891401 2:0.67887998 3:0.47402701 4:0.4716 5:0.47040001 6:3.1765001 7:8.6142702 8:12.1879 9:13.4719 10:-27.8755 11:-17.916599 12:-26.301901 #
1.2132113083921044975041275346128e-06 1:0.019849701 2:0.70895302 3:0.60560399 4:0.4364 5:0.42039999 6:3.1596301 7:7.8829002 8:10.7924 9:12.6551 10:-24.776899 11:-16.6201 12:-24.4168 #
2.0220188473201739507486424107796e-06 1:0.019849701 2:0.74891597 3:0.69090903 4:0.47549999 5:0.3761 6:3.1448801 7:7.8980999 8:10.1422 9:12.9654 10:-24.633301 11:-16.9606 12:-24.7136 #
2.0220188473201739507486424107796e-06 1:0.032359801 2:0.26468399 3:0.24982201 4:0.45210001 5:0.43130001 6:3.1839001 7:8.1909399 8:11.2841 9:16.4296 10:-30.329399 11:-20.928301 12:-30.659401 #
1.2132113083921044975041275346128e-06 1:0.022689501 2:0.42839399 3:0.24676301 4:0.46489999 5:0.4637 6:3.1877201 7:8.9630203 8:11.8607 9:13.7532 10:-26.560699 11:-18.279499 12:-27.8295 #
4.0440376946403483250137584487094e-07 1:0.020496599 2:0.66839802 3:0.21857201 4:0.4497 5:0.43869999 6:3.1837101 7:8.5783901 8:11.3063 9:13.0673 10:-25.255699 11:-17.3566 12:-26.3325 #
-4.0440376946403483250137584487094e-07 1:0.023891401 2:0.67887998 3:0.47402701 4:0.4716 5:0.47040001 6:3.1765001 7:8.6142702 8:12.1879 9:13.4719 10:-27.8755 11:-17.916599 12:-26.301901 #
-1.2132113083921044975041275346128e-06 1:0.019849701 2:0.70895302 3:0.60560399 4:0.4364 5:0.42039999 6:3.1596301 7:7.8829002 8:10.7924 9:12.6551 10:-24.776899 11:-16.6201 12:-24.4168 #
-2.0220188473201739507486424107796e-06 1:0.019849701 2:0.74891597 3:0.69090903 4:0.47549999 5:0.3761 6:3.1448801 7:7.8980999 8:10.1422 9:12.9654 10:-24.633301 11:-16.9606 12:-24.7136 #
-2.0220188473201739507486424107796e-06 1:0.0384642 2:0.215189 3:0.21676201 4:0.45680001 5:0.44159999 6:3.18308 7:8.5162096 8:11.8054 9:12.9188 10:-25.3314 11:-18.1359 12:-25.621799 #
-1.2132113083921044975041275346128e-06 1:0.0268114 2:0.46722001 3:0.232401 4:0.46610001 5:0.46349999 6:3.1863401 7:9.8326302 8:12.8178 9:13.4492 10:-27.4217 11:-19.876301 12:-26.5874 #
-4.0440376946403483250137584487094e-07 1:0.0329316 2:0.67959797 3:0.227264 4:0.44069999 5:0.42250001 6:3.1748099 7:8.5063601 8:11.1937 9:12.364 10:-24.175301 11:-16.886299 12:-24.5714 #
4.0440376946403483250137584487094e-07 1:0.0173003 2:0.67840803 3:0.47546899 4:0.47749999 5:0.4747 6:3.17854 7:8.5448399 8:13.5684 9:14.1291 10:-28.1579 11:-18.6113 12:-28.1024 #
2.0220188473201739507486424107796e-06 1:0.0161289 2:0.76822501 3:0.64524603 4:0.39669999 5:0.39629999 6:3.1566899 7:7.8534598 8:10.5605 9:12.2997 10:-24.3615 11:-16.255501 12:-23.741899 #
1.2132113083921044975041275346128e-06 1:0.0151435 2:0.749493 3:0.68471998 4:0.46740001 5:0.3752 6:3.1444099 7:7.8673701 8:10.1159 9:12.9337 10:-24.6108 11:-16.9345 12:-24.6071 #
2.0220188473201739507486424107796e-06 1:0.0384642 2:0.215189 3:0.21676201 4:0.45680001 5:0.44159999 6:3.18308 7:8.5162096 8:11.8054 9:12.9188 10:-25.3314 11:-18.1359 12:-25.621799 #
1.2132113083921044975041275346128e-06 1:0.0268114 2:0.46722001 3:0.232401 4:0.46610001 5:0.46349999 6:3.1863401 7:9.8326302 8:12.8178 9:13.4492 10:-27.4217 11:-19.876301 12:-26.5874 #
4.0440376946403483250137584487094e-07 1:0.0329316 2:0.67959797 3:0.227264 4:0.44069999 5:0.42250001 6:3.1748099 7:8.5063601 8:11.1937 9:12.364 10:-24.175301 11:-16.886299 12:-24.5714 #
-4.0440376946403483250137584487094e-07 1:0.0173003 2:0.67840803 3:0.47546899 4:0.47749999 5:0.4747 6:3.17854 7:8.5448399 8:13.5684 9:14.1291 10:-28.1579 11:-18.6113 12:-28.1024 #
-1.2132113083921044975041275346128e-06 1:0.0161289 2:0.76822501 3:0.64524603 4:0.39669999 5:0.39629999 6:3.1566899 7:7.8534598 8:10.5605 9:12.2997 10:-24.3615 11:-16.255501 12:-23.741899 #
-2.0220188473201739507486424107796e-06 1:0.0151435 2:0.749493 3:0.68471998 4:0.46740001 5:0.3752 6:3.1444099 7:7.8673701 8:10.1159 9:12.9337 10:-24.6108 11:-16.9345 12:-24.6071 #
-3.2716357023709259830213761922169e-11 1:0.064059697 2:0.220349 3:0.22587 4:0.4391 5:0.4341 6:3.17188 7:8.1187696 8:12.2811 9:13.0635 10:-25.9974 11:-17.1432 12:-25.8132 #
-1.9629814214225555251893403596249e-11 1:0.033984698 2:0.32521299 3:0.26847899 4:0.47679999 5:0.47240001 6:3.1871901 7:8.9252005 8:11.9587 9:13.9288 10:-26.9631 11:-18.410299 12:-27.106199 #
-6.5432714047418514813666122166442e-12 1:0.022193801 2:0.43593499 3:0.32876 4:0.47920001 5:0.46039999 6:3.1819401 7:9.9871101 8:11.8316 9:14.0938 10:-27.2764 11:-19.1126 12:-27.1546 #
1.9629814214225555251893403596249e-11 1:0.0225804 2:0.687895 3:0.46621999 4:0.48120001 5:0.46160001 6:3.17818 7:8.6906204 8:11.7849 9:13.759 10:-27.826799 11:-18.175699 12:-26.5315 #
6.5432714047418514813666122166442e-12 1:0.0213608 2:0.75859898 3:0.662117 4:0.4005 5:0.40009999 6:3.15662 7:7.8260198 8:10.6807 9:12.2656 10:-24.489799 11:-16.1828 12:-23.745701 #
3.2716357023709259830213761922169e-11 1:0.0191509 2:0.75079203 3:0.68350399 4:0.47029999 5:0.37650001 6:3.1467099 7:7.9544001 8:10.1412 9:12.9532 10:-24.6572 11:-16.991501 12:-24.644699 #
3.2716357023709259830213761922169e-11 1:0.064059697 2:0.220349 3:0.22587 4:0.4391 5:0.4341 6:3.17188 7:8.1187696 8:12.2811 9:13.0635 10:-25.9974 11:-17.1432 12:-25.8132 #
1.9629814214225555251893403596249e-11 1:0.033984698 2:0.32521299 3:0.26847899 4:0.47679999 5:0.47240001 6:3.1871901 7:8.9252005 8:11.9587 9:13.9288 10:-26.9631 11:-18.410299 12:-27.106199 #
6.5432714047418514813666122166442e-12 1:0.022193801 2:0.43593499 3:0.32876 4:0.47920001 5:0.46039999 6:3.1819401 7:9.9871101 8:11.8316 9:14.0938 10:-27.2764 11:-19.1126 12:-27.1546 #
-6.5432714047418514813666122166442e-12 1:0.0225804 2:0.687895 3:0.46621999 4:0.48120001 5:0.46160001 6:3.17818 7:8.6906204 8:11.7849 9:13.759 10:-27.826799 11:-18.175699 12:-26.5315 #
-1.9629814214225555251893403596249e-11 1:0.0213608 2:0.75859898 3:0.662117 4:0.4005 5:0.40009999 6:3.15662 7:7.8260198 8:10.6807 9:12.2656 10:-24.489799 11:-16.1828 12:-23.745701 #
-3.2716357023709259830213761922169e-11 1:0.0191509 2:0.75079203 3:0.68350399 4:0.47029999 5:0.37650001 6:3.1467099 7:7.9544001 8:10.1412 9:12.9532 10:-24.6572 11:-16.991501 12:-24.644699 #
-1.9629814214225555251893403596249e-11 1:0.060696501 2:0.23733699 3:0.21063399 4:0.4436 5:0.43399999 6:3.1916499 7:8.7008305 8:11.3724 9:13.4897 10:-26.748899 11:-17.8403 12:-25.9256 #
-3.2716357023709259830213761922169e-11 1:0.029510301 2:0.43004 3:0.21494401 4:0.4637 5:0.46329999 6:3.1902599 7:9.5348196 8:12.0196 9:13.1847 10:-25.9632 11:-18.8305 12:-25.9144 #
-6.5432714047418514813666122166442e-12 1:0.030223601 2:0.64024103 3:0.197998 4:0.46759999 5:0.4228 6:3.1792901 7:8.4372101 8:11.2549 9:12.4028 10:-24.2453 11:-16.7852 12:-24.8374 #
6.5432714047418514813666122166442e-12 1:0.021531699 2:0.681297 3:0.46094501 4:0.4788 5:0.4702 6:3.17752 7:8.9653196 8:13.9338 9:15.1707 10:-29.8519 11:-19.736799 12:-29.897301 #
1.9629814214225555251893403596249e-11 1:0.018201901 2:0.74699199 3:0.60403299 4:0.4102 5:0.39579999 6:3.1612899 7:8.0304403 8:10.537 9:12.5304 10:-24.2108 11:-16.6339 12:-24.218399 #
3.2716357023709259830213761922169e-11 1:0.018303899 2:0.75614899 3:0.68526602 4:0.4756 5:0.373 6:3.1438999 7:7.8893299 8:10.0985 9:12.8741 10:-24.378 11:-16.828501 12:-24.915501 #
3.2716357023709259830213761922169e-11 1:0.060696501 2:0.23733699 3:0.21063399 4:0.4436 5:0.43399999 6:3.1916499 7:8.7008305 8:11.3724 9:13.4897 10:-26.748899 11:-17.8403 12:-25.9256 #
1.9629814214225555251893403596249e-11 1:0.029510301 2:0.43004 3:0.21494401 4:0.4637 5:0.46329999 6:3.1902599 7:9.5348196 8:12.0196 9:13.1847 10:-25.9632 11:-18.8305 12:-25.9144 #
6.5432714047418514813666122166442e-12 1:0.030223601 2:0.64024103 3:0.197998 4:0.46759999 5:0.4228 6:3.1792901 7:8.4372101 8:11.2549 9:12.4028 10:-24.2453 11:-16.7852 12:-24.8374 #
-6.5432714047418514813666122166442e-12 1:0.021531699 2:0.681297 3:0.46094501 4:0.4788 5:0.4702 6:3.17752 7:8.9653196 8:13.9338 9:15.1707 10:-29.8519 11:-19.736799 12:-29.897301 #
-1.9629814214225555251893403596249e-11 1:0.018201901 2:0.74699199 3:0.60403299 4:0.4102 5:0.39579999 6:3.1612899 7:8.0304403 8:10.537 9:12.5304 10:-24.2108 11:-16.6339 12:-24.218399 #
-3.2716357023709259830213761922169e-11 1:0.018303899 2:0.75614899 3:0.68526602 4:0.4756 5:0.373 6:3.1438999 7:7.8893299 8:10.0985 9:12.8741 10:-24.378 11:-16.828501 12:-24.915501 #
-3.2716357023709259830213761922169e-11 1:0.032359801 2:0.26468399 3:0.24982201 4:0.45210001 5:0.43130001 6:3.1839001 7:8.1909399 8:11.2841 9:16.4296 10:-30.329399 11:-20.928301 12:-30.659401 #
-1.9629814214225555251893403596249e-11 1:0.022689501 2:0.42839399 3:0.24676301 4:0.46489999 5:0.4637 6:3.1877201 7:8.9630203 8:11.8607 9:13.7532 10:-26.560699 11:-18.279499 12:-27.8295 #
6.5432714047418514813666122166442e-12 1:0.020496599 2:0.66839802 3:0.21857201 4:0.4497 5:0.43869999 6:3.1837101 7:8.5783901 8:11.3063 9:13.0673 10:-25.255699 11:-17.3566 12:-26.3325 #
-6.5432714047418514813666122166442e-12 1:0.023891401 2:0.67887998 3:0.47402701 4:0.4716 5:0.47040001 6:3.1765001 7:8.6142702 8:12.1879 9:13.4719 10:-27.8755 11:-17.916599 12:-26.301901 #
1.9629814214225555251893403596249e-11 1:0.019849701 2:0.70895302 3:0.60560399 4:0.4364 5:0.42039999 6:3.1596301 7:7.8829002 8:10.7924 9:12.6551 10:-24.776899 11:-16.6201 12:-24.4168 #
3.2716357023709259830213761922169e-11 1:0.019849701 2:0.74891597 3:0.69090903 4:0.47549999 5:0.3761 6:3.1448801 7:7.8980999 8:10.1422 9:12.9654 10:-24.633301 11:-16.9606 12:-24.7136 #
3.2716357023709259830213761922169e-11 1:0.032359801 2:0.26468399 3:0.24982201 4:0.45210001 5:0.43130001 6:3.1839001 7:8.1909399 8:11.2841 9:16.4296 10:-30.329399 11:-20.928301 12:-30.659401 #
1.9629814214225555251893403596249e-11 1:0.022689501 2:0.42839399 3:0.24676301 4:0.46489999 5:0.4637 6:3.1877201 7:8.9630203 8:11.8607 9:13.7532 10:-26.560699 11:-18.279499 12:-27.8295 #
6.5432714047418514813666122166442e-12 1:0.020496599 2:0.66839802 3:0.21857201 4:0.4497 5:0.43869999 6:3.1837101 7:8.5783901 8:11.3063 9:13.0673 10:-25.255699 11:-17.3566 12:-26.3325 #
-6.5432714047418514813666122166442e-12 1:0.023891401 2:0.67887998 3:0.47402701 4:0.4716 5:0.47040001 6:3.1765001 7:8.6142702 8:12.1879 9:13.4719 10:-27.8755 11:-17.916599 12:-26.301901 #
-1.9629814214225555251893403596249e-11 1:0.019849701 2:0.70895302 3:0.60560399 4:0.4364 5:0.42039999 6:3.1596301 7:7.8829002 8:10.7924 9:12.6551 10:-24.776899 11:-16.6201 12:-24.4168 #
-3.2716357023709259830213761922169e-11 1:0.019849701 2:0.74891597 3:0.69090903 4:0.47549999 5:0.3761 6:3.1448801 7:7.8980999 8:10.1422 9:12.9654 10:-24.633301 11:-16.9606 12:-24.7136 #
-1.9629814214225555251893403596249e-11 1:0.0384642 2:0.215189 3:0.21676201 4:0.45680001 5:0.44159999 6:3.18308 7:8.5162096 8:11.8054 9:12.9188 10:-25.3314 11:-18.1359 12:-25.621799 #
-3.2716357023709259830213761922169e-11 1:0.0268114 2:0.46722001 3:0.232401 4:0.46610001 5:0.46349999 6:3.1863401 7:9.8326302 8:12.8178 9:13.4492 10:-27.4217 11:-19.876301 12:-26.5874 #
6.5432714047418514813666122166442e-12 1:0.0329316 2:0.67959797 3:0.227264 4:0.44069999 5:0.42250001 6:3.1748099 7:8.5063601 8:11.1937 9:12.364 10:-24.175301 11:-16.886299 12:-24.5714 #
-6.5432714047418514813666122166442e-12 1:0.0173003 2:0.67840803 3:0.47546899 4:0.47749999 5:0.4747 6:3.17854 7:8.5448399 8:13.5684 9:14.1291 10:-28.1579 11:-18.6113 12:-28.1024 #
3.2716357023709259830213761922169e-11 1:0.0161289 2:0.76822501 3:0.64524603 4:0.39669999 5:0.39629999 6:3.1566899 7:7.8534598 8:10.5605 9:12.2997 10:-24.3615 11:-16.255501 12:-23.741899 #
1.9629814214225555251893403596249e-11 1:0.0151435 2:0.749493 3:0.68471998 4:0.46740001 5:0.3752 6:3.1444099 7:7.8673701 8:10.1159 9:12.9337 10:-24.6108 11:-16.9345 12:-24.6071 #
3.2716357023709259830213761922169e-11 1:0.0384642 2:0.215189 3:0.21676201 4:0.45680001 5:0.44159999 6:3.18308 7:8.5162096 8:11.8054 9:12.9188 10:-25.3314 11:-18.1359 12:-25.621799 #
1.9629814214225555251893403596249e-11 1:0.0268114 2:0.46722001 3:0.232401 4:0.46610001 5:0.46349999 6:3.1863401 7:9.8326302 8:12.8178 9:13.4492 10:-27.4217 11:-19.876301 12:-26.5874 #
6.5432714047418514813666122166442e-12 1:0.0329316 2:0.67959797 3:0.227264 4:0.44069999 5:0.42250001 6:3.1748099 7:8.5063601 8:11.1937 9:12.364 10:-24.175301 11:-16.886299 12:-24.5714 #
-6.5432714047418514813666122166442e-12 1:0.0173003 2:0.67840803 3:0.47546899 4:0.47749999 5:0.4747 6:3.17854 7:8.5448399 8:13.5684 9:14.1291 10:-28.1579 11:-18.6113 12:-28.1024 #
-1.9629814214225555251893403596249e-11 1:0.0161289 2:0.76822501 3:0.64524603 4:0.39669999 5:0.39629999 6:3.1566899 7:7.8534598 8:10.5605 9:12.2997 10:-24.3615 11:-16.255501 12:-23.741899 #
-3.2716357023709259830213761922169e-11 1:0.0151435 2:0.749493 3:0.68471998 4:0.46740001 5:0.3752 6:3.1444099 7:7.8673701 8:10.1159 9:12.9337 10:-24.6108 11:-16.9345 12:-24.6071 #
-5.7602770588577756773307250704429e-09 1:0.064059697 2:0.220349 3:0.22587 4:0.4391 5:0.4341 6:3.17188 7:8.1187696 8:12.2811 9:13.0635 10:-25.9974 11:-17.1432 12:-25.8132 #
-3.456166235314665654552618808174e-09 1:0.033984698 2:0.32521299 3:0.26847899 4:0.47679999 5:0.47240001 6:3.1871901 7:8.9252005 8:11.9587 9:13.9288 10:-26.9631 11:-18.410299 12:-27.106199 #
-1.1520554117715552181842062693913e-09 1:0.022193801 2:0.43593499 3:0.32876 4:0.47920001 5:0.46039999 6:3.1819401 7:9.9871101 8:11.8316 9:14.0938 10:-27.2764 11:-19.1126 12:-27.1546 #
1.1520554117715552181842062693913e-09 1:0.0225804 2:0.687895 3:0.46621999 4:0.48120001 5:0.46160001 6:3.17818 7:8.6906204 8:11.7849 9:13.759 10:-27.826799 11:-18.175699 12:-26.5315 #
3.456166235314665654552618808174e-09 1:0.0213608 2:0.75859898 3:0.662117 4:0.4005 5:0.40009999 6:3.15662 7:7.8260198 8:10.6807 9:12.2656 10:-24.489799 11:-16.1828 12:-23.745701 #
5.7602770588577756773307250704429e-09 1:0.0191509 2:0.75079203 3:0.68350399 4:0.47029999 5:0.37650001 6:3.1467099 7:7.9544001 8:10.1412 9:12.9532 10:-24.6572 11:-16.991501 12:-24.644699 #
5.7602770588577756773307250704429e-09 1:0.064059697 2:0.220349 3:0.22587 4:0.4391 5:0.4341 6:3.17188 7:8.1187696 8:12.2811 9:13.0635 10:-25.9974 11:-17.1432 12:-25.8132 #
3.456166235314665654552618808174e-09 1:0.033984698 2:0.32521299 3:0.26847899 4:0.47679999 5:0.47240001 6:3.1871901 7:8.9252005 8:11.9587 9:13.9288 10:-26.9631 11:-18.410299 12:-27.106199 #
1.1520554117715552181842062693913e-09 1:0.022193801 2:0.43593499 3:0.32876 4:0.47920001 5:0.46039999 6:3.1819401 7:9.9871101 8:11.8316 9:14.0938 10:-27.2764 11:-19.1126 12:-27.1546 #
-1.1520554117715552181842062693913e-09 1:0.0225804 2:0.687895 3:0.46621999 4:0.48120001 5:0.46160001 6:3.17818 7:8.6906204 8:11.7849 9:13.759 10:-27.826799 11:-18.175699 12:-26.5315 #
-3.456166235314665654552618808174e-09 1:0.0213608 2:0.75859898 3:0.662117 4:0.4005 5:0.40009999 6:3.15662 7:7.8260198 8:10.6807 9:12.2656 10:-24.489799 11:-16.1828 12:-23.745701 #
-5.7602770588577756773307250704429e-09 1:0.0191509 2:0.75079203 3:0.68350399 4:0.47029999 5:0.37650001 6:3.1467099 7:7.9544001 8:10.1412 9:12.9532 10:-24.6572 11:-16.991501 12:-24.644699 #
-5.7602770588577756773307250704429e-09 1:0.060696501 2:0.23733699 3:0.21063399 4:0.4436 5:0.43399999 6:3.1916499 7:8.7008305 8:11.3724 9:13.4897 10:-26.748899 11:-17.8403 12:-25.9256 #
-3.456166235314665654552618808174e-09 1:0.029510301 2:0.43004 3:0.21494401 4:0.4637 5:0.46329999 6:3.1902599 7:9.5348196 8:12.0196 9:13.1847 10:-25.9632 11:-18.8305 12:-25.9144 #
-1.1520554117715552181842062693913e-09 1:0.030223601 2:0.64024103 3:0.197998 4:0.46759999 5:0.4228 6:3.1792901 7:8.4372101 8:11.2549 9:12.4028 10:-24.2453 11:-16.7852 12:-24.8374 #
1.1520554117715552181842062693913e-09 1:0.021531699 2:0.681297 3:0.46094501 4:0.4788 5:0.4702 6:3.17752 7:8.9653196 8:13.9338 9:15.1707 10:-29.8519 11:-19.736799 12:-29.897301 #
3.456166235314665654552618808174e-09 1:0.018201901 2:0.74699199 3:0.60403299 4:0.4102 5:0.39579999 6:3.1612899 7:8.0304403 8:10.537 9:12.5304 10:-24.2108 11:-16.6339 12:-24.218399 #
5.7602770588577756773307250704429e-09 1:0.018303899 2:0.75614899 3:0.68526602 4:0.4756 5:0.373 6:3.1438999 7:7.8893299 8:10.0985 9:12.8741 10:-24.378 11:-16.828501 12:-24.915501 #
5.7602770588577756773307250704429e-09 1:0.060696501 2:0.23733699 3:0.21063399 4:0.4436 5:0.43399999 6:3.1916499 7:8.7008305 8:11.3724 9:13.4897 10:-26.748899 11:-17.8403 12:-25.9256 #
3.456166235314665654552618808174e-09 1:0.029510301 2:0.43004 3:0.21494401 4:0.4637 5:0.46329999 6:3.1902599 7:9.5348196 8:12.0196 9:13.1847 10:-25.9632 11:-18.8305 12:-25.9144 #
1.1520554117715552181842062693913e-09 1:0.030223601 2:0.64024103 3:0.197998 4:0.46759999 5:0.4228 6:3.1792901 7:8.4372101 8:11.2549 9:12.4028 10:-24.2453 11:-16.7852 12:-24.8374 #
-1.1520554117715552181842062693913e-09 1:0.021531699 2:0.681297 3:0.46094501 4:0.4788 5:0.4702 6:3.17752 7:8.9653196 8:13.9338 9:15.1707 10:-29.8519 11:-19.736799 12:-29.897301 #
-3.456166235314665654552618808174e-09 1:0.018201901 2:0.74699199 3:0.60403299 4:0.4102 5:0.39579999 6:3.1612899 7:8.0304403 8:10.537 9:12.5304 10:-24.2108 11:-16.6339 12:-24.218399 #
-5.7602770588577756773307250704429e-09 1:0.018303899 2:0.75614899 3:0.68526602 4:0.4756 5:0.373 6:3.1438999 7:7.8893299 8:10.0985 9:12.8741 10:-24.378 11:-16.828501 12:-24.915501 #
-5.7602770588577756773307250704429e-09 1:0.032359801 2:0.26468399 3:0.24982201 4:0.45210001 5:0.43130001 6:3.1839001 7:8.1909399 8:11.2841 9:16.4296 10:-30.329399 11:-20.928301 12:-30.659401 #
-3.456166235314665654552618808174e-09 1:0.022689501 2:0.42839399 3:0.24676301 4:0.46489999 5:0.4637 6:3.1877201 7:8.9630203 8:11.8607 9:13.7532 10:-26.560699 11:-18.279499 12:-27.8295 #
1.1520554117715552181842062693913e-09 1:0.020496599 2:0.66839802 3:0.21857201 4:0.4497 5:0.43869999 6:3.1837101 7:8.5783901 8:11.3063 9:13.0673 10:-25.255699 11:-17.3566 12:-26.3325 #
-1.1520554117715552181842062693913e-09 1:0.023891401 2:0.67887998 3:0.47402701 4:0.4716 5:0.47040001 6:3.1765001 7:8.6142702 8:12.1879 9:13.4719 10:-27.8755 11:-17.916599 12:-26.301901 #
3.456166235314665654552618808174e-09 1:0.019849701 2:0.70895302 3:0.60560399 4:0.4364 5:0.42039999 6:3.1596301 7:7.8829002 8:10.7924 9:12.6551 10:-24.776899 11:-16.6201 12:-24.4168 #
5.7602770588577756773307250704429e-09 1:0.019849701 2:0.74891597 3:0.69090903 4:0.47549999 5:0.3761 6:3.1448801 7:7.8980999 8:10.1422 9:12.9654 10:-24.633301 11:-16.9606 12:-24.7136 #
5.7602770588577756773307250704429e-09 1:0.032359801 2:0.26468399 3:0.24982201 4:0.45210001 5:0.43130001 6:3.1839001 7:8.1909399 8:11.2841 9:16.4296 10:-30.329399 11:-20.928301 12:-30.659401 #
3.456166235314665654552618808174e-09 1:0.022689501 2:0.42839399 3:0.24676301 4:0.46489999 5:0.4637 6:3.1877201 7:8.9630203 8:11.8607 9:13.7532 10:-26.560699 11:-18.279499 12:-27.8295 #
1.1520554117715552181842062693913e-09 1:0.020496599 2:0.66839802 3:0.21857201 4:0.4497 5:0.43869999 6:3.1837101 7:8.5783901 8:11.3063 9:13.0673 10:-25.255699 11:-17.3566 12:-26.3325 #
-1.1520554117715552181842062693913e-09 1:0.023891401 2:0.67887998 3:0.47402701 4:0.4716 5:0.47040001 6:3.1765001 7:8.6142702 8:12.1879 9:13.4719 10:-27.8755 11:-17.916599 12:-26.301901 #
-3.456166235314665654552618808174e-09 1:0.019849701 2:0.70895302 3:0.60560399 4:0.4364 5:0.42039999 6:3.1596301 7:7.8829002 8:10.7924 9:12.6551 10:-24.776899 11:-16.6201 12:-24.4168 #
-5.7602770588577756773307250704429e-09 1:0.019849701 2:0.74891597 3:0.69090903 4:0.47549999 5:0.3761 6:3.1448801 7:7.8980999 8:10.1422 9:12.9654 10:-24.633301 11:-16.9606 12:-24.7136 #
-3.456166235314665654552618808174e-09 1:0.0384642 2:0.215189 3:0.21676201 4:0.45680001 5:0.44159999 6:3.18308 7:8.5162096 8:11.8054 9:12.9188 10:-25.3314 11:-18.1359 12:-25.621799 #
-5.7602770588577756773307250704429e-09 1:0.0268114 2:0.46722001 3:0.232401 4:0.46610001 5:0.46349999 6:3.1863401 7:9.8326302 8:12.8178 9:13.4492 10:-27.4217 11:-19.876301 12:-26.5874 #
1.1520554117715552181842062693913e-09 1:0.0329316 2:0.67959797 3:0.227264 4:0.44069999 5:0.42250001 6:3.1748099 7:8.5063601 8:11.1937 9:12.364 10:-24.175301 11:-16.886299 12:-24.5714 #
-1.1520554117715552181842062693913e-09 1:0.0173003 2:0.67840803 3:0.47546899 4:0.47749999 5:0.4747 6:3.17854 7:8.5448399 8:13.5684 9:14.1291 10:-28.1579 11:-18.6113 12:-28.1024 #
5.7602770588577756773307250704429e-09 1:0.0161289 2:0.76822501 3:0.64524603 4:0.39669999 5:0.39629999 6:3.1566899 7:7.8534598 8:10.5605 9:12.2997 10:-24.3615 11:-16.255501 12:-23.741899 #
3.456166235314665654552618808174e-09 1:0.0151435 2:0.749493 3:0.68471998 4:0.46740001 5:0.3752 6:3.1444099 7:7.8673701 8:10.1159 9:12.9337 10:-24.6108 11:-16.9345 12:-24.6071 #
5.7602770588577756773307250704429e-09 1:0.0384642 2:0.215189 3:0.21676201 4:0.45680001 5:0.44159999 6:3.18308 7:8.5162096 8:11.8054 9:12.9188 10:-25.3314 11:-18.1359 12:-25.621799 #
3.456166235314665654552618808174e-09 1:0.0268114 2:0.46722001 3:0.232401 4:0.46610001 5:0.46349999 6:3.1863401 7:9.8326302 8:12.8178 9:13.4492 10:-27.4217 11:-19.876301 12:-26.5874 #
1.1520554117715552181842062693913e-09 1:0.0329316 2:0.67959797 3:0.227264 4:0.44069999 5:0.42250001 6:3.1748099 7:8.5063601 8:11.1937 9:12.364 10:-24.175301 11:-16.886299 12:-24.5714 #
-1.1520554117715552181842062693913e-09 1:0.0173003 2:0.67840803 3:0.47546899 4:0.47749999 5:0.4747 6:3.17854 7:8.5448399 8:13.5684 9:14.1291 10:-28.1579 11:-18.6113 12:-28.1024 #
-3.456166235314665654552618808174e-09 1:0.0161289 2:0.76822501 3:0.64524603 4:0.39669999 5:0.39629999 6:3.1566899 7:7.8534598 8:10.5605 9:12.2997 10:-24.3615 11:-16.255501 12:-23.741899 #
-5.7602770588577756773307250704429e-09 1:0.0151435 2:0.749493 3:0.68471998 4:0.46740001 5:0.3752 6:3.1444099 7:7.8673701 8:10.1159 9:12.9337 10:-24.6108 11:-16.9345 12:-24.6071 #
-7.8748789267520489810461489788018e-07 1:0.064059697 2:0.220349 3:0.22587 4:0.4391 5:0.4341 6:3.17188 7:8.1187696 8:12.2811 9:13.0635 10:-25.9974 11:-17.1432 12:-25.8132 #
-4.7249273560512297062650446076437e-07 1:0.033984698 2:0.32521299 3:0.26847899 4:0.47679999 5:0.47240001 6:3.1871901 7:8.9252005 8:11.9587 9:13.9288 10:-26.9631 11:-18.410299 12:-27.106199 #
-1.5749757853504099020883482025479e-07 1:0.022193801 2:0.43593499 3:0.32876 4:0.47920001 5:0.46039999 6:3.1819401 7:9.9871101 8:11.8316 9:14.0938 10:-27.2764 11:-19.1126 12:-27.1546 #
4.7249273560512297062650446076437e-07 1:0.0225804 2:0.687895 3:0.46621999 4:0.48120001 5:0.46160001 6:3.17818 7:8.6906204 8:11.7849 9:13.759 10:-27.826799 11:-18.175699 12:-26.5315 #
1.5749757853504099020883482025479e-07 1:0.0213608 2:0.75859898 3:0.662117 4:0.4005 5:0.40009999 6:3.15662 7:7.8260198 8:10.6807 9:12.2656 10:-24.489799 11:-16.1828 12:-23.745701 #
7.8748789267520489810461489788018e-07 1:0.0191509 2:0.75079203 3:0.68350399 4:0.47029999 5:0.37650001 6:3.1467099 7:7.9544001 8:10.1412 9:12.9532 10:-24.6572 11:-16.991501 12:-24.644699 #
7.8748789267520489810461489788018e-07 1:0.064059697 2:0.220349 3:0.22587 4:0.4391 5:0.4341 6:3.17188 7:8.1187696 8:12.2811 9:13.0635 10:-25.9974 11:-17.1432 12:-25.8132 #
4.7249273560512297062650446076437e-07 1:0.033984698 2:0.32521299 3:0.26847899 4:0.47679999 5:0.47240001 6:3.1871901 7:8.9252005 8:11.9587 9:13.9288 10:-26.9631 11:-18.410299 12:-27.106199 #
1.5749757853504099020883482025479e-07 1:0.022193801 2:0.43593499 3:0.32876 4:0.47920001 5:0.46039999 6:3.1819401 7:9.9871101 8:11.8316 9:14.0938 10:-27.2764 11:-19.1126 12:-27.1546 #
-1.5749757853504099020883482025479e-07 1:0.0225804 2:0.687895 3:0.46621999 4:0.48120001 5:0.46160001 6:3.17818 7:8.6906204 8:11.7849 9:13.759 10:-27.826799 11:-18.175699 12:-26.5315 #
-4.7249273560512297062650446076437e-07 1:0.0213608 2:0.75859898 3:0.662117 4:0.4005 5:0.40009999 6:3.15662 7:7.8260198 8:10.6807 9:12.2656 10:-24.489799 11:-16.1828 12:-23.745701 #
-7.8748789267520489810461489788018e-07 1:0.0191509 2:0.75079203 3:0.68350399 4:0.47029999 5:0.37650001 6:3.1467099 7:7.9544001 8:10.1412 9:12.9532 10:-24.6572 11:-16.991501 12:-24.644699 #
-7.8748789267520489810461489788018e-07 1:0.060696501 2:0.23733699 3:0.21063399 4:0.4436 5:0.43399999 6:3.1916499 7:8.7008305 8:11.3724 9:13.4897 10:-26.748899 11:-17.8403 12:-25.9256 #
-1.5749757853504099020883482025479e-07 1:0.029510301 2:0.43004 3:0.21494401 4:0.4637 5:0.46329999 6:3.1902599 7:9.5348196 8:12.0196 9:13.1847 10:-25.9632 11:-18.8305 12:-25.9144 #
-4.7249273560512297062650446076437e-07 1:0.030223601 2:0.64024103 3:0.197998 4:0.46759999 5:0.4228 6:3.1792901 7:8.4372101 8:11.2549 9:12.4028 10:-24.2453 11:-16.7852 12:-24.8374 #
1.5749757853504099020883482025479e-07 1:0.021531699 2:0.681297 3:0.46094501 4:0.4788 5:0.4702 6:3.17752 7:8.9653196 8:13.9338 9:15.1707 10:-29.8519 11:-19.736799 12:-29.897301 #
4.7249273560512297062650446076437e-07 1:0.018201901 2:0.74699199 3:0.60403299 4:0.4102 5:0.39579999 6:3.1612899 7:8.0304403 8:10.537 9:12.5304 10:-24.2108 11:-16.6339 12:-24.218399 #
7.8748789267520489810461489788018e-07 1:0.018303899 2:0.75614899 3:0.68526602 4:0.4756 5:0.373 6:3.1438999 7:7.8893299 8:10.0985 9:12.8741 10:-24.378 11:-16.828501 12:-24.915501 #
7.8748789267520489810461489788018e-07 1:0.060696501 2:0.23733699 3:0.21063399 4:0.4436 5:0.43399999 6:3.1916499 7:8.7008305 8:11.3724 9:13.4897 10:-26.748899 11:-17.8403 12:-25.9256 #
4.7249273560512297062650446076437e-07 1:0.029510301 2:0.43004 3:0.21494401 4:0.4637 5:0.46329999 6:3.1902599 7:9.5348196 8:12.0196 9:13.1847 10:-25.9632 11:-18.8305 12:-25.9144 #
1.5749757853504099020883482025479e-07 1:0.030223601 2:0.64024103 3:0.197998 4:0.46759999 5:0.4228 6:3.1792901 7:8.4372101 8:11.2549 9:12.4028 10:-24.2453 11:-16.7852 12:-24.8374 #
-1.5749757853504099020883482025479e-07 1:0.021531699 2:0.681297 3:0.46094501 4:0.4788 5:0.4702 6:3.17752 7:8.9653196 8:13.9338 9:15.1707 10:-29.8519 11:-19.736799 12:-29.897301 #
-4.7249273560512297062650446076437e-07 1:0.018201901 2:0.74699199 3:0.60403299 4:0.4102 5:0.39579999 6:3.1612899 7:8.0304403 8:10.537 9:12.5304 10:-24.2108 11:-16.6339 12:-24.218399 #
-7.8748789267520489810461489788018e-07 1:0.018303899 2:0.75614899 3:0.68526602 4:0.4756 5:0.373 6:3.1438999 7:7.8893299 8:10.0985 9:12.8741 10:-24.378 11:-16.828501 12:-24.915501 #
-7.8748789267520489810461489788018e-07 1:0.032359801 2:0.26468399 3:0.24982201 4:0.45210001 5:0.43130001 6:3.1839001 7:8.1909399 8:11.2841 9:16.4296 10:-30.329399 11:-20.928301 12:-30.659401 #
-4.7249273560512297062650446076437e-07 1:0.022689501 2:0.42839399 3:0.24676301 4:0.46489999 5:0.4637 6:3.1877201 7:8.9630203 8:11.8607 9:13.7532 10:-26.560699 11:-18.279499 12:-27.8295 #
-1.5749757853504099020883482025479e-07 1:0.020496599 2:0.66839802 3:0.21857201 4:0.4497 5:0.43869999 6:3.1837101 7:8.5783901 8:11.3063 9:13.0673 10:-25.255699 11:-17.3566 12:-26.3325 #
1.5749757853504099020883482025479e-07 1:0.023891401 2:0.67887998 3:0.47402701 4:0.4716 5:0.47040001 6:3.1765001 7:8.6142702 8:12.1879 9:13.4719 10:-27.8755 11:-17.916599 12:-26.301901 #
4.7249273560512297062650446076437e-07 1:0.019849701 2:0.70895302 3:0.60560399 4:0.4364 5:0.42039999 6:3.1596301 7:7.8829002 8:10.7924 9:12.6551 10:-24.776899 11:-16.6201 12:-24.4168 #
7.8748789267520489810461489788018e-07 1:0.019849701 2:0.74891597 3:0.69090903 4:0.47549999 5:0.3761 6:3.1448801 7:7.8980999 8:10.1422 9:12.9654 10:-24.633301 11:-16.9606 12:-24.7136 #
7.8748789267520489810461489788018e-07 1:0.032359801 2:0.26468399 3:0.24982201 4:0.45210001 5:0.43130001 6:3.1839001 7:8.1909399 8:11.2841 9:16.4296 10:-30.329399 11:-20.928301 12:-30.659401 #
4.7249273560512297062650446076437e-07 1:0.022689501 2:0.42839399 3:0.24676301 4:0.46489999 5:0.4637 6:3.1877201 7:8.9630203 8:11.8607 9:13.7532 10:-26.560699 11:-18.279499 12:-27.8295 #
1.5749757853504099020883482025479e-07 1:0.020496599 2:0.66839802 3:0.21857201 4:0.4497 5:0.43869999 6:3.1837101 7:8.5783901 8:11.3063 9:13.0673 10:-25.255699 11:-17.3566 12:-26.3325 #
-1.5749757853504099020883482025479e-07 1:0.023891401 2:0.67887998 3:0.47402701 4:0.4716 5:0.47040001 6:3.1765001 7:8.6142702 8:12.1879 9:13.4719 10:-27.8755 11:-17.916599 12:-26.301901 #
-4.7249273560512297062650446076437e-07 1:0.019849701 2:0.70895302 3:0.60560399 4:0.4364 5:0.42039999 6:3.1596301 7:7.8829002 8:10.7924 9:12.6551 10:-24.776899 11:-16.6201 12:-24.4168 #
-7.8748789267520489810461489788018e-07 1:0.019849701 2:0.74891597 3:0.69090903 4:0.47549999 5:0.3761 6:3.1448801 7:7.8980999 8:10.1422 9:12.9654 10:-24.633301 11:-16.9606 12:-24.7136 #
-7.8748789267520489810461489788018e-07 1:0.0384642 2:0.215189 3:0.21676201 4:0.45680001 5:0.44159999 6:3.18308 7:8.5162096 8:11.8054 9:12.9188 10:-25.3314 11:-18.1359 12:-25.621799 #
-4.7249273560512297062650446076437e-07 1:0.0268114 2:0.46722001 3:0.232401 4:0.46610001 5:0.46349999 6:3.1863401 7:9.8326302 8:12.8178 9:13.4492 10:-27.4217 11:-19.876301 12:-26.5874 #
1.5749757853504099020883482025479e-07 1:0.0329316 2:0.67959797 3:0.227264 4:0.44069999 5:0.42250001 6:3.1748099 7:8.5063601 8:11.1937 9:12.364 10:-24.175301 11:-16.886299 12:-24.5714 #
-1.5749757853504099020883482025479e-07 1:0.0173003 2:0.67840803 3:0.47546899 4:0.47749999 5:0.4747 6:3.17854 7:8.5448399 8:13.5684 9:14.1291 10:-28.1579 11:-18.6113 12:-28.1024 #
7.8748789267520489810461489788018e-07 1:0.0161289 2:0.76822501 3:0.64524603 4:0.39669999 5:0.39629999 6:3.1566899 7:7.8534598 8:10.5605 9:12.2997 10:-24.3615 11:-16.255501 12:-23.741899 #
4.7249273560512297062650446076437e-07 1:0.0151435 2:0.749493 3:0.68471998 4:0.46740001 5:0.3752 6:3.1444099 7:7.8673701 8:10.1159 9:12.9337 10:-24.6108 11:-16.9345 12:-24.6071 #
7.8748789267520489810461489788018e-07 1:0.0384642 2:0.215189 3:0.21676201 4:0.45680001 5:0.44159999 6:3.18308 7:8.5162096 8:11.8054 9:12.9188 10:-25.3314 11:-18.1359 12:-25.621799 #
4.7249273560512297062650446076437e-07 1:0.0268114 2:0.46722001 3:0.232401 4:0.46610001 5:0.46349999 6:3.1863401 7:9.8326302 8:12.8178 9:13.4492 10:-27.4217 11:-19.876301 12:-26.5874 #
1.5749757853504099020883482025479e-07 1:0.0329316 2:0.67959797 3:0.227264 4:0.44069999 5:0.42250001 6:3.1748099 7:8.5063601 8:11.1937 9:12.364 10:-24.175301 11:-16.886299 12:-24.5714 #
-1.5749757853504099020883482025479e-07 1:0.0173003 2:0.67840803 3:0.47546899 4:0.47749999 5:0.4747 6:3.17854 7:8.5448399 8:13.5684 9:14.1291 10:-28.1579 11:-18.6113 12:-28.1024 #
-4.7249273560512297062650446076437e-07 1:0.0161289 2:0.76822501 3:0.64524603 4:0.39669999 5:0.39629999 6:3.1566899 7:7.8534598 8:10.5605 9:12.2997 10:-24.3615 11:-16.255501 12:-23.741899 #
-7.8748789267520489810461489788018e-07 1:0.0151435 2:0.749493 3:0.68471998 4:0.46740001 5:0.3752 6:3.1444099 7:7.8673701 8:10.1159 9:12.9337 10:-24.6108 11:-16.9345 12:-24.6071 #
-6.7274437638501434566040779877705e-07 1:0.064059697 2:0.220349 3:0.22587 4:0.4391 5:0.4341 6:3.17188 7:8.1187696 8:12.2811 9:13.0635 10:-25.9974 11:-17.1432 12:-25.8132 #
-4.0364662583100864974789204198125e-07 1:0.033984698 2:0.32521299 3:0.26847899 4:0.47679999 5:0.47240001 6:3.1871901 7:8.9252005 8:11.9587 9:13.9288 10:-26.9631 11:-18.410299 12:-27.106199 #
-1.3454887527700287442603748009479e-07 1:0.022193801 2:0.43593499 3:0.32876 4:0.47920001 5:0.46039999 6:3.1819401 7:9.9871101 8:11.8316 9:14.0938 10:-27.2764 11:-19.1126 12:-27.1546 #
1.3454887527700287442603748009479e-07 1:0.0225804 2:0.687895 3:0.46621999 4:0.48120001 5:0.46160001 6:3.17818 7:8.6906204 8:11.7849 9:13.759 10:-27.826799 11:-18.175699 12:-26.5315 #
4.0364662583100864974789204198125e-07 1:0.0213608 2:0.75859898 3:0.662117 4:0.4005 5:0.40009999 6:3.15662 7:7.8260198 8:10.6807 9:12.2656 10:-24.489799 11:-16.1828 12:-23.745701 #
6.7274437638501434566040779877705e-07 1:0.0191509 2:0.75079203 3:0.68350399 4:0.47029999 5:0.37650001 6:3.1467099 7:7.9544001 8:10.1412 9:12.9532 10:-24.6572 11:-16.991501 12:-24.644699 #
6.7274437638501434566040779877705e-07 1:0.064059697 2:0.220349 3:0.22587 4:0.4391 5:0.4341 6:3.17188 7:8.1187696 8:12.2811 9:13.0635 10:-25.9974 11:-17.1432 12:-25.8132 #
4.0364662583100864974789204198125e-07 1:0.033984698 2:0.32521299 3:0.26847899 4:0.47679999 5:0.47240001 6:3.1871901 7:8.9252005 8:11.9587 9:13.9288 10:-26.9631 11:-18.410299 12:-27.106199 #
1.3454887527700287442603748009479e-07 1:0.022193801 2:0.43593499 3:0.32876 4:0.47920001 5:0.46039999 6:3.1819401 7:9.9871101 8:11.8316 9:14.0938 10:-27.2764 11:-19.1126 12:-27.1546 #
-1.3454887527700287442603748009479e-07 1:0.0225804 2:0.687895 3:0.46621999 4:0.48120001 5:0.46160001 6:3.17818 7:8.6906204 8:11.7849 9:13.759 10:-27.826799 11:-18.175699 12:-26.5315 #
-4.0364662583100864974789204198125e-07 1:0.0213608 2:0.75859898 3:0.662117 4:0.4005 5:0.40009999 6:3.15662 7:7.8260198 8:10.6807 9:12.2656 10:-24.489799 11:-16.1828 12:-23.745701 #
-6.7274437638501434566040779877705e-07 1:0.0191509 2:0.75079203 3:0.68350399 4:0.47029999 5:0.37650001 6:3.1467099 7:7.9544001 8:10.1412 9:12.9532 10:-24.6572 11:-16.991501 12:-24.644699 #
-6.7274437638501434566040779877705e-07 1:0.060696501 2:0.23733699 3:0.21063399 4:0.4436 5:0.43399999 6:3.1916499 7:8.7008305 8:11.3724 9:13.4897 10:-26.748899 11:-17.8403 12:-25.9256 #
-1.3454887527700287442603748009479e-07 1:0.029510301 2:0.43004 3:0.21494401 4:0.4637 5:0.46329999 6:3.1902599 7:9.5348196 8:12.0196 9:13.1847 10:-25.9632 11:-18.8305 12:-25.9144 #
-4.0364662583100864974789204198125e-07 1:0.030223601 2:0.64024103 3:0.197998 4:0.46759999 5:0.4228 6:3.1792901 7:8.4372101 8:11.2549 9:12.4028 10:-24.2453 11:-16.7852 12:-24.8374 #
1.3454887527700287442603748009479e-07 1:0.021531699 2:0.681297 3:0.46094501 4:0.4788 5:0.4702 6:3.17752 7:8.9653196 8:13.9338 9:15.1707 10:-29.8519 11:-19.736799 12:-29.897301 #
4.0364662583100864974789204198125e-07 1:0.018201901 2:0.74699199 3:0.60403299 4:0.4102 5:0.39579999 6:3.1612899 7:8.0304403 8:10.537 9:12.5304 10:-24.2108 11:-16.6339 12:-24.218399 #
6.7274437638501434566040779877705e-07 1:0.018303899 2:0.75614899 3:0.68526602 4:0.4756 5:0.373 6:3.1438999 7:7.8893299 8:10.0985 9:12.8741 10:-24.378 11:-16.828501 12:-24.915501 #
6.7274437638501434566040779877705e-07 1:0.060696501 2:0.23733699 3:0.21063399 4:0.4436 5:0.43399999 6:3.1916499 7:8.7008305 8:11.3724 9:13.4897 10:-26.748899 11:-17.8403 12:-25.9256 #
4.0364662583100864974789204198125e-07 1:0.029510301 2:0.43004 3:0.21494401 4:0.4637 5:0.46329999 6:3.1902599 7:9.5348196 8:12.0196 9:13.1847 10:-25.9632 11:-18.8305 12:-25.9144 #
1.3454887527700287442603748009479e-07 1:0.030223601 2:0.64024103 3:0.197998 4:0.46759999 5:0.4228 6:3.1792901 7:8.4372101 8:11.2549 9:12.4028 10:-24.2453 11:-16.7852 12:-24.8374 #
-1.3454887527700287442603748009479e-07 1:0.021531699 2:0.681297 3:0.46094501 4:0.4788 5:0.4702 6:3.17752 7:8.9653196 8:13.9338 9:15.1707 10:-29.8519 11:-19.736799 12:-29.897301 #
-4.0364662583100864974789204198125e-07 1:0.018201901 2:0.74699199 3:0.60403299 4:0.4102 5:0.39579999 6:3.1612899 7:8.0304403 8:10.537 9:12.5304 10:-24.2108 11:-16.6339 12:-24.218399 #
-6.7274437638501434566040779877705e-07 1:0.018303899 2:0.75614899 3:0.68526602 4:0.4756 5:0.373 6:3.1438999 7:7.8893299 8:10.0985 9:12.8741 10:-24.378 11:-16.828501 12:-24.915501 #
-6.7274437638501434566040779877705e-07 1:0.032359801 2:0.26468399 3:0.24982201 4:0.45210001 5:0.43130001 6:3.1839001 7:8.1909399 8:11.2841 9:16.4296 10:-30.329399 11:-20.928301 12:-30.659401 #
-4.0364662583100864974789204198125e-07 1:0.022689501 2:0.42839399 3:0.24676301 4:0.46489999 5:0.4637 6:3.1877201 7:8.9630203 8:11.8607 9:13.7532 10:-26.560699 11:-18.279499 12:-27.8295 #
-1.3454887527700287442603748009479e-07 1:0.020496599 2:0.66839802 3:0.21857201 4:0.4497 5:0.43869999 6:3.1837101 7:8.5783901 8:11.3063 9:13.0673 10:-25.255699 11:-17.3566 12:-26.3325 #
1.3454887527700287442603748009479e-07 1:0.023891401 2:0.67887998 3:0.47402701 4:0.4716 5:0.47040001 6:3.1765001 7:8.6142702 8:12.1879 9:13.4719 10:-27.8755 11:-17.916599 12:-26.301901 #
4.0364662583100864974789204198125e-07 1:0.019849701 2:0.70895302 3:0.60560399 4:0.4364 5:0.42039999 6:3.1596301 7:7.8829002 8:10.7924 9:12.6551 10:-24.776899 11:-16.6201 12:-24.4168 #
6.7274437638501434566040779877705e-07 1:0.019849701 2:0.74891597 3:0.69090903 4:0.47549999 5:0.3761 6:3.1448801 7:7.8980999 8:10.1422 9:12.9654 10:-24.633301 11:-16.9606 12:-24.7136 #
6.7274437638501434566040779877705e-07 1:0.032359801 2:0.26468399 3:0.24982201 4:0.45210001 5:0.43130001 6:3.1839001 7:8.1909399 8:11.2841 9:16.4296 10:-30.329399 11:-20.928301 12:-30.659401 #
4.0364662583100864974789204198125e-07 1:0.022689501 2:0.42839399 3:0.24676301 4:0.46489999 5:0.4637 6:3.1877201 7:8.9630203 8:11.8607 9:13.7532 10:-26.560699 11:-18.279499 12:-27.8295 #
1.3454887527700287442603748009479e-07 1:0.020496599 2:0.66839802 3:0.21857201 4:0.4497 5:0.43869999 6:3.1837101 7:8.5783901 8:11.3063 9:13.0673 10:-25.255699 11:-17.3566 12:-26.3325 #
-1.3454887527700287442603748009479e-07 1:0.023891401 2:0.67887998 3:0.47402701 4:0.4716 5:0.47040001 6:3.1765001 7:8.6142702 8:12.1879 9:13.4719 10:-27.8755 11:-17.916599 12:-26.301901 #
-4.0364662583100864974789204198125e-07 1:0.019849701 2:0.70895302 3:0.60560399 4:0.4364 5:0.42039999 6:3.1596301 7:7.8829002 8:10.7924 9:12.6551 10:-24.776899 11:-16.6201 12:-24.4168 #
-6.7274437638501434566040779877705e-07 1:0.019849701 2:0.74891597 3:0.69090903 4:0.47549999 5:0.3761 6:3.1448801 7:7.8980999 8:10.1422 9:12.9654 10:-24.633301 11:-16.9606 12:-24.7136 #
-4.0364662583100864974789204198125e-07 1:0.0384642 2:0.215189 3:0.21676201 4:0.45680001 5:0.44159999 6:3.18308 7:8.5162096 8:11.8054 9:12.9188 10:-25.3314 11:-18.1359 12:-25.621799 #
-6.7274437638501434566040779877705e-07 1:0.0268114 2:0.46722001 3:0.232401 4:0.46610001 5:0.46349999 6:3.1863401 7:9.8326302 8:12.8178 9:13.4492 10:-27.4217 11:-19.876301 12:-26.5874 #
-1.3454887527700287442603748009479e-07 1:0.0329316 2:0.67959797 3:0.227264 4:0.44069999 5:0.42250001 6:3.1748099 7:8.5063601 8:11.1937 9:12.364 10:-24.175301 11:-16.886299 12:-24.5714 #
1.3454887527700287442603748009479e-07 1:0.0173003 2:0.67840803 3:0.47546899 4:0.47749999 5:0.4747 6:3.17854 7:8.5448399 8:13.5684 9:14.1291 10:-28.1579 11:-18.6113 12:-28.1024 #
6.7274437638501434566040779877705e-07 1:0.0161289 2:0.76822501 3:0.64524603 4:0.39669999 5:0.39629999 6:3.1566899 7:7.8534598 8:10.5605 9:12.2997 10:-24.3615 11:-16.255501 12:-23.741899 #
4.0364662583100864974789204198125e-07 1:0.0151435 2:0.749493 3:0.68471998 4:0.46740001 5:0.3752 6:3.1444099 7:7.8673701 8:10.1159 9:12.9337 10:-24.6108 11:-16.9345 12:-24.6071 #
6.7274437638501434566040779877705e-07 1:0.0384642 2:0.215189 3:0.21676201 4:0.45680001 5:0.44159999 6:3.18308 7:8.5162096 8:11.8054 9:12.9188 10:-25.3314 11:-18.1359 12:-25.621799 #
4.0364662583100864974789204198125e-07 1:0.0268114 2:0.46722001 3:0.232401 4:0.46610001 5:0.46349999 6:3.1863401 7:9.8326302 8:12.8178 9:13.4492 10:-27.4217 11:-19.876301 12:-26.5874 #
1.3454887527700287442603748009479e-07 1:0.0329316 2:0.67959797 3:0.227264 4:0.44069999 5:0.42250001 6:3.1748099 7:8.5063601 8:11.1937 9:12.364 10:-24.175301 11:-16.886299 12:-24.5714 #
-1.3454887527700287442603748009479e-07 1:0.0173003 2:0.67840803 3:0.47546899 4:0.47749999 5:0.4747 6:3.17854 7:8.5448399 8:13.5684 9:14.1291 10:-28.1579 11:-18.6113 12:-28.1024 #
-4.0364662583100864974789204198125e-07 1:0.0161289 2:0.76822501 3:0.64524603 4:0.39669999 5:0.39629999 6:3.1566899 7:7.8534598 8:10.5605 9:12.2997 10:-24.3615 11:-16.255501 12:-23.741899 #
-6.7274437638501434566040779877705e-07 1:0.0151435 2:0.749493 3:0.68471998 4:0.46740001 5:0.3752 6:3.1444099 7:7.8673701 8:10.1159 9:12.9337 10:-24.6108 11:-16.9345 12:-24.6071 #
-1.007596845721866239898234160477e-06 1:0.064059697 2:0.220349 3:0.22587 4:0.4391 5:0.4341 6:3.17188 7:8.1187696 8:12.2811 9:13.0635 10:-25.9974 11:-17.1432 12:-25.8132 #
-6.0455810743311978629058785900119e-07 1:0.033984698 2:0.32521299 3:0.26847899 4:0.47679999 5:0.47240001 6:3.1871901 7:8.9252005 8:11.9587 9:13.9288 10:-26.9631 11:-18.410299 12:-27.106199 #
-2.0151936914437325327360275243477e-07 1:0.022193801 2:0.43593499 3:0.32876 4:0.47920001 5:0.46039999 6:3.1819401 7:9.9871101 8:11.8316 9:14.0938 10:-27.2764 11:-19.1126 12:-27.1546 #
2.0151936914437325327360275243477e-07 1:0.0225804 2:0.687895 3:0.46621999 4:0.48120001 5:0.46160001 6:3.17818 7:8.6906204 8:11.7849 9:13.759 10:-27.826799 11:-18.175699 12:-26.5315 #
6.0455810743311978629058785900119e-07 1:0.0213608 2:0.75859898 3:0.662117 4:0.4005 5:0.40009999 6:3.15662 7:7.8260198 8:10.6807 9:12.2656 10:-24.489799 11:-16.1828 12:-23.745701 #
1.007596845721866239898234160477e-06 1:0.0191509 2:0.75079203 3:0.68350399 4:0.47029999 5:0.37650001 6:3.1467099 7:7.9544001 8:10.1412 9:12.9532 10:-24.6572 11:-16.991501 12:-24.644699 #
1.007596845721866239898234160477e-06 1:0.064059697 2:0.220349 3:0.22587 4:0.4391 5:0.4341 6:3.17188 7:8.1187696 8:12.2811 9:13.0635 10:-25.9974 11:-17.1432 12:-25.8132 #
6.0455810743311978629058785900119e-07 1:0.033984698 2:0.32521299 3:0.26847899 4:0.47679999 5:0.47240001 6:3.1871901 7:8.9252005 8:11.9587 9:13.9288 10:-26.9631 11:-18.410299 12:-27.106199 #
2.0151936914437325327360275243477e-07 1:0.022193801 2:0.43593499 3:0.32876 4:0.47920001 5:0.46039999 6:3.1819401 7:9.9871101 8:11.8316 9:14.0938 10:-27.2764 11:-19.1126 12:-27.1546 #
-2.0151936914437325327360275243477e-07 1:0.0225804 2:0.687895 3:0.46621999 4:0.48120001 5:0.46160001 6:3.17818 7:8.6906204 8:11.7849 9:13.759 10:-27.826799 11:-18.175699 12:-26.5315 #
-6.0455810743311978629058785900119e-07 1:0.0213608 2:0.75859898 3:0.662117 4:0.4005 5:0.40009999 6:3.15662 7:7.8260198 8:10.6807 9:12.2656 10:-24.489799 11:-16.1828 12:-23.745701 #
-1.007596845721866239898234160477e-06 1:0.0191509 2:0.75079203 3:0.68350399 4:0.47029999 5:0.37650001 6:3.1467099 7:7.9544001 8:10.1412 9:12.9532 10:-24.6572 11:-16.991501 12:-24.644699 #
-1.007596845721866239898234160477e-06 1:0.060696501 2:0.23733699 3:0.21063399 4:0.4436 5:0.43399999 6:3.1916499 7:8.7008305 8:11.3724 9:13.4897 10:-26.748899 11:-17.8403 12:-25.9256 #
-6.0455810743311978629058785900119e-07 1:0.029510301 2:0.43004 3:0.21494401 4:0.4637 5:0.46329999 6:3.1902599 7:9.5348196 8:12.0196 9:13.1847 10:-25.9632 11:-18.8305 12:-25.9144 #
-2.0151936914437325327360275243477e-07 1:0.030223601 2:0.64024103 3:0.197998 4:0.46759999 5:0.4228 6:3.1792901 7:8.4372101 8:11.2549 9:12.4028 10:-24.2453 11:-16.7852 12:-24.8374 #
2.0151936914437325327360275243477e-07 1:0.021531699 2:0.681297 3:0.46094501 4:0.4788 5:0.4702 6:3.17752 7:8.9653196 8:13.9338 9:15.1707 10:-29.8519 11:-19.736799 12:-29.897301 #
6.0455810743311978629058785900119e-07 1:0.018201901 2:0.74699199 3:0.60403299 4:0.4102 5:0.39579999 6:3.1612899 7:8.0304403 8:10.537 9:12.5304 10:-24.2108 11:-16.6339 12:-24.218399 #
1.007596845721866239898234160477e-06 1:0.018303899 2:0.75614899 3:0.68526602 4:0.4756 5:0.373 6:3.1438999 7:7.8893299 8:10.0985 9:12.8741 10:-24.378 11:-16.828501 12:-24.915501 #
1.007596845721866239898234160477e-06 1:0.060696501 2:0.23733699 3:0.21063399 4:0.4436 5:0.43399999 6:3.1916499 7:8.7008305 8:11.3724 9:13.4897 10:-26.748899 11:-17.8403 12:-25.9256 #
6.0455810743311978629058785900119e-07 1:0.029510301 2:0.43004 3:0.21494401 4:0.4637 5:0.46329999 6:3.1902599 7:9.5348196 8:12.0196 9:13.1847 10:-25.9632 11:-18.8305 12:-25.9144 #
2.0151936914437325327360275243477e-07 1:0.030223601 2:0.64024103 3:0.197998 4:0.46759999 5:0.4228 6:3.1792901 7:8.4372101 8:11.2549 9:12.4028 10:-24.2453 11:-16.7852 12:-24.8374 #
-2.0151936914437325327360275243477e-07 1:0.021531699 2:0.681297 3:0.46094501 4:0.4788 5:0.4702 6:3.17752 7:8.9653196 8:13.9338 9:15.1707 10:-29.8519 11:-19.736799 12:-29.897301 #
-6.0455810743311978629058785900119e-07 1:0.018201901 2:0.74699199 3:0.60403299 4:0.4102 5:0.39579999 6:3.1612899 7:8.0304403 8:10.537 9:12.5304 10:-24.2108 11:-16.6339 12:-24.218399 #
-1.007596845721866239898234160477e-06 1:0.018303899 2:0.75614899 3:0.68526602 4:0.4756 5:0.373 6:3.1438999 7:7.8893299 8:10.0985 9:12.8741 10:-24.378 11:-16.828501 12:-24.915501 #
-6.0455810743311978629058785900119e-07 1:0.032359801 2:0.26468399 3:0.24982201 4:0.45210001 5:0.43130001 6:3.1839001 7:8.1909399 8:11.2841 9:16.4296 10:-30.329399 11:-20.928301 12:-30.659401 #
-1.007596845721866239898234160477e-06 1:0.022689501 2:0.42839399 3:0.24676301 4:0.46489999 5:0.4637 6:3.1877201 7:8.9630203 8:11.8607 9:13.7532 10:-26.560699 11:-18.279499 12:-27.8295 #
2.0151936914437325327360275243477e-07 1:0.020496599 2:0.66839802 3:0.21857201 4:0.4497 5:0.43869999 6:3.1837101 7:8.5783901 8:11.3063 9:13.0673 10:-25.255699 11:-17.3566 12:-26.3325 #
-2.0151936914437325327360275243477e-07 1:0.023891401 2:0.67887998 3:0.47402701 4:0.4716 5:0.47040001 6:3.1765001 7:8.6142702 8:12.1879 9:13.4719 10:-27.8755 11:-17.916599 12:-26.301901 #
6.0455810743311978629058785900119e-07 1:0.019849701 2:0.70895302 3:0.60560399 4:0.4364 5:0.42039999 6:3.1596301 7:7.8829002 8:10.7924 9:12.6551 10:-24.776899 11:-16.6201 12:-24.4168 #
1.007596845721866239898234160477e-06 1:0.019849701 2:0.74891597 3:0.69090903 4:0.47549999 5:0.3761 6:3.1448801 7:7.8980999 8:10.1422 9:12.9654 10:-24.633301 11:-16.9606 12:-24.7136 #
1.007596845721866239898234160477e-06 1:0.032359801 2:0.26468399 3:0.24982201 4:0.45210001 5:0.43130001 6:3.1839001 7:8.1909399 8:11.2841 9:16.4296 10:-30.329399 11:-20.928301 12:-30.659401 #
6.0455810743311978629058785900119e-07 1:0.022689501 2:0.42839399 3:0.24676301 4:0.46489999 5:0.4637 6:3.1877201 7:8.9630203 8:11.8607 9:13.7532 10:-26.560699 11:-18.279499 12:-27.8295 #
2.0151936914437325327360275243477e-07 1:0.020496599 2:0.66839802 3:0.21857201 4:0.4497 5:0.43869999 6:3.1837101 7:8.5783901 8:11.3063 9:13.0673 10:-25.255699 11:-17.3566 12:-26.3325 #
-2.0151936914437325327360275243477e-07 1:0.023891401 2:0.67887998 3:0.47402701 4:0.4716 5:0.47040001 6:3.1765001 7:8.6142702 8:12.1879 9:13.4719 10:-27.8755 11:-17.916599 12:-26.301901 #
-6.0455810743311978629058785900119e-07 1:0.019849701 2:0.70895302 3:0.60560399 4:0.4364 5:0.42039999 6:3.1596301 7:7.8829002 8:10.7924 9:12.6551 10:-24.776899 11:-16.6201 12:-24.4168 #
-1.007596845721866239898234160477e-06 1:0.019849701 2:0.74891597 3:0.69090903 4:0.47549999 5:0.3761 6:3.1448801 7:7.8980999 8:10.1422 9:12.9654 10:-24.633301 11:-16.9606 12:-24.7136 #
-1.007596845721866239898234160477e-06 1:0.0384642 2:0.215189 3:0.21676201 4:0.45680001 5:0.44159999 6:3.18308 7:8.5162096 8:11.8054 9:12.9188 10:-25.3314 11:-18.1359 12:-25.621799 #
-6.0455810743311978629058785900119e-07 1:0.0268114 2:0.46722001 3:0.232401 4:0.46610001 5:0.46349999 6:3.1863401 7:9.8326302 8:12.8178 9:13.4492 10:-27.4217 11:-19.876301 12:-26.5874 #
-2.0151936914437325327360275243477e-07 1:0.0329316 2:0.67959797 3:0.227264 4:0.44069999 5:0.42250001 6:3.1748099 7:8.5063601 8:11.1937 9:12.364 10:-24.175301 11:-16.886299 12:-24.5714 #
2.0151936914437325327360275243477e-07 1:0.0173003 2:0.67840803 3:0.47546899 4:0.47749999 5:0.4747 6:3.17854 7:8.5448399 8:13.5684 9:14.1291 10:-28.1579 11:-18.6113 12:-28.1024 #
1.007596845721866239898234160477e-06 1:0.0161289 2:0.76822501 3:0.64524603 4:0.39669999 5:0.39629999 6:3.1566899 7:7.8534598 8:10.5605 9:12.2997 10:-24.3615 11:-16.255501 12:-23.741899 #
6.0455810743311978629058785900119e-07 1:0.0151435 2:0.749493 3:0.68471998 4:0.46740001 5:0.3752 6:3.1444099 7:7.8673701 8:10.1159 9:12.9337 10:-24.6108 11:-16.9345 12:-24.6071 #
1.007596845721866239898234160477e-06 1:0.0384642 2:0.215189 3:0.21676201 4:0.45680001 5:0.44159999 6:3.18308 7:8.5162096 8:11.8054 9:12.9188 10:-25.3314 11:-18.1359 12:-25.621799 #
6.0455810743311978629058785900119e-07 1:0.0268114 2:0.46722001 3:0.232401 4:0.46610001 5:0.46349999 6:3.1863401 7:9.8326302 8:12.8178 9:13.4492 10:-27.4217 11:-19.876301 12:-26.5874 #
2.0151936914437325327360275243477e-07 1:0.0329316 2:0.67959797 3:0.227264 4:0.44069999 5:0.42250001 6:3.1748099 7:8.5063601 8:11.1937 9:12.364 10:-24.175301 11:-16.886299 12:-24.5714 #
-2.0151936914437325327360275243477e-07 1:0.0173003 2:0.67840803 3:0.47546899 4:0.47749999 5:0.4747 6:3.17854 7:8.5448399 8:13.5684 9:14.1291 10:-28.1579 11:-18.6113 12:-28.1024 #
-6.0455810743311978629058785900119e-07 1:0.0161289 2:0.76822501 3:0.64524603 4:0.39669999 5:0.39629999 6:3.1566899 7:7.8534598 8:10.5605 9:12.2997 10:-24.3615 11:-16.255501 12:-23.741899 #
-1.007596845721866239898234160477e-06 1:0.0151435 2:0.749493 3:0.68471998 4:0.46740001 5:0.3752 6:3.1444099 7:7.8673701 8:10.1159 9:12.9337 10:-24.6108 11:-16.9345 12:-24.6071 #
