SVM-light Version V6.20
1 # kernel type
3 # kernel parameter -d 
1 # kernel parameter -g 
1 # kernel parameter -s 
1 # kernel parameter -r 
empty# kernel parameter -u 
13 # highest feature index 
39 # number of training documents 
505 # number of support vectors plus 1 
0 # threshold b, each following line is a SV (starting with alpha*y)
-1.0528776815292385938653958689024e-07 1:0.0504013 2:0.246305 3:0.199349 4:0.42250001 5:0.4023 6:3.18221 7:8.6704102 8:11.1847 9:13.0093 10:-25.212601 11:-17.511801 12:-25.312401 #
-1.7547961358820641907600951063528e-07 1:0.027113199 2:0.36834201 3:0.25248399 4:0.4542 5:0.41460001 6:3.1733401 7:8.5430498 8:11.0923 9:12.8809 10:-26.195999 11:-17.153299 12:-24.868 #
-3.5095922717641286462179862296745e-08 1:0.02434 2:0.45974201 3:0.335026 4:0.47639999 5:0.4506 6:3.1837201 7:9.1473598 8:11.3803 9:14.3405 10:-27.399599 11:-21.0902 12:-27.312099 #
1.0528776815292385938653958689024e-07 1:0.021097301 2:0.67324901 3:0.46879601 4:0.48370001 5:0.47530001 6:3.17676 7:8.6523504 8:12.4158 9:14.332 10:-28.0965 11:-18.854799 12:-27.745199 #
3.5095922717641286462179862296745e-08 1:0.0210182 2:0.69478202 3:0.59130001 4:0.4368 5:0.42199999 6:3.1596501 7:7.9612298 8:10.7162 9:12.5463 10:-24.466499 11:-16.565901 12:-24.244301 #
1.7547961358820641907600951063528e-07 1:0.0169845 2:0.76289099 3:0.68848097 4:0.4716 5:0.3748 6:3.1446199 7:7.9057698 8:10.1392 9:12.8238 10:-24.3102 11:-16.777 12:-25.1292 #
1.7547961358820641907600951063528e-07 1:0.0504013 2:0.246305 3:0.199349 4:0.42250001 5:0.4023 6:3.18221 7:8.6704102 8:11.1847 9:13.0093 10:-25.212601 11:-17.511801 12:-25.312401 #
1.0528776815292385938653958689024e-07 1:0.027113199 2:0.36834201 3:0.25248399 4:0.4542 5:0.41460001 6:3.1733401 7:8.5430498 8:11.0923 9:12.8809 10:-26.195999 11:-17.153299 12:-24.868 #
3.5095922717641286462179862296745e-08 1:0.02434 2:0.45974201 3:0.335026 4:0.47639999 5:0.4506 6:3.1837201 7:9.1473598 8:11.3803 9:14.3405 10:-27.399599 11:-21.0902 12:-27.312099 #
-3.5095922717641286462179862296745e-08 1:0.021097301 2:0.67324901 3:0.46879601 4:0.48370001 5:0.47530001 6:3.17676 7:8.6523504 8:12.4158 9:14.332 10:-28.0965 11:-18.854799 12:-27.745199 #
-1.0528776815292385938653958689024e-07 1:0.0210182 2:0.69478202 3:0.59130001 4:0.4368 5:0.42199999 6:3.1596501 7:7.9612298 8:10.7162 9:12.5463 10:-24.466499 11:-16.565901 12:-24.244301 #
-1.7547961358820641907600951063528e-07 1:0.0169845 2:0.76289099 3:0.68848097 4:0.4716 5:0.3748 6:3.1446199 7:7.9057698 8:10.1392 9:12.8238 10:-24.3102 11:-16.777 12:-25.1292 #
-1.7547961358820641907600951063528e-07 1:0.061196402 2:0.23819301 3:0.21864501 4:0.377 5:0.3714 6:3.1415801 7:7.65166 8:11.3656 9:11.4958 10:-23.539101 11:-15.7095 12:-22.9398 #
-1.0528776815292385938653958689024e-07 1:0.031089099 2:0.33053699 3:0.208001 4:0.45950001 5:0.4427 6:3.19045 7:8.9536695 8:11.488 9:13.9112 10:-26.7425 11:-18.635201 12:-26.782 #
-3.5095922717641286462179862296745e-08 1:0.0250897 2:0.44382399 3:0.36068901 4:0.47220001 5:0.45660001 6:3.18467 7:9.80408 8:11.9505 9:13.9006 10:-27.8438 11:-18.805599 12:-26.8281 #
1.0528776815292385938653958689024e-07 1:0.0303845 2:0.684506 3:0.470716 4:0.48199999 5:0.4682 6:3.1788199 7:8.6356697 8:12.2403 9:14.6017 10:-28.276899 11:-18.9839 12:-28.103399 #
3.5095922717641286462179862296745e-08 1:0.0262616 2:0.76339799 3:0.64242798 4:0.40790001 5:0.39289999 6:3.15627 7:7.7997398 8:10.7499 9:12.235 10:-24.688101 11:-16.1374 12:-23.730101 #
1.7547961358820641907600951063528e-07 1:0.021263501 2:0.79717797 3:0.73971099 4:0.47260001 5:0.3784 6:3.14657 7:7.9779 8:10.1607 9:13.1192 10:-24.790001 11:-17.1115 12:-25.198 #
1.7547961358820641907600951063528e-07 1:0.061196402 2:0.23819301 3:0.21864501 4:0.377 5:0.3714 6:3.1415801 7:7.65166 8:11.3656 9:11.4958 10:-23.539101 11:-15.7095 12:-22.9398 #
1.0528776815292385938653958689024e-07 1:0.031089099 2:0.33053699 3:0.208001 4:0.45950001 5:0.4427 6:3.19045 7:8.9536695 8:11.488 9:13.9112 10:-26.7425 11:-18.635201 12:-26.782 #
3.5095922717641286462179862296745e-08 1:0.0250897 2:0.44382399 3:0.36068901 4:0.47220001 5:0.45660001 6:3.18467 7:9.80408 8:11.9505 9:13.9006 10:-27.8438 11:-18.805599 12:-26.8281 #
-3.5095922717641286462179862296745e-08 1:0.0303845 2:0.684506 3:0.470716 4:0.48199999 5:0.4682 6:3.1788199 7:8.6356697 8:12.2403 9:14.6017 10:-28.276899 11:-18.9839 12:-28.103399 #
-1.0528776815292385938653958689024e-07 1:0.0262616 2:0.76339799 3:0.64242798 4:0.40790001 5:0.39289999 6:3.15627 7:7.7997398 8:10.7499 9:12.235 10:-24.688101 11:-16.1374 12:-23.730101 #
-1.7547961358820641907600951063528e-07 1:0.021263501 2:0.79717797 3:0.73971099 4:0.47260001 5:0.3784 6:3.14657 7:7.9779 8:10.1607 9:13.1192 10:-24.790001 11:-17.1115 12:-25.198 #
-1.7547961358820641907600951063528e-07 1:0.064059697 2:0.220349 3:0.22587 4:0.4391 5:0.4341 6:3.17188 7:8.1187696 8:12.2811 9:13.0635 10:-25.9974 11:-17.1432 12:-25.8132 #
-1.0528776815292385938653958689024e-07 1:0.033984698 2:0.32521299 3:0.26847899 4:0.47679999 5:0.47240001 6:3.1871901 7:8.9252005 8:11.9587 9:13.9288 10:-26.9631 11:-18.410299 12:-27.106199 #
-3.5095922717641286462179862296745e-08 1:0.022193801 2:0.43593499 3:0.32876 4:0.47920001 5:0.46039999 6:3.1819401 7:9.9871101 8:11.8316 9:14.0938 10:-27.2764 11:-19.1126 12:-27.1546 #
3.5095922717641286462179862296745e-08 1:0.0225804 2:0.687895 3:0.46621999 4:0.48120001 5:0.46160001 6:3.17818 7:8.6906204 8:11.7849 9:13.759 10:-27.826799 11:-18.175699 12:-26.5315 #
1.0528776815292385938653958689024e-07 1:0.0213608 2:0.75859898 3:0.662117 4:0.4005 5:0.40009999 6:3.15662 7:7.8260198 8:10.6807 9:12.2656 10:-24.489799 11:-16.1828 12:-23.745701 #
1.7547961358820641907600951063528e-07 1:0.0191509 2:0.75079203 3:0.68350399 4:0.47029999 5:0.37650001 6:3.1467099 7:7.9544001 8:10.1412 9:12.9532 10:-24.6572 11:-16.991501 12:-24.644699 #
1.7547961358820641907600951063528e-07 1:0.064059697 2:0.220349 3:0.22587 4:0.4391 5:0.4341 6:3.17188 7:8.1187696 8:12.2811 9:13.0635 10:-25.9974 11:-17.1432 12:-25.8132 #
1.0528776815292385938653958689024e-07 1:0.033984698 2:0.32521299 3:0.26847899 4:0.47679999 5:0.47240001 6:3.1871901 7:8.9252005 8:11.9587 9:13.9288 10:-26.9631 11:-18.410299 12:-27.106199 #
3.5095922717641286462179862296745e-08 1:0.022193801 2:0.43593499 3:0.32876 4:0.47920001 5:0.46039999 6:3.1819401 7:9.9871101 8:11.8316 9:14.0938 10:-27.2764 11:-19.1126 12:-27.1546 #
-3.5095922717641286462179862296745e-08 1:0.0225804 2:0.687895 3:0.46621999 4:0.48120001 5:0.46160001 6:3.17818 7:8.6906204 8:11.7849 9:13.759 10:-27.826799 11:-18.175699 12:-26.5315 #
-1.0528776815292385938653958689024e-07 1:0.0213608 2:0.75859898 3:0.662117 4:0.4005 5:0.40009999 6:3.15662 7:7.8260198 8:10.6807 9:12.2656 10:-24.489799 11:-16.1828 12:-23.745701 #
-1.7547961358820641907600951063528e-07 1:0.0191509 2:0.75079203 3:0.68350399 4:0.47029999 5:0.37650001 6:3.1467099 7:7.9544001 8:10.1412 9:12.9532 10:-24.6572 11:-16.991501 12:-24.644699 #
-1.0528776815292385938653958689024e-07 1:0.060696501 2:0.23733699 3:0.21063399 4:0.4436 5:0.43399999 6:3.1916499 7:8.7008305 8:11.3724 9:13.4897 10:-26.748899 11:-17.8403 12:-25.9256 #
-1.0528776815292385938653958689024e-07 1:0.029510301 2:0.43004 3:0.21494401 4:0.4637 5:0.46329999 6:3.1902599 7:9.5348196 8:12.0196 9:13.1847 10:-25.9632 11:-18.8305 12:-25.9144 #
-1.0528776815292385938653958689024e-07 1:0.030223601 2:0.64024103 3:0.197998 4:0.46759999 5:0.4228 6:3.1792901 7:8.4372101 8:11.2549 9:12.4028 10:-24.2453 11:-16.7852 12:-24.8374 #
3.5095922717641286462179862296745e-08 1:0.021531699 2:0.681297 3:0.46094501 4:0.4788 5:0.4702 6:3.17752 7:8.9653196 8:13.9338 9:15.1707 10:-29.8519 11:-19.736799 12:-29.897301 #
1.0528776815292385938653958689024e-07 1:0.018201901 2:0.74699199 3:0.60403299 4:0.4102 5:0.39579999 6:3.1612899 7:8.0304403 8:10.537 9:12.5304 10:-24.2108 11:-16.6339 12:-24.218399 #
1.7547961358820641907600951063528e-07 1:0.018303899 2:0.75614899 3:0.68526602 4:0.4756 5:0.373 6:3.1438999 7:7.8893299 8:10.0985 9:12.8741 10:-24.378 11:-16.828501 12:-24.915501 #
1.7547961358820641907600951063528e-07 1:0.060696501 2:0.23733699 3:0.21063399 4:0.4436 5:0.43399999 6:3.1916499 7:8.7008305 8:11.3724 9:13.4897 10:-26.748899 11:-17.8403 12:-25.9256 #
1.0528776815292385938653958689024e-07 1:0.029510301 2:0.43004 3:0.21494401 4:0.4637 5:0.46329999 6:3.1902599 7:9.5348196 8:12.0196 9:13.1847 10:-25.9632 11:-18.8305 12:-25.9144 #
3.5095922717641286462179862296745e-08 1:0.030223601 2:0.64024103 3:0.197998 4:0.46759999 5:0.4228 6:3.1792901 7:8.4372101 8:11.2549 9:12.4028 10:-24.2453 11:-16.7852 12:-24.8374 #
-3.5095922717641286462179862296745e-08 1:0.021531699 2:0.681297 3:0.46094501 4:0.4788 5:0.4702 6:3.17752 7:8.9653196 8:13.9338 9:15.1707 10:-29.8519 11:-19.736799 12:-29.897301 #
-1.0528776815292385938653958689024e-07 1:0.018201901 2:0.74699199 3:0.60403299 4:0.4102 5:0.39579999 6:3.1612899 7:8.0304403 8:10.537 9:12.5304 10:-24.2108 11:-16.6339 12:-24.218399 #
-1.7547961358820641907600951063528e-07 1:0.018303899 2:0.75614899 3:0.68526602 4:0.4756 5:0.373 6:3.1438999 7:7.8893299 8:10.0985 9:12.8741 10:-24.378 11:-16.828501 12:-24.915501 #
-1.0528776815292385938653958689024e-07 1:0.032359801 2:0.26468399 3:0.24982201 4:0.45210001 5:0.43130001 6:3.1839001 7:8.1909399 8:11.2841 9:16.4296 10:-30.329399 11:-20.928301 12:-30.659401 #
-1.7547961358820641907600951063528e-07 1:0.022689501 2:0.42839399 3:0.24676301 4:0.46489999 5:0.4637 6:3.1877201 7:8.9630203 8:11.8607 9:13.7532 10:-26.560699 11:-18.279499 12:-27.8295 #
-3.5095922717641286462179862296745e-08 1:0.020496599 2:0.66839802 3:0.21857201 4:0.4497 5:0.43869999 6:3.1837101 7:8.5783901 8:11.3063 9:13.0673 10:-25.255699 11:-17.3566 12:-26.3325 #
3.5095922717641286462179862296745e-08 1:0.023891401 2:0.67887998 3:0.47402701 4:0.4716 5:0.47040001 6:3.1765001 7:8.6142702 8:12.1879 9:13.4719 10:-27.8755 11:-17.916599 12:-26.301901 #
1.0528776815292385938653958689024e-07 1:0.019849701 2:0.70895302 3:0.60560399 4:0.4364 5:0.42039999 6:3.1596301 7:7.8829002 8:10.7924 9:12.6551 10:-24.776899 11:-16.6201 12:-24.4168 #
1.7547961358820641907600951063528e-07 1:0.019849701 2:0.74891597 3:0.69090903 4:0.47549999 5:0.3761 6:3.1448801 7:7.8980999 8:10.1422 9:12.9654 10:-24.633301 11:-16.9606 12:-24.7136 #
1.7547961358820641907600951063528e-07 1:0.032359801 2:0.26468399 3:0.24982201 4:0.45210001 5:0.43130001 6:3.1839001 7:8.1909399 8:11.2841 9:16.4296 10:-30.329399 11:-20.928301 12:-30.659401 #
1.0528776815292385938653958689024e-07 1:0.022689501 2:0.42839399 3:0.24676301 4:0.46489999 5:0.4637 6:3.1877201 7:8.9630203 8:11.8607 9:13.7532 10:-26.560699 11:-18.279499 12:-27.8295 #
3.5095922717641286462179862296745e-08 1:0.020496599 2:0.66839802 3:0.21857201 4:0.4497 5:0.43869999 6:3.1837101 7:8.5783901 8:11.3063 9:13.0673 10:-25.255699 11:-17.3566 12:-26.3325 #
-3.5095922717641286462179862296745e-08 1:0.023891401 2:0.67887998 3:0.47402701 4:0.4716 5:0.47040001 6:3.1765001 7:8.6142702 8:12.1879 9:13.4719 10:-27.8755 11:-17.916599 12:-26.301901 #
-1.0528776815292385938653958689024e-07 1:0.019849701 2:0.70895302 3:0.60560399 4:0.4364 5:0.42039999 6:3.1596301 7:7.8829002 8:10.7924 9:12.6551 10:-24.776899 11:-16.6201 12:-24.4168 #
-1.7547961358820641907600951063528e-07 1:0.019849701 2:0.74891597 3:0.69090903 4:0.47549999 5:0.3761 6:3.1448801 7:7.8980999 8:10.1422 9:12.9654 10:-24.633301 11:-16.9606 12:-24.7136 #
-1.7547961358820641907600951063528e-07 1:0.0384642 2:0.215189 3:0.21676201 4:0.45680001 5:0.44159999 6:3.18308 7:8.5162096 8:11.8054 9:12.9188 10:-25.3314 11:-18.1359 12:-25.621799 #
-1.0528776815292385938653958689024e-07 1:0.0268114 2:0.46722001 3:0.232401 4:0.46610001 5:0.46349999 6:3.1863401 7:9.8326302 8:12.8178 9:13.4492 10:-27.4217 11:-19.876301 12:-26.5874 #
3.5095922717641286462179862296745e-08 1:0.0329316 2:0.67959797 3:0.227264 4:0.44069999 5:0.42250001 6:3.1748099 7:8.5063601 8:11.1937 9:12.364 10:-24.175301 11:-16.886299 12:-24.5714 #
-3.5095922717641286462179862296745e-08 1:0.0173003 2:0.67840803 3:0.47546899 4:0.47749999 5:0.4747 6:3.17854 7:8.5448399 8:13.5684 9:14.1291 10:-28.1579 11:-18.6113 12:-28.1024 #
1.7547961358820641907600951063528e-07 1:0.0161289 2:0.76822501 3:0.64524603 4:0.39669999 5:0.39629999 6:3.1566899 7:7.8534598 8:10.5605 9:12.2997 10:-24.3615 11:-16.255501 12:-23.741899 #
1.0528776815292385938653958689024e-07 1:0.0151435 2:0.749493 3:0.68471998 4:0.46740001 5:0.3752 6:3.1444099 7:7.8673701 8:10.1159 9:12.9337 10:-24.6108 11:-16.9345 12:-24.6071 #
1.7547961358820641907600951063528e-07 1:0.0384642 2:0.215189 3:0.21676201 4:0.45680001 5:0.44159999 6:3.18308 7:8.5162096 8:11.8054 9:12.9188 10:-25.3314 11:-18.1359 12:-25.621799 #
1.0528776815292385938653958689024e-07 1:0.0268114 2:0.46722001 3:0.232401 4:0.46610001 5:0.46349999 6:3.1863401 7:9.8326302 8:12.8178 9:13.4492 10:-27.4217 11:-19.876301 12:-26.5874 #
3.5095922717641286462179862296745e-08 1:0.0329316 2:0.67959797 3:0.227264 4:0.44069999 5:0.42250001 6:3.1748099 7:8.5063601 8:11.1937 9:12.364 10:-24.175301 11:-16.886299 12:-24.5714 #
-3.5095922717641286462179862296745e-08 1:0.0173003 2:0.67840803 3:0.47546899 4:0.47749999 5:0.4747 6:3.17854 7:8.5448399 8:13.5684 9:14.1291 10:-28.1579 11:-18.6113 12:-28.1024 #
-1.0528776815292385938653958689024e-07 1:0.0161289 2:0.76822501 3:0.64524603 4:0.39669999 5:0.39629999 6:3.1566899 7:7.8534598 8:10.5605 9:12.2997 10:-24.3615 11:-16.255501 12:-23.741899 #
-1.7547961358820641907600951063528e-07 1:0.0151435 2:0.749493 3:0.68471998 4:0.46740001 5:0.3752 6:3.1444099 7:7.8673701 8:10.1159 9:12.9337 10:-24.6108 11:-16.9345 12:-24.6071 #
-9.7990947688403218968392852789018e-07 1:0.0504013 2:0.246305 3:0.199349 4:0.42250001 5:0.4023 6:3.18221 7:8.6704102 8:11.1847 9:13.0093 10:-25.212601 11:-17.511801 12:-25.312401 #
-1.6331824614733869122204686086253e-06 1:0.027113199 2:0.36834201 3:0.25248399 4:0.4542 5:0.41460001 6:3.1733401 7:8.5430498 8:11.0923 9:12.8809 10:-26.195999 11:-17.153299 12:-24.868 #
-3.2663649229467736126827004036755e-07 1:0.02434 2:0.45974201 3:0.335026 4:0.47639999 5:0.4506 6:3.1837201 7:9.1473598 8:11.3803 9:14.3405 10:-27.399599 11:-21.0902 12:-27.312099 #
3.2663649229467736126827004036755e-07 1:0.021097301 2:0.67324901 3:0.46879601 4:0.48370001 5:0.47530001 6:3.17676 7:8.6523504 8:12.4158 9:14.332 10:-28.0965 11:-18.854799 12:-27.745199 #
9.7990947688403218968392852789018e-07 1:0.0210182 2:0.69478202 3:0.59130001 4:0.4368 5:0.42199999 6:3.1596501 7:7.9612298 8:10.7162 9:12.5463 10:-24.466499 11:-16.565901 12:-24.244301 #
1.6331824614733869122204686086253e-06 1:0.0169845 2:0.76289099 3:0.68848097 4:0.4716 5:0.3748 6:3.1446199 7:7.9057698 8:10.1392 9:12.8238 10:-24.3102 11:-16.777 12:-25.1292 #
1.6331824614733869122204686086253e-06 1:0.0504013 2:0.246305 3:0.199349 4:0.42250001 5:0.4023 6:3.18221 7:8.6704102 8:11.1847 9:13.0093 10:-25.212601 11:-17.511801 12:-25.312401 #
9.7990947688403218968392852789018e-07 1:0.027113199 2:0.36834201 3:0.25248399 4:0.4542 5:0.41460001 6:3.1733401 7:8.5430498 8:11.0923 9:12.8809 10:-26.195999 11:-17.153299 12:-24.868 #
3.2663649229467736126827004036755e-07 1:0.02434 2:0.45974201 3:0.335026 4:0.47639999 5:0.4506 6:3.1837201 7:9.1473598 8:11.3803 9:14.3405 10:-27.399599 11:-21.0902 12:-27.312099 #
-3.2663649229467736126827004036755e-07 1:0.021097301 2:0.67324901 3:0.46879601 4:0.48370001 5:0.47530001 6:3.17676 7:8.6523504 8:12.4158 9:14.332 10:-28.0965 11:-18.854799 12:-27.745199 #
-9.7990947688403218968392852789018e-07 1:0.0210182 2:0.69478202 3:0.59130001 4:0.4368 5:0.42199999 6:3.1596501 7:7.9612298 8:10.7162 9:12.5463 10:-24.466499 11:-16.565901 12:-24.244301 #
-1.6331824614733869122204686086253e-06 1:0.0169845 2:0.76289099 3:0.68848097 4:0.4716 5:0.3748 6:3.1446199 7:7.9057698 8:10.1392 9:12.8238 10:-24.3102 11:-16.777 12:-25.1292 #
-9.7990947688403218968392852789018e-07 1:0.061196402 2:0.23819301 3:0.21864501 4:0.377 5:0.3714 6:3.1415801 7:7.65166 8:11.3656 9:11.4958 10:-23.539101 11:-15.7095 12:-22.9398 #
-1.6331824614733869122204686086253e-06 1:0.031089099 2:0.33053699 3:0.208001 4:0.45950001 5:0.4427 6:3.19045 7:8.9536695 8:11.488 9:13.9112 10:-26.7425 11:-18.635201 12:-26.782 #
-3.2663649229467736126827004036755e-07 1:0.0250897 2:0.44382399 3:0.36068901 4:0.47220001 5:0.45660001 6:3.18467 7:9.80408 8:11.9505 9:13.9006 10:-27.8438 11:-18.805599 12:-26.8281 #
3.2663649229467736126827004036755e-07 1:0.0303845 2:0.684506 3:0.470716 4:0.48199999 5:0.4682 6:3.1788199 7:8.6356697 8:12.2403 9:14.6017 10:-28.276899 11:-18.9839 12:-28.103399 #
9.7990947688403218968392852789018e-07 1:0.0262616 2:0.76339799 3:0.64242798 4:0.40790001 5:0.39289999 6:3.15627 7:7.7997398 8:10.7499 9:12.235 10:-24.688101 11:-16.1374 12:-23.730101 #
1.6331824614733869122204686086253e-06 1:0.021263501 2:0.79717797 3:0.73971099 4:0.47260001 5:0.3784 6:3.14657 7:7.9779 8:10.1607 9:13.1192 10:-24.790001 11:-17.1115 12:-25.198 #
1.6331824614733869122204686086253e-06 1:0.061196402 2:0.23819301 3:0.21864501 4:0.377 5:0.3714 6:3.1415801 7:7.65166 8:11.3656 9:11.4958 10:-23.539101 11:-15.7095 12:-22.9398 #
9.7990947688403218968392852789018e-07 1:0.031089099 2:0.33053699 3:0.208001 4:0.45950001 5:0.4427 6:3.19045 7:8.9536695 8:11.488 9:13.9112 10:-26.7425 11:-18.635201 12:-26.782 #
3.2663649229467736126827004036755e-07 1:0.0250897 2:0.44382399 3:0.36068901 4:0.47220001 5:0.45660001 6:3.18467 7:9.80408 8:11.9505 9:13.9006 10:-27.8438 11:-18.805599 12:-26.8281 #
-3.2663649229467736126827004036755e-07 1:0.0303845 2:0.684506 3:0.470716 4:0.48199999 5:0.4682 6:3.1788199 7:8.6356697 8:12.2403 9:14.6017 10:-28.276899 11:-18.9839 12:-28.103399 #
-9.7990947688403218968392852789018e-07 1:0.0262616 2:0.76339799 3:0.64242798 4:0.40790001 5:0.39289999 6:3.15627 7:7.7997398 8:10.7499 9:12.235 10:-24.688101 11:-16.1374 12:-23.730101 #
-1.6331824614733869122204686086253e-06 1:0.021263501 2:0.79717797 3:0.73971099 4:0.47260001 5:0.3784 6:3.14657 7:7.9779 8:10.1607 9:13.1192 10:-24.790001 11:-17.1115 12:-25.198 #
-1.6331824614733869122204686086253e-06 1:0.064059697 2:0.220349 3:0.22587 4:0.4391 5:0.4341 6:3.17188 7:8.1187696 8:12.2811 9:13.0635 10:-25.9974 11:-17.1432 12:-25.8132 #
-9.7990947688403218968392852789018e-07 1:0.033984698 2:0.32521299 3:0.26847899 4:0.47679999 5:0.47240001 6:3.1871901 7:8.9252005 8:11.9587 9:13.9288 10:-26.9631 11:-18.410299 12:-27.106199 #
-3.2663649229467736126827004036755e-07 1:0.022193801 2:0.43593499 3:0.32876 4:0.47920001 5:0.46039999 6:3.1819401 7:9.9871101 8:11.8316 9:14.0938 10:-27.2764 11:-19.1126 12:-27.1546 #
3.2663649229467736126827004036755e-07 1:0.0225804 2:0.687895 3:0.46621999 4:0.48120001 5:0.46160001 6:3.17818 7:8.6906204 8:11.7849 9:13.759 10:-27.826799 11:-18.175699 12:-26.5315 #
9.7990947688403218968392852789018e-07 1:0.0213608 2:0.75859898 3:0.662117 4:0.4005 5:0.40009999 6:3.15662 7:7.8260198 8:10.6807 9:12.2656 10:-24.489799 11:-16.1828 12:-23.745701 #
1.6331824614733869122204686086253e-06 1:0.0191509 2:0.75079203 3:0.68350399 4:0.47029999 5:0.37650001 6:3.1467099 7:7.9544001 8:10.1412 9:12.9532 10:-24.6572 11:-16.991501 12:-24.644699 #
1.6331824614733869122204686086253e-06 1:0.064059697 2:0.220349 3:0.22587 4:0.4391 5:0.4341 6:3.17188 7:8.1187696 8:12.2811 9:13.0635 10:-25.9974 11:-17.1432 12:-25.8132 #
9.7990947688403218968392852789018e-07 1:0.033984698 2:0.32521299 3:0.26847899 4:0.47679999 5:0.47240001 6:3.1871901 7:8.9252005 8:11.9587 9:13.9288 10:-26.9631 11:-18.410299 12:-27.106199 #
3.2663649229467736126827004036755e-07 1:0.022193801 2:0.43593499 3:0.32876 4:0.47920001 5:0.46039999 6:3.1819401 7:9.9871101 8:11.8316 9:14.0938 10:-27.2764 11:-19.1126 12:-27.1546 #
-3.2663649229467736126827004036755e-07 1:0.0225804 2:0.687895 3:0.46621999 4:0.48120001 5:0.46160001 6:3.17818 7:8.6906204 8:11.7849 9:13.759 10:-27.826799 11:-18.175699 12:-26.5315 #
-9.7990947688403218968392852789018e-07 1:0.0213608 2:0.75859898 3:0.662117 4:0.4005 5:0.40009999 6:3.15662 7:7.8260198 8:10.6807 9:12.2656 10:-24.489799 11:-16.1828 12:-23.745701 #
-1.6331824614733869122204686086253e-06 1:0.0191509 2:0.75079203 3:0.68350399 4:0.47029999 5:0.37650001 6:3.1467099 7:7.9544001 8:10.1412 9:12.9532 10:-24.6572 11:-16.991501 12:-24.644699 #
-1.6331824614733869122204686086253e-06 1:0.060696501 2:0.23733699 3:0.21063399 4:0.4436 5:0.43399999 6:3.1916499 7:8.7008305 8:11.3724 9:13.4897 10:-26.748899 11:-17.8403 12:-25.9256 #
-9.7990947688403218968392852789018e-07 1:0.029510301 2:0.43004 3:0.21494401 4:0.4637 5:0.46329999 6:3.1902599 7:9.5348196 8:12.0196 9:13.1847 10:-25.9632 11:-18.8305 12:-25.9144 #
-3.2663649229467736126827004036755e-07 1:0.030223601 2:0.64024103 3:0.197998 4:0.46759999 5:0.4228 6:3.1792901 7:8.4372101 8:11.2549 9:12.4028 10:-24.2453 11:-16.7852 12:-24.8374 #
3.2663649229467736126827004036755e-07 1:0.021531699 2:0.681297 3:0.46094501 4:0.4788 5:0.4702 6:3.17752 7:8.9653196 8:13.9338 9:15.1707 10:-29.8519 11:-19.736799 12:-29.897301 #
9.7990947688403218968392852789018e-07 1:0.018201901 2:0.74699199 3:0.60403299 4:0.4102 5:0.39579999 6:3.1612899 7:8.0304403 8:10.537 9:12.5304 10:-24.2108 11:-16.6339 12:-24.218399 #
1.6331824614733869122204686086253e-06 1:0.018303899 2:0.75614899 3:0.68526602 4:0.4756 5:0.373 6:3.1438999 7:7.8893299 8:10.0985 9:12.8741 10:-24.378 11:-16.828501 12:-24.915501 #
1.6331824614733869122204686086253e-06 1:0.060696501 2:0.23733699 3:0.21063399 4:0.4436 5:0.43399999 6:3.1916499 7:8.7008305 8:11.3724 9:13.4897 10:-26.748899 11:-17.8403 12:-25.9256 #
9.7990947688403218968392852789018e-07 1:0.029510301 2:0.43004 3:0.21494401 4:0.4637 5:0.46329999 6:3.1902599 7:9.5348196 8:12.0196 9:13.1847 10:-25.9632 11:-18.8305 12:-25.9144 #
3.2663649229467736126827004036755e-07 1:0.030223601 2:0.64024103 3:0.197998 4:0.46759999 5:0.4228 6:3.1792901 7:8.4372101 8:11.2549 9:12.4028 10:-24.2453 11:-16.7852 12:-24.8374 #
-3.2663649229467736126827004036755e-07 1:0.021531699 2:0.681297 3:0.46094501 4:0.4788 5:0.4702 6:3.17752 7:8.9653196 8:13.9338 9:15.1707 10:-29.8519 11:-19.736799 12:-29.897301 #
-9.7990947688403218968392852789018e-07 1:0.018201901 2:0.74699199 3:0.60403299 4:0.4102 5:0.39579999 6:3.1612899 7:8.0304403 8:10.537 9:12.5304 10:-24.2108 11:-16.6339 12:-24.218399 #
-1.6331824614733869122204686086253e-06 1:0.018303899 2:0.75614899 3:0.68526602 4:0.4756 5:0.373 6:3.1438999 7:7.8893299 8:10.0985 9:12.8741 10:-24.378 11:-16.828501 12:-24.915501 #
-1.6331824614733869122204686086253e-06 1:0.032359801 2:0.26468399 3:0.24982201 4:0.45210001 5:0.43130001 6:3.1839001 7:8.1909399 8:11.2841 9:16.4296 10:-30.329399 11:-20.928301 12:-30.659401 #
-9.7990947688403218968392852789018e-07 1:0.022689501 2:0.42839399 3:0.24676301 4:0.46489999 5:0.4637 6:3.1877201 7:8.9630203 8:11.8607 9:13.7532 10:-26.560699 11:-18.279499 12:-27.8295 #
-3.2663649229467736126827004036755e-07 1:0.020496599 2:0.66839802 3:0.21857201 4:0.4497 5:0.43869999 6:3.1837101 7:8.5783901 8:11.3063 9:13.0673 10:-25.255699 11:-17.3566 12:-26.3325 #
3.2663649229467736126827004036755e-07 1:0.023891401 2:0.67887998 3:0.47402701 4:0.4716 5:0.47040001 6:3.1765001 7:8.6142702 8:12.1879 9:13.4719 10:-27.8755 11:-17.916599 12:-26.301901 #
9.7990947688403218968392852789018e-07 1:0.019849701 2:0.70895302 3:0.60560399 4:0.4364 5:0.42039999 6:3.1596301 7:7.8829002 8:10.7924 9:12.6551 10:-24.776899 11:-16.6201 12:-24.4168 #
1.6331824614733869122204686086253e-06 1:0.019849701 2:0.74891597 3:0.69090903 4:0.47549999 5:0.3761 6:3.1448801 7:7.8980999 8:10.1422 9:12.9654 10:-24.633301 11:-16.9606 12:-24.7136 #
1.6331824614733869122204686086253e-06 1:0.032359801 2:0.26468399 3:0.24982201 4:0.45210001 5:0.43130001 6:3.1839001 7:8.1909399 8:11.2841 9:16.4296 10:-30.329399 11:-20.928301 12:-30.659401 #
9.7990947688403218968392852789018e-07 1:0.022689501 2:0.42839399 3:0.24676301 4:0.46489999 5:0.4637 6:3.1877201 7:8.9630203 8:11.8607 9:13.7532 10:-26.560699 11:-18.279499 12:-27.8295 #
3.2663649229467736126827004036755e-07 1:0.020496599 2:0.66839802 3:0.21857201 4:0.4497 5:0.43869999 6:3.1837101 7:8.5783901 8:11.3063 9:13.0673 10:-25.255699 11:-17.3566 12:-26.3325 #
-3.2663649229467736126827004036755e-07 1:0.023891401 2:0.67887998 3:0.47402701 4:0.4716 5:0.47040001 6:3.1765001 7:8.6142702 8:12.1879 9:13.4719 10:-27.8755 11:-17.916599 12:-26.301901 #
-9.7990947688403218968392852789018e-07 1:0.019849701 2:0.70895302 3:0.60560399 4:0.4364 5:0.42039999 6:3.1596301 7:7.8829002 8:10.7924 9:12.6551 10:-24.776899 11:-16.6201 12:-24.4168 #
-1.6331824614733869122204686086253e-06 1:0.019849701 2:0.74891597 3:0.69090903 4:0.47549999 5:0.3761 6:3.1448801 7:7.8980999 8:10.1422 9:12.9654 10:-24.633301 11:-16.9606 12:-24.7136 #
-1.6331824614733869122204686086253e-06 1:0.0384642 2:0.215189 3:0.21676201 4:0.45680001 5:0.44159999 6:3.18308 7:8.5162096 8:11.8054 9:12.9188 10:-25.3314 11:-18.1359 12:-25.621799 #
-9.7990947688403218968392852789018e-07 1:0.0268114 2:0.46722001 3:0.232401 4:0.46610001 5:0.46349999 6:3.1863401 7:9.8326302 8:12.8178 9:13.4492 10:-27.4217 11:-19.876301 12:-26.5874 #
3.2663649229467736126827004036755e-07 1:0.0329316 2:0.67959797 3:0.227264 4:0.44069999 5:0.42250001 6:3.1748099 7:8.5063601 8:11.1937 9:12.364 10:-24.175301 11:-16.886299 12:-24.5714 #
-3.2663649229467736126827004036755e-07 1:0.0173003 2:0.67840803 3:0.47546899 4:0.47749999 5:0.4747 6:3.17854 7:8.5448399 8:13.5684 9:14.1291 10:-28.1579 11:-18.6113 12:-28.1024 #
1.6331824614733869122204686086253e-06 1:0.0161289 2:0.76822501 3:0.64524603 4:0.39669999 5:0.39629999 6:3.1566899 7:7.8534598 8:10.5605 9:12.2997 10:-24.3615 11:-16.255501 12:-23.741899 #
9.7990947688403218968392852789018e-07 1:0.0151435 2:0.749493 3:0.68471998 4:0.46740001 5:0.3752 6:3.1444099 7:7.8673701 8:10.1159 9:12.9337 10:-24.6108 11:-16.9345 12:-24.6071 #
1.6331824614733869122204686086253e-06 1:0.0384642 2:0.215189 3:0.21676201 4:0.45680001 5:0.44159999 6:3.18308 7:8.5162096 8:11.8054 9:12.9188 10:-25.3314 11:-18.1359 12:-25.621799 #
9.7990947688403218968392852789018e-07 1:0.0268114 2:0.46722001 3:0.232401 4:0.46610001 5:0.46349999 6:3.1863401 7:9.8326302 8:12.8178 9:13.4492 10:-27.4217 11:-19.876301 12:-26.5874 #
3.2663649229467736126827004036755e-07 1:0.0329316 2:0.67959797 3:0.227264 4:0.44069999 5:0.42250001 6:3.1748099 7:8.5063601 8:11.1937 9:12.364 10:-24.175301 11:-16.886299 12:-24.5714 #
-3.2663649229467736126827004036755e-07 1:0.0173003 2:0.67840803 3:0.47546899 4:0.47749999 5:0.4747 6:3.17854 7:8.5448399 8:13.5684 9:14.1291 10:-28.1579 11:-18.6113 12:-28.1024 #
-9.7990947688403218968392852789018e-07 1:0.0161289 2:0.76822501 3:0.64524603 4:0.39669999 5:0.39629999 6:3.1566899 7:7.8534598 8:10.5605 9:12.2997 10:-24.3615 11:-16.255501 12:-23.741899 #
-1.6331824614733869122204686086253e-06 1:0.0151435 2:0.749493 3:0.68471998 4:0.46740001 5:0.3752 6:3.1444099 7:7.8673701 8:10.1159 9:12.9337 10:-24.6108 11:-16.9345 12:-24.6071 #
-4.0630211587361726273068002895927e-07 1:0.0504013 2:0.246305 3:0.199349 4:0.42250001 5:0.4023 6:3.18221 7:8.6704102 8:11.1847 9:13.0093 10:-25.212601 11:-17.511801 12:-25.312401 #
-6.7717019312269540259142724600294e-07 1:0.027113199 2:0.36834201 3:0.25248399 4:0.4542 5:0.41460001 6:3.1733401 7:8.5430498 8:11.0923 9:12.8809 10:-26.195999 11:-17.153299 12:-24.868 #
-1.3543403862453906993037360852183e-07 1:0.02434 2:0.45974201 3:0.335026 4:0.47639999 5:0.4506 6:3.1837201 7:9.1473598 8:11.3803 9:14.3405 10:-27.399599 11:-21.0902 12:-27.312099 #
4.0630211587361726273068002895927e-07 1:0.021097301 2:0.67324901 3:0.46879601 4:0.48370001 5:0.47530001 6:3.17676 7:8.6523504 8:12.4158 9:14.332 10:-28.0965 11:-18.854799 12:-27.745199 #
1.3543403862453906993037360852183e-07 1:0.0210182 2:0.69478202 3:0.59130001 4:0.4368 5:0.42199999 6:3.1596501 7:7.9612298 8:10.7162 9:12.5463 10:-24.466499 11:-16.565901 12:-24.244301 #
6.7717019312269540259142724600294e-07 1:0.0169845 2:0.76289099 3:0.68848097 4:0.4716 5:0.3748 6:3.1446199 7:7.9057698 8:10.1392 9:12.8238 10:-24.3102 11:-16.777 12:-25.1292 #
6.7717019312269540259142724600294e-07 1:0.0504013 2:0.246305 3:0.199349 4:0.42250001 5:0.4023 6:3.18221 7:8.6704102 8:11.1847 9:13.0093 10:-25.212601 11:-17.511801 12:-25.312401 #
4.0630211587361726273068002895927e-07 1:0.027113199 2:0.36834201 3:0.25248399 4:0.4542 5:0.41460001 6:3.1733401 7:8.5430498 8:11.0923 9:12.8809 10:-26.195999 11:-17.153299 12:-24.868 #
1.3543403862453906993037360852183e-07 1:0.02434 2:0.45974201 3:0.335026 4:0.47639999 5:0.4506 6:3.1837201 7:9.1473598 8:11.3803 9:14.3405 10:-27.399599 11:-21.0902 12:-27.312099 #
-1.3543403862453906993037360852183e-07 1:0.021097301 2:0.67324901 3:0.46879601 4:0.48370001 5:0.47530001 6:3.17676 7:8.6523504 8:12.4158 9:14.332 10:-28.0965 11:-18.854799 12:-27.745199 #
-4.0630211587361726273068002895927e-07 1:0.0210182 2:0.69478202 3:0.59130001 4:0.4368 5:0.42199999 6:3.1596501 7:7.9612298 8:10.7162 9:12.5463 10:-24.466499 11:-16.565901 12:-24.244301 #
-6.7717019312269540259142724600294e-07 1:0.0169845 2:0.76289099 3:0.68848097 4:0.4716 5:0.3748 6:3.1446199 7:7.9057698 8:10.1392 9:12.8238 10:-24.3102 11:-16.777 12:-25.1292 #
-6.7717019312269540259142724600294e-07 1:0.061196402 2:0.23819301 3:0.21864501 4:0.377 5:0.3714 6:3.1415801 7:7.65166 8:11.3656 9:11.4958 10:-23.539101 11:-15.7095 12:-22.9398 #
-4.0630211587361726273068002895927e-07 1:0.031089099 2:0.33053699 3:0.208001 4:0.45950001 5:0.4427 6:3.19045 7:8.9536695 8:11.488 9:13.9112 10:-26.7425 11:-18.635201 12:-26.782 #
-1.3543403862453906993037360852183e-07 1:0.0250897 2:0.44382399 3:0.36068901 4:0.47220001 5:0.45660001 6:3.18467 7:9.80408 8:11.9505 9:13.9006 10:-27.8438 11:-18.805599 12:-26.8281 #
4.0630211587361726273068002895927e-07 1:0.0303845 2:0.684506 3:0.470716 4:0.48199999 5:0.4682 6:3.1788199 7:8.6356697 8:12.2403 9:14.6017 10:-28.276899 11:-18.9839 12:-28.103399 #
1.3543403862453906993037360852183e-07 1:0.0262616 2:0.76339799 3:0.64242798 4:0.40790001 5:0.39289999 6:3.15627 7:7.7997398 8:10.7499 9:12.235 10:-24.688101 11:-16.1374 12:-23.730101 #
6.7717019312269540259142724600294e-07 1:0.021263501 2:0.79717797 3:0.73971099 4:0.47260001 5:0.3784 6:3.14657 7:7.9779 8:10.1607 9:13.1192 10:-24.790001 11:-17.1115 12:-25.198 #
6.7717019312269540259142724600294e-07 1:0.061196402 2:0.23819301 3:0.21864501 4:0.377 5:0.3714 6:3.1415801 7:7.65166 8:11.3656 9:11.4958 10:-23.539101 11:-15.7095 12:-22.9398 #
4.0630211587361726273068002895927e-07 1:0.031089099 2:0.33053699 3:0.208001 4:0.45950001 5:0.4427 6:3.19045 7:8.9536695 8:11.488 9:13.9112 10:-26.7425 11:-18.635201 12:-26.782 #
1.3543403862453906993037360852183e-07 1:0.0250897 2:0.44382399 3:0.36068901 4:0.47220001 5:0.45660001 6:3.18467 7:9.80408 8:11.9505 9:13.9006 10:-27.8438 11:-18.805599 12:-26.8281 #
-1.3543403862453906993037360852183e-07 1:0.0303845 2:0.684506 3:0.470716 4:0.48199999 5:0.4682 6:3.1788199 7:8.6356697 8:12.2403 9:14.6017 10:-28.276899 11:-18.9839 12:-28.103399 #
-4.0630211587361726273068002895927e-07 1:0.0262616 2:0.76339799 3:0.64242798 4:0.40790001 5:0.39289999 6:3.15627 7:7.7997398 8:10.7499 9:12.235 10:-24.688101 11:-16.1374 12:-23.730101 #
-6.7717019312269540259142724600294e-07 1:0.021263501 2:0.79717797 3:0.73971099 4:0.47260001 5:0.3784 6:3.14657 7:7.9779 8:10.1607 9:13.1192 10:-24.790001 11:-17.1115 12:-25.198 #
-6.7717019312269540259142724600294e-07 1:0.064059697 2:0.220349 3:0.22587 4:0.4391 5:0.4341 6:3.17188 7:8.1187696 8:12.2811 9:13.0635 10:-25.9974 11:-17.1432 12:-25.8132 #
-4.0630211587361726273068002895927e-07 1:0.033984698 2:0.32521299 3:0.26847899 4:0.47679999 5:0.47240001 6:3.1871901 7:8.9252005 8:11.9587 9:13.9288 10:-26.9631 11:-18.410299 12:-27.106199 #
-1.3543403862453906993037360852183e-07 1:0.022193801 2:0.43593499 3:0.32876 4:0.47920001 5:0.46039999 6:3.1819401 7:9.9871101 8:11.8316 9:14.0938 10:-27.2764 11:-19.1126 12:-27.1546 #
1.3543403862453906993037360852183e-07 1:0.0225804 2:0.687895 3:0.46621999 4:0.48120001 5:0.46160001 6:3.17818 7:8.6906204 8:11.7849 9:13.759 10:-27.826799 11:-18.175699 12:-26.5315 #
4.0630211587361726273068002895927e-07 1:0.0213608 2:0.75859898 3:0.662117 4:0.4005 5:0.40009999 6:3.15662 7:7.8260198 8:10.6807 9:12.2656 10:-24.489799 11:-16.1828 12:-23.745701 #
6.7717019312269540259142724600294e-07 1:0.0191509 2:0.75079203 3:0.68350399 4:0.47029999 5:0.37650001 6:3.1467099 7:7.9544001 8:10.1412 9:12.9532 10:-24.6572 11:-16.991501 12:-24.644699 #
6.7717019312269540259142724600294e-07 1:0.064059697 2:0.220349 3:0.22587 4:0.4391 5:0.4341 6:3.17188 7:8.1187696 8:12.2811 9:13.0635 10:-25.9974 11:-17.1432 12:-25.8132 #
4.0630211587361726273068002895927e-07 1:0.033984698 2:0.32521299 3:0.26847899 4:0.47679999 5:0.47240001 6:3.1871901 7:8.9252005 8:11.9587 9:13.9288 10:-26.9631 11:-18.410299 12:-27.106199 #
1.3543403862453906993037360852183e-07 1:0.022193801 2:0.43593499 3:0.32876 4:0.47920001 5:0.46039999 6:3.1819401 7:9.9871101 8:11.8316 9:14.0938 10:-27.2764 11:-19.1126 12:-27.1546 #
-1.3543403862453906993037360852183e-07 1:0.0225804 2:0.687895 3:0.46621999 4:0.48120001 5:0.46160001 6:3.17818 7:8.6906204 8:11.7849 9:13.759 10:-27.826799 11:-18.175699 12:-26.5315 #
-4.0630211587361726273068002895927e-07 1:0.0213608 2:0.75859898 3:0.662117 4:0.4005 5:0.40009999 6:3.15662 7:7.8260198 8:10.6807 9:12.2656 10:-24.489799 11:-16.1828 12:-23.745701 #
-6.7717019312269540259142724600294e-07 1:0.0191509 2:0.75079203 3:0.68350399 4:0.47029999 5:0.37650001 6:3.1467099 7:7.9544001 8:10.1412 9:12.9532 10:-24.6572 11:-16.991501 12:-24.644699 #
-6.7717019312269540259142724600294e-07 1:0.060696501 2:0.23733699 3:0.21063399 4:0.4436 5:0.43399999 6:3.1916499 7:8.7008305 8:11.3724 9:13.4897 10:-26.748899 11:-17.8403 12:-25.9256 #
-4.0630211587361726273068002895927e-07 1:0.029510301 2:0.43004 3:0.21494401 4:0.4637 5:0.46329999 6:3.1902599 7:9.5348196 8:12.0196 9:13.1847 10:-25.9632 11:-18.8305 12:-25.9144 #
-1.3543403862453906993037360852183e-07 1:0.030223601 2:0.64024103 3:0.197998 4:0.46759999 5:0.4228 6:3.1792901 7:8.4372101 8:11.2549 9:12.4028 10:-24.2453 11:-16.7852 12:-24.8374 #
1.3543403862453906993037360852183e-07 1:0.021531699 2:0.681297 3:0.46094501 4:0.4788 5:0.4702 6:3.17752 7:8.9653196 8:13.9338 9:15.1707 10:-29.8519 11:-19.736799 12:-29.897301 #
4.0630211587361726273068002895927e-07 1:0.018201901 2:0.74699199 3:0.60403299 4:0.4102 5:0.39579999 6:3.1612899 7:8.0304403 8:10.537 9:12.5304 10:-24.2108 11:-16.6339 12:-24.218399 #
6.7717019312269540259142724600294e-07 1:0.018303899 2:0.75614899 3:0.68526602 4:0.4756 5:0.373 6:3.1438999 7:7.8893299 8:10.0985 9:12.8741 10:-24.378 11:-16.828501 12:-24.915501 #
6.7717019312269540259142724600294e-07 1:0.060696501 2:0.23733699 3:0.21063399 4:0.4436 5:0.43399999 6:3.1916499 7:8.7008305 8:11.3724 9:13.4897 10:-26.748899 11:-17.8403 12:-25.9256 #
4.0630211587361726273068002895927e-07 1:0.029510301 2:0.43004 3:0.21494401 4:0.4637 5:0.46329999 6:3.1902599 7:9.5348196 8:12.0196 9:13.1847 10:-25.9632 11:-18.8305 12:-25.9144 #
1.3543403862453906993037360852183e-07 1:0.030223601 2:0.64024103 3:0.197998 4:0.46759999 5:0.4228 6:3.1792901 7:8.4372101 8:11.2549 9:12.4028 10:-24.2453 11:-16.7852 12:-24.8374 #
-1.3543403862453906993037360852183e-07 1:0.021531699 2:0.681297 3:0.46094501 4:0.4788 5:0.4702 6:3.17752 7:8.9653196 8:13.9338 9:15.1707 10:-29.8519 11:-19.736799 12:-29.897301 #
-4.0630211587361726273068002895927e-07 1:0.018201901 2:0.74699199 3:0.60403299 4:0.4102 5:0.39579999 6:3.1612899 7:8.0304403 8:10.537 9:12.5304 10:-24.2108 11:-16.6339 12:-24.218399 #
-6.7717019312269540259142724600294e-07 1:0.018303899 2:0.75614899 3:0.68526602 4:0.4756 5:0.373 6:3.1438999 7:7.8893299 8:10.0985 9:12.8741 10:-24.378 11:-16.828501 12:-24.915501 #
-6.7717019312269540259142724600294e-07 1:0.032359801 2:0.26468399 3:0.24982201 4:0.45210001 5:0.43130001 6:3.1839001 7:8.1909399 8:11.2841 9:16.4296 10:-30.329399 11:-20.928301 12:-30.659401 #
-4.0630211587361726273068002895927e-07 1:0.022689501 2:0.42839399 3:0.24676301 4:0.46489999 5:0.4637 6:3.1877201 7:8.9630203 8:11.8607 9:13.7532 10:-26.560699 11:-18.279499 12:-27.8295 #
-1.3543403862453906993037360852183e-07 1:0.020496599 2:0.66839802 3:0.21857201 4:0.4497 5:0.43869999 6:3.1837101 7:8.5783901 8:11.3063 9:13.0673 10:-25.255699 11:-17.3566 12:-26.3325 #
1.3543403862453906993037360852183e-07 1:0.023891401 2:0.67887998 3:0.47402701 4:0.4716 5:0.47040001 6:3.1765001 7:8.6142702 8:12.1879 9:13.4719 10:-27.8755 11:-17.916599 12:-26.301901 #
4.0630211587361726273068002895927e-07 1:0.019849701 2:0.70895302 3:0.60560399 4:0.4364 5:0.42039999 6:3.1596301 7:7.8829002 8:10.7924 9:12.6551 10:-24.776899 11:-16.6201 12:-24.4168 #
6.7717019312269540259142724600294e-07 1:0.019849701 2:0.74891597 3:0.69090903 4:0.47549999 5:0.3761 6:3.1448801 7:7.8980999 8:10.1422 9:12.9654 10:-24.633301 11:-16.9606 12:-24.7136 #
6.7717019312269540259142724600294e-07 1:0.032359801 2:0.26468399 3:0.24982201 4:0.45210001 5:0.43130001 6:3.1839001 7:8.1909399 8:11.2841 9:16.4296 10:-30.329399 11:-20.928301 12:-30.659401 #
4.0630211587361726273068002895927e-07 1:0.022689501 2:0.42839399 3:0.24676301 4:0.46489999 5:0.4637 6:3.1877201 7:8.9630203 8:11.8607 9:13.7532 10:-26.560699 11:-18.279499 12:-27.8295 #
1.3543403862453906993037360852183e-07 1:0.020496599 2:0.66839802 3:0.21857201 4:0.4497 5:0.43869999 6:3.1837101 7:8.5783901 8:11.3063 9:13.0673 10:-25.255699 11:-17.3566 12:-26.3325 #
-1.3543403862453906993037360852183e-07 1:0.023891401 2:0.67887998 3:0.47402701 4:0.4716 5:0.47040001 6:3.1765001 7:8.6142702 8:12.1879 9:13.4719 10:-27.8755 11:-17.916599 12:-26.301901 #
-4.0630211587361726273068002895927e-07 1:0.019849701 2:0.70895302 3:0.60560399 4:0.4364 5:0.42039999 6:3.1596301 7:7.8829002 8:10.7924 9:12.6551 10:-24.776899 11:-16.6201 12:-24.4168 #
-6.7717019312269540259142724600294e-07 1:0.019849701 2:0.74891597 3:0.69090903 4:0.47549999 5:0.3761 6:3.1448801 7:7.8980999 8:10.1422 9:12.9654 10:-24.633301 11:-16.9606 12:-24.7136 #
-6.7717019312269540259142724600294e-07 1:0.0384642 2:0.215189 3:0.21676201 4:0.45680001 5:0.44159999 6:3.18308 7:8.5162096 8:11.8054 9:12.9188 10:-25.3314 11:-18.1359 12:-25.621799 #
-4.0630211587361726273068002895927e-07 1:0.0268114 2:0.46722001 3:0.232401 4:0.46610001 5:0.46349999 6:3.1863401 7:9.8326302 8:12.8178 9:13.4492 10:-27.4217 11:-19.876301 12:-26.5874 #
-1.3543403862453906993037360852183e-07 1:0.0329316 2:0.67959797 3:0.227264 4:0.44069999 5:0.42250001 6:3.1748099 7:8.5063601 8:11.1937 9:12.364 10:-24.175301 11:-16.886299 12:-24.5714 #
1.3543403862453906993037360852183e-07 1:0.0173003 2:0.67840803 3:0.47546899 4:0.47749999 5:0.4747 6:3.17854 7:8.5448399 8:13.5684 9:14.1291 10:-28.1579 11:-18.6113 12:-28.1024 #
6.7717019312269540259142724600294e-07 1:0.0161289 2:0.76822501 3:0.64524603 4:0.39669999 5:0.39629999 6:3.1566899 7:7.8534598 8:10.5605 9:12.2997 10:-24.3615 11:-16.255501 12:-23.741899 #
4.0630211587361726273068002895927e-07 1:0.0151435 2:0.749493 3:0.68471998 4:0.46740001 5:0.3752 6:3.1444099 7:7.8673701 8:10.1159 9:12.9337 10:-24.6108 11:-16.9345 12:-24.6071 #
6.7717019312269540259142724600294e-07 1:0.0384642 2:0.215189 3:0.21676201 4:0.45680001 5:0.44159999 6:3.18308 7:8.5162096 8:11.8054 9:12.9188 10:-25.3314 11:-18.1359 12:-25.621799 #
4.0630211587361726273068002895927e-07 1:0.0268114 2:0.46722001 3:0.232401 4:0.46610001 5:0.46349999 6:3.1863401 7:9.8326302 8:12.8178 9:13.4492 10:-27.4217 11:-19.876301 12:-26.5874 #
1.3543403862453906993037360852183e-07 1:0.0329316 2:0.67959797 3:0.227264 4:0.44069999 5:0.42250001 6:3.1748099 7:8.5063601 8:11.1937 9:12.364 10:-24.175301 11:-16.886299 12:-24.5714 #
-1.3543403862453906993037360852183e-07 1:0.0173003 2:0.67840803 3:0.47546899 4:0.47749999 5:0.4747 6:3.17854 7:8.5448399 8:13.5684 9:14.1291 10:-28.1579 11:-18.6113 12:-28.1024 #
-4.0630211587361726273068002895927e-07 1:0.0161289 2:0.76822501 3:0.64524603 4:0.39669999 5:0.39629999 6:3.1566899 7:7.8534598 8:10.5605 9:12.2997 10:-24.3615 11:-16.255501 12:-23.741899 #
-6.7717019312269540259142724600294e-07 1:0.0151435 2:0.749493 3:0.68471998 4:0.46740001 5:0.3752 6:3.1444099 7:7.8673701 8:10.1159 9:12.9337 10:-24.6108 11:-16.9345 12:-24.6071 #
-2.4103936989885584618105467862373e-08 1:0.0504013 2:0.246305 3:0.199349 4:0.42250001 5:0.4023 6:3.18221 7:8.6704102 8:11.1847 9:13.0093 10:-25.212601 11:-17.511801 12:-25.312401 #
-1.4462362193931351763480015781057e-08 1:0.027113199 2:0.36834201 3:0.25248399 4:0.4542 5:0.41460001 6:3.1733401 7:8.5430498 8:11.0923 9:12.8809 10:-26.195999 11:-17.153299 12:-24.868 #
-4.8207873979771172544933385936856e-09 1:0.02434 2:0.45974201 3:0.335026 4:0.47639999 5:0.4506 6:3.1837201 7:9.1473598 8:11.3803 9:14.3405 10:-27.399599 11:-21.0902 12:-27.312099 #
1.4462362193931351763480015781057e-08 1:0.021097301 2:0.67324901 3:0.46879601 4:0.48370001 5:0.47530001 6:3.17676 7:8.6523504 8:12.4158 9:14.332 10:-28.0965 11:-18.854799 12:-27.745199 #
4.8207873979771172544933385936856e-09 1:0.0210182 2:0.69478202 3:0.59130001 4:0.4368 5:0.42199999 6:3.1596501 7:7.9612298 8:10.7162 9:12.5463 10:-24.466499 11:-16.565901 12:-24.244301 #
2.4103936989885584618105467862373e-08 1:0.0169845 2:0.76289099 3:0.68848097 4:0.4716 5:0.3748 6:3.1446199 7:7.9057698 8:10.1392 9:12.8238 10:-24.3102 11:-16.777 12:-25.1292 #
2.4103936989885584618105467862373e-08 1:0.0504013 2:0.246305 3:0.199349 4:0.42250001 5:0.4023 6:3.18221 7:8.6704102 8:11.1847 9:13.0093 10:-25.212601 11:-17.511801 12:-25.312401 #
1.4462362193931351763480015781057e-08 1:0.027113199 2:0.36834201 3:0.25248399 4:0.4542 5:0.41460001 6:3.1733401 7:8.5430498 8:11.0923 9:12.8809 10:-26.195999 11:-17.153299 12:-24.868 #
4.8207873979771172544933385936856e-09 1:0.02434 2:0.45974201 3:0.335026 4:0.47639999 5:0.4506 6:3.1837201 7:9.1473598 8:11.3803 9:14.3405 10:-27.399599 11:-21.0902 12:-27.312099 #
-4.8207873979771172544933385936856e-09 1:0.021097301 2:0.67324901 3:0.46879601 4:0.48370001 5:0.47530001 6:3.17676 7:8.6523504 8:12.4158 9:14.332 10:-28.0965 11:-18.854799 12:-27.745199 #
-1.4462362193931351763480015781057e-08 1:0.0210182 2:0.69478202 3:0.59130001 4:0.4368 5:0.42199999 6:3.1596501 7:7.9612298 8:10.7162 9:12.5463 10:-24.466499 11:-16.565901 12:-24.244301 #
-2.4103936989885584618105467862373e-08 1:0.0169845 2:0.76289099 3:0.68848097 4:0.4716 5:0.3748 6:3.1446199 7:7.9057698 8:10.1392 9:12.8238 10:-24.3102 11:-16.777 12:-25.1292 #
-1.4462362193931351763480015781057e-08 1:0.061196402 2:0.23819301 3:0.21864501 4:0.377 5:0.3714 6:3.1415801 7:7.65166 8:11.3656 9:11.4958 10:-23.539101 11:-15.7095 12:-22.9398 #
-2.4103936989885584618105467862373e-08 1:0.031089099 2:0.33053699 3:0.208001 4:0.45950001 5:0.4427 6:3.19045 7:8.9536695 8:11.488 9:13.9112 10:-26.7425 11:-18.635201 12:-26.782 #
-4.8207873979771172544933385936856e-09 1:0.0250897 2:0.44382399 3:0.36068901 4:0.47220001 5:0.45660001 6:3.18467 7:9.80408 8:11.9505 9:13.9006 10:-27.8438 11:-18.805599 12:-26.8281 #
4.8207873979771172544933385936856e-09 1:0.0303845 2:0.684506 3:0.470716 4:0.48199999 5:0.4682 6:3.1788199 7:8.6356697 8:12.2403 9:14.6017 10:-28.276899 11:-18.9839 12:-28.103399 #
1.4462362193931351763480015781057e-08 1:0.0262616 2:0.76339799 3:0.64242798 4:0.40790001 5:0.39289999 6:3.15627 7:7.7997398 8:10.7499 9:12.235 10:-24.688101 11:-16.1374 12:-23.730101 #
2.4103936989885584618105467862373e-08 1:0.021263501 2:0.79717797 3:0.73971099 4:0.47260001 5:0.3784 6:3.14657 7:7.9779 8:10.1607 9:13.1192 10:-24.790001 11:-17.1115 12:-25.198 #
2.4103936989885584618105467862373e-08 1:0.061196402 2:0.23819301 3:0.21864501 4:0.377 5:0.3714 6:3.1415801 7:7.65166 8:11.3656 9:11.4958 10:-23.539101 11:-15.7095 12:-22.9398 #
1.4462362193931351763480015781057e-08 1:0.031089099 2:0.33053699 3:0.208001 4:0.45950001 5:0.4427 6:3.19045 7:8.9536695 8:11.488 9:13.9112 10:-26.7425 11:-18.635201 12:-26.782 #
4.8207873979771172544933385936856e-09 1:0.0250897 2:0.44382399 3:0.36068901 4:0.47220001 5:0.45660001 6:3.18467 7:9.80408 8:11.9505 9:13.9006 10:-27.8438 11:-18.805599 12:-26.8281 #
-4.8207873979771172544933385936856e-09 1:0.0303845 2:0.684506 3:0.470716 4:0.48199999 5:0.4682 6:3.1788199 7:8.6356697 8:12.2403 9:14.6017 10:-28.276899 11:-18.9839 12:-28.103399 #
-1.4462362193931351763480015781057e-08 1:0.0262616 2:0.76339799 3:0.64242798 4:0.40790001 5:0.39289999 6:3.15627 7:7.7997398 8:10.7499 9:12.235 10:-24.688101 11:-16.1374 12:-23.730101 #
-2.4103936989885584618105467862373e-08 1:0.021263501 2:0.79717797 3:0.73971099 4:0.47260001 5:0.3784 6:3.14657 7:7.9779 8:10.1607 9:13.1192 10:-24.790001 11:-17.1115 12:-25.198 #
-2.4103936989885584618105467862373e-08 1:0.064059697 2:0.220349 3:0.22587 4:0.4391 5:0.4341 6:3.17188 7:8.1187696 8:12.2811 9:13.0635 10:-25.9974 11:-17.1432 12:-25.8132 #
-1.4462362193931351763480015781057e-08 1:0.033984698 2:0.32521299 3:0.26847899 4:0.47679999 5:0.47240001 6:3.1871901 7:8.9252005 8:11.9587 9:13.9288 10:-26.9631 11:-18.410299 12:-27.106199 #
-4.8207873979771172544933385936856e-09 1:0.022193801 2:0.43593499 3:0.32876 4:0.47920001 5:0.46039999 6:3.1819401 7:9.9871101 8:11.8316 9:14.0938 10:-27.2764 11:-19.1126 12:-27.1546 #
4.8207873979771172544933385936856e-09 1:0.0225804 2:0.687895 3:0.46621999 4:0.48120001 5:0.46160001 6:3.17818 7:8.6906204 8:11.7849 9:13.759 10:-27.826799 11:-18.175699 12:-26.5315 #
2.4103936989885584618105467862373e-08 1:0.0213608 2:0.75859898 3:0.662117 4:0.4005 5:0.40009999 6:3.15662 7:7.8260198 8:10.6807 9:12.2656 10:-24.489799 11:-16.1828 12:-23.745701 #
1.4462362193931351763480015781057e-08 1:0.0191509 2:0.75079203 3:0.68350399 4:0.47029999 5:0.37650001 6:3.1467099 7:7.9544001 8:10.1412 9:12.9532 10:-24.6572 11:-16.991501 12:-24.644699 #
2.4103936989885584618105467862373e-08 1:0.064059697 2:0.220349 3:0.22587 4:0.4391 5:0.4341 6:3.17188 7:8.1187696 8:12.2811 9:13.0635 10:-25.9974 11:-17.1432 12:-25.8132 #
1.4462362193931351763480015781057e-08 1:0.033984698 2:0.32521299 3:0.26847899 4:0.47679999 5:0.47240001 6:3.1871901 7:8.9252005 8:11.9587 9:13.9288 10:-26.9631 11:-18.410299 12:-27.106199 #
4.8207873979771172544933385936856e-09 1:0.022193801 2:0.43593499 3:0.32876 4:0.47920001 5:0.46039999 6:3.1819401 7:9.9871101 8:11.8316 9:14.0938 10:-27.2764 11:-19.1126 12:-27.1546 #
-4.8207873979771172544933385936856e-09 1:0.0225804 2:0.687895 3:0.46621999 4:0.48120001 5:0.46160001 6:3.17818 7:8.6906204 8:11.7849 9:13.759 10:-27.826799 11:-18.175699 12:-26.5315 #
-1.4462362193931351763480015781057e-08 1:0.0213608 2:0.75859898 3:0.662117 4:0.4005 5:0.40009999 6:3.15662 7:7.8260198 8:10.6807 9:12.2656 10:-24.489799 11:-16.1828 12:-23.745701 #
-2.4103936989885584618105467862373e-08 1:0.0191509 2:0.75079203 3:0.68350399 4:0.47029999 5:0.37650001 6:3.1467099 7:7.9544001 8:10.1412 9:12.9532 10:-24.6572 11:-16.991501 12:-24.644699 #
-1.4462362193931351763480015781057e-08 1:0.060696501 2:0.23733699 3:0.21063399 4:0.4436 5:0.43399999 6:3.1916499 7:8.7008305 8:11.3724 9:13.4897 10:-26.748899 11:-17.8403 12:-25.9256 #
-2.4103936989885584618105467862373e-08 1:0.029510301 2:0.43004 3:0.21494401 4:0.4637 5:0.46329999 6:3.1902599 7:9.5348196 8:12.0196 9:13.1847 10:-25.9632 11:-18.8305 12:-25.9144 #
-4.8207873979771172544933385936856e-09 1:0.030223601 2:0.64024103 3:0.197998 4:0.46759999 5:0.4228 6:3.1792901 7:8.4372101 8:11.2549 9:12.4028 10:-24.2453 11:-16.7852 12:-24.8374 #
4.8207873979771172544933385936856e-09 1:0.021531699 2:0.681297 3:0.46094501 4:0.4788 5:0.4702 6:3.17752 7:8.9653196 8:13.9338 9:15.1707 10:-29.8519 11:-19.736799 12:-29.897301 #
1.4462362193931351763480015781057e-08 1:0.018201901 2:0.74699199 3:0.60403299 4:0.4102 5:0.39579999 6:3.1612899 7:8.0304403 8:10.537 9:12.5304 10:-24.2108 11:-16.6339 12:-24.218399 #
2.4103936989885584618105467862373e-08 1:0.018303899 2:0.75614899 3:0.68526602 4:0.4756 5:0.373 6:3.1438999 7:7.8893299 8:10.0985 9:12.8741 10:-24.378 11:-16.828501 12:-24.915501 #
2.4103936989885584618105467862373e-08 1:0.060696501 2:0.23733699 3:0.21063399 4:0.4436 5:0.43399999 6:3.1916499 7:8.7008305 8:11.3724 9:13.4897 10:-26.748899 11:-17.8403 12:-25.9256 #
1.4462362193931351763480015781057e-08 1:0.029510301 2:0.43004 3:0.21494401 4:0.4637 5:0.46329999 6:3.1902599 7:9.5348196 8:12.0196 9:13.1847 10:-25.9632 11:-18.8305 12:-25.9144 #
4.8207873979771172544933385936856e-09 1:0.030223601 2:0.64024103 3:0.197998 4:0.46759999 5:0.4228 6:3.1792901 7:8.4372101 8:11.2549 9:12.4028 10:-24.2453 11:-16.7852 12:-24.8374 #
-4.8207873979771172544933385936856e-09 1:0.021531699 2:0.681297 3:0.46094501 4:0.4788 5:0.4702 6:3.17752 7:8.9653196 8:13.9338 9:15.1707 10:-29.8519 11:-19.736799 12:-29.897301 #
-1.4462362193931351763480015781057e-08 1:0.018201901 2:0.74699199 3:0.60403299 4:0.4102 5:0.39579999 6:3.1612899 7:8.0304403 8:10.537 9:12.5304 10:-24.2108 11:-16.6339 12:-24.218399 #
-2.4103936989885584618105467862373e-08 1:0.018303899 2:0.75614899 3:0.68526602 4:0.4756 5:0.373 6:3.1438999 7:7.8893299 8:10.0985 9:12.8741 10:-24.378 11:-16.828501 12:-24.915501 #
-1.4462362193931351763480015781057e-08 1:0.032359801 2:0.26468399 3:0.24982201 4:0.45210001 5:0.43130001 6:3.1839001 7:8.1909399 8:11.2841 9:16.4296 10:-30.329399 11:-20.928301 12:-30.659401 #
-2.4103936989885584618105467862373e-08 1:0.022689501 2:0.42839399 3:0.24676301 4:0.46489999 5:0.4637 6:3.1877201 7:8.9630203 8:11.8607 9:13.7532 10:-26.560699 11:-18.279499 12:-27.8295 #
-4.8207873979771172544933385936856e-09 1:0.020496599 2:0.66839802 3:0.21857201 4:0.4497 5:0.43869999 6:3.1837101 7:8.5783901 8:11.3063 9:13.0673 10:-25.255699 11:-17.3566 12:-26.3325 #
4.8207873979771172544933385936856e-09 1:0.023891401 2:0.67887998 3:0.47402701 4:0.4716 5:0.47040001 6:3.1765001 7:8.6142702 8:12.1879 9:13.4719 10:-27.8755 11:-17.916599 12:-26.301901 #
1.4462362193931351763480015781057e-08 1:0.019849701 2:0.70895302 3:0.60560399 4:0.4364 5:0.42039999 6:3.1596301 7:7.8829002 8:10.7924 9:12.6551 10:-24.776899 11:-16.6201 12:-24.4168 #
2.4103936989885584618105467862373e-08 1:0.019849701 2:0.74891597 3:0.69090903 4:0.47549999 5:0.3761 6:3.1448801 7:7.8980999 8:10.1422 9:12.9654 10:-24.633301 11:-16.9606 12:-24.7136 #
2.4103936989885584618105467862373e-08 1:0.032359801 2:0.26468399 3:0.24982201 4:0.45210001 5:0.43130001 6:3.1839001 7:8.1909399 8:11.2841 9:16.4296 10:-30.329399 11:-20.928301 12:-30.659401 #
1.4462362193931351763480015781057e-08 1:0.022689501 2:0.42839399 3:0.24676301 4:0.46489999 5:0.4637 6:3.1877201 7:8.9630203 8:11.8607 9:13.7532 10:-26.560699 11:-18.279499 12:-27.8295 #
4.8207873979771172544933385936856e-09 1:0.020496599 2:0.66839802 3:0.21857201 4:0.4497 5:0.43869999 6:3.1837101 7:8.5783901 8:11.3063 9:13.0673 10:-25.255699 11:-17.3566 12:-26.3325 #
-4.8207873979771172544933385936856e-09 1:0.023891401 2:0.67887998 3:0.47402701 4:0.4716 5:0.47040001 6:3.1765001 7:8.6142702 8:12.1879 9:13.4719 10:-27.8755 11:-17.916599 12:-26.301901 #
-1.4462362193931351763480015781057e-08 1:0.019849701 2:0.70895302 3:0.60560399 4:0.4364 5:0.42039999 6:3.1596301 7:7.8829002 8:10.7924 9:12.6551 10:-24.776899 11:-16.6201 12:-24.4168 #
-2.4103936989885584618105467862373e-08 1:0.019849701 2:0.74891597 3:0.69090903 4:0.47549999 5:0.3761 6:3.1448801 7:7.8980999 8:10.1422 9:12.9654 10:-24.633301 11:-16.9606 12:-24.7136 #
-2.4103936989885584618105467862373e-08 1:0.0384642 2:0.215189 3:0.21676201 4:0.45680001 5:0.44159999 6:3.18308 7:8.5162096 8:11.8054 9:12.9188 10:-25.3314 11:-18.1359 12:-25.621799 #
-1.4462362193931351763480015781057e-08 1:0.0268114 2:0.46722001 3:0.232401 4:0.46610001 5:0.46349999 6:3.1863401 7:9.8326302 8:12.8178 9:13.4492 10:-27.4217 11:-19.876301 12:-26.5874 #
-4.8207873979771172544933385936856e-09 1:0.0329316 2:0.67959797 3:0.227264 4:0.44069999 5:0.42250001 6:3.1748099 7:8.5063601 8:11.1937 9:12.364 10:-24.175301 11:-16.886299 12:-24.5714 #
4.8207873979771172544933385936856e-09 1:0.0173003 2:0.67840803 3:0.47546899 4:0.47749999 5:0.4747 6:3.17854 7:8.5448399 8:13.5684 9:14.1291 10:-28.1579 11:-18.6113 12:-28.1024 #
2.4103936989885584618105467862373e-08 1:0.0161289 2:0.76822501 3:0.64524603 4:0.39669999 5:0.39629999 6:3.1566899 7:7.8534598 8:10.5605 9:12.2997 10:-24.3615 11:-16.255501 12:-23.741899 #
1.4462362193931351763480015781057e-08 1:0.0151435 2:0.749493 3:0.68471998 4:0.46740001 5:0.3752 6:3.1444099 7:7.8673701 8:10.1159 9:12.9337 10:-24.6108 11:-16.9345 12:-24.6071 #
2.4103936989885584618105467862373e-08 1:0.0384642 2:0.215189 3:0.21676201 4:0.45680001 5:0.44159999 6:3.18308 7:8.5162096 8:11.8054 9:12.9188 10:-25.3314 11:-18.1359 12:-25.621799 #
1.4462362193931351763480015781057e-08 1:0.0268114 2:0.46722001 3:0.232401 4:0.46610001 5:0.46349999 6:3.1863401 7:9.8326302 8:12.8178 9:13.4492 10:-27.4217 11:-19.876301 12:-26.5874 #
4.8207873979771172544933385936856e-09 1:0.0329316 2:0.67959797 3:0.227264 4:0.44069999 5:0.42250001 6:3.1748099 7:8.5063601 8:11.1937 9:12.364 10:-24.175301 11:-16.886299 12:-24.5714 #
-4.8207873979771172544933385936856e-09 1:0.0173003 2:0.67840803 3:0.47546899 4:0.47749999 5:0.4747 6:3.17854 7:8.5448399 8:13.5684 9:14.1291 10:-28.1579 11:-18.6113 12:-28.1024 #
-1.4462362193931351763480015781057e-08 1:0.0161289 2:0.76822501 3:0.64524603 4:0.39669999 5:0.39629999 6:3.1566899 7:7.8534598 8:10.5605 9:12.2997 10:-24.3615 11:-16.255501 12:-23.741899 #
-2.4103936989885584618105467862373e-08 1:0.0151435 2:0.749493 3:0.68471998 4:0.46740001 5:0.3752 6:3.1444099 7:7.8673701 8:10.1159 9:12.9337 10:-24.6108 11:-16.9345 12:-24.6071 #
-1.6341306368298533322359206154673e-06 1:0.0504013 2:0.246305 3:0.199349 4:0.42250001 5:0.4023 6:3.18221 7:8.6704102 8:11.1847 9:13.0093 10:-25.212601 11:-17.511801 12:-25.312401 #
-9.8047838209791204169319973199537e-07 1:0.027113199 2:0.36834201 3:0.25248399 4:0.4542 5:0.41460001 6:3.1733401 7:8.5430498 8:11.0923 9:12.8809 10:-26.195999 11:-17.153299 12:-24.868 #
-3.2682612736597064527136044173594e-07 1:0.02434 2:0.45974201 3:0.335026 4:0.47639999 5:0.4506 6:3.1837201 7:9.1473598 8:11.3803 9:14.3405 10:-27.399599 11:-21.0902 12:-27.312099 #
9.8047838209791204169319973199537e-07 1:0.021097301 2:0.67324901 3:0.46879601 4:0.48370001 5:0.47530001 6:3.17676 7:8.6523504 8:12.4158 9:14.332 10:-28.0965 11:-18.854799 12:-27.745199 #
3.2682612736597064527136044173594e-07 1:0.0210182 2:0.69478202 3:0.59130001 4:0.4368 5:0.42199999 6:3.1596501 7:7.9612298 8:10.7162 9:12.5463 10:-24.466499 11:-16.565901 12:-24.244301 #
1.6341306368298533322359206154673e-06 1:0.0169845 2:0.76289099 3:0.68848097 4:0.4716 5:0.3748 6:3.1446199 7:7.9057698 8:10.1392 9:12.8238 10:-24.3102 11:-16.777 12:-25.1292 #
1.6341306368298533322359206154673e-06 1:0.0504013 2:0.246305 3:0.199349 4:0.42250001 5:0.4023 6:3.18221 7:8.6704102 8:11.1847 9:13.0093 10:-25.212601 11:-17.511801 12:-25.312401 #
9.8047838209791204169319973199537e-07 1:0.027113199 2:0.36834201 3:0.25248399 4:0.4542 5:0.41460001 6:3.1733401 7:8.5430498 8:11.0923 9:12.8809 10:-26.195999 11:-17.153299 12:-24.868 #
3.2682612736597064527136044173594e-07 1:0.02434 2:0.45974201 3:0.335026 4:0.47639999 5:0.4506 6:3.1837201 7:9.1473598 8:11.3803 9:14.3405 10:-27.399599 11:-21.0902 12:-27.312099 #
-3.2682612736597064527136044173594e-07 1:0.021097301 2:0.67324901 3:0.46879601 4:0.48370001 5:0.47530001 6:3.17676 7:8.6523504 8:12.4158 9:14.332 10:-28.0965 11:-18.854799 12:-27.745199 #
-9.8047838209791204169319973199537e-07 1:0.0210182 2:0.69478202 3:0.59130001 4:0.4368 5:0.42199999 6:3.1596501 7:7.9612298 8:10.7162 9:12.5463 10:-24.466499 11:-16.565901 12:-24.244301 #
-1.6341306368298533322359206154673e-06 1:0.0169845 2:0.76289099 3:0.68848097 4:0.4716 5:0.3748 6:3.1446199 7:7.9057698 8:10.1392 9:12.8238 10:-24.3102 11:-16.777 12:-25.1292 #
-1.6341306368298533322359206154673e-06 1:0.061196402 2:0.23819301 3:0.21864501 4:0.377 5:0.3714 6:3.1415801 7:7.65166 8:11.3656 9:11.4958 10:-23.539101 11:-15.7095 12:-22.9398 #
-9.8047838209791204169319973199537e-07 1:0.031089099 2:0.33053699 3:0.208001 4:0.45950001 5:0.4427 6:3.19045 7:8.9536695 8:11.488 9:13.9112 10:-26.7425 11:-18.635201 12:-26.782 #
-3.2682612736597064527136044173594e-07 1:0.0250897 2:0.44382399 3:0.36068901 4:0.47220001 5:0.45660001 6:3.18467 7:9.80408 8:11.9505 9:13.9006 10:-27.8438 11:-18.805599 12:-26.8281 #
9.8047838209791204169319973199537e-07 1:0.0303845 2:0.684506 3:0.470716 4:0.48199999 5:0.4682 6:3.1788199 7:8.6356697 8:12.2403 9:14.6017 10:-28.276899 11:-18.9839 12:-28.103399 #
3.2682612736597064527136044173594e-07 1:0.0262616 2:0.76339799 3:0.64242798 4:0.40790001 5:0.39289999 6:3.15627 7:7.7997398 8:10.7499 9:12.235 10:-24.688101 11:-16.1374 12:-23.730101 #
1.6341306368298533322359206154673e-06 1:0.021263501 2:0.79717797 3:0.73971099 4:0.47260001 5:0.3784 6:3.14657 7:7.9779 8:10.1607 9:13.1192 10:-24.790001 11:-17.1115 12:-25.198 #
1.6341306368298533322359206154673e-06 1:0.061196402 2:0.23819301 3:0.21864501 4:0.377 5:0.3714 6:3.1415801 7:7.65166 8:11.3656 9:11.4958 10:-23.539101 11:-15.7095 12:-22.9398 #
9.8047838209791204169319973199537e-07 1:0.031089099 2:0.33053699 3:0.208001 4:0.45950001 5:0.4427 6:3.19045 7:8.9536695 8:11.488 9:13.9112 10:-26.7425 11:-18.635201 12:-26.782 #
3.2682612736597064527136044173594e-07 1:0.0250897 2:0.44382399 3:0.36068901 4:0.47220001 5:0.45660001 6:3.18467 7:9.80408 8:11.9505 9:13.9006 10:-27.8438 11:-18.805599 12:-26.8281 #
-3.2682612736597064527136044173594e-07 1:0.0303845 2:0.684506 3:0.470716 4:0.48199999 5:0.4682 6:3.1788199 7:8.6356697 8:12.2403 9:14.6017 10:-28.276899 11:-18.9839 12:-28.103399 #
-9.8047838209791204169319973199537e-07 1:0.0262616 2:0.76339799 3:0.64242798 4:0.40790001 5:0.39289999 6:3.15627 7:7.7997398 8:10.7499 9:12.235 10:-24.688101 11:-16.1374 12:-23.730101 #
-1.6341306368298533322359206154673e-06 1:0.021263501 2:0.79717797 3:0.73971099 4:0.47260001 5:0.3784 6:3.14657 7:7.9779 8:10.1607 9:13.1192 10:-24.790001 11:-17.1115 12:-25.198 #
-1.6341306368298533322359206154673e-06 1:0.064059697 2:0.220349 3:0.22587 4:0.4391 5:0.4341 6:3.17188 7:8.1187696 8:12.2811 9:13.0635 10:-25.9974 11:-17.1432 12:-25.8132 #
-9.8047838209791204169319973199537e-07 1:0.033984698 2:0.32521299 3:0.26847899 4:0.47679999 5:0.47240001 6:3.1871901 7:8.9252005 8:11.9587 9:13.9288 10:-26.9631 11:-18.410299 12:-27.106199 #
-3.2682612736597064527136044173594e-07 1:0.022193801 2:0.43593499 3:0.32876 4:0.47920001 5:0.46039999 6:3.1819401 7:9.9871101 8:11.8316 9:14.0938 10:-27.2764 11:-19.1126 12:-27.1546 #
3.2682612736597064527136044173594e-07 1:0.0225804 2:0.687895 3:0.46621999 4:0.48120001 5:0.46160001 6:3.17818 7:8.6906204 8:11.7849 9:13.759 10:-27.826799 11:-18.175699 12:-26.5315 #
9.8047838209791204169319973199537e-07 1:0.0213608 2:0.75859898 3:0.662117 4:0.4005 5:0.40009999 6:3.15662 7:7.8260198 8:10.6807 9:12.2656 10:-24.489799 11:-16.1828 12:-23.745701 #
1.6341306368298533322359206154673e-06 1:0.0191509 2:0.75079203 3:0.68350399 4:0.47029999 5:0.37650001 6:3.1467099 7:7.9544001 8:10.1412 9:12.9532 10:-24.6572 11:-16.991501 12:-24.644699 #
1.6341306368298533322359206154673e-06 1:0.064059697 2:0.220349 3:0.22587 4:0.4391 5:0.4341 6:3.17188 7:8.1187696 8:12.2811 9:13.0635 10:-25.9974 11:-17.1432 12:-25.8132 #
9.8047838209791204169319973199537e-07 1:0.033984698 2:0.32521299 3:0.26847899 4:0.47679999 5:0.47240001 6:3.1871901 7:8.9252005 8:11.9587 9:13.9288 10:-26.9631 11:-18.410299 12:-27.106199 #
3.2682612736597064527136044173594e-07 1:0.022193801 2:0.43593499 3:0.32876 4:0.47920001 5:0.46039999 6:3.1819401 7:9.9871101 8:11.8316 9:14.0938 10:-27.2764 11:-19.1126 12:-27.1546 #
-3.2682612736597064527136044173594e-07 1:0.0225804 2:0.687895 3:0.46621999 4:0.48120001 5:0.46160001 6:3.17818 7:8.6906204 8:11.7849 9:13.759 10:-27.826799 11:-18.175699 12:-26.5315 #
-9.8047838209791204169319973199537e-07 1:0.0213608 2:0.75859898 3:0.662117 4:0.4005 5:0.40009999 6:3.15662 7:7.8260198 8:10.6807 9:12.2656 10:-24.489799 11:-16.1828 12:-23.745701 #
-1.6341306368298533322359206154673e-06 1:0.0191509 2:0.75079203 3:0.68350399 4:0.47029999 5:0.37650001 6:3.1467099 7:7.9544001 8:10.1412 9:12.9532 10:-24.6572 11:-16.991501 12:-24.644699 #
-9.8047838209791204169319973199537e-07 1:0.060696501 2:0.23733699 3:0.21063399 4:0.4436 5:0.43399999 6:3.1916499 7:8.7008305 8:11.3724 9:13.4897 10:-26.748899 11:-17.8403 12:-25.9256 #
-1.6341306368298533322359206154673e-06 1:0.029510301 2:0.43004 3:0.21494401 4:0.4637 5:0.46329999 6:3.1902599 7:9.5348196 8:12.0196 9:13.1847 10:-25.9632 11:-18.8305 12:-25.9144 #
-3.2682612736597064527136044173594e-07 1:0.030223601 2:0.64024103 3:0.197998 4:0.46759999 5:0.4228 6:3.1792901 7:8.4372101 8:11.2549 9:12.4028 10:-24.2453 11:-16.7852 12:-24.8374 #
3.2682612736597064527136044173594e-07 1:0.021531699 2:0.681297 3:0.46094501 4:0.4788 5:0.4702 6:3.17752 7:8.9653196 8:13.9338 9:15.1707 10:-29.8519 11:-19.736799 12:-29.897301 #
9.8047838209791204169319973199537e-07 1:0.018201901 2:0.74699199 3:0.60403299 4:0.4102 5:0.39579999 6:3.1612899 7:8.0304403 8:10.537 9:12.5304 10:-24.2108 11:-16.6339 12:-24.218399 #
1.6341306368298533322359206154673e-06 1:0.018303899 2:0.75614899 3:0.68526602 4:0.4756 5:0.373 6:3.1438999 7:7.8893299 8:10.0985 9:12.8741 10:-24.378 11:-16.828501 12:-24.915501 #
1.6341306368298533322359206154673e-06 1:0.060696501 2:0.23733699 3:0.21063399 4:0.4436 5:0.43399999 6:3.1916499 7:8.7008305 8:11.3724 9:13.4897 10:-26.748899 11:-17.8403 12:-25.9256 #
9.8047838209791204169319973199537e-07 1:0.029510301 2:0.43004 3:0.21494401 4:0.4637 5:0.46329999 6:3.1902599 7:9.5348196 8:12.0196 9:13.1847 10:-25.9632 11:-18.8305 12:-25.9144 #
3.2682612736597064527136044173594e-07 1:0.030223601 2:0.64024103 3:0.197998 4:0.46759999 5:0.4228 6:3.1792901 7:8.4372101 8:11.2549 9:12.4028 10:-24.2453 11:-16.7852 12:-24.8374 #
-3.2682612736597064527136044173594e-07 1:0.021531699 2:0.681297 3:0.46094501 4:0.4788 5:0.4702 6:3.17752 7:8.9653196 8:13.9338 9:15.1707 10:-29.8519 11:-19.736799 12:-29.897301 #
-9.8047838209791204169319973199537e-07 1:0.018201901 2:0.74699199 3:0.60403299 4:0.4102 5:0.39579999 6:3.1612899 7:8.0304403 8:10.537 9:12.5304 10:-24.2108 11:-16.6339 12:-24.218399 #
-1.6341306368298533322359206154673e-06 1:0.018303899 2:0.75614899 3:0.68526602 4:0.4756 5:0.373 6:3.1438999 7:7.8893299 8:10.0985 9:12.8741 10:-24.378 11:-16.828501 12:-24.915501 #
-1.6341306368298533322359206154673e-06 1:0.032359801 2:0.26468399 3:0.24982201 4:0.45210001 5:0.43130001 6:3.1839001 7:8.1909399 8:11.2841 9:16.4296 10:-30.329399 11:-20.928301 12:-30.659401 #
-9.8047838209791204169319973199537e-07 1:0.022689501 2:0.42839399 3:0.24676301 4:0.46489999 5:0.4637 6:3.1877201 7:8.9630203 8:11.8607 9:13.7532 10:-26.560699 11:-18.279499 12:-27.8295 #
-3.2682612736597064527136044173594e-07 1:0.020496599 2:0.66839802 3:0.21857201 4:0.4497 5:0.43869999 6:3.1837101 7:8.5783901 8:11.3063 9:13.0673 10:-25.255699 11:-17.3566 12:-26.3325 #
3.2682612736597064527136044173594e-07 1:0.023891401 2:0.67887998 3:0.47402701 4:0.4716 5:0.47040001 6:3.1765001 7:8.6142702 8:12.1879 9:13.4719 10:-27.8755 11:-17.916599 12:-26.301901 #
9.8047838209791204169319973199537e-07 1:0.019849701 2:0.70895302 3:0.60560399 4:0.4364 5:0.42039999 6:3.1596301 7:7.8829002 8:10.7924 9:12.6551 10:-24.776899 11:-16.6201 12:-24.4168 #
1.6341306368298533322359206154673e-06 1:0.019849701 2:0.74891597 3:0.69090903 4:0.47549999 5:0.3761 6:3.1448801 7:7.8980999 8:10.1422 9:12.9654 10:-24.633301 11:-16.9606 12:-24.7136 #
1.6341306368298533322359206154673e-06 1:0.032359801 2:0.26468399 3:0.24982201 4:0.45210001 5:0.43130001 6:3.1839001 7:8.1909399 8:11.2841 9:16.4296 10:-30.329399 11:-20.928301 12:-30.659401 #
9.8047838209791204169319973199537e-07 1:0.022689501 2:0.42839399 3:0.24676301 4:0.46489999 5:0.4637 6:3.1877201 7:8.9630203 8:11.8607 9:13.7532 10:-26.560699 11:-18.279499 12:-27.8295 #
3.2682612736597064527136044173594e-07 1:0.020496599 2:0.66839802 3:0.21857201 4:0.4497 5:0.43869999 6:3.1837101 7:8.5783901 8:11.3063 9:13.0673 10:-25.255699 11:-17.3566 12:-26.3325 #
-3.2682612736597064527136044173594e-07 1:0.023891401 2:0.67887998 3:0.47402701 4:0.4716 5:0.47040001 6:3.1765001 7:8.6142702 8:12.1879 9:13.4719 10:-27.8755 11:-17.916599 12:-26.301901 #
-9.8047838209791204169319973199537e-07 1:0.019849701 2:0.70895302 3:0.60560399 4:0.4364 5:0.42039999 6:3.1596301 7:7.8829002 8:10.7924 9:12.6551 10:-24.776899 11:-16.6201 12:-24.4168 #
-1.6341306368298533322359206154673e-06 1:0.019849701 2:0.74891597 3:0.69090903 4:0.47549999 5:0.3761 6:3.1448801 7:7.8980999 8:10.1422 9:12.9654 10:-24.633301 11:-16.9606 12:-24.7136 #
-1.6341306368298533322359206154673e-06 1:0.0384642 2:0.215189 3:0.21676201 4:0.45680001 5:0.44159999 6:3.18308 7:8.5162096 8:11.8054 9:12.9188 10:-25.3314 11:-18.1359 12:-25.621799 #
-9.8047838209791204169319973199537e-07 1:0.0268114 2:0.46722001 3:0.232401 4:0.46610001 5:0.46349999 6:3.1863401 7:9.8326302 8:12.8178 9:13.4492 10:-27.4217 11:-19.876301 12:-26.5874 #
3.2682612736597064527136044173594e-07 1:0.0329316 2:0.67959797 3:0.227264 4:0.44069999 5:0.42250001 6:3.1748099 7:8.5063601 8:11.1937 9:12.364 10:-24.175301 11:-16.886299 12:-24.5714 #
-3.2682612736597064527136044173594e-07 1:0.0173003 2:0.67840803 3:0.47546899 4:0.47749999 5:0.4747 6:3.17854 7:8.5448399 8:13.5684 9:14.1291 10:-28.1579 11:-18.6113 12:-28.1024 #
1.6341306368298533322359206154673e-06 1:0.0161289 2:0.76822501 3:0.64524603 4:0.39669999 5:0.39629999 6:3.1566899 7:7.8534598 8:10.5605 9:12.2997 10:-24.3615 11:-16.255501 12:-23.741899 #
9.8047838209791204169319973199537e-07 1:0.0151435 2:0.749493 3:0.68471998 4:0.46740001 5:0.3752 6:3.1444099 7:7.8673701 8:10.1159 9:12.9337 10:-24.6108 11:-16.9345 12:-24.6071 #
1.6341306368298533322359206154673e-06 1:0.0384642 2:0.215189 3:0.21676201 4:0.45680001 5:0.44159999 6:3.18308 7:8.5162096 8:11.8054 9:12.9188 10:-25.3314 11:-18.1359 12:-25.621799 #
9.8047838209791204169319973199537e-07 1:0.0268114 2:0.46722001 3:0.232401 4:0.46610001 5:0.46349999 6:3.1863401 7:9.8326302 8:12.8178 9:13.4492 10:-27.4217 11:-19.876301 12:-26.5874 #
3.2682612736597064527136044173594e-07 1:0.0329316 2:0.67959797 3:0.227264 4:0.44069999 5:0.42250001 6:3.1748099 7:8.5063601 8:11.1937 9:12.364 10:-24.175301 11:-16.886299 12:-24.5714 #
-3.2682612736597064527136044173594e-07 1:0.0173003 2:0.67840803 3:0.47546899 4:0.47749999 5:0.4747 6:3.17854 7:8.5448399 8:13.5684 9:14.1291 10:-28.1579 11:-18.6113 12:-28.1024 #
-9.8047838209791204169319973199537e-07 1:0.0161289 2:0.76822501 3:0.64524603 4:0.39669999 5:0.39629999 6:3.1566899 7:7.8534598 8:10.5605 9:12.2997 10:-24.3615 11:-16.255501 12:-23.741899 #
-1.6341306368298533322359206154673e-06 1:0.0151435 2:0.749493 3:0.68471998 4:0.46740001 5:0.3752 6:3.1444099 7:7.8673701 8:10.1159 9:12.9337 10:-24.6108 11:-16.9345 12:-24.6071 #
-3.8219532914503212233159660203563e-07 1:0.0504013 2:0.246305 3:0.199349 4:0.42250001 5:0.4023 6:3.18221 7:8.6704102 8:11.1847 9:13.0093 10:-25.212601 11:-17.511801 12:-25.312401 #
-2.2931719748701928928082572223951e-07 1:0.027113199 2:0.36834201 3:0.25248399 4:0.4542 5:0.41460001 6:3.1733401 7:8.5430498 8:11.0923 9:12.8809 10:-26.195999 11:-17.153299 12:-24.868 #
-7.6439065829006429760275240746503e-08 1:0.02434 2:0.45974201 3:0.335026 4:0.47639999 5:0.4506 6:3.1837201 7:9.1473598 8:11.3803 9:14.3405 10:-27.399599 11:-21.0902 12:-27.312099 #
2.2931719748701928928082572223951e-07 1:0.021097301 2:0.67324901 3:0.46879601 4:0.48370001 5:0.47530001 6:3.17676 7:8.6523504 8:12.4158 9:14.332 10:-28.0965 11:-18.854799 12:-27.745199 #
7.6439065829006429760275240746503e-08 1:0.0210182 2:0.69478202 3:0.59130001 4:0.4368 5:0.42199999 6:3.1596501 7:7.9612298 8:10.7162 9:12.5463 10:-24.466499 11:-16.565901 12:-24.244301 #
3.8219532914503212233159660203563e-07 1:0.0169845 2:0.76289099 3:0.68848097 4:0.4716 5:0.3748 6:3.1446199 7:7.9057698 8:10.1392 9:12.8238 10:-24.3102 11:-16.777 12:-25.1292 #
3.8219532914503212233159660203563e-07 1:0.0504013 2:0.246305 3:0.199349 4:0.42250001 5:0.4023 6:3.18221 7:8.6704102 8:11.1847 9:13.0093 10:-25.212601 11:-17.511801 12:-25.312401 #
2.2931719748701928928082572223951e-07 1:0.027113199 2:0.36834201 3:0.25248399 4:0.4542 5:0.41460001 6:3.1733401 7:8.5430498 8:11.0923 9:12.8809 10:-26.195999 11:-17.153299 12:-24.868 #
7.6439065829006429760275240746503e-08 1:0.02434 2:0.45974201 3:0.335026 4:0.47639999 5:0.4506 6:3.1837201 7:9.1473598 8:11.3803 9:14.3405 10:-27.399599 11:-21.0902 12:-27.312099 #
-7.6439065829006429760275240746503e-08 1:0.021097301 2:0.67324901 3:0.46879601 4:0.48370001 5:0.47530001 6:3.17676 7:8.6523504 8:12.4158 9:14.332 10:-28.0965 11:-18.854799 12:-27.745199 #
-2.2931719748701928928082572223951e-07 1:0.0210182 2:0.69478202 3:0.59130001 4:0.4368 5:0.42199999 6:3.1596501 7:7.9612298 8:10.7162 9:12.5463 10:-24.466499 11:-16.565901 12:-24.244301 #
-3.8219532914503212233159660203563e-07 1:0.0169845 2:0.76289099 3:0.68848097 4:0.4716 5:0.3748 6:3.1446199 7:7.9057698 8:10.1392 9:12.8238 10:-24.3102 11:-16.777 12:-25.1292 #
-2.2931719748701928928082572223951e-07 1:0.061196402 2:0.23819301 3:0.21864501 4:0.377 5:0.3714 6:3.1415801 7:7.65166 8:11.3656 9:11.4958 10:-23.539101 11:-15.7095 12:-22.9398 #
-3.8219532914503212233159660203563e-07 1:0.031089099 2:0.33053699 3:0.208001 4:0.45950001 5:0.4427 6:3.19045 7:8.9536695 8:11.488 9:13.9112 10:-26.7425 11:-18.635201 12:-26.782 #
-7.6439065829006429760275240746503e-08 1:0.0250897 2:0.44382399 3:0.36068901 4:0.47220001 5:0.45660001 6:3.18467 7:9.80408 8:11.9505 9:13.9006 10:-27.8438 11:-18.805599 12:-26.8281 #
7.6439065829006429760275240746503e-08 1:0.0303845 2:0.684506 3:0.470716 4:0.48199999 5:0.4682 6:3.1788199 7:8.6356697 8:12.2403 9:14.6017 10:-28.276899 11:-18.9839 12:-28.103399 #
2.2931719748701928928082572223951e-07 1:0.0262616 2:0.76339799 3:0.64242798 4:0.40790001 5:0.39289999 6:3.15627 7:7.7997398 8:10.7499 9:12.235 10:-24.688101 11:-16.1374 12:-23.730101 #
3.8219532914503212233159660203563e-07 1:0.021263501 2:0.79717797 3:0.73971099 4:0.47260001 5:0.3784 6:3.14657 7:7.9779 8:10.1607 9:13.1192 10:-24.790001 11:-17.1115 12:-25.198 #
3.8219532914503212233159660203563e-07 1:0.061196402 2:0.23819301 3:0.21864501 4:0.377 5:0.3714 6:3.1415801 7:7.65166 8:11.3656 9:11.4958 10:-23.539101 11:-15.7095 12:-22.9398 #
2.2931719748701928928082572223951e-07 1:0.031089099 2:0.33053699 3:0.208001 4:0.45950001 5:0.4427 6:3.19045 7:8.9536695 8:11.488 9:13.9112 10:-26.7425 11:-18.635201 12:-26.782 #
7.6439065829006429760275240746503e-08 1:0.0250897 2:0.44382399 3:0.36068901 4:0.47220001 5:0.45660001 6:3.18467 7:9.80408 8:11.9505 9:13.9006 10:-27.8438 11:-18.805599 12:-26.8281 #
-7.6439065829006429760275240746503e-08 1:0.0303845 2:0.684506 3:0.470716 4:0.48199999 5:0.4682 6:3.1788199 7:8.6356697 8:12.2403 9:14.6017 10:-28.276899 11:-18.9839 12:-28.103399 #
-2.2931719748701928928082572223951e-07 1:0.0262616 2:0.76339799 3:0.64242798 4:0.40790001 5:0.39289999 6:3.15627 7:7.7997398 8:10.7499 9:12.235 10:-24.688101 11:-16.1374 12:-23.730101 #
-3.8219532914503212233159660203563e-07 1:0.021263501 2:0.79717797 3:0.73971099 4:0.47260001 5:0.3784 6:3.14657 7:7.9779 8:10.1607 9:13.1192 10:-24.790001 11:-17.1115 12:-25.198 #
-3.8219532914503212233159660203563e-07 1:0.064059697 2:0.220349 3:0.22587 4:0.4391 5:0.4341 6:3.17188 7:8.1187696 8:12.2811 9:13.0635 10:-25.9974 11:-17.1432 12:-25.8132 #
-2.2931719748701928928082572223951e-07 1:0.033984698 2:0.32521299 3:0.26847899 4:0.47679999 5:0.47240001 6:3.1871901 7:8.9252005 8:11.9587 9:13.9288 10:-26.9631 11:-18.410299 12:-27.106199 #
-7.6439065829006429760275240746503e-08 1:0.022193801 2:0.43593499 3:0.32876 4:0.47920001 5:0.46039999 6:3.1819401 7:9.9871101 8:11.8316 9:14.0938 10:-27.2764 11:-19.1126 12:-27.1546 #
7.6439065829006429760275240746503e-08 1:0.0225804 2:0.687895 3:0.46621999 4:0.48120001 5:0.46160001 6:3.17818 7:8.6906204 8:11.7849 9:13.759 10:-27.826799 11:-18.175699 12:-26.5315 #
3.8219532914503212233159660203563e-07 1:0.0213608 2:0.75859898 3:0.662117 4:0.4005 5:0.40009999 6:3.15662 7:7.8260198 8:10.6807 9:12.2656 10:-24.489799 11:-16.1828 12:-23.745701 #
2.2931719748701928928082572223951e-07 1:0.0191509 2:0.75079203 3:0.68350399 4:0.47029999 5:0.37650001 6:3.1467099 7:7.9544001 8:10.1412 9:12.9532 10:-24.6572 11:-16.991501 12:-24.644699 #
3.8219532914503212233159660203563e-07 1:0.064059697 2:0.220349 3:0.22587 4:0.4391 5:0.4341 6:3.17188 7:8.1187696 8:12.2811 9:13.0635 10:-25.9974 11:-17.1432 12:-25.8132 #
2.2931719748701928928082572223951e-07 1:0.033984698 2:0.32521299 3:0.26847899 4:0.47679999 5:0.47240001 6:3.1871901 7:8.9252005 8:11.9587 9:13.9288 10:-26.9631 11:-18.410299 12:-27.106199 #
7.6439065829006429760275240746503e-08 1:0.022193801 2:0.43593499 3:0.32876 4:0.47920001 5:0.46039999 6:3.1819401 7:9.9871101 8:11.8316 9:14.0938 10:-27.2764 11:-19.1126 12:-27.1546 #
-7.6439065829006429760275240746503e-08 1:0.0225804 2:0.687895 3:0.46621999 4:0.48120001 5:0.46160001 6:3.17818 7:8.6906204 8:11.7849 9:13.759 10:-27.826799 11:-18.175699 12:-26.5315 #
-2.2931719748701928928082572223951e-07 1:0.0213608 2:0.75859898 3:0.662117 4:0.4005 5:0.40009999 6:3.15662 7:7.8260198 8:10.6807 9:12.2656 10:-24.489799 11:-16.1828 12:-23.745701 #
-3.8219532914503212233159660203563e-07 1:0.0191509 2:0.75079203 3:0.68350399 4:0.47029999 5:0.37650001 6:3.1467099 7:7.9544001 8:10.1412 9:12.9532 10:-24.6572 11:-16.991501 12:-24.644699 #
-3.8219532914503212233159660203563e-07 1:0.060696501 2:0.23733699 3:0.21063399 4:0.4436 5:0.43399999 6:3.1916499 7:8.7008305 8:11.3724 9:13.4897 10:-26.748899 11:-17.8403 12:-25.9256 #
-7.6439065829006429760275240746503e-08 1:0.029510301 2:0.43004 3:0.21494401 4:0.4637 5:0.46329999 6:3.1902599 7:9.5348196 8:12.0196 9:13.1847 10:-25.9632 11:-18.8305 12:-25.9144 #
-2.2931719748701928928082572223951e-07 1:0.030223601 2:0.64024103 3:0.197998 4:0.46759999 5:0.4228 6:3.1792901 7:8.4372101 8:11.2549 9:12.4028 10:-24.2453 11:-16.7852 12:-24.8374 #
7.6439065829006429760275240746503e-08 1:0.021531699 2:0.681297 3:0.46094501 4:0.4788 5:0.4702 6:3.17752 7:8.9653196 8:13.9338 9:15.1707 10:-29.8519 11:-19.736799 12:-29.897301 #
2.2931719748701928928082572223951e-07 1:0.018201901 2:0.74699199 3:0.60403299 4:0.4102 5:0.39579999 6:3.1612899 7:8.0304403 8:10.537 9:12.5304 10:-24.2108 11:-16.6339 12:-24.218399 #
3.8219532914503212233159660203563e-07 1:0.018303899 2:0.75614899 3:0.68526602 4:0.4756 5:0.373 6:3.1438999 7:7.8893299 8:10.0985 9:12.8741 10:-24.378 11:-16.828501 12:-24.915501 #
3.8219532914503212233159660203563e-07 1:0.060696501 2:0.23733699 3:0.21063399 4:0.4436 5:0.43399999 6:3.1916499 7:8.7008305 8:11.3724 9:13.4897 10:-26.748899 11:-17.8403 12:-25.9256 #
2.2931719748701928928082572223951e-07 1:0.029510301 2:0.43004 3:0.21494401 4:0.4637 5:0.46329999 6:3.1902599 7:9.5348196 8:12.0196 9:13.1847 10:-25.9632 11:-18.8305 12:-25.9144 #
7.6439065829006429760275240746503e-08 1:0.030223601 2:0.64024103 3:0.197998 4:0.46759999 5:0.4228 6:3.1792901 7:8.4372101 8:11.2549 9:12.4028 10:-24.2453 11:-16.7852 12:-24.8374 #
-7.6439065829006429760275240746503e-08 1:0.021531699 2:0.681297 3:0.46094501 4:0.4788 5:0.4702 6:3.17752 7:8.9653196 8:13.9338 9:15.1707 10:-29.8519 11:-19.736799 12:-29.897301 #
-2.2931719748701928928082572223951e-07 1:0.018201901 2:0.74699199 3:0.60403299 4:0.4102 5:0.39579999 6:3.1612899 7:8.0304403 8:10.537 9:12.5304 10:-24.2108 11:-16.6339 12:-24.218399 #
-3.8219532914503212233159660203563e-07 1:0.018303899 2:0.75614899 3:0.68526602 4:0.4756 5:0.373 6:3.1438999 7:7.8893299 8:10.0985 9:12.8741 10:-24.378 11:-16.828501 12:-24.915501 #
-3.8219532914503212233159660203563e-07 1:0.032359801 2:0.26468399 3:0.24982201 4:0.45210001 5:0.43130001 6:3.1839001 7:8.1909399 8:11.2841 9:16.4296 10:-30.329399 11:-20.928301 12:-30.659401 #
-2.2931719748701928928082572223951e-07 1:0.022689501 2:0.42839399 3:0.24676301 4:0.46489999 5:0.4637 6:3.1877201 7:8.9630203 8:11.8607 9:13.7532 10:-26.560699 11:-18.279499 12:-27.8295 #
-7.6439065829006429760275240746503e-08 1:0.020496599 2:0.66839802 3:0.21857201 4:0.4497 5:0.43869999 6:3.1837101 7:8.5783901 8:11.3063 9:13.0673 10:-25.255699 11:-17.3566 12:-26.3325 #
7.6439065829006429760275240746503e-08 1:0.023891401 2:0.67887998 3:0.47402701 4:0.4716 5:0.47040001 6:3.1765001 7:8.6142702 8:12.1879 9:13.4719 10:-27.8755 11:-17.916599 12:-26.301901 #
2.2931719748701928928082572223951e-07 1:0.019849701 2:0.70895302 3:0.60560399 4:0.4364 5:0.42039999 6:3.1596301 7:7.8829002 8:10.7924 9:12.6551 10:-24.776899 11:-16.6201 12:-24.4168 #
3.8219532914503212233159660203563e-07 1:0.019849701 2:0.74891597 3:0.69090903 4:0.47549999 5:0.3761 6:3.1448801 7:7.8980999 8:10.1422 9:12.9654 10:-24.633301 11:-16.9606 12:-24.7136 #
3.8219532914503212233159660203563e-07 1:0.032359801 2:0.26468399 3:0.24982201 4:0.45210001 5:0.43130001 6:3.1839001 7:8.1909399 8:11.2841 9:16.4296 10:-30.329399 11:-20.928301 12:-30.659401 #
2.2931719748701928928082572223951e-07 1:0.022689501 2:0.42839399 3:0.24676301 4:0.46489999 5:0.4637 6:3.1877201 7:8.9630203 8:11.8607 9:13.7532 10:-26.560699 11:-18.279499 12:-27.8295 #
7.6439065829006429760275240746503e-08 1:0.020496599 2:0.66839802 3:0.21857201 4:0.4497 5:0.43869999 6:3.1837101 7:8.5783901 8:11.3063 9:13.0673 10:-25.255699 11:-17.3566 12:-26.3325 #
-7.6439065829006429760275240746503e-08 1:0.023891401 2:0.67887998 3:0.47402701 4:0.4716 5:0.47040001 6:3.1765001 7:8.6142702 8:12.1879 9:13.4719 10:-27.8755 11:-17.916599 12:-26.301901 #
-2.2931719748701928928082572223951e-07 1:0.019849701 2:0.70895302 3:0.60560399 4:0.4364 5:0.42039999 6:3.1596301 7:7.8829002 8:10.7924 9:12.6551 10:-24.776899 11:-16.6201 12:-24.4168 #
-3.8219532914503212233159660203563e-07 1:0.019849701 2:0.74891597 3:0.69090903 4:0.47549999 5:0.3761 6:3.1448801 7:7.8980999 8:10.1422 9:12.9654 10:-24.633301 11:-16.9606 12:-24.7136 #
-3.8219532914503212233159660203563e-07 1:0.0384642 2:0.215189 3:0.21676201 4:0.45680001 5:0.44159999 6:3.18308 7:8.5162096 8:11.8054 9:12.9188 10:-25.3314 11:-18.1359 12:-25.621799 #
-2.2931719748701928928082572223951e-07 1:0.0268114 2:0.46722001 3:0.232401 4:0.46610001 5:0.46349999 6:3.1863401 7:9.8326302 8:12.8178 9:13.4492 10:-27.4217 11:-19.876301 12:-26.5874 #
-7.6439065829006429760275240746503e-08 1:0.0329316 2:0.67959797 3:0.227264 4:0.44069999 5:0.42250001 6:3.1748099 7:8.5063601 8:11.1937 9:12.364 10:-24.175301 11:-16.886299 12:-24.5714 #
7.6439065829006429760275240746503e-08 1:0.0173003 2:0.67840803 3:0.47546899 4:0.47749999 5:0.4747 6:3.17854 7:8.5448399 8:13.5684 9:14.1291 10:-28.1579 11:-18.6113 12:-28.1024 #
3.8219532914503212233159660203563e-07 1:0.0161289 2:0.76822501 3:0.64524603 4:0.39669999 5:0.39629999 6:3.1566899 7:7.8534598 8:10.5605 9:12.2997 10:-24.3615 11:-16.255501 12:-23.741899 #
2.2931719748701928928082572223951e-07 1:0.0151435 2:0.749493 3:0.68471998 4:0.46740001 5:0.3752 6:3.1444099 7:7.8673701 8:10.1159 9:12.9337 10:-24.6108 11:-16.9345 12:-24.6071 #
3.8219532914503212233159660203563e-07 1:0.0384642 2:0.215189 3:0.21676201 4:0.45680001 5:0.44159999 6:3.18308 7:8.5162096 8:11.8054 9:12.9188 10:-25.3314 11:-18.1359 12:-25.621799 #
2.2931719748701928928082572223951e-07 1:0.0268114 2:0.46722001 3:0.232401 4:0.46610001 5:0.46349999 6:3.1863401 7:9.8326302 8:12.8178 9:13.4492 10:-27.4217 11:-19.876301 12:-26.5874 #
7.6439065829006429760275240746503e-08 1:0.0329316 2:0.67959797 3:0.227264 4:0.44069999 5:0.42250001 6:3.1748099 7:8.5063601 8:11.1937 9:12.364 10:-24.175301 11:-16.886299 12:-24.5714 #
-7.6439065829006429760275240746503e-08 1:0.0173003 2:0.67840803 3:0.47546899 4:0.47749999 5:0.4747 6:3.17854 7:8.5448399 8:13.5684 9:14.1291 10:-28.1579 11:-18.6113 12:-28.1024 #
-2.2931719748701928928082572223951e-07 1:0.0161289 2:0.76822501 3:0.64524603 4:0.39669999 5:0.39629999 6:3.1566899 7:7.8534598 8:10.5605 9:12.2997 10:-24.3615 11:-16.255501 12:-23.741899 #
-3.8219532914503212233159660203563e-07 1:0.0151435 2:0.749493 3:0.68471998 4:0.46740001 5:0.3752 6:3.1444099 7:7.8673701 8:10.1159 9:12.9337 10:-24.6108 11:-16.9345 12:-24.6071 #
-1.403825075687687064195492908994e-07 1:0.0504013 2:0.246305 3:0.199349 4:0.42250001 5:0.4023 6:3.18221 7:8.6704102 8:11.1847 9:13.0093 10:-25.212601 11:-17.511801 12:-25.312401 #
-8.4229504541261234439641415218392e-08 1:0.027113199 2:0.36834201 3:0.25248399 4:0.4542 5:0.41460001 6:3.1733401 7:8.5430498 8:11.0923 9:12.8809 10:-26.195999 11:-17.153299 12:-24.868 #
-2.8076501513753742607398838264723e-08 1:0.02434 2:0.45974201 3:0.335026 4:0.47639999 5:0.4506 6:3.1837201 7:9.1473598 8:11.3803 9:14.3405 10:-27.399599 11:-21.0902 12:-27.312099 #
8.4229504541261234439641415218392e-08 1:0.021097301 2:0.67324901 3:0.46879601 4:0.48370001 5:0.47530001 6:3.17676 7:8.6523504 8:12.4158 9:14.332 10:-28.0965 11:-18.854799 12:-27.745199 #
2.8076501513753742607398838264723e-08 1:0.0210182 2:0.69478202 3:0.59130001 4:0.4368 5:0.42199999 6:3.1596501 7:7.9612298 8:10.7162 9:12.5463 10:-24.466499 11:-16.565901 12:-24.244301 #
1.403825075687687064195492908994e-07 1:0.0169845 2:0.76289099 3:0.68848097 4:0.4716 5:0.3748 6:3.1446199 7:7.9057698 8:10.1392 9:12.8238 10:-24.3102 11:-16.777 12:-25.1292 #
1.403825075687687064195492908994e-07 1:0.0504013 2:0.246305 3:0.199349 4:0.42250001 5:0.4023 6:3.18221 7:8.6704102 8:11.1847 9:13.0093 10:-25.212601 11:-17.511801 12:-25.312401 #
8.4229504541261234439641415218392e-08 1:0.027113199 2:0.36834201 3:0.25248399 4:0.4542 5:0.41460001 6:3.1733401 7:8.5430498 8:11.0923 9:12.8809 10:-26.195999 11:-17.153299 12:-24.868 #
2.8076501513753742607398838264723e-08 1:0.02434 2:0.45974201 3:0.335026 4:0.47639999 5:0.4506 6:3.1837201 7:9.1473598 8:11.3803 9:14.3405 10:-27.399599 11:-21.0902 12:-27.312099 #
-2.8076501513753742607398838264723e-08 1:0.021097301 2:0.67324901 3:0.46879601 4:0.48370001 5:0.47530001 6:3.17676 7:8.6523504 8:12.4158 9:14.332 10:-28.0965 11:-18.854799 12:-27.745199 #
-8.4229504541261234439641415218392e-08 1:0.0210182 2:0.69478202 3:0.59130001 4:0.4368 5:0.42199999 6:3.1596501 7:7.9612298 8:10.7162 9:12.5463 10:-24.466499 11:-16.565901 12:-24.244301 #
-1.403825075687687064195492908994e-07 1:0.0169845 2:0.76289099 3:0.68848097 4:0.4716 5:0.3748 6:3.1446199 7:7.9057698 8:10.1392 9:12.8238 10:-24.3102 11:-16.777 12:-25.1292 #
-8.4229504541261234439641415218392e-08 1:0.061196402 2:0.23819301 3:0.21864501 4:0.377 5:0.3714 6:3.1415801 7:7.65166 8:11.3656 9:11.4958 10:-23.539101 11:-15.7095 12:-22.9398 #
-1.403825075687687064195492908994e-07 1:0.031089099 2:0.33053699 3:0.208001 4:0.45950001 5:0.4427 6:3.19045 7:8.9536695 8:11.488 9:13.9112 10:-26.7425 11:-18.635201 12:-26.782 #
-2.8076501513753742607398838264723e-08 1:0.0250897 2:0.44382399 3:0.36068901 4:0.47220001 5:0.45660001 6:3.18467 7:9.80408 8:11.9505 9:13.9006 10:-27.8438 11:-18.805599 12:-26.8281 #
2.8076501513753742607398838264723e-08 1:0.0303845 2:0.684506 3:0.470716 4:0.48199999 5:0.4682 6:3.1788199 7:8.6356697 8:12.2403 9:14.6017 10:-28.276899 11:-18.9839 12:-28.103399 #
8.4229504541261234439641415218392e-08 1:0.0262616 2:0.76339799 3:0.64242798 4:0.40790001 5:0.39289999 6:3.15627 7:7.7997398 8:10.7499 9:12.235 10:-24.688101 11:-16.1374 12:-23.730101 #
1.403825075687687064195492908994e-07 1:0.021263501 2:0.79717797 3:0.73971099 4:0.47260001 5:0.3784 6:3.14657 7:7.9779 8:10.1607 9:13.1192 10:-24.790001 11:-17.1115 12:-25.198 #
1.403825075687687064195492908994e-07 1:0.061196402 2:0.23819301 3:0.21864501 4:0.377 5:0.3714 6:3.1415801 7:7.65166 8:11.3656 9:11.4958 10:-23.539101 11:-15.7095 12:-22.9398 #
8.4229504541261234439641415218392e-08 1:0.031089099 2:0.33053699 3:0.208001 4:0.45950001 5:0.4427 6:3.19045 7:8.9536695 8:11.488 9:13.9112 10:-26.7425 11:-18.635201 12:-26.782 #
2.8076501513753742607398838264723e-08 1:0.0250897 2:0.44382399 3:0.36068901 4:0.47220001 5:0.45660001 6:3.18467 7:9.80408 8:11.9505 9:13.9006 10:-27.8438 11:-18.805599 12:-26.8281 #
-2.8076501513753742607398838264723e-08 1:0.0303845 2:0.684506 3:0.470716 4:0.48199999 5:0.4682 6:3.1788199 7:8.6356697 8:12.2403 9:14.6017 10:-28.276899 11:-18.9839 12:-28.103399 #
-8.4229504541261234439641415218392e-08 1:0.0262616 2:0.76339799 3:0.64242798 4:0.40790001 5:0.39289999 6:3.15627 7:7.7997398 8:10.7499 9:12.235 10:-24.688101 11:-16.1374 12:-23.730101 #
-1.403825075687687064195492908994e-07 1:0.021263501 2:0.79717797 3:0.73971099 4:0.47260001 5:0.3784 6:3.14657 7:7.9779 8:10.1607 9:13.1192 10:-24.790001 11:-17.1115 12:-25.198 #
-1.403825075687687064195492908994e-07 1:0.064059697 2:0.220349 3:0.22587 4:0.4391 5:0.4341 6:3.17188 7:8.1187696 8:12.2811 9:13.0635 10:-25.9974 11:-17.1432 12:-25.8132 #
-8.4229504541261234439641415218392e-08 1:0.033984698 2:0.32521299 3:0.26847899 4:0.47679999 5:0.47240001 6:3.1871901 7:8.9252005 8:11.9587 9:13.9288 10:-26.9631 11:-18.410299 12:-27.106199 #
-2.8076501513753742607398838264723e-08 1:0.022193801 2:0.43593499 3:0.32876 4:0.47920001 5:0.46039999 6:3.1819401 7:9.9871101 8:11.8316 9:14.0938 10:-27.2764 11:-19.1126 12:-27.1546 #
2.8076501513753742607398838264723e-08 1:0.0225804 2:0.687895 3:0.46621999 4:0.48120001 5:0.46160001 6:3.17818 7:8.6906204 8:11.7849 9:13.759 10:-27.826799 11:-18.175699 12:-26.5315 #
8.4229504541261234439641415218392e-08 1:0.0213608 2:0.75859898 3:0.662117 4:0.4005 5:0.40009999 6:3.15662 7:7.8260198 8:10.6807 9:12.2656 10:-24.489799 11:-16.1828 12:-23.745701 #
1.403825075687687064195492908994e-07 1:0.0191509 2:0.75079203 3:0.68350399 4:0.47029999 5:0.37650001 6:3.1467099 7:7.9544001 8:10.1412 9:12.9532 10:-24.6572 11:-16.991501 12:-24.644699 #
1.403825075687687064195492908994e-07 1:0.064059697 2:0.220349 3:0.22587 4:0.4391 5:0.4341 6:3.17188 7:8.1187696 8:12.2811 9:13.0635 10:-25.9974 11:-17.1432 12:-25.8132 #
8.4229504541261234439641415218392e-08 1:0.033984698 2:0.32521299 3:0.26847899 4:0.47679999 5:0.47240001 6:3.1871901 7:8.9252005 8:11.9587 9:13.9288 10:-26.9631 11:-18.410299 12:-27.106199 #
2.8076501513753742607398838264723e-08 1:0.022193801 2:0.43593499 3:0.32876 4:0.47920001 5:0.46039999 6:3.1819401 7:9.9871101 8:11.8316 9:14.0938 10:-27.2764 11:-19.1126 12:-27.1546 #
-2.8076501513753742607398838264723e-08 1:0.0225804 2:0.687895 3:0.46621999 4:0.48120001 5:0.46160001 6:3.17818 7:8.6906204 8:11.7849 9:13.759 10:-27.826799 11:-18.175699 12:-26.5315 #
-8.4229504541261234439641415218392e-08 1:0.0213608 2:0.75859898 3:0.662117 4:0.4005 5:0.40009999 6:3.15662 7:7.8260198 8:10.6807 9:12.2656 10:-24.489799 11:-16.1828 12:-23.745701 #
-1.403825075687687064195492908994e-07 1:0.0191509 2:0.75079203 3:0.68350399 4:0.47029999 5:0.37650001 6:3.1467099 7:7.9544001 8:10.1412 9:12.9532 10:-24.6572 11:-16.991501 12:-24.644699 #
-1.403825075687687064195492908994e-07 1:0.060696501 2:0.23733699 3:0.21063399 4:0.4436 5:0.43399999 6:3.1916499 7:8.7008305 8:11.3724 9:13.4897 10:-26.748899 11:-17.8403 12:-25.9256 #
-8.4229504541261234439641415218392e-08 1:0.029510301 2:0.43004 3:0.21494401 4:0.4637 5:0.46329999 6:3.1902599 7:9.5348196 8:12.0196 9:13.1847 10:-25.9632 11:-18.8305 12:-25.9144 #
-2.8076501513753742607398838264723e-08 1:0.030223601 2:0.64024103 3:0.197998 4:0.46759999 5:0.4228 6:3.1792901 7:8.4372101 8:11.2549 9:12.4028 10:-24.2453 11:-16.7852 12:-24.8374 #
2.8076501513753742607398838264723e-08 1:0.021531699 2:0.681297 3:0.46094501 4:0.4788 5:0.4702 6:3.17752 7:8.9653196 8:13.9338 9:15.1707 10:-29.8519 11:-19.736799 12:-29.897301 #
8.4229504541261234439641415218392e-08 1:0.018201901 2:0.74699199 3:0.60403299 4:0.4102 5:0.39579999 6:3.1612899 7:8.0304403 8:10.537 9:12.5304 10:-24.2108 11:-16.6339 12:-24.218399 #
1.403825075687687064195492908994e-07 1:0.018303899 2:0.75614899 3:0.68526602 4:0.4756 5:0.373 6:3.1438999 7:7.8893299 8:10.0985 9:12.8741 10:-24.378 11:-16.828501 12:-24.915501 #
1.403825075687687064195492908994e-07 1:0.060696501 2:0.23733699 3:0.21063399 4:0.4436 5:0.43399999 6:3.1916499 7:8.7008305 8:11.3724 9:13.4897 10:-26.748899 11:-17.8403 12:-25.9256 #
8.4229504541261234439641415218392e-08 1:0.029510301 2:0.43004 3:0.21494401 4:0.4637 5:0.46329999 6:3.1902599 7:9.5348196 8:12.0196 9:13.1847 10:-25.9632 11:-18.8305 12:-25.9144 #
2.8076501513753742607398838264723e-08 1:0.030223601 2:0.64024103 3:0.197998 4:0.46759999 5:0.4228 6:3.1792901 7:8.4372101 8:11.2549 9:12.4028 10:-24.2453 11:-16.7852 12:-24.8374 #
-2.8076501513753742607398838264723e-08 1:0.021531699 2:0.681297 3:0.46094501 4:0.4788 5:0.4702 6:3.17752 7:8.9653196 8:13.9338 9:15.1707 10:-29.8519 11:-19.736799 12:-29.897301 #
-8.4229504541261234439641415218392e-08 1:0.018201901 2:0.74699199 3:0.60403299 4:0.4102 5:0.39579999 6:3.1612899 7:8.0304403 8:10.537 9:12.5304 10:-24.2108 11:-16.6339 12:-24.218399 #
-1.403825075687687064195492908994e-07 1:0.018303899 2:0.75614899 3:0.68526602 4:0.4756 5:0.373 6:3.1438999 7:7.8893299 8:10.0985 9:12.8741 10:-24.378 11:-16.828501 12:-24.915501 #
-8.4229504541261234439641415218392e-08 1:0.032359801 2:0.26468399 3:0.24982201 4:0.45210001 5:0.43130001 6:3.1839001 7:8.1909399 8:11.2841 9:16.4296 10:-30.329399 11:-20.928301 12:-30.659401 #
-1.403825075687687064195492908994e-07 1:0.022689501 2:0.42839399 3:0.24676301 4:0.46489999 5:0.4637 6:3.1877201 7:8.9630203 8:11.8607 9:13.7532 10:-26.560699 11:-18.279499 12:-27.8295 #
-2.8076501513753742607398838264723e-08 1:0.020496599 2:0.66839802 3:0.21857201 4:0.4497 5:0.43869999 6:3.1837101 7:8.5783901 8:11.3063 9:13.0673 10:-25.255699 11:-17.3566 12:-26.3325 #
2.8076501513753742607398838264723e-08 1:0.023891401 2:0.67887998 3:0.47402701 4:0.4716 5:0.47040001 6:3.1765001 7:8.6142702 8:12.1879 9:13.4719 10:-27.8755 11:-17.916599 12:-26.301901 #
8.4229504541261234439641415218392e-08 1:0.019849701 2:0.70895302 3:0.60560399 4:0.4364 5:0.42039999 6:3.1596301 7:7.8829002 8:10.7924 9:12.6551 10:-24.776899 11:-16.6201 12:-24.4168 #
1.403825075687687064195492908994e-07 1:0.019849701 2:0.74891597 3:0.69090903 4:0.47549999 5:0.3761 6:3.1448801 7:7.8980999 8:10.1422 9:12.9654 10:-24.633301 11:-16.9606 12:-24.7136 #
1.403825075687687064195492908994e-07 1:0.032359801 2:0.26468399 3:0.24982201 4:0.45210001 5:0.43130001 6:3.1839001 7:8.1909399 8:11.2841 9:16.4296 10:-30.329399 11:-20.928301 12:-30.659401 #
8.4229504541261234439641415218392e-08 1:0.022689501 2:0.42839399 3:0.24676301 4:0.46489999 5:0.4637 6:3.1877201 7:8.9630203 8:11.8607 9:13.7532 10:-26.560699 11:-18.279499 12:-27.8295 #
2.8076501513753742607398838264723e-08 1:0.020496599 2:0.66839802 3:0.21857201 4:0.4497 5:0.43869999 6:3.1837101 7:8.5783901 8:11.3063 9:13.0673 10:-25.255699 11:-17.3566 12:-26.3325 #
-2.8076501513753742607398838264723e-08 1:0.023891401 2:0.67887998 3:0.47402701 4:0.4716 5:0.47040001 6:3.1765001 7:8.6142702 8:12.1879 9:13.4719 10:-27.8755 11:-17.916599 12:-26.301901 #
-8.4229504541261234439641415218392e-08 1:0.019849701 2:0.70895302 3:0.60560399 4:0.4364 5:0.42039999 6:3.1596301 7:7.8829002 8:10.7924 9:12.6551 10:-24.776899 11:-16.6201 12:-24.4168 #
-1.403825075687687064195492908994e-07 1:0.019849701 2:0.74891597 3:0.69090903 4:0.47549999 5:0.3761 6:3.1448801 7:7.8980999 8:10.1422 9:12.9654 10:-24.633301 11:-16.9606 12:-24.7136 #
-1.403825075687687064195492908994e-07 1:0.0384642 2:0.215189 3:0.21676201 4:0.45680001 5:0.44159999 6:3.18308 7:8.5162096 8:11.8054 9:12.9188 10:-25.3314 11:-18.1359 12:-25.621799 #
-8.4229504541261234439641415218392e-08 1:0.0268114 2:0.46722001 3:0.232401 4:0.46610001 5:0.46349999 6:3.1863401 7:9.8326302 8:12.8178 9:13.4492 10:-27.4217 11:-19.876301 12:-26.5874 #
2.8076501513753742607398838264723e-08 1:0.0329316 2:0.67959797 3:0.227264 4:0.44069999 5:0.42250001 6:3.1748099 7:8.5063601 8:11.1937 9:12.364 10:-24.175301 11:-16.886299 12:-24.5714 #
-2.8076501513753742607398838264723e-08 1:0.0173003 2:0.67840803 3:0.47546899 4:0.47749999 5:0.4747 6:3.17854 7:8.5448399 8:13.5684 9:14.1291 10:-28.1579 11:-18.6113 12:-28.1024 #
8.4229504541261234439641415218392e-08 1:0.0161289 2:0.76822501 3:0.64524603 4:0.39669999 5:0.39629999 6:3.1566899 7:7.8534598 8:10.5605 9:12.2997 10:-24.3615 11:-16.255501 12:-23.741899 #
1.403825075687687064195492908994e-07 1:0.0151435 2:0.749493 3:0.68471998 4:0.46740001 5:0.3752 6:3.1444099 7:7.8673701 8:10.1159 9:12.9337 10:-24.6108 11:-16.9345 12:-24.6071 #
1.403825075687687064195492908994e-07 1:0.0384642 2:0.215189 3:0.21676201 4:0.45680001 5:0.44159999 6:3.18308 7:8.5162096 8:11.8054 9:12.9188 10:-25.3314 11:-18.1359 12:-25.621799 #
8.4229504541261234439641415218392e-08 1:0.0268114 2:0.46722001 3:0.232401 4:0.46610001 5:0.46349999 6:3.1863401 7:9.8326302 8:12.8178 9:13.4492 10:-27.4217 11:-19.876301 12:-26.5874 #
2.8076501513753742607398838264723e-08 1:0.0329316 2:0.67959797 3:0.227264 4:0.44069999 5:0.42250001 6:3.1748099 7:8.5063601 8:11.1937 9:12.364 10:-24.175301 11:-16.886299 12:-24.5714 #
-2.8076501513753742607398838264723e-08 1:0.0173003 2:0.67840803 3:0.47546899 4:0.47749999 5:0.4747 6:3.17854 7:8.5448399 8:13.5684 9:14.1291 10:-28.1579 11:-18.6113 12:-28.1024 #
-8.4229504541261234439641415218392e-08 1:0.0161289 2:0.76822501 3:0.64524603 4:0.39669999 5:0.39629999 6:3.1566899 7:7.8534598 8:10.5605 9:12.2997 10:-24.3615 11:-16.255501 12:-23.741899 #
-1.403825075687687064195492908994e-07 1:0.0151435 2:0.749493 3:0.68471998 4:0.46740001 5:0.3752 6:3.1444099 7:7.8673701 8:10.1159 9:12.9337 10:-24.6108 11:-16.9345 12:-24.6071 #
