SVM-light Version V6.20
1 # kernel type
3 # kernel parameter -d 
1 # kernel parameter -g 
1 # kernel parameter -s 
1 # kernel parameter -r 
empty# kernel parameter -u 
13 # highest feature index 
33 # number of training documents 
337 # number of support vectors plus 1 
0 # threshold b, each following line is a SV (starting with alpha*y)
-2.1598374879314775793891912642681e-11 1:0.032359801 2:0.26468399 3:0.24982201 4:0.45210001 5:0.43130001 6:3.1839001 7:8.1909399 8:11.2841 9:16.4296 10:-30.329399 11:-20.928301 12:-30.659401 #
-1.2959024927588866768804854699715e-11 1:0.022689501 2:0.42839399 3:0.24676301 4:0.46489999 5:0.4637 6:3.1877201 7:8.9630203 8:11.8607 9:13.7532 10:-26.560699 11:-18.279499 12:-27.8295 #
-4.3196749758629553203370959177995e-12 1:0.020496599 2:0.66839802 3:0.21857201 4:0.4497 5:0.43869999 6:3.1837101 7:8.5783901 8:11.3063 9:13.0673 10:-25.255699 11:-17.3566 12:-26.3325 #
1.2959024927588866768804854699715e-11 1:0.023891401 2:0.67887998 3:0.47402701 4:0.4716 5:0.47040001 6:3.1765001 7:8.6142702 8:12.1879 9:13.4719 10:-27.8755 11:-17.916599 12:-26.301901 #
2.1598374879314775793891912642681e-11 1:0.019849701 2:0.70895302 3:0.60560399 4:0.4364 5:0.42039999 6:3.1596301 7:7.8829002 8:10.7924 9:12.6551 10:-24.776899 11:-16.6201 12:-24.4168 #
4.3196749758629553203370959177995e-12 1:0.019849701 2:0.74891597 3:0.69090903 4:0.47549999 5:0.3761 6:3.1448801 7:7.8980999 8:10.1422 9:12.9654 10:-24.633301 11:-16.9606 12:-24.7136 #
2.1598374879314775793891912642681e-11 1:0.032359801 2:0.26468399 3:0.24982201 4:0.45210001 5:0.43130001 6:3.1839001 7:8.1909399 8:11.2841 9:16.4296 10:-30.329399 11:-20.928301 12:-30.659401 #
1.2959024927588866768804854699715e-11 1:0.022689501 2:0.42839399 3:0.24676301 4:0.46489999 5:0.4637 6:3.1877201 7:8.9630203 8:11.8607 9:13.7532 10:-26.560699 11:-18.279499 12:-27.8295 #
4.3196749758629553203370959177995e-12 1:0.020496599 2:0.66839802 3:0.21857201 4:0.4497 5:0.43869999 6:3.1837101 7:8.5783901 8:11.3063 9:13.0673 10:-25.255699 11:-17.3566 12:-26.3325 #
-4.3196749758629553203370959177995e-12 1:0.023891401 2:0.67887998 3:0.47402701 4:0.4716 5:0.47040001 6:3.1765001 7:8.6142702 8:12.1879 9:13.4719 10:-27.8755 11:-17.916599 12:-26.301901 #
-1.2959024927588866768804854699715e-11 1:0.019849701 2:0.70895302 3:0.60560399 4:0.4364 5:0.42039999 6:3.1596301 7:7.8829002 8:10.7924 9:12.6551 10:-24.776899 11:-16.6201 12:-24.4168 #
-2.1598374879314775793891912642681e-11 1:0.019849701 2:0.74891597 3:0.69090903 4:0.47549999 5:0.3761 6:3.1448801 7:7.8980999 8:10.1422 9:12.9654 10:-24.633301 11:-16.9606 12:-24.7136 #
-4.3196749758629553203370959177995e-12 1:0.0384642 2:0.215189 3:0.21676201 4:0.45680001 5:0.44159999 6:3.18308 7:8.5162096 8:11.8054 9:12.9188 10:-25.3314 11:-18.1359 12:-25.621799 #
-2.1598374879314775793891912642681e-11 1:0.0268114 2:0.46722001 3:0.232401 4:0.46610001 5:0.46349999 6:3.1863401 7:9.8326302 8:12.8178 9:13.4492 10:-27.4217 11:-19.876301 12:-26.5874 #
1.2959024927588866768804854699715e-11 1:0.0329316 2:0.67959797 3:0.227264 4:0.44069999 5:0.42250001 6:3.1748099 7:8.5063601 8:11.1937 9:12.364 10:-24.175301 11:-16.886299 12:-24.5714 #
-1.2959024927588866768804854699715e-11 1:0.0173003 2:0.67840803 3:0.47546899 4:0.47749999 5:0.4747 6:3.17854 7:8.5448399 8:13.5684 9:14.1291 10:-28.1579 11:-18.6113 12:-28.1024 #
2.1598374879314775793891912642681e-11 1:0.0161289 2:0.76822501 3:0.64524603 4:0.39669999 5:0.39629999 6:3.1566899 7:7.8534598 8:10.5605 9:12.2997 10:-24.3615 11:-16.255501 12:-23.741899 #
4.3196749758629553203370959177995e-12 1:0.0151435 2:0.749493 3:0.68471998 4:0.46740001 5:0.3752 6:3.1444099 7:7.8673701 8:10.1159 9:12.9337 10:-24.6108 11:-16.9345 12:-24.6071 #
2.1598374879314775793891912642681e-11 1:0.0384642 2:0.215189 3:0.21676201 4:0.45680001 5:0.44159999 6:3.18308 7:8.5162096 8:11.8054 9:12.9188 10:-25.3314 11:-18.1359 12:-25.621799 #
1.2959024927588866768804854699715e-11 1:0.0268114 2:0.46722001 3:0.232401 4:0.46610001 5:0.46349999 6:3.1863401 7:9.8326302 8:12.8178 9:13.4492 10:-27.4217 11:-19.876301 12:-26.5874 #
4.3196749758629553203370959177995e-12 1:0.0329316 2:0.67959797 3:0.227264 4:0.44069999 5:0.42250001 6:3.1748099 7:8.5063601 8:11.1937 9:12.364 10:-24.175301 11:-16.886299 12:-24.5714 #
-4.3196749758629553203370959177995e-12 1:0.0173003 2:0.67840803 3:0.47546899 4:0.47749999 5:0.4747 6:3.17854 7:8.5448399 8:13.5684 9:14.1291 10:-28.1579 11:-18.6113 12:-28.1024 #
-1.2959024927588866768804854699715e-11 1:0.0161289 2:0.76822501 3:0.64524603 4:0.39669999 5:0.39629999 6:3.1566899 7:7.8534598 8:10.5605 9:12.2997 10:-24.3615 11:-16.255501 12:-23.741899 #
-2.1598374879314775793891912642681e-11 1:0.0151435 2:0.749493 3:0.68471998 4:0.46740001 5:0.3752 6:3.1444099 7:7.8673701 8:10.1159 9:12.9337 10:-24.6108 11:-16.9345 12:-24.6071 #
-1.2063744742778514500404653993243e-11 1:0.032359801 2:0.26468399 3:0.24982201 4:0.45210001 5:0.43130001 6:3.1839001 7:8.1909399 8:11.2841 9:16.4296 10:-30.329399 11:-20.928301 12:-30.659401 #
-3.6191234228335545116801095872361e-11 1:0.022689501 2:0.42839399 3:0.24676301 4:0.46489999 5:0.4637 6:3.1877201 7:8.9630203 8:11.8607 9:13.7532 10:-26.560699 11:-18.279499 12:-27.8295 #
-6.0318723713892577348784671644111e-11 1:0.020496599 2:0.66839802 3:0.21857201 4:0.4497 5:0.43869999 6:3.1837101 7:8.5783901 8:11.3063 9:13.0673 10:-25.255699 11:-17.3566 12:-26.3325 #
6.0318723713892577348784671644111e-11 1:0.023891401 2:0.67887998 3:0.47402701 4:0.4716 5:0.47040001 6:3.1765001 7:8.6142702 8:12.1879 9:13.4719 10:-27.8755 11:-17.916599 12:-26.301901 #
3.6191234228335545116801095872361e-11 1:0.019849701 2:0.70895302 3:0.60560399 4:0.4364 5:0.42039999 6:3.1596301 7:7.8829002 8:10.7924 9:12.6551 10:-24.776899 11:-16.6201 12:-24.4168 #
1.2063744742778514500404653993243e-11 1:0.019849701 2:0.74891597 3:0.69090903 4:0.47549999 5:0.3761 6:3.1448801 7:7.8980999 8:10.1422 9:12.9654 10:-24.633301 11:-16.9606 12:-24.7136 #
6.0318723713892577348784671644111e-11 1:0.032359801 2:0.26468399 3:0.24982201 4:0.45210001 5:0.43130001 6:3.1839001 7:8.1909399 8:11.2841 9:16.4296 10:-30.329399 11:-20.928301 12:-30.659401 #
3.6191234228335545116801095872361e-11 1:0.022689501 2:0.42839399 3:0.24676301 4:0.46489999 5:0.4637 6:3.1877201 7:8.9630203 8:11.8607 9:13.7532 10:-26.560699 11:-18.279499 12:-27.8295 #
1.2063744742778514500404653993243e-11 1:0.020496599 2:0.66839802 3:0.21857201 4:0.4497 5:0.43869999 6:3.1837101 7:8.5783901 8:11.3063 9:13.0673 10:-25.255699 11:-17.3566 12:-26.3325 #
-1.2063744742778514500404653993243e-11 1:0.023891401 2:0.67887998 3:0.47402701 4:0.4716 5:0.47040001 6:3.1765001 7:8.6142702 8:12.1879 9:13.4719 10:-27.8755 11:-17.916599 12:-26.301901 #
-3.6191234228335545116801095872361e-11 1:0.019849701 2:0.70895302 3:0.60560399 4:0.4364 5:0.42039999 6:3.1596301 7:7.8829002 8:10.7924 9:12.6551 10:-24.776899 11:-16.6201 12:-24.4168 #
-6.0318723713892577348784671644111e-11 1:0.019849701 2:0.74891597 3:0.69090903 4:0.47549999 5:0.3761 6:3.1448801 7:7.8980999 8:10.1422 9:12.9654 10:-24.633301 11:-16.9606 12:-24.7136 #
-3.6191234228335545116801095872361e-11 1:0.0384642 2:0.215189 3:0.21676201 4:0.45680001 5:0.44159999 6:3.18308 7:8.5162096 8:11.8054 9:12.9188 10:-25.3314 11:-18.1359 12:-25.621799 #
-3.6191234228335545116801095872361e-11 1:0.0268114 2:0.46722001 3:0.232401 4:0.46610001 5:0.46349999 6:3.1863401 7:9.8326302 8:12.8178 9:13.4492 10:-27.4217 11:-19.876301 12:-26.5874 #
-3.6191234228335545116801095872361e-11 1:0.0329316 2:0.67959797 3:0.227264 4:0.44069999 5:0.42250001 6:3.1748099 7:8.5063601 8:11.1937 9:12.364 10:-24.175301 11:-16.886299 12:-24.5714 #
6.0318723713892577348784671644111e-11 1:0.0173003 2:0.67840803 3:0.47546899 4:0.47749999 5:0.4747 6:3.17854 7:8.5448399 8:13.5684 9:14.1291 10:-28.1579 11:-18.6113 12:-28.1024 #
3.6191234228335545116801095872361e-11 1:0.0161289 2:0.76822501 3:0.64524603 4:0.39669999 5:0.39629999 6:3.1566899 7:7.8534598 8:10.5605 9:12.2997 10:-24.3615 11:-16.255501 12:-23.741899 #
1.2063744742778514500404653993243e-11 1:0.0151435 2:0.749493 3:0.68471998 4:0.46740001 5:0.3752 6:3.1444099 7:7.8673701 8:10.1159 9:12.9337 10:-24.6108 11:-16.9345 12:-24.6071 #
6.0318723713892577348784671644111e-11 1:0.0384642 2:0.215189 3:0.21676201 4:0.45680001 5:0.44159999 6:3.18308 7:8.5162096 8:11.8054 9:12.9188 10:-25.3314 11:-18.1359 12:-25.621799 #
3.6191234228335545116801095872361e-11 1:0.0268114 2:0.46722001 3:0.232401 4:0.46610001 5:0.46349999 6:3.1863401 7:9.8326302 8:12.8178 9:13.4492 10:-27.4217 11:-19.876301 12:-26.5874 #
1.2063744742778514500404653993243e-11 1:0.0329316 2:0.67959797 3:0.227264 4:0.44069999 5:0.42250001 6:3.1748099 7:8.5063601 8:11.1937 9:12.364 10:-24.175301 11:-16.886299 12:-24.5714 #
-1.2063744742778514500404653993243e-11 1:0.0173003 2:0.67840803 3:0.47546899 4:0.47749999 5:0.4747 6:3.17854 7:8.5448399 8:13.5684 9:14.1291 10:-28.1579 11:-18.6113 12:-28.1024 #
-3.6191234228335545116801095872361e-11 1:0.0161289 2:0.76822501 3:0.64524603 4:0.39669999 5:0.39629999 6:3.1566899 7:7.8534598 8:10.5605 9:12.2997 10:-24.3615 11:-16.255501 12:-23.741899 #
-6.0318723713892577348784671644111e-11 1:0.0151435 2:0.749493 3:0.68471998 4:0.46740001 5:0.3752 6:3.1444099 7:7.8673701 8:10.1159 9:12.9337 10:-24.6108 11:-16.9345 12:-24.6071 #
-2.2356346572205683113448315088803e-12 1:0.032359801 2:0.26468399 3:0.24982201 4:0.45210001 5:0.43130001 6:3.1839001 7:8.1909399 8:11.2841 9:16.4296 10:-30.329399 11:-20.928301 12:-30.659401 #
-1.1178173286102841556724157544402e-11 1:0.022689501 2:0.42839399 3:0.24676301 4:0.46489999 5:0.4637 6:3.1877201 7:8.9630203 8:11.8607 9:13.7532 10:-26.560699 11:-18.279499 12:-27.8295 #
-6.706903971661704934034494526641e-12 1:0.020496599 2:0.66839802 3:0.21857201 4:0.4497 5:0.43869999 6:3.1837101 7:8.5783901 8:11.3063 9:13.0673 10:-25.255699 11:-17.3566 12:-26.3325 #
2.2356346572205683113448315088803e-12 1:0.023891401 2:0.67887998 3:0.47402701 4:0.4716 5:0.47040001 6:3.1765001 7:8.6142702 8:12.1879 9:13.4719 10:-27.8755 11:-17.916599 12:-26.301901 #
1.1178173286102841556724157544402e-11 1:0.019849701 2:0.70895302 3:0.60560399 4:0.4364 5:0.42039999 6:3.1596301 7:7.8829002 8:10.7924 9:12.6551 10:-24.776899 11:-16.6201 12:-24.4168 #
6.706903971661704934034494526641e-12 1:0.019849701 2:0.74891597 3:0.69090903 4:0.47549999 5:0.3761 6:3.1448801 7:7.8980999 8:10.1422 9:12.9654 10:-24.633301 11:-16.9606 12:-24.7136 #
1.1178173286102841556724157544402e-11 1:0.032359801 2:0.26468399 3:0.24982201 4:0.45210001 5:0.43130001 6:3.1839001 7:8.1909399 8:11.2841 9:16.4296 10:-30.329399 11:-20.928301 12:-30.659401 #
6.706903971661704934034494526641e-12 1:0.022689501 2:0.42839399 3:0.24676301 4:0.46489999 5:0.4637 6:3.1877201 7:8.9630203 8:11.8607 9:13.7532 10:-26.560699 11:-18.279499 12:-27.8295 #
2.2356346572205683113448315088803e-12 1:0.020496599 2:0.66839802 3:0.21857201 4:0.4497 5:0.43869999 6:3.1837101 7:8.5783901 8:11.3063 9:13.0673 10:-25.255699 11:-17.3566 12:-26.3325 #
-2.2356346572205683113448315088803e-12 1:0.023891401 2:0.67887998 3:0.47402701 4:0.4716 5:0.47040001 6:3.1765001 7:8.6142702 8:12.1879 9:13.4719 10:-27.8755 11:-17.916599 12:-26.301901 #
-6.706903971661704934034494526641e-12 1:0.019849701 2:0.70895302 3:0.60560399 4:0.4364 5:0.42039999 6:3.1596301 7:7.8829002 8:10.7924 9:12.6551 10:-24.776899 11:-16.6201 12:-24.4168 #
-1.1178173286102841556724157544402e-11 1:0.019849701 2:0.74891597 3:0.69090903 4:0.47549999 5:0.3761 6:3.1448801 7:7.8980999 8:10.1422 9:12.9654 10:-24.633301 11:-16.9606 12:-24.7136 #
-6.706903971661704934034494526641e-12 1:0.0384642 2:0.215189 3:0.21676201 4:0.45680001 5:0.44159999 6:3.18308 7:8.5162096 8:11.8054 9:12.9188 10:-25.3314 11:-18.1359 12:-25.621799 #
-1.1178173286102841556724157544402e-11 1:0.0268114 2:0.46722001 3:0.232401 4:0.46610001 5:0.46349999 6:3.1863401 7:9.8326302 8:12.8178 9:13.4492 10:-27.4217 11:-19.876301 12:-26.5874 #
2.2356346572205683113448315088803e-12 1:0.0329316 2:0.67959797 3:0.227264 4:0.44069999 5:0.42250001 6:3.1748099 7:8.5063601 8:11.1937 9:12.364 10:-24.175301 11:-16.886299 12:-24.5714 #
-2.2356346572205683113448315088803e-12 1:0.0173003 2:0.67840803 3:0.47546899 4:0.47749999 5:0.4747 6:3.17854 7:8.5448399 8:13.5684 9:14.1291 10:-28.1579 11:-18.6113 12:-28.1024 #
1.1178173286102841556724157544402e-11 1:0.0161289 2:0.76822501 3:0.64524603 4:0.39669999 5:0.39629999 6:3.1566899 7:7.8534598 8:10.5605 9:12.2997 10:-24.3615 11:-16.255501 12:-23.741899 #
6.706903971661704934034494526641e-12 1:0.0151435 2:0.749493 3:0.68471998 4:0.46740001 5:0.3752 6:3.1444099 7:7.8673701 8:10.1159 9:12.9337 10:-24.6108 11:-16.9345 12:-24.6071 #
1.1178173286102841556724157544402e-11 1:0.0384642 2:0.215189 3:0.21676201 4:0.45680001 5:0.44159999 6:3.18308 7:8.5162096 8:11.8054 9:12.9188 10:-25.3314 11:-18.1359 12:-25.621799 #
6.706903971661704934034494526641e-12 1:0.0268114 2:0.46722001 3:0.232401 4:0.46610001 5:0.46349999 6:3.1863401 7:9.8326302 8:12.8178 9:13.4492 10:-27.4217 11:-19.876301 12:-26.5874 #
2.2356346572205683113448315088803e-12 1:0.0329316 2:0.67959797 3:0.227264 4:0.44069999 5:0.42250001 6:3.1748099 7:8.5063601 8:11.1937 9:12.364 10:-24.175301 11:-16.886299 12:-24.5714 #
-2.2356346572205683113448315088803e-12 1:0.0173003 2:0.67840803 3:0.47546899 4:0.47749999 5:0.4747 6:3.17854 7:8.5448399 8:13.5684 9:14.1291 10:-28.1579 11:-18.6113 12:-28.1024 #
-6.706903971661704934034494526641e-12 1:0.0161289 2:0.76822501 3:0.64524603 4:0.39669999 5:0.39629999 6:3.1566899 7:7.8534598 8:10.5605 9:12.2997 10:-24.3615 11:-16.255501 12:-23.741899 #
-1.1178173286102841556724157544402e-11 1:0.0151435 2:0.749493 3:0.68471998 4:0.46740001 5:0.3752 6:3.1444099 7:7.8673701 8:10.1159 9:12.9337 10:-24.6108 11:-16.9345 12:-24.6071 #
-1.2250548580553507631088555440539e-10 1:0.032359801 2:0.26468399 3:0.24982201 4:0.45210001 5:0.43130001 6:3.1839001 7:8.1909399 8:11.2841 9:16.4296 10:-30.329399 11:-20.928301 12:-30.659401 #
-7.3503291483321048371470746871445e-11 1:0.022689501 2:0.42839399 3:0.24676301 4:0.46489999 5:0.4637 6:3.1877201 7:8.9630203 8:11.8607 9:13.7532 10:-26.560699 11:-18.279499 12:-27.8295 #
-2.4501097161107017200881671552236e-11 1:0.020496599 2:0.66839802 3:0.21857201 4:0.4497 5:0.43869999 6:3.1837101 7:8.5783901 8:11.3063 9:13.0673 10:-25.255699 11:-17.3566 12:-26.3325 #
7.3503291483321048371470746871445e-11 1:0.023891401 2:0.67887998 3:0.47402701 4:0.4716 5:0.47040001 6:3.1765001 7:8.6142702 8:12.1879 9:13.4719 10:-27.8755 11:-17.916599 12:-26.301901 #
7.3503291483321048371470746871445e-11 1:0.019849701 2:0.70895302 3:0.60560399 4:0.4364 5:0.42039999 6:3.1596301 7:7.8829002 8:10.7924 9:12.6551 10:-24.776899 11:-16.6201 12:-24.4168 #
7.3503291483321048371470746871445e-11 1:0.019849701 2:0.74891597 3:0.69090903 4:0.47549999 5:0.3761 6:3.1448801 7:7.8980999 8:10.1422 9:12.9654 10:-24.633301 11:-16.9606 12:-24.7136 #
1.2250548580553507631088555440539e-10 1:0.032359801 2:0.26468399 3:0.24982201 4:0.45210001 5:0.43130001 6:3.1839001 7:8.1909399 8:11.2841 9:16.4296 10:-30.329399 11:-20.928301 12:-30.659401 #
7.3503291483321048371470746871445e-11 1:0.022689501 2:0.42839399 3:0.24676301 4:0.46489999 5:0.4637 6:3.1877201 7:8.9630203 8:11.8607 9:13.7532 10:-26.560699 11:-18.279499 12:-27.8295 #
2.4501097161107017200881671552236e-11 1:0.020496599 2:0.66839802 3:0.21857201 4:0.4497 5:0.43869999 6:3.1837101 7:8.5783901 8:11.3063 9:13.0673 10:-25.255699 11:-17.3566 12:-26.3325 #
-2.4501097161107017200881671552236e-11 1:0.023891401 2:0.67887998 3:0.47402701 4:0.4716 5:0.47040001 6:3.1765001 7:8.6142702 8:12.1879 9:13.4719 10:-27.8755 11:-17.916599 12:-26.301901 #
-7.3503291483321048371470746871445e-11 1:0.019849701 2:0.70895302 3:0.60560399 4:0.4364 5:0.42039999 6:3.1596301 7:7.8829002 8:10.7924 9:12.6551 10:-24.776899 11:-16.6201 12:-24.4168 #
-1.2250548580553507631088555440539e-10 1:0.019849701 2:0.74891597 3:0.69090903 4:0.47549999 5:0.3761 6:3.1448801 7:7.8980999 8:10.1422 9:12.9654 10:-24.633301 11:-16.9606 12:-24.7136 #
-7.3503291483321048371470746871445e-11 1:0.0384642 2:0.215189 3:0.21676201 4:0.45680001 5:0.44159999 6:3.18308 7:8.5162096 8:11.8054 9:12.9188 10:-25.3314 11:-18.1359 12:-25.621799 #
-1.2250548580553507631088555440539e-10 1:0.0268114 2:0.46722001 3:0.232401 4:0.46610001 5:0.46349999 6:3.1863401 7:9.8326302 8:12.8178 9:13.4492 10:-27.4217 11:-19.876301 12:-26.5874 #
2.4501097161107017200881671552236e-11 1:0.0329316 2:0.67959797 3:0.227264 4:0.44069999 5:0.42250001 6:3.1748099 7:8.5063601 8:11.1937 9:12.364 10:-24.175301 11:-16.886299 12:-24.5714 #
-2.4501097161107017200881671552236e-11 1:0.0173003 2:0.67840803 3:0.47546899 4:0.47749999 5:0.4747 6:3.17854 7:8.5448399 8:13.5684 9:14.1291 10:-28.1579 11:-18.6113 12:-28.1024 #
1.2250548580553507631088555440539e-10 1:0.0161289 2:0.76822501 3:0.64524603 4:0.39669999 5:0.39629999 6:3.1566899 7:7.8534598 8:10.5605 9:12.2997 10:-24.3615 11:-16.255501 12:-23.741899 #
7.3503291483321048371470746871445e-11 1:0.0151435 2:0.749493 3:0.68471998 4:0.46740001 5:0.3752 6:3.1444099 7:7.8673701 8:10.1159 9:12.9337 10:-24.6108 11:-16.9345 12:-24.6071 #
1.2250548580553507631088555440539e-10 1:0.0384642 2:0.215189 3:0.21676201 4:0.45680001 5:0.44159999 6:3.18308 7:8.5162096 8:11.8054 9:12.9188 10:-25.3314 11:-18.1359 12:-25.621799 #
7.3503291483321048371470746871445e-11 1:0.0268114 2:0.46722001 3:0.232401 4:0.46610001 5:0.46349999 6:3.1863401 7:9.8326302 8:12.8178 9:13.4492 10:-27.4217 11:-19.876301 12:-26.5874 #
2.4501097161107017200881671552236e-11 1:0.0329316 2:0.67959797 3:0.227264 4:0.44069999 5:0.42250001 6:3.1748099 7:8.5063601 8:11.1937 9:12.364 10:-24.175301 11:-16.886299 12:-24.5714 #
-2.4501097161107017200881671552236e-11 1:0.0173003 2:0.67840803 3:0.47546899 4:0.47749999 5:0.4747 6:3.17854 7:8.5448399 8:13.5684 9:14.1291 10:-28.1579 11:-18.6113 12:-28.1024 #
-7.3503291483321048371470746871445e-11 1:0.0161289 2:0.76822501 3:0.64524603 4:0.39669999 5:0.39629999 6:3.1566899 7:7.8534598 8:10.5605 9:12.2997 10:-24.3615 11:-16.255501 12:-23.741899 #
-1.2250548580553507631088555440539e-10 1:0.0151435 2:0.749493 3:0.68471998 4:0.46740001 5:0.3752 6:3.1444099 7:7.8673701 8:10.1159 9:12.9337 10:-24.6108 11:-16.9345 12:-24.6071 #
-1.3614677999526753694273229956547e-11 1:0.032359801 2:0.26468399 3:0.24982201 4:0.45210001 5:0.43130001 6:3.1839001 7:8.1909399 8:11.2841 9:16.4296 10:-30.329399 11:-20.928301 12:-30.659401 #
-2.2691129999211258311238228451087e-11 1:0.022689501 2:0.42839399 3:0.24676301 4:0.46489999 5:0.4637 6:3.1877201 7:8.9630203 8:11.8607 9:13.7532 10:-26.560699 11:-18.279499 12:-27.8295 #
4.5382259998422515006889323009543e-12 1:0.020496599 2:0.66839802 3:0.21857201 4:0.4497 5:0.43869999 6:3.1837101 7:8.5783901 8:11.3063 9:13.0673 10:-25.255699 11:-17.3566 12:-26.3325 #
-4.5382259998422515006889323009543e-12 1:0.023891401 2:0.67887998 3:0.47402701 4:0.4716 5:0.47040001 6:3.1765001 7:8.6142702 8:12.1879 9:13.4719 10:-27.8755 11:-17.916599 12:-26.301901 #
2.2691129999211258311238228451087e-11 1:0.019849701 2:0.70895302 3:0.60560399 4:0.4364 5:0.42039999 6:3.1596301 7:7.8829002 8:10.7924 9:12.6551 10:-24.776899 11:-16.6201 12:-24.4168 #
1.3614677999526753694273229956547e-11 1:0.019849701 2:0.74891597 3:0.69090903 4:0.47549999 5:0.3761 6:3.1448801 7:7.8980999 8:10.1422 9:12.9654 10:-24.633301 11:-16.9606 12:-24.7136 #
2.2691129999211258311238228451087e-11 1:0.032359801 2:0.26468399 3:0.24982201 4:0.45210001 5:0.43130001 6:3.1839001 7:8.1909399 8:11.2841 9:16.4296 10:-30.329399 11:-20.928301 12:-30.659401 #
1.3614677999526753694273229956547e-11 1:0.022689501 2:0.42839399 3:0.24676301 4:0.46489999 5:0.4637 6:3.1877201 7:8.9630203 8:11.8607 9:13.7532 10:-26.560699 11:-18.279499 12:-27.8295 #
4.5382259998422515006889323009543e-12 1:0.020496599 2:0.66839802 3:0.21857201 4:0.4497 5:0.43869999 6:3.1837101 7:8.5783901 8:11.3063 9:13.0673 10:-25.255699 11:-17.3566 12:-26.3325 #
-4.5382259998422515006889323009543e-12 1:0.023891401 2:0.67887998 3:0.47402701 4:0.4716 5:0.47040001 6:3.1765001 7:8.6142702 8:12.1879 9:13.4719 10:-27.8755 11:-17.916599 12:-26.301901 #
-1.3614677999526753694273229956547e-11 1:0.019849701 2:0.70895302 3:0.60560399 4:0.4364 5:0.42039999 6:3.1596301 7:7.8829002 8:10.7924 9:12.6551 10:-24.776899 11:-16.6201 12:-24.4168 #
-2.2691129999211258311238228451087e-11 1:0.019849701 2:0.74891597 3:0.69090903 4:0.47549999 5:0.3761 6:3.1448801 7:7.8980999 8:10.1422 9:12.9654 10:-24.633301 11:-16.9606 12:-24.7136 #
-2.2691129999211258311238228451087e-11 1:0.0384642 2:0.215189 3:0.21676201 4:0.45680001 5:0.44159999 6:3.18308 7:8.5162096 8:11.8054 9:12.9188 10:-25.3314 11:-18.1359 12:-25.621799 #
-4.5382259998422515006889323009543e-12 1:0.0268114 2:0.46722001 3:0.232401 4:0.46610001 5:0.46349999 6:3.1863401 7:9.8326302 8:12.8178 9:13.4492 10:-27.4217 11:-19.876301 12:-26.5874 #
-1.3614677999526753694273229956547e-11 1:0.0329316 2:0.67959797 3:0.227264 4:0.44069999 5:0.42250001 6:3.1748099 7:8.5063601 8:11.1937 9:12.364 10:-24.175301 11:-16.886299 12:-24.5714 #
1.3614677999526753694273229956547e-11 1:0.0173003 2:0.67840803 3:0.47546899 4:0.47749999 5:0.4747 6:3.17854 7:8.5448399 8:13.5684 9:14.1291 10:-28.1579 11:-18.6113 12:-28.1024 #
1.3614677999526753694273229956547e-11 1:0.0161289 2:0.76822501 3:0.64524603 4:0.39669999 5:0.39629999 6:3.1566899 7:7.8534598 8:10.5605 9:12.2997 10:-24.3615 11:-16.255501 12:-23.741899 #
1.3614677999526753694273229956547e-11 1:0.0151435 2:0.749493 3:0.68471998 4:0.46740001 5:0.3752 6:3.1444099 7:7.8673701 8:10.1159 9:12.9337 10:-24.6108 11:-16.9345 12:-24.6071 #
2.2691129999211258311238228451087e-11 1:0.0384642 2:0.215189 3:0.21676201 4:0.45680001 5:0.44159999 6:3.18308 7:8.5162096 8:11.8054 9:12.9188 10:-25.3314 11:-18.1359 12:-25.621799 #
1.3614677999526753694273229956547e-11 1:0.0268114 2:0.46722001 3:0.232401 4:0.46610001 5:0.46349999 6:3.1863401 7:9.8326302 8:12.8178 9:13.4492 10:-27.4217 11:-19.876301 12:-26.5874 #
4.5382259998422515006889323009543e-12 1:0.0329316 2:0.67959797 3:0.227264 4:0.44069999 5:0.42250001 6:3.1748099 7:8.5063601 8:11.1937 9:12.364 10:-24.175301 11:-16.886299 12:-24.5714 #
-4.5382259998422515006889323009543e-12 1:0.0173003 2:0.67840803 3:0.47546899 4:0.47749999 5:0.4747 6:3.17854 7:8.5448399 8:13.5684 9:14.1291 10:-28.1579 11:-18.6113 12:-28.1024 #
-1.3614677999526753694273229956547e-11 1:0.0161289 2:0.76822501 3:0.64524603 4:0.39669999 5:0.39629999 6:3.1566899 7:7.8534598 8:10.5605 9:12.2997 10:-24.3615 11:-16.255501 12:-23.741899 #
-2.2691129999211258311238228451087e-11 1:0.0151435 2:0.749493 3:0.68471998 4:0.46740001 5:0.3752 6:3.1444099 7:7.8673701 8:10.1159 9:12.9337 10:-24.6108 11:-16.9345 12:-24.6071 #
-6.79051440983780922123807460886e-11 1:0.032359801 2:0.26468399 3:0.24982201 4:0.45210001 5:0.43130001 6:3.1839001 7:8.1909399 8:11.2841 9:16.4296 10:-30.329399 11:-20.928301 12:-30.659401 #
-4.0743086459026850157549619196737e-11 1:0.022689501 2:0.42839399 3:0.24676301 4:0.46489999 5:0.4637 6:3.1877201 7:8.9630203 8:11.8607 9:13.7532 10:-26.560699 11:-18.279499 12:-27.8295 #
-1.3581028819675617796241295660667e-11 1:0.020496599 2:0.66839802 3:0.21857201 4:0.4497 5:0.43869999 6:3.1837101 7:8.5783901 8:11.3063 9:13.0673 10:-25.255699 11:-17.3566 12:-26.3325 #
1.3581028819675617796241295660667e-11 1:0.023891401 2:0.67887998 3:0.47402701 4:0.4716 5:0.47040001 6:3.1765001 7:8.6142702 8:12.1879 9:13.4719 10:-27.8755 11:-17.916599 12:-26.301901 #
6.79051440983780922123807460886e-11 1:0.019849701 2:0.70895302 3:0.60560399 4:0.4364 5:0.42039999 6:3.1596301 7:7.8829002 8:10.7924 9:12.6551 10:-24.776899 11:-16.6201 12:-24.4168 #
4.0743086459026850157549619196737e-11 1:0.019849701 2:0.74891597 3:0.69090903 4:0.47549999 5:0.3761 6:3.1448801 7:7.8980999 8:10.1422 9:12.9654 10:-24.633301 11:-16.9606 12:-24.7136 #
6.79051440983780922123807460886e-11 1:0.032359801 2:0.26468399 3:0.24982201 4:0.45210001 5:0.43130001 6:3.1839001 7:8.1909399 8:11.2841 9:16.4296 10:-30.329399 11:-20.928301 12:-30.659401 #
4.0743086459026850157549619196737e-11 1:0.022689501 2:0.42839399 3:0.24676301 4:0.46489999 5:0.4637 6:3.1877201 7:8.9630203 8:11.8607 9:13.7532 10:-26.560699 11:-18.279499 12:-27.8295 #
1.3581028819675617796241295660667e-11 1:0.020496599 2:0.66839802 3:0.21857201 4:0.4497 5:0.43869999 6:3.1837101 7:8.5783901 8:11.3063 9:13.0673 10:-25.255699 11:-17.3566 12:-26.3325 #
-1.3581028819675617796241295660667e-11 1:0.023891401 2:0.67887998 3:0.47402701 4:0.4716 5:0.47040001 6:3.1765001 7:8.6142702 8:12.1879 9:13.4719 10:-27.8755 11:-17.916599 12:-26.301901 #
-4.0743086459026850157549619196737e-11 1:0.019849701 2:0.70895302 3:0.60560399 4:0.4364 5:0.42039999 6:3.1596301 7:7.8829002 8:10.7924 9:12.6551 10:-24.776899 11:-16.6201 12:-24.4168 #
-6.79051440983780922123807460886e-11 1:0.019849701 2:0.74891597 3:0.69090903 4:0.47549999 5:0.3761 6:3.1448801 7:7.8980999 8:10.1422 9:12.9654 10:-24.633301 11:-16.9606 12:-24.7136 #
-6.79051440983780922123807460886e-11 1:0.0384642 2:0.215189 3:0.21676201 4:0.45680001 5:0.44159999 6:3.18308 7:8.5162096 8:11.8054 9:12.9188 10:-25.3314 11:-18.1359 12:-25.621799 #
-1.3581028819675617796241295660667e-11 1:0.0268114 2:0.46722001 3:0.232401 4:0.46610001 5:0.46349999 6:3.1863401 7:9.8326302 8:12.8178 9:13.4492 10:-27.4217 11:-19.876301 12:-26.5874 #
-1.3581028819675617796241295660667e-11 1:0.0329316 2:0.67959797 3:0.227264 4:0.44069999 5:0.42250001 6:3.1748099 7:8.5063601 8:11.1937 9:12.364 10:-24.175301 11:-16.886299 12:-24.5714 #
1.3581028819675617796241295660667e-11 1:0.0173003 2:0.67840803 3:0.47546899 4:0.47749999 5:0.4747 6:3.17854 7:8.5448399 8:13.5684 9:14.1291 10:-28.1579 11:-18.6113 12:-28.1024 #
4.0743086459026850157549619196737e-11 1:0.0161289 2:0.76822501 3:0.64524603 4:0.39669999 5:0.39629999 6:3.1566899 7:7.8534598 8:10.5605 9:12.2997 10:-24.3615 11:-16.255501 12:-23.741899 #
4.0743086459026850157549619196737e-11 1:0.0151435 2:0.749493 3:0.68471998 4:0.46740001 5:0.3752 6:3.1444099 7:7.8673701 8:10.1159 9:12.9337 10:-24.6108 11:-16.9345 12:-24.6071 #
6.79051440983780922123807460886e-11 1:0.0384642 2:0.215189 3:0.21676201 4:0.45680001 5:0.44159999 6:3.18308 7:8.5162096 8:11.8054 9:12.9188 10:-25.3314 11:-18.1359 12:-25.621799 #
4.0743086459026850157549619196737e-11 1:0.0268114 2:0.46722001 3:0.232401 4:0.46610001 5:0.46349999 6:3.1863401 7:9.8326302 8:12.8178 9:13.4492 10:-27.4217 11:-19.876301 12:-26.5874 #
1.3581028819675617796241295660667e-11 1:0.0329316 2:0.67959797 3:0.227264 4:0.44069999 5:0.42250001 6:3.1748099 7:8.5063601 8:11.1937 9:12.364 10:-24.175301 11:-16.886299 12:-24.5714 #
-1.3581028819675617796241295660667e-11 1:0.0173003 2:0.67840803 3:0.47546899 4:0.47749999 5:0.4747 6:3.17854 7:8.5448399 8:13.5684 9:14.1291 10:-28.1579 11:-18.6113 12:-28.1024 #
-4.0743086459026850157549619196737e-11 1:0.0161289 2:0.76822501 3:0.64524603 4:0.39669999 5:0.39629999 6:3.1566899 7:7.8534598 8:10.5605 9:12.2997 10:-24.3615 11:-16.255501 12:-23.741899 #
-6.79051440983780922123807460886e-11 1:0.0151435 2:0.749493 3:0.68471998 4:0.46740001 5:0.3752 6:3.1444099 7:7.8673701 8:10.1159 9:12.9337 10:-24.6108 11:-16.9345 12:-24.6071 #
-4.5993528715567922697724830870832e-12 1:0.032359801 2:0.26468399 3:0.24982201 4:0.45210001 5:0.43130001 6:3.1839001 7:8.1909399 8:11.2841 9:16.4296 10:-30.329399 11:-20.928301 12:-30.659401 #
-2.7596117229340756042015599361447e-12 1:0.022689501 2:0.42839399 3:0.24676301 4:0.46489999 5:0.4637 6:3.1877201 7:8.9630203 8:11.8607 9:13.7532 10:-26.560699 11:-18.279499 12:-27.8295 #
9.1987057431135853473385331204824e-13 1:0.020496599 2:0.66839802 3:0.21857201 4:0.4497 5:0.43869999 6:3.1837101 7:8.5783901 8:11.3063 9:13.0673 10:-25.255699 11:-17.3566 12:-26.3325 #
-9.1987057431135853473385331204824e-13 1:0.023891401 2:0.67887998 3:0.47402701 4:0.4716 5:0.47040001 6:3.1765001 7:8.6142702 8:12.1879 9:13.4719 10:-27.8755 11:-17.916599 12:-26.301901 #
4.5993528715567922697724830870832e-12 1:0.019849701 2:0.70895302 3:0.60560399 4:0.4364 5:0.42039999 6:3.1596301 7:7.8829002 8:10.7924 9:12.6551 10:-24.776899 11:-16.6201 12:-24.4168 #
2.7596117229340756042015599361447e-12 1:0.019849701 2:0.74891597 3:0.69090903 4:0.47549999 5:0.3761 6:3.1448801 7:7.8980999 8:10.1422 9:12.9654 10:-24.633301 11:-16.9606 12:-24.7136 #
4.5993528715567922697724830870832e-12 1:0.032359801 2:0.26468399 3:0.24982201 4:0.45210001 5:0.43130001 6:3.1839001 7:8.1909399 8:11.2841 9:16.4296 10:-30.329399 11:-20.928301 12:-30.659401 #
2.7596117229340756042015599361447e-12 1:0.022689501 2:0.42839399 3:0.24676301 4:0.46489999 5:0.4637 6:3.1877201 7:8.9630203 8:11.8607 9:13.7532 10:-26.560699 11:-18.279499 12:-27.8295 #
9.1987057431135853473385331204824e-13 1:0.020496599 2:0.66839802 3:0.21857201 4:0.4497 5:0.43869999 6:3.1837101 7:8.5783901 8:11.3063 9:13.0673 10:-25.255699 11:-17.3566 12:-26.3325 #
-9.1987057431135853473385331204824e-13 1:0.023891401 2:0.67887998 3:0.47402701 4:0.4716 5:0.47040001 6:3.1765001 7:8.6142702 8:12.1879 9:13.4719 10:-27.8755 11:-17.916599 12:-26.301901 #
-2.7596117229340756042015599361447e-12 1:0.019849701 2:0.70895302 3:0.60560399 4:0.4364 5:0.42039999 6:3.1596301 7:7.8829002 8:10.7924 9:12.6551 10:-24.776899 11:-16.6201 12:-24.4168 #
-4.5993528715567922697724830870832e-12 1:0.019849701 2:0.74891597 3:0.69090903 4:0.47549999 5:0.3761 6:3.1448801 7:7.8980999 8:10.1422 9:12.9654 10:-24.633301 11:-16.9606 12:-24.7136 #
-4.5993528715567922697724830870832e-12 1:0.0384642 2:0.215189 3:0.21676201 4:0.45680001 5:0.44159999 6:3.18308 7:8.5162096 8:11.8054 9:12.9188 10:-25.3314 11:-18.1359 12:-25.621799 #
-2.7596117229340756042015599361447e-12 1:0.0268114 2:0.46722001 3:0.232401 4:0.46610001 5:0.46349999 6:3.1863401 7:9.8326302 8:12.8178 9:13.4492 10:-27.4217 11:-19.876301 12:-26.5874 #
9.1987057431135853473385331204824e-13 1:0.0329316 2:0.67959797 3:0.227264 4:0.44069999 5:0.42250001 6:3.1748099 7:8.5063601 8:11.1937 9:12.364 10:-24.175301 11:-16.886299 12:-24.5714 #
-9.1987057431135853473385331204824e-13 1:0.0173003 2:0.67840803 3:0.47546899 4:0.47749999 5:0.4747 6:3.17854 7:8.5448399 8:13.5684 9:14.1291 10:-28.1579 11:-18.6113 12:-28.1024 #
4.5993528715567922697724830870832e-12 1:0.0161289 2:0.76822501 3:0.64524603 4:0.39669999 5:0.39629999 6:3.1566899 7:7.8534598 8:10.5605 9:12.2997 10:-24.3615 11:-16.255501 12:-23.741899 #
2.7596117229340756042015599361447e-12 1:0.0151435 2:0.749493 3:0.68471998 4:0.46740001 5:0.3752 6:3.1444099 7:7.8673701 8:10.1159 9:12.9337 10:-24.6108 11:-16.9345 12:-24.6071 #
4.5993528715567922697724830870832e-12 1:0.0384642 2:0.215189 3:0.21676201 4:0.45680001 5:0.44159999 6:3.18308 7:8.5162096 8:11.8054 9:12.9188 10:-25.3314 11:-18.1359 12:-25.621799 #
2.7596117229340756042015599361447e-12 1:0.0268114 2:0.46722001 3:0.232401 4:0.46610001 5:0.46349999 6:3.1863401 7:9.8326302 8:12.8178 9:13.4492 10:-27.4217 11:-19.876301 12:-26.5874 #
9.1987057431135853473385331204824e-13 1:0.0329316 2:0.67959797 3:0.227264 4:0.44069999 5:0.42250001 6:3.1748099 7:8.5063601 8:11.1937 9:12.364 10:-24.175301 11:-16.886299 12:-24.5714 #
-9.1987057431135853473385331204824e-13 1:0.0173003 2:0.67840803 3:0.47546899 4:0.47749999 5:0.4747 6:3.17854 7:8.5448399 8:13.5684 9:14.1291 10:-28.1579 11:-18.6113 12:-28.1024 #
-2.7596117229340756042015599361447e-12 1:0.0161289 2:0.76822501 3:0.64524603 4:0.39669999 5:0.39629999 6:3.1566899 7:7.8534598 8:10.5605 9:12.2997 10:-24.3615 11:-16.255501 12:-23.741899 #
-4.5993528715567922697724830870832e-12 1:0.0151435 2:0.749493 3:0.68471998 4:0.46740001 5:0.3752 6:3.1444099 7:7.8673701 8:10.1159 9:12.9337 10:-24.6108 11:-16.9345 12:-24.6071 #
-9.2085820890870283500582310631799e-07 1:0.032359801 2:0.26468399 3:0.24982201 4:0.45210001 5:0.43130001 6:3.1839001 7:8.1909399 8:11.2841 9:16.4296 10:-30.329399 11:-20.928301 12:-30.659401 #
-5.5251492534522165865184650107578e-07 1:0.022689501 2:0.42839399 3:0.24676301 4:0.46489999 5:0.4637 6:3.1877201 7:8.9630203 8:11.8607 9:13.7532 10:-26.560699 11:-18.279499 12:-27.8295 #
-1.8417164178174056170720870092422e-07 1:0.020496599 2:0.66839802 3:0.21857201 4:0.4497 5:0.43869999 6:3.1837101 7:8.5783901 8:11.3063 9:13.0673 10:-25.255699 11:-17.3566 12:-26.3325 #
1.8417164178174056170720870092422e-07 1:0.023891401 2:0.67887998 3:0.47402701 4:0.4716 5:0.47040001 6:3.1765001 7:8.6142702 8:12.1879 9:13.4719 10:-27.8755 11:-17.916599 12:-26.301901 #
5.5251492534522165865184650107578e-07 1:0.019849701 2:0.70895302 3:0.60560399 4:0.4364 5:0.42039999 6:3.1596301 7:7.8829002 8:10.7924 9:12.6551 10:-24.776899 11:-16.6201 12:-24.4168 #
9.2085820890870283500582310631799e-07 1:0.019849701 2:0.74891597 3:0.69090903 4:0.47549999 5:0.3761 6:3.1448801 7:7.8980999 8:10.1422 9:12.9654 10:-24.633301 11:-16.9606 12:-24.7136 #
9.2085820890870283500582310631799e-07 1:0.032359801 2:0.26468399 3:0.24982201 4:0.45210001 5:0.43130001 6:3.1839001 7:8.1909399 8:11.2841 9:16.4296 10:-30.329399 11:-20.928301 12:-30.659401 #
5.5251492534522165865184650107578e-07 1:0.022689501 2:0.42839399 3:0.24676301 4:0.46489999 5:0.4637 6:3.1877201 7:8.9630203 8:11.8607 9:13.7532 10:-26.560699 11:-18.279499 12:-27.8295 #
1.8417164178174056170720870092422e-07 1:0.020496599 2:0.66839802 3:0.21857201 4:0.4497 5:0.43869999 6:3.1837101 7:8.5783901 8:11.3063 9:13.0673 10:-25.255699 11:-17.3566 12:-26.3325 #
-1.8417164178174056170720870092422e-07 1:0.023891401 2:0.67887998 3:0.47402701 4:0.4716 5:0.47040001 6:3.1765001 7:8.6142702 8:12.1879 9:13.4719 10:-27.8755 11:-17.916599 12:-26.301901 #
-5.5251492534522165865184650107578e-07 1:0.019849701 2:0.70895302 3:0.60560399 4:0.4364 5:0.42039999 6:3.1596301 7:7.8829002 8:10.7924 9:12.6551 10:-24.776899 11:-16.6201 12:-24.4168 #
-9.2085820890870283500582310631799e-07 1:0.019849701 2:0.74891597 3:0.69090903 4:0.47549999 5:0.3761 6:3.1448801 7:7.8980999 8:10.1422 9:12.9654 10:-24.633301 11:-16.9606 12:-24.7136 #
-9.2085820890870283500582310631799e-07 1:0.0384642 2:0.215189 3:0.21676201 4:0.45680001 5:0.44159999 6:3.18308 7:8.5162096 8:11.8054 9:12.9188 10:-25.3314 11:-18.1359 12:-25.621799 #
-5.5251492534522165865184650107578e-07 1:0.0268114 2:0.46722001 3:0.232401 4:0.46610001 5:0.46349999 6:3.1863401 7:9.8326302 8:12.8178 9:13.4492 10:-27.4217 11:-19.876301 12:-26.5874 #
1.8417164178174056170720870092422e-07 1:0.0329316 2:0.67959797 3:0.227264 4:0.44069999 5:0.42250001 6:3.1748099 7:8.5063601 8:11.1937 9:12.364 10:-24.175301 11:-16.886299 12:-24.5714 #
-1.8417164178174056170720870092422e-07 1:0.0173003 2:0.67840803 3:0.47546899 4:0.47749999 5:0.4747 6:3.17854 7:8.5448399 8:13.5684 9:14.1291 10:-28.1579 11:-18.6113 12:-28.1024 #
9.2085820890870283500582310631799e-07 1:0.0161289 2:0.76822501 3:0.64524603 4:0.39669999 5:0.39629999 6:3.1566899 7:7.8534598 8:10.5605 9:12.2997 10:-24.3615 11:-16.255501 12:-23.741899 #
5.5251492534522165865184650107578e-07 1:0.0151435 2:0.749493 3:0.68471998 4:0.46740001 5:0.3752 6:3.1444099 7:7.8673701 8:10.1159 9:12.9337 10:-24.6108 11:-16.9345 12:-24.6071 #
9.2085820890870283500582310631799e-07 1:0.0384642 2:0.215189 3:0.21676201 4:0.45680001 5:0.44159999 6:3.18308 7:8.5162096 8:11.8054 9:12.9188 10:-25.3314 11:-18.1359 12:-25.621799 #
5.5251492534522165865184650107578e-07 1:0.0268114 2:0.46722001 3:0.232401 4:0.46610001 5:0.46349999 6:3.1863401 7:9.8326302 8:12.8178 9:13.4492 10:-27.4217 11:-19.876301 12:-26.5874 #
1.8417164178174056170720870092422e-07 1:0.0329316 2:0.67959797 3:0.227264 4:0.44069999 5:0.42250001 6:3.1748099 7:8.5063601 8:11.1937 9:12.364 10:-24.175301 11:-16.886299 12:-24.5714 #
-1.8417164178174056170720870092422e-07 1:0.0173003 2:0.67840803 3:0.47546899 4:0.47749999 5:0.4747 6:3.17854 7:8.5448399 8:13.5684 9:14.1291 10:-28.1579 11:-18.6113 12:-28.1024 #
-5.5251492534522165865184650107578e-07 1:0.0161289 2:0.76822501 3:0.64524603 4:0.39669999 5:0.39629999 6:3.1566899 7:7.8534598 8:10.5605 9:12.2997 10:-24.3615 11:-16.255501 12:-23.741899 #
-9.2085820890870283500582310631799e-07 1:0.0151435 2:0.749493 3:0.68471998 4:0.46740001 5:0.3752 6:3.1444099 7:7.8673701 8:10.1159 9:12.9337 10:-24.6108 11:-16.9345 12:-24.6071 #
-2.032961940777920469023088085106e-07 1:0.032359801 2:0.26468399 3:0.24982201 4:0.45210001 5:0.43130001 6:3.1839001 7:8.1909399 8:11.2841 9:16.4296 10:-30.329399 11:-20.928301 12:-30.659401 #
-1.2197771644667523872929712578511e-07 1:0.022689501 2:0.42839399 3:0.24676301 4:0.46489999 5:0.4637 6:3.1877201 7:8.9630203 8:11.8607 9:13.7532 10:-26.560699 11:-18.279499 12:-27.8295 #
-4.0659238815558410703950741786963e-08 1:0.020496599 2:0.66839802 3:0.21857201 4:0.4497 5:0.43869999 6:3.1837101 7:8.5783901 8:11.3063 9:13.0673 10:-25.255699 11:-17.3566 12:-26.3325 #
4.0659238815558410703950741786963e-08 1:0.023891401 2:0.67887998 3:0.47402701 4:0.4716 5:0.47040001 6:3.1765001 7:8.6142702 8:12.1879 9:13.4719 10:-27.8755 11:-17.916599 12:-26.301901 #
1.2197771644667523872929712578511e-07 1:0.019849701 2:0.70895302 3:0.60560399 4:0.4364 5:0.42039999 6:3.1596301 7:7.8829002 8:10.7924 9:12.6551 10:-24.776899 11:-16.6201 12:-24.4168 #
2.032961940777920469023088085106e-07 1:0.019849701 2:0.74891597 3:0.69090903 4:0.47549999 5:0.3761 6:3.1448801 7:7.8980999 8:10.1422 9:12.9654 10:-24.633301 11:-16.9606 12:-24.7136 #
2.032961940777920469023088085106e-07 1:0.032359801 2:0.26468399 3:0.24982201 4:0.45210001 5:0.43130001 6:3.1839001 7:8.1909399 8:11.2841 9:16.4296 10:-30.329399 11:-20.928301 12:-30.659401 #
1.2197771644667523872929712578511e-07 1:0.022689501 2:0.42839399 3:0.24676301 4:0.46489999 5:0.4637 6:3.1877201 7:8.9630203 8:11.8607 9:13.7532 10:-26.560699 11:-18.279499 12:-27.8295 #
4.0659238815558410703950741786963e-08 1:0.020496599 2:0.66839802 3:0.21857201 4:0.4497 5:0.43869999 6:3.1837101 7:8.5783901 8:11.3063 9:13.0673 10:-25.255699 11:-17.3566 12:-26.3325 #
-4.0659238815558410703950741786963e-08 1:0.023891401 2:0.67887998 3:0.47402701 4:0.4716 5:0.47040001 6:3.1765001 7:8.6142702 8:12.1879 9:13.4719 10:-27.8755 11:-17.916599 12:-26.301901 #
-1.2197771644667523872929712578511e-07 1:0.019849701 2:0.70895302 3:0.60560399 4:0.4364 5:0.42039999 6:3.1596301 7:7.8829002 8:10.7924 9:12.6551 10:-24.776899 11:-16.6201 12:-24.4168 #
-2.032961940777920469023088085106e-07 1:0.019849701 2:0.74891597 3:0.69090903 4:0.47549999 5:0.3761 6:3.1448801 7:7.8980999 8:10.1422 9:12.9654 10:-24.633301 11:-16.9606 12:-24.7136 #
-2.032961940777920469023088085106e-07 1:0.0384642 2:0.215189 3:0.21676201 4:0.45680001 5:0.44159999 6:3.18308 7:8.5162096 8:11.8054 9:12.9188 10:-25.3314 11:-18.1359 12:-25.621799 #
-4.0659238815558410703950741786963e-08 1:0.0268114 2:0.46722001 3:0.232401 4:0.46610001 5:0.46349999 6:3.1863401 7:9.8326302 8:12.8178 9:13.4492 10:-27.4217 11:-19.876301 12:-26.5874 #
-1.2197771644667523872929712578511e-07 1:0.0329316 2:0.67959797 3:0.227264 4:0.44069999 5:0.42250001 6:3.1748099 7:8.5063601 8:11.1937 9:12.364 10:-24.175301 11:-16.886299 12:-24.5714 #
4.0659238815558410703950741786963e-08 1:0.0173003 2:0.67840803 3:0.47546899 4:0.47749999 5:0.4747 6:3.17854 7:8.5448399 8:13.5684 9:14.1291 10:-28.1579 11:-18.6113 12:-28.1024 #
2.032961940777920469023088085106e-07 1:0.0161289 2:0.76822501 3:0.64524603 4:0.39669999 5:0.39629999 6:3.1566899 7:7.8534598 8:10.5605 9:12.2997 10:-24.3615 11:-16.255501 12:-23.741899 #
1.2197771644667523872929712578511e-07 1:0.0151435 2:0.749493 3:0.68471998 4:0.46740001 5:0.3752 6:3.1444099 7:7.8673701 8:10.1159 9:12.9337 10:-24.6108 11:-16.9345 12:-24.6071 #
2.032961940777920469023088085106e-07 1:0.0384642 2:0.215189 3:0.21676201 4:0.45680001 5:0.44159999 6:3.18308 7:8.5162096 8:11.8054 9:12.9188 10:-25.3314 11:-18.1359 12:-25.621799 #
1.2197771644667523872929712578511e-07 1:0.0268114 2:0.46722001 3:0.232401 4:0.46610001 5:0.46349999 6:3.1863401 7:9.8326302 8:12.8178 9:13.4492 10:-27.4217 11:-19.876301 12:-26.5874 #
4.0659238815558410703950741786963e-08 1:0.0329316 2:0.67959797 3:0.227264 4:0.44069999 5:0.42250001 6:3.1748099 7:8.5063601 8:11.1937 9:12.364 10:-24.175301 11:-16.886299 12:-24.5714 #
-4.0659238815558410703950741786963e-08 1:0.0173003 2:0.67840803 3:0.47546899 4:0.47749999 5:0.4747 6:3.17854 7:8.5448399 8:13.5684 9:14.1291 10:-28.1579 11:-18.6113 12:-28.1024 #
-1.2197771644667523872929712578511e-07 1:0.0161289 2:0.76822501 3:0.64524603 4:0.39669999 5:0.39629999 6:3.1566899 7:7.8534598 8:10.5605 9:12.2997 10:-24.3615 11:-16.255501 12:-23.741899 #
-2.032961940777920469023088085106e-07 1:0.0151435 2:0.749493 3:0.68471998 4:0.46740001 5:0.3752 6:3.1444099 7:7.8673701 8:10.1159 9:12.9337 10:-24.6108 11:-16.9345 12:-24.6071 #
-1.8686604236011120762042019352589e-06 1:0.032359801 2:0.26468399 3:0.24982201 4:0.45210001 5:0.43130001 6:3.1839001 7:8.1909399 8:11.2841 9:16.4296 10:-30.329399 11:-20.928301 12:-30.659401 #
-1.1211962541606672457225211611553e-06 1:0.022689501 2:0.42839399 3:0.24676301 4:0.46489999 5:0.4637 6:3.1877201 7:8.9630203 8:11.8607 9:13.7532 10:-26.560699 11:-18.279499 12:-27.8295 #
3.7373208472022241524084038705178e-07 1:0.020496599 2:0.66839802 3:0.21857201 4:0.4497 5:0.43869999 6:3.1837101 7:8.5783901 8:11.3063 9:13.0673 10:-25.255699 11:-17.3566 12:-26.3325 #
-3.7373208472022241524084038705178e-07 1:0.023891401 2:0.67887998 3:0.47402701 4:0.4716 5:0.47040001 6:3.1765001 7:8.6142702 8:12.1879 9:13.4719 10:-27.8755 11:-17.916599 12:-26.301901 #
1.1211962541606672457225211611553e-06 1:0.019849701 2:0.70895302 3:0.60560399 4:0.4364 5:0.42039999 6:3.1596301 7:7.8829002 8:10.7924 9:12.6551 10:-24.776899 11:-16.6201 12:-24.4168 #
1.8686604236011120762042019352589e-06 1:0.019849701 2:0.74891597 3:0.69090903 4:0.47549999 5:0.3761 6:3.1448801 7:7.8980999 8:10.1422 9:12.9654 10:-24.633301 11:-16.9606 12:-24.7136 #
1.8686604236011120762042019352589e-06 1:0.032359801 2:0.26468399 3:0.24982201 4:0.45210001 5:0.43130001 6:3.1839001 7:8.1909399 8:11.2841 9:16.4296 10:-30.329399 11:-20.928301 12:-30.659401 #
1.1211962541606672457225211611553e-06 1:0.022689501 2:0.42839399 3:0.24676301 4:0.46489999 5:0.4637 6:3.1877201 7:8.9630203 8:11.8607 9:13.7532 10:-26.560699 11:-18.279499 12:-27.8295 #
3.7373208472022241524084038705178e-07 1:0.020496599 2:0.66839802 3:0.21857201 4:0.4497 5:0.43869999 6:3.1837101 7:8.5783901 8:11.3063 9:13.0673 10:-25.255699 11:-17.3566 12:-26.3325 #
-3.7373208472022241524084038705178e-07 1:0.023891401 2:0.67887998 3:0.47402701 4:0.4716 5:0.47040001 6:3.1765001 7:8.6142702 8:12.1879 9:13.4719 10:-27.8755 11:-17.916599 12:-26.301901 #
-1.1211962541606672457225211611553e-06 1:0.019849701 2:0.70895302 3:0.60560399 4:0.4364 5:0.42039999 6:3.1596301 7:7.8829002 8:10.7924 9:12.6551 10:-24.776899 11:-16.6201 12:-24.4168 #
-1.8686604236011120762042019352589e-06 1:0.019849701 2:0.74891597 3:0.69090903 4:0.47549999 5:0.3761 6:3.1448801 7:7.8980999 8:10.1422 9:12.9654 10:-24.633301 11:-16.9606 12:-24.7136 #
-1.8686604236011120762042019352589e-06 1:0.0384642 2:0.215189 3:0.21676201 4:0.45680001 5:0.44159999 6:3.18308 7:8.5162096 8:11.8054 9:12.9188 10:-25.3314 11:-18.1359 12:-25.621799 #
-1.1211962541606672457225211611553e-06 1:0.0268114 2:0.46722001 3:0.232401 4:0.46610001 5:0.46349999 6:3.1863401 7:9.8326302 8:12.8178 9:13.4492 10:-27.4217 11:-19.876301 12:-26.5874 #
-3.7373208472022241524084038705178e-07 1:0.0329316 2:0.67959797 3:0.227264 4:0.44069999 5:0.42250001 6:3.1748099 7:8.5063601 8:11.1937 9:12.364 10:-24.175301 11:-16.886299 12:-24.5714 #
3.7373208472022241524084038705178e-07 1:0.0173003 2:0.67840803 3:0.47546899 4:0.47749999 5:0.4747 6:3.17854 7:8.5448399 8:13.5684 9:14.1291 10:-28.1579 11:-18.6113 12:-28.1024 #
1.8686604236011120762042019352589e-06 1:0.0161289 2:0.76822501 3:0.64524603 4:0.39669999 5:0.39629999 6:3.1566899 7:7.8534598 8:10.5605 9:12.2997 10:-24.3615 11:-16.255501 12:-23.741899 #
1.1211962541606672457225211611553e-06 1:0.0151435 2:0.749493 3:0.68471998 4:0.46740001 5:0.3752 6:3.1444099 7:7.8673701 8:10.1159 9:12.9337 10:-24.6108 11:-16.9345 12:-24.6071 #
1.8686604236011120762042019352589e-06 1:0.0384642 2:0.215189 3:0.21676201 4:0.45680001 5:0.44159999 6:3.18308 7:8.5162096 8:11.8054 9:12.9188 10:-25.3314 11:-18.1359 12:-25.621799 #
1.1211962541606672457225211611553e-06 1:0.0268114 2:0.46722001 3:0.232401 4:0.46610001 5:0.46349999 6:3.1863401 7:9.8326302 8:12.8178 9:13.4492 10:-27.4217 11:-19.876301 12:-26.5874 #
3.7373208472022241524084038705178e-07 1:0.0329316 2:0.67959797 3:0.227264 4:0.44069999 5:0.42250001 6:3.1748099 7:8.5063601 8:11.1937 9:12.364 10:-24.175301 11:-16.886299 12:-24.5714 #
-3.7373208472022241524084038705178e-07 1:0.0173003 2:0.67840803 3:0.47546899 4:0.47749999 5:0.4747 6:3.17854 7:8.5448399 8:13.5684 9:14.1291 10:-28.1579 11:-18.6113 12:-28.1024 #
-1.1211962541606672457225211611553e-06 1:0.0161289 2:0.76822501 3:0.64524603 4:0.39669999 5:0.39629999 6:3.1566899 7:7.8534598 8:10.5605 9:12.2997 10:-24.3615 11:-16.255501 12:-23.741899 #
-1.8686604236011120762042019352589e-06 1:0.0151435 2:0.749493 3:0.68471998 4:0.46740001 5:0.3752 6:3.1444099 7:7.8673701 8:10.1159 9:12.9337 10:-24.6108 11:-16.9345 12:-24.6071 #
-8.0750638362812010540795620849863e-07 1:0.032359801 2:0.26468399 3:0.24982201 4:0.45210001 5:0.43130001 6:3.1839001 7:8.1909399 8:11.2841 9:16.4296 10:-30.329399 11:-20.928301 12:-30.659401 #
-1.3458439727135335090132603474977e-06 1:0.022689501 2:0.42839399 3:0.24676301 4:0.46489999 5:0.4637 6:3.1877201 7:8.9630203 8:11.8607 9:13.7532 10:-26.560699 11:-18.279499 12:-27.8295 #
-2.6916879454270670180265206949954e-07 1:0.020496599 2:0.66839802 3:0.21857201 4:0.4497 5:0.43869999 6:3.1837101 7:8.5783901 8:11.3063 9:13.0673 10:-25.255699 11:-17.3566 12:-26.3325 #
2.6916879454270670180265206949954e-07 1:0.023891401 2:0.67887998 3:0.47402701 4:0.4716 5:0.47040001 6:3.1765001 7:8.6142702 8:12.1879 9:13.4719 10:-27.8755 11:-17.916599 12:-26.301901 #
8.0750638362812010540795620849863e-07 1:0.019849701 2:0.70895302 3:0.60560399 4:0.4364 5:0.42039999 6:3.1596301 7:7.8829002 8:10.7924 9:12.6551 10:-24.776899 11:-16.6201 12:-24.4168 #
1.3458439727135335090132603474977e-06 1:0.019849701 2:0.74891597 3:0.69090903 4:0.47549999 5:0.3761 6:3.1448801 7:7.8980999 8:10.1422 9:12.9654 10:-24.633301 11:-16.9606 12:-24.7136 #
1.3458439727135335090132603474977e-06 1:0.032359801 2:0.26468399 3:0.24982201 4:0.45210001 5:0.43130001 6:3.1839001 7:8.1909399 8:11.2841 9:16.4296 10:-30.329399 11:-20.928301 12:-30.659401 #
8.0750638362812010540795620849863e-07 1:0.022689501 2:0.42839399 3:0.24676301 4:0.46489999 5:0.4637 6:3.1877201 7:8.9630203 8:11.8607 9:13.7532 10:-26.560699 11:-18.279499 12:-27.8295 #
2.6916879454270670180265206949954e-07 1:0.020496599 2:0.66839802 3:0.21857201 4:0.4497 5:0.43869999 6:3.1837101 7:8.5783901 8:11.3063 9:13.0673 10:-25.255699 11:-17.3566 12:-26.3325 #
-2.6916879454270670180265206949954e-07 1:0.023891401 2:0.67887998 3:0.47402701 4:0.4716 5:0.47040001 6:3.1765001 7:8.6142702 8:12.1879 9:13.4719 10:-27.8755 11:-17.916599 12:-26.301901 #
-8.0750638362812010540795620849863e-07 1:0.019849701 2:0.70895302 3:0.60560399 4:0.4364 5:0.42039999 6:3.1596301 7:7.8829002 8:10.7924 9:12.6551 10:-24.776899 11:-16.6201 12:-24.4168 #
-1.3458439727135335090132603474977e-06 1:0.019849701 2:0.74891597 3:0.69090903 4:0.47549999 5:0.3761 6:3.1448801 7:7.8980999 8:10.1422 9:12.9654 10:-24.633301 11:-16.9606 12:-24.7136 #
-1.3458439727135335090132603474977e-06 1:0.0384642 2:0.215189 3:0.21676201 4:0.45680001 5:0.44159999 6:3.18308 7:8.5162096 8:11.8054 9:12.9188 10:-25.3314 11:-18.1359 12:-25.621799 #
-8.0750638362812010540795620849863e-07 1:0.0268114 2:0.46722001 3:0.232401 4:0.46610001 5:0.46349999 6:3.1863401 7:9.8326302 8:12.8178 9:13.4492 10:-27.4217 11:-19.876301 12:-26.5874 #
-2.6916879454270670180265206949954e-07 1:0.0329316 2:0.67959797 3:0.227264 4:0.44069999 5:0.42250001 6:3.1748099 7:8.5063601 8:11.1937 9:12.364 10:-24.175301 11:-16.886299 12:-24.5714 #
2.6916879454270670180265206949954e-07 1:0.0173003 2:0.67840803 3:0.47546899 4:0.47749999 5:0.4747 6:3.17854 7:8.5448399 8:13.5684 9:14.1291 10:-28.1579 11:-18.6113 12:-28.1024 #
1.3458439727135335090132603474977e-06 1:0.0161289 2:0.76822501 3:0.64524603 4:0.39669999 5:0.39629999 6:3.1566899 7:7.8534598 8:10.5605 9:12.2997 10:-24.3615 11:-16.255501 12:-23.741899 #
8.0750638362812010540795620849863e-07 1:0.0151435 2:0.749493 3:0.68471998 4:0.46740001 5:0.3752 6:3.1444099 7:7.8673701 8:10.1159 9:12.9337 10:-24.6108 11:-16.9345 12:-24.6071 #
1.3458439727135335090132603474977e-06 1:0.0384642 2:0.215189 3:0.21676201 4:0.45680001 5:0.44159999 6:3.18308 7:8.5162096 8:11.8054 9:12.9188 10:-25.3314 11:-18.1359 12:-25.621799 #
8.0750638362812010540795620849863e-07 1:0.0268114 2:0.46722001 3:0.232401 4:0.46610001 5:0.46349999 6:3.1863401 7:9.8326302 8:12.8178 9:13.4492 10:-27.4217 11:-19.876301 12:-26.5874 #
2.6916879454270670180265206949954e-07 1:0.0329316 2:0.67959797 3:0.227264 4:0.44069999 5:0.42250001 6:3.1748099 7:8.5063601 8:11.1937 9:12.364 10:-24.175301 11:-16.886299 12:-24.5714 #
-2.6916879454270670180265206949954e-07 1:0.0173003 2:0.67840803 3:0.47546899 4:0.47749999 5:0.4747 6:3.17854 7:8.5448399 8:13.5684 9:14.1291 10:-28.1579 11:-18.6113 12:-28.1024 #
-8.0750638362812010540795620849863e-07 1:0.0161289 2:0.76822501 3:0.64524603 4:0.39669999 5:0.39629999 6:3.1566899 7:7.8534598 8:10.5605 9:12.2997 10:-24.3615 11:-16.255501 12:-23.741899 #
-1.3458439727135335090132603474977e-06 1:0.0151435 2:0.749493 3:0.68471998 4:0.46740001 5:0.3752 6:3.1444099 7:7.8673701 8:10.1159 9:12.9337 10:-24.6108 11:-16.9345 12:-24.6071 #
-2.9334760552456640295677470046953e-07 1:0.032359801 2:0.26468399 3:0.24982201 4:0.45210001 5:0.43130001 6:3.1839001 7:8.1909399 8:11.2841 9:16.4296 10:-30.329399 11:-20.928301 12:-30.659401 #
-1.7600856331473984177406482028172e-07 1:0.022689501 2:0.42839399 3:0.24676301 4:0.46489999 5:0.4637 6:3.1877201 7:8.9630203 8:11.8607 9:13.7532 10:-26.560699 11:-18.279499 12:-27.8295 #
-5.8669521104913280591354940093907e-08 1:0.020496599 2:0.66839802 3:0.21857201 4:0.4497 5:0.43869999 6:3.1837101 7:8.5783901 8:11.3063 9:13.0673 10:-25.255699 11:-17.3566 12:-26.3325 #
1.7600856331473984177406482028172e-07 1:0.023891401 2:0.67887998 3:0.47402701 4:0.4716 5:0.47040001 6:3.1765001 7:8.6142702 8:12.1879 9:13.4719 10:-27.8755 11:-17.916599 12:-26.301901 #
5.8669521104913280591354940093907e-08 1:0.019849701 2:0.70895302 3:0.60560399 4:0.4364 5:0.42039999 6:3.1596301 7:7.8829002 8:10.7924 9:12.6551 10:-24.776899 11:-16.6201 12:-24.4168 #
2.9334760552456640295677470046953e-07 1:0.019849701 2:0.74891597 3:0.69090903 4:0.47549999 5:0.3761 6:3.1448801 7:7.8980999 8:10.1422 9:12.9654 10:-24.633301 11:-16.9606 12:-24.7136 #
2.9334760552456640295677470046953e-07 1:0.032359801 2:0.26468399 3:0.24982201 4:0.45210001 5:0.43130001 6:3.1839001 7:8.1909399 8:11.2841 9:16.4296 10:-30.329399 11:-20.928301 12:-30.659401 #
1.7600856331473984177406482028172e-07 1:0.022689501 2:0.42839399 3:0.24676301 4:0.46489999 5:0.4637 6:3.1877201 7:8.9630203 8:11.8607 9:13.7532 10:-26.560699 11:-18.279499 12:-27.8295 #
5.8669521104913280591354940093907e-08 1:0.020496599 2:0.66839802 3:0.21857201 4:0.4497 5:0.43869999 6:3.1837101 7:8.5783901 8:11.3063 9:13.0673 10:-25.255699 11:-17.3566 12:-26.3325 #
-5.8669521104913280591354940093907e-08 1:0.023891401 2:0.67887998 3:0.47402701 4:0.4716 5:0.47040001 6:3.1765001 7:8.6142702 8:12.1879 9:13.4719 10:-27.8755 11:-17.916599 12:-26.301901 #
-1.7600856331473984177406482028172e-07 1:0.019849701 2:0.70895302 3:0.60560399 4:0.4364 5:0.42039999 6:3.1596301 7:7.8829002 8:10.7924 9:12.6551 10:-24.776899 11:-16.6201 12:-24.4168 #
-2.9334760552456640295677470046953e-07 1:0.019849701 2:0.74891597 3:0.69090903 4:0.47549999 5:0.3761 6:3.1448801 7:7.8980999 8:10.1422 9:12.9654 10:-24.633301 11:-16.9606 12:-24.7136 #
-2.9334760552456640295677470046953e-07 1:0.0384642 2:0.215189 3:0.21676201 4:0.45680001 5:0.44159999 6:3.18308 7:8.5162096 8:11.8054 9:12.9188 10:-25.3314 11:-18.1359 12:-25.621799 #
-1.7600856331473984177406482028172e-07 1:0.0268114 2:0.46722001 3:0.232401 4:0.46610001 5:0.46349999 6:3.1863401 7:9.8326302 8:12.8178 9:13.4492 10:-27.4217 11:-19.876301 12:-26.5874 #
-5.8669521104913280591354940093907e-08 1:0.0329316 2:0.67959797 3:0.227264 4:0.44069999 5:0.42250001 6:3.1748099 7:8.5063601 8:11.1937 9:12.364 10:-24.175301 11:-16.886299 12:-24.5714 #
5.8669521104913280591354940093907e-08 1:0.0173003 2:0.67840803 3:0.47546899 4:0.47749999 5:0.4747 6:3.17854 7:8.5448399 8:13.5684 9:14.1291 10:-28.1579 11:-18.6113 12:-28.1024 #
2.9334760552456640295677470046953e-07 1:0.0161289 2:0.76822501 3:0.64524603 4:0.39669999 5:0.39629999 6:3.1566899 7:7.8534598 8:10.5605 9:12.2997 10:-24.3615 11:-16.255501 12:-23.741899 #
1.7600856331473984177406482028172e-07 1:0.0151435 2:0.749493 3:0.68471998 4:0.46740001 5:0.3752 6:3.1444099 7:7.8673701 8:10.1159 9:12.9337 10:-24.6108 11:-16.9345 12:-24.6071 #
2.9334760552456640295677470046953e-07 1:0.0384642 2:0.215189 3:0.21676201 4:0.45680001 5:0.44159999 6:3.18308 7:8.5162096 8:11.8054 9:12.9188 10:-25.3314 11:-18.1359 12:-25.621799 #
1.7600856331473984177406482028172e-07 1:0.0268114 2:0.46722001 3:0.232401 4:0.46610001 5:0.46349999 6:3.1863401 7:9.8326302 8:12.8178 9:13.4492 10:-27.4217 11:-19.876301 12:-26.5874 #
5.8669521104913280591354940093907e-08 1:0.0329316 2:0.67959797 3:0.227264 4:0.44069999 5:0.42250001 6:3.1748099 7:8.5063601 8:11.1937 9:12.364 10:-24.175301 11:-16.886299 12:-24.5714 #
-5.8669521104913280591354940093907e-08 1:0.0173003 2:0.67840803 3:0.47546899 4:0.47749999 5:0.4747 6:3.17854 7:8.5448399 8:13.5684 9:14.1291 10:-28.1579 11:-18.6113 12:-28.1024 #
-1.7600856331473984177406482028172e-07 1:0.0161289 2:0.76822501 3:0.64524603 4:0.39669999 5:0.39629999 6:3.1566899 7:7.8534598 8:10.5605 9:12.2997 10:-24.3615 11:-16.255501 12:-23.741899 #
-2.9334760552456640295677470046953e-07 1:0.0151435 2:0.749493 3:0.68471998 4:0.46740001 5:0.3752 6:3.1444099 7:7.8673701 8:10.1159 9:12.9337 10:-24.6108 11:-16.9345 12:-24.6071 #
-2.4044478602696819299368562877772e-06 1:0.032359801 2:0.26468399 3:0.24982201 4:0.45210001 5:0.43130001 6:3.1839001 7:8.1909399 8:11.2841 9:16.4296 10:-30.329399 11:-20.928301 12:-30.659401 #
-4.8088957205393640716319493891295e-07 1:0.022689501 2:0.42839399 3:0.24676301 4:0.46489999 5:0.4637 6:3.1877201 7:8.9630203 8:11.8607 9:13.7532 10:-26.560699 11:-18.279499 12:-27.8295 #
-1.4426687161618093273687032235264e-06 1:0.020496599 2:0.66839802 3:0.21857201 4:0.4497 5:0.43869999 6:3.1837101 7:8.5783901 8:11.3063 9:13.0673 10:-25.255699 11:-17.3566 12:-26.3325 #
4.8088957205393640716319493891295e-07 1:0.023891401 2:0.67887998 3:0.47402701 4:0.4716 5:0.47040001 6:3.1765001 7:8.6142702 8:12.1879 9:13.4719 10:-27.8755 11:-17.916599 12:-26.301901 #
1.4426687161618093273687032235264e-06 1:0.019849701 2:0.70895302 3:0.60560399 4:0.4364 5:0.42039999 6:3.1596301 7:7.8829002 8:10.7924 9:12.6551 10:-24.776899 11:-16.6201 12:-24.4168 #
2.4044478602696819299368562877772e-06 1:0.019849701 2:0.74891597 3:0.69090903 4:0.47549999 5:0.3761 6:3.1448801 7:7.8980999 8:10.1422 9:12.9654 10:-24.633301 11:-16.9606 12:-24.7136 #
2.4044478602696819299368562877772e-06 1:0.032359801 2:0.26468399 3:0.24982201 4:0.45210001 5:0.43130001 6:3.1839001 7:8.1909399 8:11.2841 9:16.4296 10:-30.329399 11:-20.928301 12:-30.659401 #
1.4426687161618093273687032235264e-06 1:0.022689501 2:0.42839399 3:0.24676301 4:0.46489999 5:0.4637 6:3.1877201 7:8.9630203 8:11.8607 9:13.7532 10:-26.560699 11:-18.279499 12:-27.8295 #
4.8088957205393640716319493891295e-07 1:0.020496599 2:0.66839802 3:0.21857201 4:0.4497 5:0.43869999 6:3.1837101 7:8.5783901 8:11.3063 9:13.0673 10:-25.255699 11:-17.3566 12:-26.3325 #
-4.8088957205393640716319493891295e-07 1:0.023891401 2:0.67887998 3:0.47402701 4:0.4716 5:0.47040001 6:3.1765001 7:8.6142702 8:12.1879 9:13.4719 10:-27.8755 11:-17.916599 12:-26.301901 #
-1.4426687161618093273687032235264e-06 1:0.019849701 2:0.70895302 3:0.60560399 4:0.4364 5:0.42039999 6:3.1596301 7:7.8829002 8:10.7924 9:12.6551 10:-24.776899 11:-16.6201 12:-24.4168 #
-2.4044478602696819299368562877772e-06 1:0.019849701 2:0.74891597 3:0.69090903 4:0.47549999 5:0.3761 6:3.1448801 7:7.8980999 8:10.1422 9:12.9654 10:-24.633301 11:-16.9606 12:-24.7136 #
-2.4044478602696819299368562877772e-06 1:0.0384642 2:0.215189 3:0.21676201 4:0.45680001 5:0.44159999 6:3.18308 7:8.5162096 8:11.8054 9:12.9188 10:-25.3314 11:-18.1359 12:-25.621799 #
-1.4426687161618093273687032235264e-06 1:0.0268114 2:0.46722001 3:0.232401 4:0.46610001 5:0.46349999 6:3.1863401 7:9.8326302 8:12.8178 9:13.4492 10:-27.4217 11:-19.876301 12:-26.5874 #
-4.8088957205393640716319493891295e-07 1:0.0329316 2:0.67959797 3:0.227264 4:0.44069999 5:0.42250001 6:3.1748099 7:8.5063601 8:11.1937 9:12.364 10:-24.175301 11:-16.886299 12:-24.5714 #
4.8088957205393640716319493891295e-07 1:0.0173003 2:0.67840803 3:0.47546899 4:0.47749999 5:0.4747 6:3.17854 7:8.5448399 8:13.5684 9:14.1291 10:-28.1579 11:-18.6113 12:-28.1024 #
2.4044478602696819299368562877772e-06 1:0.0161289 2:0.76822501 3:0.64524603 4:0.39669999 5:0.39629999 6:3.1566899 7:7.8534598 8:10.5605 9:12.2997 10:-24.3615 11:-16.255501 12:-23.741899 #
1.4426687161618093273687032235264e-06 1:0.0151435 2:0.749493 3:0.68471998 4:0.46740001 5:0.3752 6:3.1444099 7:7.8673701 8:10.1159 9:12.9337 10:-24.6108 11:-16.9345 12:-24.6071 #
2.4044478602696819299368562877772e-06 1:0.0384642 2:0.215189 3:0.21676201 4:0.45680001 5:0.44159999 6:3.18308 7:8.5162096 8:11.8054 9:12.9188 10:-25.3314 11:-18.1359 12:-25.621799 #
1.4426687161618093273687032235264e-06 1:0.0268114 2:0.46722001 3:0.232401 4:0.46610001 5:0.46349999 6:3.1863401 7:9.8326302 8:12.8178 9:13.4492 10:-27.4217 11:-19.876301 12:-26.5874 #
4.8088957205393640716319493891295e-07 1:0.0329316 2:0.67959797 3:0.227264 4:0.44069999 5:0.42250001 6:3.1748099 7:8.5063601 8:11.1937 9:12.364 10:-24.175301 11:-16.886299 12:-24.5714 #
-4.8088957205393640716319493891295e-07 1:0.0173003 2:0.67840803 3:0.47546899 4:0.47749999 5:0.4747 6:3.17854 7:8.5448399 8:13.5684 9:14.1291 10:-28.1579 11:-18.6113 12:-28.1024 #
-1.4426687161618093273687032235264e-06 1:0.0161289 2:0.76822501 3:0.64524603 4:0.39669999 5:0.39629999 6:3.1566899 7:7.8534598 8:10.5605 9:12.2997 10:-24.3615 11:-16.255501 12:-23.741899 #
-2.4044478602696819299368562877772e-06 1:0.0151435 2:0.749493 3:0.68471998 4:0.46740001 5:0.3752 6:3.1444099 7:7.8673701 8:10.1159 9:12.9337 10:-24.6108 11:-16.9345 12:-24.6071 #
-1.2727974014695716773061919327437e-06 1:0.032359801 2:0.26468399 3:0.24982201 4:0.45210001 5:0.43130001 6:3.1839001 7:8.1909399 8:11.2841 9:16.4296 10:-30.329399 11:-20.928301 12:-30.659401 #
-7.636784408817430063837151596462e-07 1:0.022689501 2:0.42839399 3:0.24676301 4:0.46489999 5:0.4637 6:3.1877201 7:8.9630203 8:11.8607 9:13.7532 10:-26.560699 11:-18.279499 12:-27.8295 #
-2.5455948029391433546123838654873e-07 1:0.020496599 2:0.66839802 3:0.21857201 4:0.4497 5:0.43869999 6:3.1837101 7:8.5783901 8:11.3063 9:13.0673 10:-25.255699 11:-17.3566 12:-26.3325 #
2.5455948029391433546123838654873e-07 1:0.023891401 2:0.67887998 3:0.47402701 4:0.4716 5:0.47040001 6:3.1765001 7:8.6142702 8:12.1879 9:13.4719 10:-27.8755 11:-17.916599 12:-26.301901 #
7.636784408817430063837151596462e-07 1:0.019849701 2:0.70895302 3:0.60560399 4:0.4364 5:0.42039999 6:3.1596301 7:7.8829002 8:10.7924 9:12.6551 10:-24.776899 11:-16.6201 12:-24.4168 #
1.2727974014695716773061919327437e-06 1:0.019849701 2:0.74891597 3:0.69090903 4:0.47549999 5:0.3761 6:3.1448801 7:7.8980999 8:10.1422 9:12.9654 10:-24.633301 11:-16.9606 12:-24.7136 #
1.2727974014695716773061919327437e-06 1:0.032359801 2:0.26468399 3:0.24982201 4:0.45210001 5:0.43130001 6:3.1839001 7:8.1909399 8:11.2841 9:16.4296 10:-30.329399 11:-20.928301 12:-30.659401 #
7.636784408817430063837151596462e-07 1:0.022689501 2:0.42839399 3:0.24676301 4:0.46489999 5:0.4637 6:3.1877201 7:8.9630203 8:11.8607 9:13.7532 10:-26.560699 11:-18.279499 12:-27.8295 #
2.5455948029391433546123838654873e-07 1:0.020496599 2:0.66839802 3:0.21857201 4:0.4497 5:0.43869999 6:3.1837101 7:8.5783901 8:11.3063 9:13.0673 10:-25.255699 11:-17.3566 12:-26.3325 #
-2.5455948029391433546123838654873e-07 1:0.023891401 2:0.67887998 3:0.47402701 4:0.4716 5:0.47040001 6:3.1765001 7:8.6142702 8:12.1879 9:13.4719 10:-27.8755 11:-17.916599 12:-26.301901 #
-7.636784408817430063837151596462e-07 1:0.019849701 2:0.70895302 3:0.60560399 4:0.4364 5:0.42039999 6:3.1596301 7:7.8829002 8:10.7924 9:12.6551 10:-24.776899 11:-16.6201 12:-24.4168 #
-1.2727974014695716773061919327437e-06 1:0.019849701 2:0.74891597 3:0.69090903 4:0.47549999 5:0.3761 6:3.1448801 7:7.8980999 8:10.1422 9:12.9654 10:-24.633301 11:-16.9606 12:-24.7136 #
-1.2727974014695716773061919327437e-06 1:0.0384642 2:0.215189 3:0.21676201 4:0.45680001 5:0.44159999 6:3.18308 7:8.5162096 8:11.8054 9:12.9188 10:-25.3314 11:-18.1359 12:-25.621799 #
-7.636784408817430063837151596462e-07 1:0.0268114 2:0.46722001 3:0.232401 4:0.46610001 5:0.46349999 6:3.1863401 7:9.8326302 8:12.8178 9:13.4492 10:-27.4217 11:-19.876301 12:-26.5874 #
-2.5455948029391433546123838654873e-07 1:0.0329316 2:0.67959797 3:0.227264 4:0.44069999 5:0.42250001 6:3.1748099 7:8.5063601 8:11.1937 9:12.364 10:-24.175301 11:-16.886299 12:-24.5714 #
2.5455948029391433546123838654873e-07 1:0.0173003 2:0.67840803 3:0.47546899 4:0.47749999 5:0.4747 6:3.17854 7:8.5448399 8:13.5684 9:14.1291 10:-28.1579 11:-18.6113 12:-28.1024 #
1.2727974014695716773061919327437e-06 1:0.0161289 2:0.76822501 3:0.64524603 4:0.39669999 5:0.39629999 6:3.1566899 7:7.8534598 8:10.5605 9:12.2997 10:-24.3615 11:-16.255501 12:-23.741899 #
7.636784408817430063837151596462e-07 1:0.0151435 2:0.749493 3:0.68471998 4:0.46740001 5:0.3752 6:3.1444099 7:7.8673701 8:10.1159 9:12.9337 10:-24.6108 11:-16.9345 12:-24.6071 #
1.2727974014695716773061919327437e-06 1:0.0384642 2:0.215189 3:0.21676201 4:0.45680001 5:0.44159999 6:3.18308 7:8.5162096 8:11.8054 9:12.9188 10:-25.3314 11:-18.1359 12:-25.621799 #
7.636784408817430063837151596462e-07 1:0.0268114 2:0.46722001 3:0.232401 4:0.46610001 5:0.46349999 6:3.1863401 7:9.8326302 8:12.8178 9:13.4492 10:-27.4217 11:-19.876301 12:-26.5874 #
2.5455948029391433546123838654873e-07 1:0.0329316 2:0.67959797 3:0.227264 4:0.44069999 5:0.42250001 6:3.1748099 7:8.5063601 8:11.1937 9:12.364 10:-24.175301 11:-16.886299 12:-24.5714 #
-2.5455948029391433546123838654873e-07 1:0.0173003 2:0.67840803 3:0.47546899 4:0.47749999 5:0.4747 6:3.17854 7:8.5448399 8:13.5684 9:14.1291 10:-28.1579 11:-18.6113 12:-28.1024 #
-7.636784408817430063837151596462e-07 1:0.0161289 2:0.76822501 3:0.64524603 4:0.39669999 5:0.39629999 6:3.1566899 7:7.8534598 8:10.5605 9:12.2997 10:-24.3615 11:-16.255501 12:-23.741899 #
-1.2727974014695716773061919327437e-06 1:0.0151435 2:0.749493 3:0.68471998 4:0.46740001 5:0.3752 6:3.1444099 7:7.8673701 8:10.1159 9:12.9337 10:-24.6108 11:-16.9345 12:-24.6071 #
