SVM-light Version V6.20
1 # kernel type
3 # kernel parameter -d 
1 # kernel parameter -g 
1 # kernel parameter -s 
1 # kernel parameter -r 
empty# kernel parameter -u 
13 # highest feature index 
17 # number of training documents 
1081 # number of support vectors plus 1 
0 # threshold b, each following line is a SV (starting with alpha*y)
-5.5120230578195582544762841847516e-09 1:0.0490456 2:0.196658 3:0.13788299 4:0.40869999 5:0.38909999 6:3.1633401 7:8.3321695 8:10.9945 9:13.8648 10:-27.072701 11:-19.712299 12:-26.3006 #
5.5120230578195582544762841847516e-09 1:0.0155074 2:0.70650899 3:0.663077 4:0.4637 5:0.37490001 6:3.1471901 7:8.10532 8:10.0866 9:12.9636 10:-24.622801 11:-17.680799 12:-24.657 #
5.5120230578195582544762841847516e-09 1:0.0490456 2:0.196658 3:0.13788299 4:0.40869999 5:0.38909999 6:3.1633401 7:8.3321695 8:10.9945 9:13.8648 10:-27.072701 11:-19.712299 12:-26.3006 #
-5.5120230578195582544762841847516e-09 1:0.0155074 2:0.70650899 3:0.663077 4:0.4637 5:0.37490001 6:3.1471901 7:8.10532 8:10.0866 9:12.9636 10:-24.622801 11:-17.680799 12:-24.657 #
-5.5120230578195582544762841847516e-09 1:0.0552953 2:0.236121 3:0.25424901 4:0.4314 5:0.39379999 6:3.1759701 7:7.98453 8:11.3405 9:12.3873 10:-24.707001 11:-16.8678 12:-24.279499 #
5.5120230578195582544762841847516e-09 1:0.019098399 2:0.71313298 3:0.68557799 4:0.46950001 5:0.37869999 6:3.1475699 7:8.0176001 8:10.1175 9:13.2728 10:-25.222601 11:-19.057699 12:-25.0485 #
5.5120230578195582544762841847516e-09 1:0.0552953 2:0.236121 3:0.25424901 4:0.4314 5:0.39379999 6:3.1759701 7:7.98453 8:11.3405 9:12.3873 10:-24.707001 11:-16.8678 12:-24.279499 #
-5.5120230578195582544762841847516e-09 1:0.019098399 2:0.71313298 3:0.68557799 4:0.46950001 5:0.37869999 6:3.1475699 7:8.0176001 8:10.1175 9:13.2728 10:-25.222601 11:-19.057699 12:-25.0485 #
-5.5120230578195582544762841847516e-09 1:0.053833898 2:0.227677 3:0.19188599 4:0.40349999 5:0.37369999 6:3.15679 7:7.88695 8:11.5604 9:11.6476 10:-23.2661 11:-15.6219 12:-23.848101 #
5.5120230578195582544762841847516e-09 1:0.016845301 2:0.83307302 3:0.75845897 4:0.46059999 5:0.37560001 6:3.14482 7:7.8530002 8:10.1151 9:12.676 10:-25.427999 11:-17.075199 12:-24.071899 #
5.5120230578195582544762841847516e-09 1:0.053833898 2:0.227677 3:0.19188599 4:0.40349999 5:0.37369999 6:3.15679 7:7.88695 8:11.5604 9:11.6476 10:-23.2661 11:-15.6219 12:-23.848101 #
-5.5120230578195582544762841847516e-09 1:0.016845301 2:0.83307302 3:0.75845897 4:0.46059999 5:0.37560001 6:3.14482 7:7.8530002 8:10.1151 9:12.676 10:-25.427999 11:-17.075199 12:-24.071899 #
-5.5120230578195582544762841847516e-09 1:0.0433787 2:0.27502999 3:0.23218 4:0.42340001 5:0.40059999 6:3.1824801 7:8.1920004 8:11.2777 9:12.5007 10:-24.3902 11:-16.6385 12:-25.913401 #
5.5120230578195582544762841847516e-09 1:0.017565999 2:0.76848698 3:0.69269001 4:0.4691 5:0.37090001 6:3.14621 7:7.9131799 8:10.134 9:12.6887 10:-24.125999 11:-16.648399 12:-24.5741 #
5.5120230578195582544762841847516e-09 1:0.0433787 2:0.27502999 3:0.23218 4:0.42340001 5:0.40059999 6:3.1824801 7:8.1920004 8:11.2777 9:12.5007 10:-24.3902 11:-16.6385 12:-25.913401 #
-5.5120230578195582544762841847516e-09 1:0.017565999 2:0.76848698 3:0.69269001 4:0.4691 5:0.37090001 6:3.14621 7:7.9131799 8:10.134 9:12.6887 10:-24.125999 11:-16.648399 12:-24.5741 #
-5.5120230578195582544762841847516e-09 1:0.0396332 2:0.46640301 3:0.20306399 4:0.44220001 5:0.43239999 6:3.18468 7:9.6282701 8:11.5712 9:12.5603 10:-25.5089 11:-17.3759 12:-24.6297 #
5.5120230578195582544762841847516e-09 1:0.0202647 2:0.73066598 3:0.66820699 4:0.456 5:0.36700001 6:3.14568 7:7.94491 8:10.07 9:12.9188 10:-24.5229 11:-16.9685 12:-24.6138 #
5.5120230578195582544762841847516e-09 1:0.0396332 2:0.46640301 3:0.20306399 4:0.44220001 5:0.43239999 6:3.18468 7:9.6282701 8:11.5712 9:12.5603 10:-25.5089 11:-17.3759 12:-24.6297 #
-5.5120230578195582544762841847516e-09 1:0.0202647 2:0.73066598 3:0.66820699 4:0.456 5:0.36700001 6:3.14568 7:7.94491 8:10.07 9:12.9188 10:-24.5229 11:-16.9685 12:-24.6138 #
-5.5120230578195582544762841847516e-09 1:0.034422699 2:0.249318 3:0.25289699 4:0.47979999 5:0.47060001 6:3.1923699 7:8.9911604 8:12.6044 9:13.7546 10:-27.108101 11:-18.2631 12:-27.063601 #
5.5120230578195582544762841847516e-09 1:0.0128472 2:0.732216 3:0.67840499 4:0.465 5:0.3644 6:3.1490901 7:8.0398998 8:10.0792 9:12.9905 10:-24.602301 11:-17.070801 12:-24.788099 #
5.5120230578195582544762841847516e-09 1:0.034422699 2:0.249318 3:0.25289699 4:0.47979999 5:0.47060001 6:3.1923699 7:8.9911604 8:12.6044 9:13.7546 10:-27.108101 11:-18.2631 12:-27.063601 #
-5.5120230578195582544762841847516e-09 1:0.0128472 2:0.732216 3:0.67840499 4:0.465 5:0.3644 6:3.1490901 7:8.0398998 8:10.0792 9:12.9905 10:-24.602301 11:-17.070801 12:-24.788099 #
-5.5120230578195582544762841847516e-09 1:0.053535301 2:0.14674699 3:0.123129 4:0.45750001 5:0.4535 6:3.1927099 7:9.1742401 8:12.0645 9:14.2239 10:-27.374001 11:-18.815901 12:-28.1567 #
5.5120230578195582544762841847516e-09 1:0.0245637 2:0.78917801 3:0.77496397 4:0.4736 5:0.38080001 6:3.1491001 7:8.0262299 8:10.1722 9:13.3723 10:-26.2243 11:-17.731199 12:-25.146099 #
5.5120230578195582544762841847516e-09 1:0.053535301 2:0.14674699 3:0.123129 4:0.45750001 5:0.4535 6:3.1927099 7:9.1742401 8:12.0645 9:14.2239 10:-27.374001 11:-18.815901 12:-28.1567 #
-5.5120230578195582544762841847516e-09 1:0.0245637 2:0.78917801 3:0.77496397 4:0.4736 5:0.38080001 6:3.1491001 7:8.0262299 8:10.1722 9:13.3723 10:-26.2243 11:-17.731199 12:-25.146099 #
-5.5120230578195582544762841847516e-09 1:0.046202902 2:0.199058 3:0.137853 4:0.41769999 5:0.3691 6:3.1711299 7:8.25313 8:10.9681 9:12.2322 10:-23.8762 11:-16.373899 12:-24.201099 #
5.5120230578195582544762841847516e-09 1:0.0158753 2:0.685229 3:0.64400703 4:0.4698 5:0.3696 6:3.14748 7:8.1255903 8:10.0755 9:12.9331 10:-24.607 11:-17.018299 12:-24.570299 #
5.5120230578195582544762841847516e-09 1:0.046202902 2:0.199058 3:0.137853 4:0.41769999 5:0.3691 6:3.1711299 7:8.25313 8:10.9681 9:12.2322 10:-23.8762 11:-16.373899 12:-24.201099 #
-5.5120230578195582544762841847516e-09 1:0.0158753 2:0.685229 3:0.64400703 4:0.4698 5:0.3696 6:3.14748 7:8.1255903 8:10.0755 9:12.9331 10:-24.607 11:-17.018299 12:-24.570299 #
-5.5120230578195582544762841847516e-09 1:0.056338198 2:0.208968 3:0.120902 4:0.45159999 5:0.447 6:3.1901901 7:9.5528097 8:11.5443 9:13.1458 10:-25.500299 11:-18.639 12:-26.176201 #
5.5120230578195582544762841847516e-09 1:0.024604 2:0.76376098 3:0.703857 4:0.47049999 5:0.37670001 6:3.14663 7:7.9075599 8:10.1363 9:12.9979 10:-24.5805 11:-16.954599 12:-25.1451 #
5.5120230578195582544762841847516e-09 1:0.056338198 2:0.208968 3:0.120902 4:0.45159999 5:0.447 6:3.1901901 7:9.5528097 8:11.5443 9:13.1458 10:-25.500299 11:-18.639 12:-26.176201 #
-5.5120230578195582544762841847516e-09 1:0.024604 2:0.76376098 3:0.703857 4:0.47049999 5:0.37670001 6:3.14663 7:7.9075599 8:10.1363 9:12.9979 10:-24.5805 11:-16.954599 12:-25.1451 #
-5.5120230578195582544762841847516e-09 1:0.060222 2:0.20791499 3:0.231557 4:0.43020001 5:0.40200001 6:3.1417 7:7.95821 8:10.9252 9:11.5003 10:-22.782301 11:-15.7432 12:-22.994801 #
5.5120230578195582544762841847516e-09 1:0.025543099 2:0.62496102 3:0.60310298 4:0.45789999 5:0.38389999 6:3.16136 7:7.9768801 8:10.3312 9:12.9814 10:-24.637699 11:-17.281401 12:-26.5166 #
5.5120230578195582544762841847516e-09 1:0.060222 2:0.20791499 3:0.231557 4:0.43020001 5:0.40200001 6:3.1417 7:7.95821 8:10.9252 9:11.5003 10:-22.782301 11:-15.7432 12:-22.994801 #
-5.5120230578195582544762841847516e-09 1:0.025543099 2:0.62496102 3:0.60310298 4:0.45789999 5:0.38389999 6:3.16136 7:7.9768801 8:10.3312 9:12.9814 10:-24.637699 11:-17.281401 12:-26.5166 #
-5.5120230578195582544762841847516e-09 1:0.058557 2:0.247346 3:0.245702 4:0.43779999 5:0.4086 6:3.1628001 7:8.2733097 8:11.4168 9:12.0197 10:-23.8368 11:-17.379999 12:-23.9562 #
5.5120230578195582544762841847516e-09 1:0.0147459 2:0.69768202 3:0.66689497 4:0.47220001 5:0.3698 6:3.1489799 7:8.1133699 8:10.097 9:13.0159 10:-24.685699 11:-17.561701 12:-24.767799 #
5.5120230578195582544762841847516e-09 1:0.058557 2:0.247346 3:0.245702 4:0.43779999 5:0.4086 6:3.1628001 7:8.2733097 8:11.4168 9:12.0197 10:-23.8368 11:-17.379999 12:-23.9562 #
-5.5120230578195582544762841847516e-09 1:0.0147459 2:0.69768202 3:0.66689497 4:0.47220001 5:0.3698 6:3.1489799 7:8.1133699 8:10.097 9:13.0159 10:-24.685699 11:-17.561701 12:-24.767799 #
-5.5120230578195582544762841847516e-09 1:0.051062599 2:0.22167601 3:0.21927699 4:0.40630001 5:0.39430001 6:3.1638 7:8.49646 8:12.4238 9:11.591 10:-23.8319 11:-15.86 12:-23.6891 #
5.5120230578195582544762841847516e-09 1:0.027892901 2:0.72487301 3:0.66170901 4:0.46239999 5:0.3678 6:3.14972 7:8.02458 8:10.0894 9:13.1801 10:-24.880199 11:-17.240801 12:-25.1077 #
5.5120230578195582544762841847516e-09 1:0.051062599 2:0.22167601 3:0.21927699 4:0.40630001 5:0.39430001 6:3.1638 7:8.49646 8:12.4238 9:11.591 10:-23.8319 11:-15.86 12:-23.6891 #
-5.5120230578195582544762841847516e-09 1:0.027892901 2:0.72487301 3:0.66170901 4:0.46239999 5:0.3678 6:3.14972 7:8.02458 8:10.0894 9:13.1801 10:-24.880199 11:-17.240801 12:-25.1077 #
-5.5120230578195582544762841847516e-09 1:0.0618256 2:0.184047 3:0.129269 4:0.4569 5:0.4355 6:3.1895299 7:9.6532698 8:11.6175 9:14.5479 10:-28.2645 11:-19.385401 12:-27.642599 #
5.5120230578195582544762841847516e-09 1:0.0132723 2:0.693699 3:0.65363598 4:0.46959999 5:0.3698 6:3.14905 7:8.08004 8:10.1357 9:13.0082 10:-24.586599 11:-17.055201 12:-25.347099 #
5.5120230578195582544762841847516e-09 1:0.0618256 2:0.184047 3:0.129269 4:0.4569 5:0.4355 6:3.1895299 7:9.6532698 8:11.6175 9:14.5479 10:-28.2645 11:-19.385401 12:-27.642599 #
-5.5120230578195582544762841847516e-09 1:0.0132723 2:0.693699 3:0.65363598 4:0.46959999 5:0.3698 6:3.14905 7:8.08004 8:10.1357 9:13.0082 10:-24.586599 11:-17.055201 12:-25.347099 #
5.5120230578195582544762841847516e-09 1:0.0577319 2:0.254807 3:0.168524 4:0.41389999 5:0.33430001 6:3.1730599 7:8.0383301 8:11.481 9:12.0442 10:-23.806801 11:-16.4814 12:-25.969801 #
-5.5120230578195582544762841847516e-09 1:0.0147517 2:0.694417 3:0.65272802 4:0.4623 5:0.3671 6:3.1486001 7:8.1081896 8:10.0823 9:13.0473 10:-24.686701 11:-17.4998 12:-24.8804 #
5.5120230578195582544762841847516e-09 1:0.0577319 2:0.254807 3:0.168524 4:0.41389999 5:0.33430001 6:3.1730599 7:8.0383301 8:11.481 9:12.0442 10:-23.806801 11:-16.4814 12:-25.969801 #
-5.5120230578195582544762841847516e-09 1:0.0147517 2:0.694417 3:0.65272802 4:0.4623 5:0.3671 6:3.1486001 7:8.1081896 8:10.0823 9:13.0473 10:-24.686701 11:-17.4998 12:-24.8804 #
-5.5120230578195582544762841847516e-09 1:0.043262001 2:0.40023199 3:0.121418 4:0.45950001 5:0.43689999 6:3.1928699 7:9.1310596 8:12.1416 9:13.4844 10:-26.3074 11:-18.4939 12:-26.9716 #
5.5120230578195582544762841847516e-09 1:0.018828399 2:0.67578298 3:0.63757098 4:0.46529999 5:0.3547 6:3.14505 7:7.9591999 8:10.0133 9:12.6619 10:-24.151699 11:-16.787901 12:-24.148199 #
5.5120230578195582544762841847516e-09 1:0.043262001 2:0.40023199 3:0.121418 4:0.45950001 5:0.43689999 6:3.1928699 7:9.1310596 8:12.1416 9:13.4844 10:-26.3074 11:-18.4939 12:-26.9716 #
-5.5120230578195582544762841847516e-09 1:0.018828399 2:0.67578298 3:0.63757098 4:0.46529999 5:0.3547 6:3.14505 7:7.9591999 8:10.0133 9:12.6619 10:-24.151699 11:-16.787901 12:-24.148199 #
-5.5120230578195582544762841847516e-09 1:0.0304101 2:0.420856 3:0.204362 4:0.45370001 5:0.4413 6:3.1935101 7:9.3450499 8:11.3835 9:13.2129 10:-26.0333 11:-19.253599 12:-25.531601 #
5.5120230578195582544762841847516e-09 1:0.017031301 2:0.75611901 3:0.69854999 4:0.4684 5:0.375 6:3.14573 7:7.9387898 8:10.142 9:12.9219 10:-24.811899 11:-17.0233 12:-24.5002 #
5.5120230578195582544762841847516e-09 1:0.0304101 2:0.420856 3:0.204362 4:0.45370001 5:0.4413 6:3.1935101 7:9.3450499 8:11.3835 9:13.2129 10:-26.0333 11:-19.253599 12:-25.531601 #
-5.5120230578195582544762841847516e-09 1:0.017031301 2:0.75611901 3:0.69854999 4:0.4684 5:0.375 6:3.14573 7:7.9387898 8:10.142 9:12.9219 10:-24.811899 11:-17.0233 12:-24.5002 #
-5.5120230578195582544762841847516e-09 1:0.045938998 2:0.223994 3:0.21964499 4:0.47009999 5:0.4497 6:3.1819999 7:10.3612 8:11.7181 9:12.9818 10:-25.4107 11:-18.2104 12:-25.589899 #
5.5120230578195582544762841847516e-09 1:0.0231234 2:0.750211 3:0.689614 4:0.46700001 5:0.37459999 6:3.14676 7:7.95403 8:10.1163 9:12.9303 10:-24.491899 11:-16.9251 12:-24.8487 #
5.5120230578195582544762841847516e-09 1:0.045938998 2:0.223994 3:0.21964499 4:0.47009999 5:0.4497 6:3.1819999 7:10.3612 8:11.7181 9:12.9818 10:-25.4107 11:-18.2104 12:-25.589899 #
-5.5120230578195582544762841847516e-09 1:0.0231234 2:0.750211 3:0.689614 4:0.46700001 5:0.37459999 6:3.14676 7:7.95403 8:10.1163 9:12.9303 10:-24.491899 11:-16.9251 12:-24.8487 #
-5.5120230578195582544762841847516e-09 1:0.17564701 2:0.34887201 3:0.19122501 4:0.3466 5:0.31720001 6:3.0927501 7:8.3222799 8:9.6669598 9:11.6502 10:-22.358601 11:-16.667299 12:-22.6527 #
5.5120230578195582544762841847516e-09 1:0.021601399 2:0.77288997 3:0.71032798 4:0.47080001 5:0.37799999 6:3.14644 7:7.9383898 8:10.1514 9:12.9823 10:-24.7101 11:-17.0105 12:-24.689699 #
5.5120230578195582544762841847516e-09 1:0.17564701 2:0.34887201 3:0.19122501 4:0.3466 5:0.31720001 6:3.0927501 7:8.3222799 8:9.6669598 9:11.6502 10:-22.358601 11:-16.667299 12:-22.6527 #
-5.5120230578195582544762841847516e-09 1:0.021601399 2:0.77288997 3:0.71032798 4:0.47080001 5:0.37799999 6:3.14644 7:7.9383898 8:10.1514 9:12.9823 10:-24.7101 11:-17.0105 12:-24.689699 #
5.5120230578195582544762841847516e-09 1:0.189468 2:0.37126201 3:0.19776399 4:0.3635 5:0.32390001 6:3.1034 7:8.0112801 8:9.7002401 9:11.8097 10:-22.6786 11:-15.8192 12:-22.7593 #
-5.5120230578195582544762841847516e-09 1:0.0209627 2:0.752756 3:0.69182402 4:0.47459999 5:0.37400001 6:3.14676 7:7.9263101 8:10.1387 9:12.9416 10:-24.520399 11:-16.919701 12:-24.875999 #
5.5120230578195582544762841847516e-09 1:0.189468 2:0.37126201 3:0.19776399 4:0.3635 5:0.32390001 6:3.1034 7:8.0112801 8:9.7002401 9:11.8097 10:-22.6786 11:-15.8192 12:-22.7593 #
-5.5120230578195582544762841847516e-09 1:0.0209627 2:0.752756 3:0.69182402 4:0.47459999 5:0.37400001 6:3.14676 7:7.9263101 8:10.1387 9:12.9416 10:-24.520399 11:-16.919701 12:-24.875999 #
-5.5120230578195582544762841847516e-09 1:0.0314149 2:0.33992901 3:0.134068 4:0.4402 5:0.39660001 6:3.1826799 7:8.6327496 8:13.3181 9:12.6881 10:-25.7428 11:-17.0072 12:-26.0287 #
5.5120230578195582544762841847516e-09 1:0.0186194 2:0.76304603 3:0.64179701 4:0.47600001 5:0.37720001 6:3.1405499 7:7.5352998 8:10.1674 9:12.1468 10:-23.336599 11:-15.9235 12:-23.7316 #
5.5120230578195582544762841847516e-09 1:0.0314149 2:0.33992901 3:0.134068 4:0.4402 5:0.39660001 6:3.1826799 7:8.6327496 8:13.3181 9:12.6881 10:-25.7428 11:-17.0072 12:-26.0287 #
-5.5120230578195582544762841847516e-09 1:0.0186194 2:0.76304603 3:0.64179701 4:0.47600001 5:0.37720001 6:3.1405499 7:7.5352998 8:10.1674 9:12.1468 10:-23.336599 11:-15.9235 12:-23.7316 #
-5.5120230578195582544762841847516e-09 1:0.0278209 2:0.409841 3:0.140241 4:0.4562 5:0.4104 6:3.1779499 7:8.4973402 8:10.8077 9:12.8451 10:-24.717699 11:-17.3529 12:-25.030199 #
5.5120230578195582544762841847516e-09 1:0.016830301 2:0.77416497 3:0.72044098 4:0.4718 5:0.373 6:3.14589 7:7.9508801 8:10.1315 9:12.9594 10:-24.6514 11:-16.989201 12:-24.659401 #
5.5120230578195582544762841847516e-09 1:0.0278209 2:0.409841 3:0.140241 4:0.4562 5:0.4104 6:3.1779499 7:8.4973402 8:10.8077 9:12.8451 10:-24.717699 11:-17.3529 12:-25.030199 #
-5.5120230578195582544762841847516e-09 1:0.016830301 2:0.77416497 3:0.72044098 4:0.4718 5:0.373 6:3.14589 7:7.9508801 8:10.1315 9:12.9594 10:-24.6514 11:-16.989201 12:-24.659401 #
-5.5120230578195582544762841847516e-09 1:0.0469741 2:0.21809199 3:0.135298 4:0.43900001 5:0.417 6:3.1889601 7:8.6311903 8:11.3443 9:13.9359 10:-26.742701 11:-18.723101 12:-26.7113 #
5.5120230578195582544762841847516e-09 1:0.017950799 2:0.75704497 3:0.69954598 4:0.47569999 5:0.37490001 6:3.14607 7:7.9699101 8:10.1418 9:12.9983 10:-24.7869 11:-17.073 12:-24.6672 #
5.5120230578195582544762841847516e-09 1:0.0469741 2:0.21809199 3:0.135298 4:0.43900001 5:0.417 6:3.1889601 7:8.6311903 8:11.3443 9:13.9359 10:-26.742701 11:-18.723101 12:-26.7113 #
-5.5120230578195582544762841847516e-09 1:0.017950799 2:0.75704497 3:0.69954598 4:0.47569999 5:0.37490001 6:3.14607 7:7.9699101 8:10.1418 9:12.9983 10:-24.7869 11:-17.073 12:-24.6672 #
-5.5120230578195582544762841847516e-09 1:0.047756702 2:0.39091301 3:0.135721 4:0.4623 5:0.44710001 6:3.18747 7:9.0514698 8:11.9619 9:14.0892 10:-27.7673 11:-19.3561 12:-27.1259 #
5.5120230578195582544762841847516e-09 1:0.014428 2:0.739779 3:0.66646701 4:0.47299999 5:0.37220001 6:3.14591 7:7.8203101 8:10.1433 9:12.5945 10:-24.0231 11:-16.533501 12:-24.273001 #
5.5120230578195582544762841847516e-09 1:0.047756702 2:0.39091301 3:0.135721 4:0.4623 5:0.44710001 6:3.18747 7:9.0514698 8:11.9619 9:14.0892 10:-27.7673 11:-19.3561 12:-27.1259 #
-5.5120230578195582544762841847516e-09 1:0.014428 2:0.739779 3:0.66646701 4:0.47299999 5:0.37220001 6:3.14591 7:7.8203101 8:10.1433 9:12.5945 10:-24.0231 11:-16.533501 12:-24.273001 #
5.5120230578195582544762841847516e-09 1:0.052143302 2:0.207609 3:0.14178699 4:0.4711 5:0.4163 6:3.1873701 7:9.3766403 8:12.0515 9:14.5827 10:-27.9368 11:-19.2812 12:-28.302299 #
-5.5120230578195582544762841847516e-09 1:0 2:0.77046901 3:0.36963701 4:0.3502 5:0.3184 6:3.07198 7:8.9271498 8:11.5884 9:11.1715 10:-22.6647 11:-15.7351 12:-22.746901 #
5.5120230578195582544762841847516e-09 1:0.052143302 2:0.207609 3:0.14178699 4:0.4711 5:0.4163 6:3.1873701 7:9.3766403 8:12.0515 9:14.5827 10:-27.9368 11:-19.2812 12:-28.302299 #
-5.5120230578195582544762841847516e-09 1:0 2:0.77046901 3:0.36963701 4:0.3502 5:0.3184 6:3.07198 7:8.9271498 8:11.5884 9:11.1715 10:-22.6647 11:-15.7351 12:-22.746901 #
-5.5120230578195582544762841847516e-09 1:0.0534494 2:0.21990301 3:0.150085 4:0.43810001 5:0.36289999 6:3.1774299 7:8.1592197 8:11.2079 9:12.373 10:-24.2644 11:-16.560499 12:-24.378099 #
5.5120230578195582544762841847516e-09 1:0.019159401 2:0.74767202 3:0.69527799 4:0.47279999 5:0.37619999 6:3.14656 7:8.0052099 8:10.1229 9:13.0098 10:-24.7271 11:-17.0805 12:-24.726101 #
5.5120230578195582544762841847516e-09 1:0.0534494 2:0.21990301 3:0.150085 4:0.43810001 5:0.36289999 6:3.1774299 7:8.1592197 8:11.2079 9:12.373 10:-24.2644 11:-16.560499 12:-24.378099 #
-5.5120230578195582544762841847516e-09 1:0.019159401 2:0.74767202 3:0.69527799 4:0.47279999 5:0.37619999 6:3.14656 7:8.0052099 8:10.1229 9:13.0098 10:-24.7271 11:-17.0805 12:-24.726101 #
-5.5120230578195582544762841847516e-09 1:0.044669598 2:0.242175 3:0.13439199 4:0.43239999 5:0.4188 6:3.1712 7:9.18015 8:11.963 9:12.7995 10:-25.531401 11:-17.4091 12:-25.228901 #
5.5120230578195582544762841847516e-09 1:0.017374801 2:0.71753001 3:0.65748298 4:0.47600001 5:0.37220001 6:3.1480701 7:7.8931999 8:10.0972 9:12.9888 10:-24.772499 11:-17.050699 12:-24.618799 #
5.5120230578195582544762841847516e-09 1:0.044669598 2:0.242175 3:0.13439199 4:0.43239999 5:0.4188 6:3.1712 7:9.18015 8:11.963 9:12.7995 10:-25.531401 11:-17.4091 12:-25.228901 #
-5.5120230578195582544762841847516e-09 1:0.017374801 2:0.71753001 3:0.65748298 4:0.47600001 5:0.37220001 6:3.1480701 7:7.8931999 8:10.0972 9:12.9888 10:-24.772499 11:-17.050699 12:-24.618799 #
-5.5120230578195582544762841847516e-09 1:0.0643721 2:0.22371601 3:0.152299 4:0.36489999 5:0.36289999 6:3.02338 7:8.8159599 8:11.0915 9:11.7389 10:-23.183399 11:-16.6411 12:-23.6038 #
5.5120230578195582544762841847516e-09 1:0.0236861 2:0.762788 3:0.70436102 4:0.47240001 5:0.38479999 6:3.14803 7:7.9209099 8:10.1734 9:13.2056 10:-24.9475 11:-17.181 12:-25.229099 #
5.5120230578195582544762841847516e-09 1:0.0643721 2:0.22371601 3:0.152299 4:0.36489999 5:0.36289999 6:3.02338 7:8.8159599 8:11.0915 9:11.7389 10:-23.183399 11:-16.6411 12:-23.6038 #
-5.5120230578195582544762841847516e-09 1:0.0236861 2:0.762788 3:0.70436102 4:0.47240001 5:0.38479999 6:3.14803 7:7.9209099 8:10.1734 9:13.2056 10:-24.9475 11:-17.181 12:-25.229099 #
-5.5120230578195582544762841847516e-09 1:0.0215923 2:0.33105201 3:0.201748 4:0.4314 5:0.42919999 6:3.18976 7:8.9117699 8:11.5148 9:12.7463 10:-24.932699 11:-17.879999 12:-25.1992 #
5.5120230578195582544762841847516e-09 1:0.0157388 2:0.69964099 3:0.68464297 4:0.4763 5:0.37189999 6:3.15293 7:8.1125298 8:10.1191 9:13.1772 10:-24.944901 11:-17.9279 12:-25.0119 #
5.5120230578195582544762841847516e-09 1:0.0215923 2:0.33105201 3:0.201748 4:0.4314 5:0.42919999 6:3.18976 7:8.9117699 8:11.5148 9:12.7463 10:-24.932699 11:-17.879999 12:-25.1992 #
-5.5120230578195582544762841847516e-09 1:0.0157388 2:0.69964099 3:0.68464297 4:0.4763 5:0.37189999 6:3.15293 7:8.1125298 8:10.1191 9:13.1772 10:-24.944901 11:-17.9279 12:-25.0119 #
-5.5120230578195582544762841847516e-09 1:0.061717901 2:0.214276 3:0.16282199 4:0.45899999 5:0.45820001 6:3.1852 7:8.1819897 8:13.0537 9:13.3597 10:-26.567699 11:-17.5065 12:-27.682699 #
5.5120230578195582544762841847516e-09 1:0.019978501 2:0.73060101 3:0.68176299 4:0.479 5:0.3748 6:3.1461201 7:8.0235596 8:10.1099 9:13.0918 10:-24.9737 11:-17.223499 12:-24.762199 #
5.5120230578195582544762841847516e-09 1:0.061717901 2:0.214276 3:0.16282199 4:0.45899999 5:0.45820001 6:3.1852 7:8.1819897 8:13.0537 9:13.3597 10:-26.567699 11:-17.5065 12:-27.682699 #
-5.5120230578195582544762841847516e-09 1:0.019978501 2:0.73060101 3:0.68176299 4:0.479 5:0.3748 6:3.1461201 7:8.0235596 8:10.1099 9:13.0918 10:-24.9737 11:-17.223499 12:-24.762199 #
-5.5120230578195582544762841847516e-09 1:0.063808396 2:0.22414801 3:0.230884 4:0.45550001 5:0.4479 6:3.1730299 7:8.6868896 8:12.1783 9:13.2656 10:-26.7124 11:-17.7101 12:-25.995399 #
5.5120230578195582544762841847516e-09 1:0.0207392 2:0.70586401 3:0.678765 4:0.47299999 5:0.37279999 6:3.14838 7:8.0108604 8:10.0921 9:13.2294 10:-25.129299 11:-18.4321 12:-24.9779 #
5.5120230578195582544762841847516e-09 1:0.063808396 2:0.22414801 3:0.230884 4:0.45550001 5:0.4479 6:3.1730299 7:8.6868896 8:12.1783 9:13.2656 10:-26.7124 11:-17.7101 12:-25.995399 #
-5.5120230578195582544762841847516e-09 1:0.0207392 2:0.70586401 3:0.678765 4:0.47299999 5:0.37279999 6:3.14838 7:8.0108604 8:10.0921 9:13.2294 10:-25.129299 11:-18.4321 12:-24.9779 #
-5.5120230578195582544762841847516e-09 1:0.052926101 2:0.21851 3:0.151601 4:0.45370001 5:0.45210001 6:3.18431 7:8.5915699 8:11.712 9:13.6332 10:-26.313801 11:-17.993799 12:-27.0271 #
5.5120230578195582544762841847516e-09 1:0.0152145 2:0.676884 3:0.64348102 4:0.4734 5:0.36379999 6:3.1486499 7:7.9513602 8:10.0512 9:13.337 10:-26.0425 11:-17.692301 12:-25.0331 #
5.5120230578195582544762841847516e-09 1:0.052926101 2:0.21851 3:0.151601 4:0.45370001 5:0.45210001 6:3.18431 7:8.5915699 8:11.712 9:13.6332 10:-26.313801 11:-17.993799 12:-27.0271 #
-5.5120230578195582544762841847516e-09 1:0.0152145 2:0.676884 3:0.64348102 4:0.4734 5:0.36379999 6:3.1486499 7:7.9513602 8:10.0512 9:13.337 10:-26.0425 11:-17.692301 12:-25.0331 #
-5.5120230578195582544762841847516e-09 1:0.073229499 2:0.201967 3:0.15759 4:0.4506 5:0.4224 6:3.19014 7:9.5557499 8:12.665 9:13.3743 10:-26.394199 11:-18.289801 12:-27.839199 #
5.5120230578195582544762841847516e-09 1:0.017887499 2:0.67826998 3:0.64748698 4:0.47409999 5:0.3673 6:3.1503301 7:7.9893498 8:10.0686 9:13.1124 10:-24.7397 11:-17.5268 12:-25.106701 #
5.5120230578195582544762841847516e-09 1:0.073229499 2:0.201967 3:0.15759 4:0.4506 5:0.4224 6:3.19014 7:9.5557499 8:12.665 9:13.3743 10:-26.394199 11:-18.289801 12:-27.839199 #
-5.5120230578195582544762841847516e-09 1:0.017887499 2:0.67826998 3:0.64748698 4:0.47409999 5:0.3673 6:3.1503301 7:7.9893498 8:10.0686 9:13.1124 10:-24.7397 11:-17.5268 12:-25.106701 #
-5.5120230578195582544762841847516e-09 1:0.053944401 2:0.21277501 3:0.124362 4:0.4183 5:0.4075 6:3.1700799 7:9.20965 8:11.6565 9:12.6565 10:-24.9608 11:-17.4685 12:-24.966299 #
5.5120230578195582544762841847516e-09 1:0.0177489 2:0.67880797 3:0.64064699 4:0.4869 5:0.3721 6:3.1477201 7:7.82129 8:10.1158 9:13.5141 10:-27.1157 11:-17.7279 12:-25.329 #
5.5120230578195582544762841847516e-09 1:0.053944401 2:0.21277501 3:0.124362 4:0.4183 5:0.4075 6:3.1700799 7:9.20965 8:11.6565 9:12.6565 10:-24.9608 11:-17.4685 12:-24.966299 #
-5.5120230578195582544762841847516e-09 1:0.0177489 2:0.67880797 3:0.64064699 4:0.4869 5:0.3721 6:3.1477201 7:7.82129 8:10.1158 9:13.5141 10:-27.1157 11:-17.7279 12:-25.329 #
-5.5120230578195582544762841847516e-09 1:0.062651798 2:0.195392 3:0.134307 4:0.46200001 5:0.36680001 6:3.1879499 7:8.7458601 8:11.6789 9:13.2832 10:-25.959999 11:-17.6707 12:-25.8773 #
5.5120230578195582544762841847516e-09 1:0.0147465 2:0.70622802 3:0.63631302 4:0.48190001 5:0.3707 6:3.14433 7:7.7816401 8:10.0855 9:12.8597 10:-24.3946 11:-16.7812 12:-24.6341 #
5.5120230578195582544762841847516e-09 1:0.062651798 2:0.195392 3:0.134307 4:0.46200001 5:0.36680001 6:3.1879499 7:8.7458601 8:11.6789 9:13.2832 10:-25.959999 11:-17.6707 12:-25.8773 #
-5.5120230578195582544762841847516e-09 1:0.0147465 2:0.70622802 3:0.63631302 4:0.48190001 5:0.3707 6:3.14433 7:7.7816401 8:10.0855 9:12.8597 10:-24.3946 11:-16.7812 12:-24.6341 #
-5.5120230578195582544762841847516e-09 1:0.0603237 2:0.14560901 3:0.14518601 4:0.45879999 5:0.44240001 6:3.1313901 7:9.1846199 8:11.9781 9:12.2647 10:-24.396601 11:-17.171499 12:-25.0499 #
5.5120230578195582544762841847516e-09 1:0.028643699 2:0.75094801 3:0.71522897 4:0.48010001 5:0.38229999 6:3.1477599 7:7.9918299 8:10.143 9:13.9821 10:-26.705601 11:-18.4149 12:-26.055201 #
5.5120230578195582544762841847516e-09 1:0.0603237 2:0.14560901 3:0.14518601 4:0.45879999 5:0.44240001 6:3.1313901 7:9.1846199 8:11.9781 9:12.2647 10:-24.396601 11:-17.171499 12:-25.0499 #
-5.5120230578195582544762841847516e-09 1:0.028643699 2:0.75094801 3:0.71522897 4:0.48010001 5:0.38229999 6:3.1477599 7:7.9918299 8:10.143 9:13.9821 10:-26.705601 11:-18.4149 12:-26.055201 #
-5.5120230578195582544762841847516e-09 1:0.060358498 2:0.172152 3:0.16320001 4:0.4727 5:0.4655 6:3.18488 7:9.1752796 8:11.6739 9:13.2344 10:-25.9445 11:-18.0625 12:-25.7684 #
5.5120230578195582544762841847516e-09 1:0.019708499 2:0.75124902 3:0.68474001 4:0.4761 5:0.3795 6:3.1434801 7:7.8738399 8:10.1168 9:13.099 10:-24.7083 11:-17.0361 12:-25.7988 #
5.5120230578195582544762841847516e-09 1:0.060358498 2:0.172152 3:0.16320001 4:0.4727 5:0.4655 6:3.18488 7:9.1752796 8:11.6739 9:13.2344 10:-25.9445 11:-18.0625 12:-25.7684 #
-5.5120230578195582544762841847516e-09 1:0.019708499 2:0.75124902 3:0.68474001 4:0.4761 5:0.3795 6:3.1434801 7:7.8738399 8:10.1168 9:13.099 10:-24.7083 11:-17.0361 12:-25.7988 #
-5.5120230578195582544762841847516e-09 1:0.0453173 2:0.32592899 3:0.133448 4:0.46520001 5:0.42919999 6:3.1754799 7:8.3203602 8:10.9932 9:12.73 10:-24.594999 11:-16.9694 12:-25.498501 #
5.5120230578195582544762841847516e-09 1:0.019220199 2:0.73554999 3:0.68015999 4:0.4743 5:0.38029999 6:3.1459799 7:7.8710999 8:10.1377 9:13.0466 10:-24.8496 11:-17.079599 12:-24.742001 #
5.5120230578195582544762841847516e-09 1:0.0453173 2:0.32592899 3:0.133448 4:0.46520001 5:0.42919999 6:3.1754799 7:8.3203602 8:10.9932 9:12.73 10:-24.594999 11:-16.9694 12:-25.498501 #
-5.5120230578195582544762841847516e-09 1:0.019220199 2:0.73554999 3:0.68015999 4:0.4743 5:0.38029999 6:3.1459799 7:7.8710999 8:10.1377 9:13.0466 10:-24.8496 11:-17.079599 12:-24.742001 #
-5.5120230578195582544762841847516e-09 1:0.0292398 2:0.31283101 3:0.204413 4:0.46070001 5:0.4447 6:3.1909399 7:9.4037104 8:11.8669 9:14.1749 10:-27.5812 11:-19.5054 12:-27.2362 #
5.5120230578195582544762841847516e-09 1:0.025699399 2:0.67037398 3:0.66553801 4:0.47690001 5:0.37869999 6:3.1505401 7:8.0638399 8:10.1443 9:12.946 10:-24.658001 11:-16.999399 12:-24.6264 #
5.5120230578195582544762841847516e-09 1:0.0292398 2:0.31283101 3:0.204413 4:0.46070001 5:0.4447 6:3.1909399 7:9.4037104 8:11.8669 9:14.1749 10:-27.5812 11:-19.5054 12:-27.2362 #
-5.5120230578195582544762841847516e-09 1:0.025699399 2:0.67037398 3:0.66553801 4:0.47690001 5:0.37869999 6:3.1505401 7:8.0638399 8:10.1443 9:12.946 10:-24.658001 11:-16.999399 12:-24.6264 #
-5.5120230578195582544762841847516e-09 1:0.0313324 2:0.38059399 3:0.238609 4:0.46340001 5:0.4366 6:3.1874399 7:9.4260397 8:11.6257 9:13.6619 10:-27.3591 11:-18.484301 12:-26.3074 #
5.5120230578195582544762841847516e-09 1:0.0182685 2:0.69664103 3:0.66527098 4:0.47319999 5:0.37740001 6:3.1486101 7:8.0016499 8:10.1576 9:13.1634 10:-25.187799 11:-17.9708 12:-24.8689 #
5.5120230578195582544762841847516e-09 1:0.0313324 2:0.38059399 3:0.238609 4:0.46340001 5:0.4366 6:3.1874399 7:9.4260397 8:11.6257 9:13.6619 10:-27.3591 11:-18.484301 12:-26.3074 #
-5.5120230578195582544762841847516e-09 1:0.0182685 2:0.69664103 3:0.66527098 4:0.47319999 5:0.37740001 6:3.1486101 7:8.0016499 8:10.1576 9:13.1634 10:-25.187799 11:-17.9708 12:-24.8689 #
-5.5120230578195582544762841847516e-09 1:0.0504013 2:0.246305 3:0.199349 4:0.42250001 5:0.4023 6:3.18221 7:8.6704102 8:11.1847 9:13.0093 10:-25.212601 11:-17.511801 12:-25.312401 #
5.5120230578195582544762841847516e-09 1:0.0169845 2:0.76289099 3:0.68848097 4:0.4716 5:0.3748 6:3.1446199 7:7.9057698 8:10.1392 9:12.8238 10:-24.3102 11:-16.777 12:-25.1292 #
5.5120230578195582544762841847516e-09 1:0.0504013 2:0.246305 3:0.199349 4:0.42250001 5:0.4023 6:3.18221 7:8.6704102 8:11.1847 9:13.0093 10:-25.212601 11:-17.511801 12:-25.312401 #
-5.5120230578195582544762841847516e-09 1:0.0169845 2:0.76289099 3:0.68848097 4:0.4716 5:0.3748 6:3.1446199 7:7.9057698 8:10.1392 9:12.8238 10:-24.3102 11:-16.777 12:-25.1292 #
-5.5120230578195582544762841847516e-09 1:0.061196402 2:0.23819301 3:0.21864501 4:0.377 5:0.3714 6:3.1415801 7:7.65166 8:11.3656 9:11.4958 10:-23.539101 11:-15.7095 12:-22.9398 #
5.5120230578195582544762841847516e-09 1:0.021263501 2:0.79717797 3:0.73971099 4:0.47260001 5:0.3784 6:3.14657 7:7.9779 8:10.1607 9:13.1192 10:-24.790001 11:-17.1115 12:-25.198 #
5.5120230578195582544762841847516e-09 1:0.061196402 2:0.23819301 3:0.21864501 4:0.377 5:0.3714 6:3.1415801 7:7.65166 8:11.3656 9:11.4958 10:-23.539101 11:-15.7095 12:-22.9398 #
-5.5120230578195582544762841847516e-09 1:0.021263501 2:0.79717797 3:0.73971099 4:0.47260001 5:0.3784 6:3.14657 7:7.9779 8:10.1607 9:13.1192 10:-24.790001 11:-17.1115 12:-25.198 #
-5.5120230578195582544762841847516e-09 1:0.064059697 2:0.220349 3:0.22587 4:0.4391 5:0.4341 6:3.17188 7:8.1187696 8:12.2811 9:13.0635 10:-25.9974 11:-17.1432 12:-25.8132 #
5.5120230578195582544762841847516e-09 1:0.0191509 2:0.75079203 3:0.68350399 4:0.47029999 5:0.37650001 6:3.1467099 7:7.9544001 8:10.1412 9:12.9532 10:-24.6572 11:-16.991501 12:-24.644699 #
5.5120230578195582544762841847516e-09 1:0.064059697 2:0.220349 3:0.22587 4:0.4391 5:0.4341 6:3.17188 7:8.1187696 8:12.2811 9:13.0635 10:-25.9974 11:-17.1432 12:-25.8132 #
-5.5120230578195582544762841847516e-09 1:0.0191509 2:0.75079203 3:0.68350399 4:0.47029999 5:0.37650001 6:3.1467099 7:7.9544001 8:10.1412 9:12.9532 10:-24.6572 11:-16.991501 12:-24.644699 #
-5.5120230578195582544762841847516e-09 1:0.060696501 2:0.23733699 3:0.21063399 4:0.4436 5:0.43399999 6:3.1916499 7:8.7008305 8:11.3724 9:13.4897 10:-26.748899 11:-17.8403 12:-25.9256 #
5.5120230578195582544762841847516e-09 1:0.018303899 2:0.75614899 3:0.68526602 4:0.4756 5:0.373 6:3.1438999 7:7.8893299 8:10.0985 9:12.8741 10:-24.378 11:-16.828501 12:-24.915501 #
5.5120230578195582544762841847516e-09 1:0.060696501 2:0.23733699 3:0.21063399 4:0.4436 5:0.43399999 6:3.1916499 7:8.7008305 8:11.3724 9:13.4897 10:-26.748899 11:-17.8403 12:-25.9256 #
-5.5120230578195582544762841847516e-09 1:0.018303899 2:0.75614899 3:0.68526602 4:0.4756 5:0.373 6:3.1438999 7:7.8893299 8:10.0985 9:12.8741 10:-24.378 11:-16.828501 12:-24.915501 #
-5.5120230578195582544762841847516e-09 1:0.032359801 2:0.26468399 3:0.24982201 4:0.45210001 5:0.43130001 6:3.1839001 7:8.1909399 8:11.2841 9:16.4296 10:-30.329399 11:-20.928301 12:-30.659401 #
5.5120230578195582544762841847516e-09 1:0.019849701 2:0.74891597 3:0.69090903 4:0.47549999 5:0.3761 6:3.1448801 7:7.8980999 8:10.1422 9:12.9654 10:-24.633301 11:-16.9606 12:-24.7136 #
5.5120230578195582544762841847516e-09 1:0.032359801 2:0.26468399 3:0.24982201 4:0.45210001 5:0.43130001 6:3.1839001 7:8.1909399 8:11.2841 9:16.4296 10:-30.329399 11:-20.928301 12:-30.659401 #
-5.5120230578195582544762841847516e-09 1:0.019849701 2:0.74891597 3:0.69090903 4:0.47549999 5:0.3761 6:3.1448801 7:7.8980999 8:10.1422 9:12.9654 10:-24.633301 11:-16.9606 12:-24.7136 #
-5.5120230578195582544762841847516e-09 1:0.0384642 2:0.215189 3:0.21676201 4:0.45680001 5:0.44159999 6:3.18308 7:8.5162096 8:11.8054 9:12.9188 10:-25.3314 11:-18.1359 12:-25.621799 #
5.5120230578195582544762841847516e-09 1:0.0151435 2:0.749493 3:0.68471998 4:0.46740001 5:0.3752 6:3.1444099 7:7.8673701 8:10.1159 9:12.9337 10:-24.6108 11:-16.9345 12:-24.6071 #
5.5120230578195582544762841847516e-09 1:0.0384642 2:0.215189 3:0.21676201 4:0.45680001 5:0.44159999 6:3.18308 7:8.5162096 8:11.8054 9:12.9188 10:-25.3314 11:-18.1359 12:-25.621799 #
-5.5120230578195582544762841847516e-09 1:0.0151435 2:0.749493 3:0.68471998 4:0.46740001 5:0.3752 6:3.1444099 7:7.8673701 8:10.1159 9:12.9337 10:-24.6108 11:-16.9345 12:-24.6071 #
-5.1685107095002332216380924886055e-09 1:0.0490456 2:0.196658 3:0.13788299 4:0.40869999 5:0.38909999 6:3.1633401 7:8.3321695 8:10.9945 9:13.8648 10:-27.072701 11:-19.712299 12:-26.3006 #
5.1685107095002332216380924886055e-09 1:0.0155074 2:0.70650899 3:0.663077 4:0.4637 5:0.37490001 6:3.1471901 7:8.10532 8:10.0866 9:12.9636 10:-24.622801 11:-17.680799 12:-24.657 #
5.1685107095002332216380924886055e-09 1:0.0490456 2:0.196658 3:0.13788299 4:0.40869999 5:0.38909999 6:3.1633401 7:8.3321695 8:10.9945 9:13.8648 10:-27.072701 11:-19.712299 12:-26.3006 #
-5.1685107095002332216380924886055e-09 1:0.0155074 2:0.70650899 3:0.663077 4:0.4637 5:0.37490001 6:3.1471901 7:8.10532 8:10.0866 9:12.9636 10:-24.622801 11:-17.680799 12:-24.657 #
-5.1685107095002332216380924886055e-09 1:0.0552953 2:0.236121 3:0.25424901 4:0.4314 5:0.39379999 6:3.1759701 7:7.98453 8:11.3405 9:12.3873 10:-24.707001 11:-16.8678 12:-24.279499 #
5.1685107095002332216380924886055e-09 1:0.019098399 2:0.71313298 3:0.68557799 4:0.46950001 5:0.37869999 6:3.1475699 7:8.0176001 8:10.1175 9:13.2728 10:-25.222601 11:-19.057699 12:-25.0485 #
5.1685107095002332216380924886055e-09 1:0.0552953 2:0.236121 3:0.25424901 4:0.4314 5:0.39379999 6:3.1759701 7:7.98453 8:11.3405 9:12.3873 10:-24.707001 11:-16.8678 12:-24.279499 #
-5.1685107095002332216380924886055e-09 1:0.019098399 2:0.71313298 3:0.68557799 4:0.46950001 5:0.37869999 6:3.1475699 7:8.0176001 8:10.1175 9:13.2728 10:-25.222601 11:-19.057699 12:-25.0485 #
-5.1685107095002332216380924886055e-09 1:0.053833898 2:0.227677 3:0.19188599 4:0.40349999 5:0.37369999 6:3.15679 7:7.88695 8:11.5604 9:11.6476 10:-23.2661 11:-15.6219 12:-23.848101 #
5.1685107095002332216380924886055e-09 1:0.016845301 2:0.83307302 3:0.75845897 4:0.46059999 5:0.37560001 6:3.14482 7:7.8530002 8:10.1151 9:12.676 10:-25.427999 11:-17.075199 12:-24.071899 #
5.1685107095002332216380924886055e-09 1:0.053833898 2:0.227677 3:0.19188599 4:0.40349999 5:0.37369999 6:3.15679 7:7.88695 8:11.5604 9:11.6476 10:-23.2661 11:-15.6219 12:-23.848101 #
-5.1685107095002332216380924886055e-09 1:0.016845301 2:0.83307302 3:0.75845897 4:0.46059999 5:0.37560001 6:3.14482 7:7.8530002 8:10.1151 9:12.676 10:-25.427999 11:-17.075199 12:-24.071899 #
-5.1685107095002332216380924886055e-09 1:0.0433787 2:0.27502999 3:0.23218 4:0.42340001 5:0.40059999 6:3.1824801 7:8.1920004 8:11.2777 9:12.5007 10:-24.3902 11:-16.6385 12:-25.913401 #
5.1685107095002332216380924886055e-09 1:0.017565999 2:0.76848698 3:0.69269001 4:0.4691 5:0.37090001 6:3.14621 7:7.9131799 8:10.134 9:12.6887 10:-24.125999 11:-16.648399 12:-24.5741 #
5.1685107095002332216380924886055e-09 1:0.0433787 2:0.27502999 3:0.23218 4:0.42340001 5:0.40059999 6:3.1824801 7:8.1920004 8:11.2777 9:12.5007 10:-24.3902 11:-16.6385 12:-25.913401 #
-5.1685107095002332216380924886055e-09 1:0.017565999 2:0.76848698 3:0.69269001 4:0.4691 5:0.37090001 6:3.14621 7:7.9131799 8:10.134 9:12.6887 10:-24.125999 11:-16.648399 12:-24.5741 #
-5.1685107095002332216380924886055e-09 1:0.0396332 2:0.46640301 3:0.20306399 4:0.44220001 5:0.43239999 6:3.18468 7:9.6282701 8:11.5712 9:12.5603 10:-25.5089 11:-17.3759 12:-24.6297 #
5.1685107095002332216380924886055e-09 1:0.0202647 2:0.73066598 3:0.66820699 4:0.456 5:0.36700001 6:3.14568 7:7.94491 8:10.07 9:12.9188 10:-24.5229 11:-16.9685 12:-24.6138 #
5.1685107095002332216380924886055e-09 1:0.0396332 2:0.46640301 3:0.20306399 4:0.44220001 5:0.43239999 6:3.18468 7:9.6282701 8:11.5712 9:12.5603 10:-25.5089 11:-17.3759 12:-24.6297 #
-5.1685107095002332216380924886055e-09 1:0.0202647 2:0.73066598 3:0.66820699 4:0.456 5:0.36700001 6:3.14568 7:7.94491 8:10.07 9:12.9188 10:-24.5229 11:-16.9685 12:-24.6138 #
-5.1685107095002332216380924886055e-09 1:0.034422699 2:0.249318 3:0.25289699 4:0.47979999 5:0.47060001 6:3.1923699 7:8.9911604 8:12.6044 9:13.7546 10:-27.108101 11:-18.2631 12:-27.063601 #
5.1685107095002332216380924886055e-09 1:0.0128472 2:0.732216 3:0.67840499 4:0.465 5:0.3644 6:3.1490901 7:8.0398998 8:10.0792 9:12.9905 10:-24.602301 11:-17.070801 12:-24.788099 #
5.1685107095002332216380924886055e-09 1:0.034422699 2:0.249318 3:0.25289699 4:0.47979999 5:0.47060001 6:3.1923699 7:8.9911604 8:12.6044 9:13.7546 10:-27.108101 11:-18.2631 12:-27.063601 #
-5.1685107095002332216380924886055e-09 1:0.0128472 2:0.732216 3:0.67840499 4:0.465 5:0.3644 6:3.1490901 7:8.0398998 8:10.0792 9:12.9905 10:-24.602301 11:-17.070801 12:-24.788099 #
-5.1685107095002332216380924886055e-09 1:0.053535301 2:0.14674699 3:0.123129 4:0.45750001 5:0.4535 6:3.1927099 7:9.1742401 8:12.0645 9:14.2239 10:-27.374001 11:-18.815901 12:-28.1567 #
5.1685107095002332216380924886055e-09 1:0.0245637 2:0.78917801 3:0.77496397 4:0.4736 5:0.38080001 6:3.1491001 7:8.0262299 8:10.1722 9:13.3723 10:-26.2243 11:-17.731199 12:-25.146099 #
5.1685107095002332216380924886055e-09 1:0.053535301 2:0.14674699 3:0.123129 4:0.45750001 5:0.4535 6:3.1927099 7:9.1742401 8:12.0645 9:14.2239 10:-27.374001 11:-18.815901 12:-28.1567 #
-5.1685107095002332216380924886055e-09 1:0.0245637 2:0.78917801 3:0.77496397 4:0.4736 5:0.38080001 6:3.1491001 7:8.0262299 8:10.1722 9:13.3723 10:-26.2243 11:-17.731199 12:-25.146099 #
-5.1685107095002332216380924886055e-09 1:0.046202902 2:0.199058 3:0.137853 4:0.41769999 5:0.3691 6:3.1711299 7:8.25313 8:10.9681 9:12.2322 10:-23.8762 11:-16.373899 12:-24.201099 #
5.1685107095002332216380924886055e-09 1:0.0158753 2:0.685229 3:0.64400703 4:0.4698 5:0.3696 6:3.14748 7:8.1255903 8:10.0755 9:12.9331 10:-24.607 11:-17.018299 12:-24.570299 #
5.1685107095002332216380924886055e-09 1:0.046202902 2:0.199058 3:0.137853 4:0.41769999 5:0.3691 6:3.1711299 7:8.25313 8:10.9681 9:12.2322 10:-23.8762 11:-16.373899 12:-24.201099 #
-5.1685107095002332216380924886055e-09 1:0.0158753 2:0.685229 3:0.64400703 4:0.4698 5:0.3696 6:3.14748 7:8.1255903 8:10.0755 9:12.9331 10:-24.607 11:-17.018299 12:-24.570299 #
-5.1685107095002332216380924886055e-09 1:0.056338198 2:0.208968 3:0.120902 4:0.45159999 5:0.447 6:3.1901901 7:9.5528097 8:11.5443 9:13.1458 10:-25.500299 11:-18.639 12:-26.176201 #
5.1685107095002332216380924886055e-09 1:0.024604 2:0.76376098 3:0.703857 4:0.47049999 5:0.37670001 6:3.14663 7:7.9075599 8:10.1363 9:12.9979 10:-24.5805 11:-16.954599 12:-25.1451 #
5.1685107095002332216380924886055e-09 1:0.056338198 2:0.208968 3:0.120902 4:0.45159999 5:0.447 6:3.1901901 7:9.5528097 8:11.5443 9:13.1458 10:-25.500299 11:-18.639 12:-26.176201 #
-5.1685107095002332216380924886055e-09 1:0.024604 2:0.76376098 3:0.703857 4:0.47049999 5:0.37670001 6:3.14663 7:7.9075599 8:10.1363 9:12.9979 10:-24.5805 11:-16.954599 12:-25.1451 #
-5.1685107095002332216380924886055e-09 1:0.060222 2:0.20791499 3:0.231557 4:0.43020001 5:0.40200001 6:3.1417 7:7.95821 8:10.9252 9:11.5003 10:-22.782301 11:-15.7432 12:-22.994801 #
5.1685107095002332216380924886055e-09 1:0.025543099 2:0.62496102 3:0.60310298 4:0.45789999 5:0.38389999 6:3.16136 7:7.9768801 8:10.3312 9:12.9814 10:-24.637699 11:-17.281401 12:-26.5166 #
5.1685107095002332216380924886055e-09 1:0.060222 2:0.20791499 3:0.231557 4:0.43020001 5:0.40200001 6:3.1417 7:7.95821 8:10.9252 9:11.5003 10:-22.782301 11:-15.7432 12:-22.994801 #
-5.1685107095002332216380924886055e-09 1:0.025543099 2:0.62496102 3:0.60310298 4:0.45789999 5:0.38389999 6:3.16136 7:7.9768801 8:10.3312 9:12.9814 10:-24.637699 11:-17.281401 12:-26.5166 #
-5.1685107095002332216380924886055e-09 1:0.058557 2:0.247346 3:0.245702 4:0.43779999 5:0.4086 6:3.1628001 7:8.2733097 8:11.4168 9:12.0197 10:-23.8368 11:-17.379999 12:-23.9562 #
5.1685107095002332216380924886055e-09 1:0.0147459 2:0.69768202 3:0.66689497 4:0.47220001 5:0.3698 6:3.1489799 7:8.1133699 8:10.097 9:13.0159 10:-24.685699 11:-17.561701 12:-24.767799 #
5.1685107095002332216380924886055e-09 1:0.058557 2:0.247346 3:0.245702 4:0.43779999 5:0.4086 6:3.1628001 7:8.2733097 8:11.4168 9:12.0197 10:-23.8368 11:-17.379999 12:-23.9562 #
-5.1685107095002332216380924886055e-09 1:0.0147459 2:0.69768202 3:0.66689497 4:0.47220001 5:0.3698 6:3.1489799 7:8.1133699 8:10.097 9:13.0159 10:-24.685699 11:-17.561701 12:-24.767799 #
-5.1685107095002332216380924886055e-09 1:0.051062599 2:0.22167601 3:0.21927699 4:0.40630001 5:0.39430001 6:3.1638 7:8.49646 8:12.4238 9:11.591 10:-23.8319 11:-15.86 12:-23.6891 #
5.1685107095002332216380924886055e-09 1:0.027892901 2:0.72487301 3:0.66170901 4:0.46239999 5:0.3678 6:3.14972 7:8.02458 8:10.0894 9:13.1801 10:-24.880199 11:-17.240801 12:-25.1077 #
5.1685107095002332216380924886055e-09 1:0.051062599 2:0.22167601 3:0.21927699 4:0.40630001 5:0.39430001 6:3.1638 7:8.49646 8:12.4238 9:11.591 10:-23.8319 11:-15.86 12:-23.6891 #
-5.1685107095002332216380924886055e-09 1:0.027892901 2:0.72487301 3:0.66170901 4:0.46239999 5:0.3678 6:3.14972 7:8.02458 8:10.0894 9:13.1801 10:-24.880199 11:-17.240801 12:-25.1077 #
-5.1685107095002332216380924886055e-09 1:0.0618256 2:0.184047 3:0.129269 4:0.4569 5:0.4355 6:3.1895299 7:9.6532698 8:11.6175 9:14.5479 10:-28.2645 11:-19.385401 12:-27.642599 #
5.1685107095002332216380924886055e-09 1:0.0132723 2:0.693699 3:0.65363598 4:0.46959999 5:0.3698 6:3.14905 7:8.08004 8:10.1357 9:13.0082 10:-24.586599 11:-17.055201 12:-25.347099 #
5.1685107095002332216380924886055e-09 1:0.0618256 2:0.184047 3:0.129269 4:0.4569 5:0.4355 6:3.1895299 7:9.6532698 8:11.6175 9:14.5479 10:-28.2645 11:-19.385401 12:-27.642599 #
-5.1685107095002332216380924886055e-09 1:0.0132723 2:0.693699 3:0.65363598 4:0.46959999 5:0.3698 6:3.14905 7:8.08004 8:10.1357 9:13.0082 10:-24.586599 11:-17.055201 12:-25.347099 #
-5.1685107095002332216380924886055e-09 1:0.0577319 2:0.254807 3:0.168524 4:0.41389999 5:0.33430001 6:3.1730599 7:8.0383301 8:11.481 9:12.0442 10:-23.806801 11:-16.4814 12:-25.969801 #
5.1685107095002332216380924886055e-09 1:0.0147517 2:0.694417 3:0.65272802 4:0.4623 5:0.3671 6:3.1486001 7:8.1081896 8:10.0823 9:13.0473 10:-24.686701 11:-17.4998 12:-24.8804 #
5.1685107095002332216380924886055e-09 1:0.0577319 2:0.254807 3:0.168524 4:0.41389999 5:0.33430001 6:3.1730599 7:8.0383301 8:11.481 9:12.0442 10:-23.806801 11:-16.4814 12:-25.969801 #
-5.1685107095002332216380924886055e-09 1:0.0147517 2:0.694417 3:0.65272802 4:0.4623 5:0.3671 6:3.1486001 7:8.1081896 8:10.0823 9:13.0473 10:-24.686701 11:-17.4998 12:-24.8804 #
-5.1685107095002332216380924886055e-09 1:0.043262001 2:0.40023199 3:0.121418 4:0.45950001 5:0.43689999 6:3.1928699 7:9.1310596 8:12.1416 9:13.4844 10:-26.3074 11:-18.4939 12:-26.9716 #
5.1685107095002332216380924886055e-09 1:0.018828399 2:0.67578298 3:0.63757098 4:0.46529999 5:0.3547 6:3.14505 7:7.9591999 8:10.0133 9:12.6619 10:-24.151699 11:-16.787901 12:-24.148199 #
5.1685107095002332216380924886055e-09 1:0.043262001 2:0.40023199 3:0.121418 4:0.45950001 5:0.43689999 6:3.1928699 7:9.1310596 8:12.1416 9:13.4844 10:-26.3074 11:-18.4939 12:-26.9716 #
-5.1685107095002332216380924886055e-09 1:0.018828399 2:0.67578298 3:0.63757098 4:0.46529999 5:0.3547 6:3.14505 7:7.9591999 8:10.0133 9:12.6619 10:-24.151699 11:-16.787901 12:-24.148199 #
-5.1685107095002332216380924886055e-09 1:0.0304101 2:0.420856 3:0.204362 4:0.45370001 5:0.4413 6:3.1935101 7:9.3450499 8:11.3835 9:13.2129 10:-26.0333 11:-19.253599 12:-25.531601 #
5.1685107095002332216380924886055e-09 1:0.017031301 2:0.75611901 3:0.69854999 4:0.4684 5:0.375 6:3.14573 7:7.9387898 8:10.142 9:12.9219 10:-24.811899 11:-17.0233 12:-24.5002 #
5.1685107095002332216380924886055e-09 1:0.0304101 2:0.420856 3:0.204362 4:0.45370001 5:0.4413 6:3.1935101 7:9.3450499 8:11.3835 9:13.2129 10:-26.0333 11:-19.253599 12:-25.531601 #
-5.1685107095002332216380924886055e-09 1:0.017031301 2:0.75611901 3:0.69854999 4:0.4684 5:0.375 6:3.14573 7:7.9387898 8:10.142 9:12.9219 10:-24.811899 11:-17.0233 12:-24.5002 #
-5.1685107095002332216380924886055e-09 1:0.045938998 2:0.223994 3:0.21964499 4:0.47009999 5:0.4497 6:3.1819999 7:10.3612 8:11.7181 9:12.9818 10:-25.4107 11:-18.2104 12:-25.589899 #
5.1685107095002332216380924886055e-09 1:0.0231234 2:0.750211 3:0.689614 4:0.46700001 5:0.37459999 6:3.14676 7:7.95403 8:10.1163 9:12.9303 10:-24.491899 11:-16.9251 12:-24.8487 #
5.1685107095002332216380924886055e-09 1:0.045938998 2:0.223994 3:0.21964499 4:0.47009999 5:0.4497 6:3.1819999 7:10.3612 8:11.7181 9:12.9818 10:-25.4107 11:-18.2104 12:-25.589899 #
-5.1685107095002332216380924886055e-09 1:0.0231234 2:0.750211 3:0.689614 4:0.46700001 5:0.37459999 6:3.14676 7:7.95403 8:10.1163 9:12.9303 10:-24.491899 11:-16.9251 12:-24.8487 #
-5.1685107095002332216380924886055e-09 1:0.17564701 2:0.34887201 3:0.19122501 4:0.3466 5:0.31720001 6:3.0927501 7:8.3222799 8:9.6669598 9:11.6502 10:-22.358601 11:-16.667299 12:-22.6527 #
5.1685107095002332216380924886055e-09 1:0.021601399 2:0.77288997 3:0.71032798 4:0.47080001 5:0.37799999 6:3.14644 7:7.9383898 8:10.1514 9:12.9823 10:-24.7101 11:-17.0105 12:-24.689699 #
5.1685107095002332216380924886055e-09 1:0.17564701 2:0.34887201 3:0.19122501 4:0.3466 5:0.31720001 6:3.0927501 7:8.3222799 8:9.6669598 9:11.6502 10:-22.358601 11:-16.667299 12:-22.6527 #
-5.1685107095002332216380924886055e-09 1:0.021601399 2:0.77288997 3:0.71032798 4:0.47080001 5:0.37799999 6:3.14644 7:7.9383898 8:10.1514 9:12.9823 10:-24.7101 11:-17.0105 12:-24.689699 #
5.1685107095002332216380924886055e-09 1:0.189468 2:0.37126201 3:0.19776399 4:0.3635 5:0.32390001 6:3.1034 7:8.0112801 8:9.7002401 9:11.8097 10:-22.6786 11:-15.8192 12:-22.7593 #
-5.1685107095002332216380924886055e-09 1:0.0209627 2:0.752756 3:0.69182402 4:0.47459999 5:0.37400001 6:3.14676 7:7.9263101 8:10.1387 9:12.9416 10:-24.520399 11:-16.919701 12:-24.875999 #
5.1685107095002332216380924886055e-09 1:0.189468 2:0.37126201 3:0.19776399 4:0.3635 5:0.32390001 6:3.1034 7:8.0112801 8:9.7002401 9:11.8097 10:-22.6786 11:-15.8192 12:-22.7593 #
-5.1685107095002332216380924886055e-09 1:0.0209627 2:0.752756 3:0.69182402 4:0.47459999 5:0.37400001 6:3.14676 7:7.9263101 8:10.1387 9:12.9416 10:-24.520399 11:-16.919701 12:-24.875999 #
-5.1685107095002332216380924886055e-09 1:0.0314149 2:0.33992901 3:0.134068 4:0.4402 5:0.39660001 6:3.1826799 7:8.6327496 8:13.3181 9:12.6881 10:-25.7428 11:-17.0072 12:-26.0287 #
5.1685107095002332216380924886055e-09 1:0.0186194 2:0.76304603 3:0.64179701 4:0.47600001 5:0.37720001 6:3.1405499 7:7.5352998 8:10.1674 9:12.1468 10:-23.336599 11:-15.9235 12:-23.7316 #
5.1685107095002332216380924886055e-09 1:0.0314149 2:0.33992901 3:0.134068 4:0.4402 5:0.39660001 6:3.1826799 7:8.6327496 8:13.3181 9:12.6881 10:-25.7428 11:-17.0072 12:-26.0287 #
-5.1685107095002332216380924886055e-09 1:0.0186194 2:0.76304603 3:0.64179701 4:0.47600001 5:0.37720001 6:3.1405499 7:7.5352998 8:10.1674 9:12.1468 10:-23.336599 11:-15.9235 12:-23.7316 #
-5.1685107095002332216380924886055e-09 1:0.0278209 2:0.409841 3:0.140241 4:0.4562 5:0.4104 6:3.1779499 7:8.4973402 8:10.8077 9:12.8451 10:-24.717699 11:-17.3529 12:-25.030199 #
5.1685107095002332216380924886055e-09 1:0.016830301 2:0.77416497 3:0.72044098 4:0.4718 5:0.373 6:3.14589 7:7.9508801 8:10.1315 9:12.9594 10:-24.6514 11:-16.989201 12:-24.659401 #
5.1685107095002332216380924886055e-09 1:0.0278209 2:0.409841 3:0.140241 4:0.4562 5:0.4104 6:3.1779499 7:8.4973402 8:10.8077 9:12.8451 10:-24.717699 11:-17.3529 12:-25.030199 #
-5.1685107095002332216380924886055e-09 1:0.016830301 2:0.77416497 3:0.72044098 4:0.4718 5:0.373 6:3.14589 7:7.9508801 8:10.1315 9:12.9594 10:-24.6514 11:-16.989201 12:-24.659401 #
-5.1685107095002332216380924886055e-09 1:0.0469741 2:0.21809199 3:0.135298 4:0.43900001 5:0.417 6:3.1889601 7:8.6311903 8:11.3443 9:13.9359 10:-26.742701 11:-18.723101 12:-26.7113 #
5.1685107095002332216380924886055e-09 1:0.017950799 2:0.75704497 3:0.69954598 4:0.47569999 5:0.37490001 6:3.14607 7:7.9699101 8:10.1418 9:12.9983 10:-24.7869 11:-17.073 12:-24.6672 #
5.1685107095002332216380924886055e-09 1:0.0469741 2:0.21809199 3:0.135298 4:0.43900001 5:0.417 6:3.1889601 7:8.6311903 8:11.3443 9:13.9359 10:-26.742701 11:-18.723101 12:-26.7113 #
-5.1685107095002332216380924886055e-09 1:0.017950799 2:0.75704497 3:0.69954598 4:0.47569999 5:0.37490001 6:3.14607 7:7.9699101 8:10.1418 9:12.9983 10:-24.7869 11:-17.073 12:-24.6672 #
-5.1685107095002332216380924886055e-09 1:0.047756702 2:0.39091301 3:0.135721 4:0.4623 5:0.44710001 6:3.18747 7:9.0514698 8:11.9619 9:14.0892 10:-27.7673 11:-19.3561 12:-27.1259 #
5.1685107095002332216380924886055e-09 1:0.014428 2:0.739779 3:0.66646701 4:0.47299999 5:0.37220001 6:3.14591 7:7.8203101 8:10.1433 9:12.5945 10:-24.0231 11:-16.533501 12:-24.273001 #
5.1685107095002332216380924886055e-09 1:0.047756702 2:0.39091301 3:0.135721 4:0.4623 5:0.44710001 6:3.18747 7:9.0514698 8:11.9619 9:14.0892 10:-27.7673 11:-19.3561 12:-27.1259 #
-5.1685107095002332216380924886055e-09 1:0.014428 2:0.739779 3:0.66646701 4:0.47299999 5:0.37220001 6:3.14591 7:7.8203101 8:10.1433 9:12.5945 10:-24.0231 11:-16.533501 12:-24.273001 #
-5.1685107095002332216380924886055e-09 1:0.052143302 2:0.207609 3:0.14178699 4:0.4711 5:0.4163 6:3.1873701 7:9.3766403 8:12.0515 9:14.5827 10:-27.9368 11:-19.2812 12:-28.302299 #
5.1685107095002332216380924886055e-09 1:0 2:0.77046901 3:0.36963701 4:0.3502 5:0.3184 6:3.07198 7:8.9271498 8:11.5884 9:11.1715 10:-22.6647 11:-15.7351 12:-22.746901 #
5.1685107095002332216380924886055e-09 1:0.052143302 2:0.207609 3:0.14178699 4:0.4711 5:0.4163 6:3.1873701 7:9.3766403 8:12.0515 9:14.5827 10:-27.9368 11:-19.2812 12:-28.302299 #
-5.1685107095002332216380924886055e-09 1:0 2:0.77046901 3:0.36963701 4:0.3502 5:0.3184 6:3.07198 7:8.9271498 8:11.5884 9:11.1715 10:-22.6647 11:-15.7351 12:-22.746901 #
-5.1685107095002332216380924886055e-09 1:0.0534494 2:0.21990301 3:0.150085 4:0.43810001 5:0.36289999 6:3.1774299 7:8.1592197 8:11.2079 9:12.373 10:-24.2644 11:-16.560499 12:-24.378099 #
5.1685107095002332216380924886055e-09 1:0.019159401 2:0.74767202 3:0.69527799 4:0.47279999 5:0.37619999 6:3.14656 7:8.0052099 8:10.1229 9:13.0098 10:-24.7271 11:-17.0805 12:-24.726101 #
5.1685107095002332216380924886055e-09 1:0.0534494 2:0.21990301 3:0.150085 4:0.43810001 5:0.36289999 6:3.1774299 7:8.1592197 8:11.2079 9:12.373 10:-24.2644 11:-16.560499 12:-24.378099 #
-5.1685107095002332216380924886055e-09 1:0.019159401 2:0.74767202 3:0.69527799 4:0.47279999 5:0.37619999 6:3.14656 7:8.0052099 8:10.1229 9:13.0098 10:-24.7271 11:-17.0805 12:-24.726101 #
-5.1685107095002332216380924886055e-09 1:0.044669598 2:0.242175 3:0.13439199 4:0.43239999 5:0.4188 6:3.1712 7:9.18015 8:11.963 9:12.7995 10:-25.531401 11:-17.4091 12:-25.228901 #
5.1685107095002332216380924886055e-09 1:0.017374801 2:0.71753001 3:0.65748298 4:0.47600001 5:0.37220001 6:3.1480701 7:7.8931999 8:10.0972 9:12.9888 10:-24.772499 11:-17.050699 12:-24.618799 #
5.1685107095002332216380924886055e-09 1:0.044669598 2:0.242175 3:0.13439199 4:0.43239999 5:0.4188 6:3.1712 7:9.18015 8:11.963 9:12.7995 10:-25.531401 11:-17.4091 12:-25.228901 #
-5.1685107095002332216380924886055e-09 1:0.017374801 2:0.71753001 3:0.65748298 4:0.47600001 5:0.37220001 6:3.1480701 7:7.8931999 8:10.0972 9:12.9888 10:-24.772499 11:-17.050699 12:-24.618799 #
-5.1685107095002332216380924886055e-09 1:0.0643721 2:0.22371601 3:0.152299 4:0.36489999 5:0.36289999 6:3.02338 7:8.8159599 8:11.0915 9:11.7389 10:-23.183399 11:-16.6411 12:-23.6038 #
5.1685107095002332216380924886055e-09 1:0.0236861 2:0.762788 3:0.70436102 4:0.47240001 5:0.38479999 6:3.14803 7:7.9209099 8:10.1734 9:13.2056 10:-24.9475 11:-17.181 12:-25.229099 #
5.1685107095002332216380924886055e-09 1:0.0643721 2:0.22371601 3:0.152299 4:0.36489999 5:0.36289999 6:3.02338 7:8.8159599 8:11.0915 9:11.7389 10:-23.183399 11:-16.6411 12:-23.6038 #
-5.1685107095002332216380924886055e-09 1:0.0236861 2:0.762788 3:0.70436102 4:0.47240001 5:0.38479999 6:3.14803 7:7.9209099 8:10.1734 9:13.2056 10:-24.9475 11:-17.181 12:-25.229099 #
-5.1685107095002332216380924886055e-09 1:0.0215923 2:0.33105201 3:0.201748 4:0.4314 5:0.42919999 6:3.18976 7:8.9117699 8:11.5148 9:12.7463 10:-24.932699 11:-17.879999 12:-25.1992 #
5.1685107095002332216380924886055e-09 1:0.0157388 2:0.69964099 3:0.68464297 4:0.4763 5:0.37189999 6:3.15293 7:8.1125298 8:10.1191 9:13.1772 10:-24.944901 11:-17.9279 12:-25.0119 #
5.1685107095002332216380924886055e-09 1:0.0215923 2:0.33105201 3:0.201748 4:0.4314 5:0.42919999 6:3.18976 7:8.9117699 8:11.5148 9:12.7463 10:-24.932699 11:-17.879999 12:-25.1992 #
-5.1685107095002332216380924886055e-09 1:0.0157388 2:0.69964099 3:0.68464297 4:0.4763 5:0.37189999 6:3.15293 7:8.1125298 8:10.1191 9:13.1772 10:-24.944901 11:-17.9279 12:-25.0119 #
-5.1685107095002332216380924886055e-09 1:0.061717901 2:0.214276 3:0.16282199 4:0.45899999 5:0.45820001 6:3.1852 7:8.1819897 8:13.0537 9:13.3597 10:-26.567699 11:-17.5065 12:-27.682699 #
5.1685107095002332216380924886055e-09 1:0.019978501 2:0.73060101 3:0.68176299 4:0.479 5:0.3748 6:3.1461201 7:8.0235596 8:10.1099 9:13.0918 10:-24.9737 11:-17.223499 12:-24.762199 #
5.1685107095002332216380924886055e-09 1:0.061717901 2:0.214276 3:0.16282199 4:0.45899999 5:0.45820001 6:3.1852 7:8.1819897 8:13.0537 9:13.3597 10:-26.567699 11:-17.5065 12:-27.682699 #
-5.1685107095002332216380924886055e-09 1:0.019978501 2:0.73060101 3:0.68176299 4:0.479 5:0.3748 6:3.1461201 7:8.0235596 8:10.1099 9:13.0918 10:-24.9737 11:-17.223499 12:-24.762199 #
-5.1685107095002332216380924886055e-09 1:0.063808396 2:0.22414801 3:0.230884 4:0.45550001 5:0.4479 6:3.1730299 7:8.6868896 8:12.1783 9:13.2656 10:-26.7124 11:-17.7101 12:-25.995399 #
5.1685107095002332216380924886055e-09 1:0.0207392 2:0.70586401 3:0.678765 4:0.47299999 5:0.37279999 6:3.14838 7:8.0108604 8:10.0921 9:13.2294 10:-25.129299 11:-18.4321 12:-24.9779 #
5.1685107095002332216380924886055e-09 1:0.063808396 2:0.22414801 3:0.230884 4:0.45550001 5:0.4479 6:3.1730299 7:8.6868896 8:12.1783 9:13.2656 10:-26.7124 11:-17.7101 12:-25.995399 #
-5.1685107095002332216380924886055e-09 1:0.0207392 2:0.70586401 3:0.678765 4:0.47299999 5:0.37279999 6:3.14838 7:8.0108604 8:10.0921 9:13.2294 10:-25.129299 11:-18.4321 12:-24.9779 #
-5.1685107095002332216380924886055e-09 1:0.052926101 2:0.21851 3:0.151601 4:0.45370001 5:0.45210001 6:3.18431 7:8.5915699 8:11.712 9:13.6332 10:-26.313801 11:-17.993799 12:-27.0271 #
5.1685107095002332216380924886055e-09 1:0.0152145 2:0.676884 3:0.64348102 4:0.4734 5:0.36379999 6:3.1486499 7:7.9513602 8:10.0512 9:13.337 10:-26.0425 11:-17.692301 12:-25.0331 #
5.1685107095002332216380924886055e-09 1:0.052926101 2:0.21851 3:0.151601 4:0.45370001 5:0.45210001 6:3.18431 7:8.5915699 8:11.712 9:13.6332 10:-26.313801 11:-17.993799 12:-27.0271 #
-5.1685107095002332216380924886055e-09 1:0.0152145 2:0.676884 3:0.64348102 4:0.4734 5:0.36379999 6:3.1486499 7:7.9513602 8:10.0512 9:13.337 10:-26.0425 11:-17.692301 12:-25.0331 #
-5.1685107095002332216380924886055e-09 1:0.073229499 2:0.201967 3:0.15759 4:0.4506 5:0.4224 6:3.19014 7:9.5557499 8:12.665 9:13.3743 10:-26.394199 11:-18.289801 12:-27.839199 #
5.1685107095002332216380924886055e-09 1:0.017887499 2:0.67826998 3:0.64748698 4:0.47409999 5:0.3673 6:3.1503301 7:7.9893498 8:10.0686 9:13.1124 10:-24.7397 11:-17.5268 12:-25.106701 #
5.1685107095002332216380924886055e-09 1:0.073229499 2:0.201967 3:0.15759 4:0.4506 5:0.4224 6:3.19014 7:9.5557499 8:12.665 9:13.3743 10:-26.394199 11:-18.289801 12:-27.839199 #
-5.1685107095002332216380924886055e-09 1:0.017887499 2:0.67826998 3:0.64748698 4:0.47409999 5:0.3673 6:3.1503301 7:7.9893498 8:10.0686 9:13.1124 10:-24.7397 11:-17.5268 12:-25.106701 #
-5.1685107095002332216380924886055e-09 1:0.053944401 2:0.21277501 3:0.124362 4:0.4183 5:0.4075 6:3.1700799 7:9.20965 8:11.6565 9:12.6565 10:-24.9608 11:-17.4685 12:-24.966299 #
5.1685107095002332216380924886055e-09 1:0.0177489 2:0.67880797 3:0.64064699 4:0.4869 5:0.3721 6:3.1477201 7:7.82129 8:10.1158 9:13.5141 10:-27.1157 11:-17.7279 12:-25.329 #
5.1685107095002332216380924886055e-09 1:0.053944401 2:0.21277501 3:0.124362 4:0.4183 5:0.4075 6:3.1700799 7:9.20965 8:11.6565 9:12.6565 10:-24.9608 11:-17.4685 12:-24.966299 #
-5.1685107095002332216380924886055e-09 1:0.0177489 2:0.67880797 3:0.64064699 4:0.4869 5:0.3721 6:3.1477201 7:7.82129 8:10.1158 9:13.5141 10:-27.1157 11:-17.7279 12:-25.329 #
-5.1685107095002332216380924886055e-09 1:0.062651798 2:0.195392 3:0.134307 4:0.46200001 5:0.36680001 6:3.1879499 7:8.7458601 8:11.6789 9:13.2832 10:-25.959999 11:-17.6707 12:-25.8773 #
5.1685107095002332216380924886055e-09 1:0.0147465 2:0.70622802 3:0.63631302 4:0.48190001 5:0.3707 6:3.14433 7:7.7816401 8:10.0855 9:12.8597 10:-24.3946 11:-16.7812 12:-24.6341 #
5.1685107095002332216380924886055e-09 1:0.062651798 2:0.195392 3:0.134307 4:0.46200001 5:0.36680001 6:3.1879499 7:8.7458601 8:11.6789 9:13.2832 10:-25.959999 11:-17.6707 12:-25.8773 #
-5.1685107095002332216380924886055e-09 1:0.0147465 2:0.70622802 3:0.63631302 4:0.48190001 5:0.3707 6:3.14433 7:7.7816401 8:10.0855 9:12.8597 10:-24.3946 11:-16.7812 12:-24.6341 #
-5.1685107095002332216380924886055e-09 1:0.0603237 2:0.14560901 3:0.14518601 4:0.45879999 5:0.44240001 6:3.1313901 7:9.1846199 8:11.9781 9:12.2647 10:-24.396601 11:-17.171499 12:-25.0499 #
5.1685107095002332216380924886055e-09 1:0.028643699 2:0.75094801 3:0.71522897 4:0.48010001 5:0.38229999 6:3.1477599 7:7.9918299 8:10.143 9:13.9821 10:-26.705601 11:-18.4149 12:-26.055201 #
5.1685107095002332216380924886055e-09 1:0.0603237 2:0.14560901 3:0.14518601 4:0.45879999 5:0.44240001 6:3.1313901 7:9.1846199 8:11.9781 9:12.2647 10:-24.396601 11:-17.171499 12:-25.0499 #
-5.1685107095002332216380924886055e-09 1:0.028643699 2:0.75094801 3:0.71522897 4:0.48010001 5:0.38229999 6:3.1477599 7:7.9918299 8:10.143 9:13.9821 10:-26.705601 11:-18.4149 12:-26.055201 #
-5.1685107095002332216380924886055e-09 1:0.060358498 2:0.172152 3:0.16320001 4:0.4727 5:0.4655 6:3.18488 7:9.1752796 8:11.6739 9:13.2344 10:-25.9445 11:-18.0625 12:-25.7684 #
5.1685107095002332216380924886055e-09 1:0.019708499 2:0.75124902 3:0.68474001 4:0.4761 5:0.3795 6:3.1434801 7:7.8738399 8:10.1168 9:13.099 10:-24.7083 11:-17.0361 12:-25.7988 #
5.1685107095002332216380924886055e-09 1:0.060358498 2:0.172152 3:0.16320001 4:0.4727 5:0.4655 6:3.18488 7:9.1752796 8:11.6739 9:13.2344 10:-25.9445 11:-18.0625 12:-25.7684 #
-5.1685107095002332216380924886055e-09 1:0.019708499 2:0.75124902 3:0.68474001 4:0.4761 5:0.3795 6:3.1434801 7:7.8738399 8:10.1168 9:13.099 10:-24.7083 11:-17.0361 12:-25.7988 #
-5.1685107095002332216380924886055e-09 1:0.0453173 2:0.32592899 3:0.133448 4:0.46520001 5:0.42919999 6:3.1754799 7:8.3203602 8:10.9932 9:12.73 10:-24.594999 11:-16.9694 12:-25.498501 #
5.1685107095002332216380924886055e-09 1:0.019220199 2:0.73554999 3:0.68015999 4:0.4743 5:0.38029999 6:3.1459799 7:7.8710999 8:10.1377 9:13.0466 10:-24.8496 11:-17.079599 12:-24.742001 #
5.1685107095002332216380924886055e-09 1:0.0453173 2:0.32592899 3:0.133448 4:0.46520001 5:0.42919999 6:3.1754799 7:8.3203602 8:10.9932 9:12.73 10:-24.594999 11:-16.9694 12:-25.498501 #
-5.1685107095002332216380924886055e-09 1:0.019220199 2:0.73554999 3:0.68015999 4:0.4743 5:0.38029999 6:3.1459799 7:7.8710999 8:10.1377 9:13.0466 10:-24.8496 11:-17.079599 12:-24.742001 #
-5.1685107095002332216380924886055e-09 1:0.0292398 2:0.31283101 3:0.204413 4:0.46070001 5:0.4447 6:3.1909399 7:9.4037104 8:11.8669 9:14.1749 10:-27.5812 11:-19.5054 12:-27.2362 #
5.1685107095002332216380924886055e-09 1:0.025699399 2:0.67037398 3:0.66553801 4:0.47690001 5:0.37869999 6:3.1505401 7:8.0638399 8:10.1443 9:12.946 10:-24.658001 11:-16.999399 12:-24.6264 #
5.1685107095002332216380924886055e-09 1:0.0292398 2:0.31283101 3:0.204413 4:0.46070001 5:0.4447 6:3.1909399 7:9.4037104 8:11.8669 9:14.1749 10:-27.5812 11:-19.5054 12:-27.2362 #
-5.1685107095002332216380924886055e-09 1:0.025699399 2:0.67037398 3:0.66553801 4:0.47690001 5:0.37869999 6:3.1505401 7:8.0638399 8:10.1443 9:12.946 10:-24.658001 11:-16.999399 12:-24.6264 #
-5.1685107095002332216380924886055e-09 1:0.0313324 2:0.38059399 3:0.238609 4:0.46340001 5:0.4366 6:3.1874399 7:9.4260397 8:11.6257 9:13.6619 10:-27.3591 11:-18.484301 12:-26.3074 #
5.1685107095002332216380924886055e-09 1:0.0182685 2:0.69664103 3:0.66527098 4:0.47319999 5:0.37740001 6:3.1486101 7:8.0016499 8:10.1576 9:13.1634 10:-25.187799 11:-17.9708 12:-24.8689 #
5.1685107095002332216380924886055e-09 1:0.0313324 2:0.38059399 3:0.238609 4:0.46340001 5:0.4366 6:3.1874399 7:9.4260397 8:11.6257 9:13.6619 10:-27.3591 11:-18.484301 12:-26.3074 #
-5.1685107095002332216380924886055e-09 1:0.0182685 2:0.69664103 3:0.66527098 4:0.47319999 5:0.37740001 6:3.1486101 7:8.0016499 8:10.1576 9:13.1634 10:-25.187799 11:-17.9708 12:-24.8689 #
-5.1685107095002332216380924886055e-09 1:0.0504013 2:0.246305 3:0.199349 4:0.42250001 5:0.4023 6:3.18221 7:8.6704102 8:11.1847 9:13.0093 10:-25.212601 11:-17.511801 12:-25.312401 #
5.1685107095002332216380924886055e-09 1:0.0169845 2:0.76289099 3:0.68848097 4:0.4716 5:0.3748 6:3.1446199 7:7.9057698 8:10.1392 9:12.8238 10:-24.3102 11:-16.777 12:-25.1292 #
5.1685107095002332216380924886055e-09 1:0.0504013 2:0.246305 3:0.199349 4:0.42250001 5:0.4023 6:3.18221 7:8.6704102 8:11.1847 9:13.0093 10:-25.212601 11:-17.511801 12:-25.312401 #
-5.1685107095002332216380924886055e-09 1:0.0169845 2:0.76289099 3:0.68848097 4:0.4716 5:0.3748 6:3.1446199 7:7.9057698 8:10.1392 9:12.8238 10:-24.3102 11:-16.777 12:-25.1292 #
-5.1685107095002332216380924886055e-09 1:0.061196402 2:0.23819301 3:0.21864501 4:0.377 5:0.3714 6:3.1415801 7:7.65166 8:11.3656 9:11.4958 10:-23.539101 11:-15.7095 12:-22.9398 #
5.1685107095002332216380924886055e-09 1:0.021263501 2:0.79717797 3:0.73971099 4:0.47260001 5:0.3784 6:3.14657 7:7.9779 8:10.1607 9:13.1192 10:-24.790001 11:-17.1115 12:-25.198 #
5.1685107095002332216380924886055e-09 1:0.061196402 2:0.23819301 3:0.21864501 4:0.377 5:0.3714 6:3.1415801 7:7.65166 8:11.3656 9:11.4958 10:-23.539101 11:-15.7095 12:-22.9398 #
-5.1685107095002332216380924886055e-09 1:0.021263501 2:0.79717797 3:0.73971099 4:0.47260001 5:0.3784 6:3.14657 7:7.9779 8:10.1607 9:13.1192 10:-24.790001 11:-17.1115 12:-25.198 #
-5.1685107095002332216380924886055e-09 1:0.064059697 2:0.220349 3:0.22587 4:0.4391 5:0.4341 6:3.17188 7:8.1187696 8:12.2811 9:13.0635 10:-25.9974 11:-17.1432 12:-25.8132 #
5.1685107095002332216380924886055e-09 1:0.0191509 2:0.75079203 3:0.68350399 4:0.47029999 5:0.37650001 6:3.1467099 7:7.9544001 8:10.1412 9:12.9532 10:-24.6572 11:-16.991501 12:-24.644699 #
5.1685107095002332216380924886055e-09 1:0.064059697 2:0.220349 3:0.22587 4:0.4391 5:0.4341 6:3.17188 7:8.1187696 8:12.2811 9:13.0635 10:-25.9974 11:-17.1432 12:-25.8132 #
-5.1685107095002332216380924886055e-09 1:0.0191509 2:0.75079203 3:0.68350399 4:0.47029999 5:0.37650001 6:3.1467099 7:7.9544001 8:10.1412 9:12.9532 10:-24.6572 11:-16.991501 12:-24.644699 #
-5.1685107095002332216380924886055e-09 1:0.060696501 2:0.23733699 3:0.21063399 4:0.4436 5:0.43399999 6:3.1916499 7:8.7008305 8:11.3724 9:13.4897 10:-26.748899 11:-17.8403 12:-25.9256 #
5.1685107095002332216380924886055e-09 1:0.018303899 2:0.75614899 3:0.68526602 4:0.4756 5:0.373 6:3.1438999 7:7.8893299 8:10.0985 9:12.8741 10:-24.378 11:-16.828501 12:-24.915501 #
5.1685107095002332216380924886055e-09 1:0.060696501 2:0.23733699 3:0.21063399 4:0.4436 5:0.43399999 6:3.1916499 7:8.7008305 8:11.3724 9:13.4897 10:-26.748899 11:-17.8403 12:-25.9256 #
-5.1685107095002332216380924886055e-09 1:0.018303899 2:0.75614899 3:0.68526602 4:0.4756 5:0.373 6:3.1438999 7:7.8893299 8:10.0985 9:12.8741 10:-24.378 11:-16.828501 12:-24.915501 #
5.1685107095002332216380924886055e-09 1:0.032359801 2:0.26468399 3:0.24982201 4:0.45210001 5:0.43130001 6:3.1839001 7:8.1909399 8:11.2841 9:16.4296 10:-30.329399 11:-20.928301 12:-30.659401 #
-5.1685107095002332216380924886055e-09 1:0.019849701 2:0.74891597 3:0.69090903 4:0.47549999 5:0.3761 6:3.1448801 7:7.8980999 8:10.1422 9:12.9654 10:-24.633301 11:-16.9606 12:-24.7136 #
5.1685107095002332216380924886055e-09 1:0.032359801 2:0.26468399 3:0.24982201 4:0.45210001 5:0.43130001 6:3.1839001 7:8.1909399 8:11.2841 9:16.4296 10:-30.329399 11:-20.928301 12:-30.659401 #
-5.1685107095002332216380924886055e-09 1:0.019849701 2:0.74891597 3:0.69090903 4:0.47549999 5:0.3761 6:3.1448801 7:7.8980999 8:10.1422 9:12.9654 10:-24.633301 11:-16.9606 12:-24.7136 #
-5.1685107095002332216380924886055e-09 1:0.0384642 2:0.215189 3:0.21676201 4:0.45680001 5:0.44159999 6:3.18308 7:8.5162096 8:11.8054 9:12.9188 10:-25.3314 11:-18.1359 12:-25.621799 #
5.1685107095002332216380924886055e-09 1:0.0151435 2:0.749493 3:0.68471998 4:0.46740001 5:0.3752 6:3.1444099 7:7.8673701 8:10.1159 9:12.9337 10:-24.6108 11:-16.9345 12:-24.6071 #
5.1685107095002332216380924886055e-09 1:0.0384642 2:0.215189 3:0.21676201 4:0.45680001 5:0.44159999 6:3.18308 7:8.5162096 8:11.8054 9:12.9188 10:-25.3314 11:-18.1359 12:-25.621799 #
-5.1685107095002332216380924886055e-09 1:0.0151435 2:0.749493 3:0.68471998 4:0.46740001 5:0.3752 6:3.1444099 7:7.8673701 8:10.1159 9:12.9337 10:-24.6108 11:-16.9345 12:-24.6071 #
-6.6998578980782514575904754237229e-08 1:0.0490456 2:0.196658 3:0.13788299 4:0.40869999 5:0.38909999 6:3.1633401 7:8.3321695 8:10.9945 9:13.8648 10:-27.072701 11:-19.712299 12:-26.3006 #
6.6998578980782514575904754237229e-08 1:0.0155074 2:0.70650899 3:0.663077 4:0.4637 5:0.37490001 6:3.1471901 7:8.10532 8:10.0866 9:12.9636 10:-24.622801 11:-17.680799 12:-24.657 #
6.6998578980782514575904754237229e-08 1:0.0490456 2:0.196658 3:0.13788299 4:0.40869999 5:0.38909999 6:3.1633401 7:8.3321695 8:10.9945 9:13.8648 10:-27.072701 11:-19.712299 12:-26.3006 #
-6.6998578980782514575904754237229e-08 1:0.0155074 2:0.70650899 3:0.663077 4:0.4637 5:0.37490001 6:3.1471901 7:8.10532 8:10.0866 9:12.9636 10:-24.622801 11:-17.680799 12:-24.657 #
-6.6998578980782514575904754237229e-08 1:0.0552953 2:0.236121 3:0.25424901 4:0.4314 5:0.39379999 6:3.1759701 7:7.98453 8:11.3405 9:12.3873 10:-24.707001 11:-16.8678 12:-24.279499 #
6.6998578980782514575904754237229e-08 1:0.019098399 2:0.71313298 3:0.68557799 4:0.46950001 5:0.37869999 6:3.1475699 7:8.0176001 8:10.1175 9:13.2728 10:-25.222601 11:-19.057699 12:-25.0485 #
6.6998578980782514575904754237229e-08 1:0.0552953 2:0.236121 3:0.25424901 4:0.4314 5:0.39379999 6:3.1759701 7:7.98453 8:11.3405 9:12.3873 10:-24.707001 11:-16.8678 12:-24.279499 #
-6.6998578980782514575904754237229e-08 1:0.019098399 2:0.71313298 3:0.68557799 4:0.46950001 5:0.37869999 6:3.1475699 7:8.0176001 8:10.1175 9:13.2728 10:-25.222601 11:-19.057699 12:-25.0485 #
-6.6998578980782514575904754237229e-08 1:0.053833898 2:0.227677 3:0.19188599 4:0.40349999 5:0.37369999 6:3.15679 7:7.88695 8:11.5604 9:11.6476 10:-23.2661 11:-15.6219 12:-23.848101 #
6.6998578980782514575904754237229e-08 1:0.016845301 2:0.83307302 3:0.75845897 4:0.46059999 5:0.37560001 6:3.14482 7:7.8530002 8:10.1151 9:12.676 10:-25.427999 11:-17.075199 12:-24.071899 #
6.6998578980782514575904754237229e-08 1:0.053833898 2:0.227677 3:0.19188599 4:0.40349999 5:0.37369999 6:3.15679 7:7.88695 8:11.5604 9:11.6476 10:-23.2661 11:-15.6219 12:-23.848101 #
-6.6998578980782514575904754237229e-08 1:0.016845301 2:0.83307302 3:0.75845897 4:0.46059999 5:0.37560001 6:3.14482 7:7.8530002 8:10.1151 9:12.676 10:-25.427999 11:-17.075199 12:-24.071899 #
-6.6998578980782514575904754237229e-08 1:0.0433787 2:0.27502999 3:0.23218 4:0.42340001 5:0.40059999 6:3.1824801 7:8.1920004 8:11.2777 9:12.5007 10:-24.3902 11:-16.6385 12:-25.913401 #
6.6998578980782514575904754237229e-08 1:0.017565999 2:0.76848698 3:0.69269001 4:0.4691 5:0.37090001 6:3.14621 7:7.9131799 8:10.134 9:12.6887 10:-24.125999 11:-16.648399 12:-24.5741 #
6.6998578980782514575904754237229e-08 1:0.0433787 2:0.27502999 3:0.23218 4:0.42340001 5:0.40059999 6:3.1824801 7:8.1920004 8:11.2777 9:12.5007 10:-24.3902 11:-16.6385 12:-25.913401 #
-6.6998578980782514575904754237229e-08 1:0.017565999 2:0.76848698 3:0.69269001 4:0.4691 5:0.37090001 6:3.14621 7:7.9131799 8:10.134 9:12.6887 10:-24.125999 11:-16.648399 12:-24.5741 #
-6.6998578980782514575904754237229e-08 1:0.0396332 2:0.46640301 3:0.20306399 4:0.44220001 5:0.43239999 6:3.18468 7:9.6282701 8:11.5712 9:12.5603 10:-25.5089 11:-17.3759 12:-24.6297 #
6.6998578980782514575904754237229e-08 1:0.0202647 2:0.73066598 3:0.66820699 4:0.456 5:0.36700001 6:3.14568 7:7.94491 8:10.07 9:12.9188 10:-24.5229 11:-16.9685 12:-24.6138 #
6.6998578980782514575904754237229e-08 1:0.0396332 2:0.46640301 3:0.20306399 4:0.44220001 5:0.43239999 6:3.18468 7:9.6282701 8:11.5712 9:12.5603 10:-25.5089 11:-17.3759 12:-24.6297 #
-6.6998578980782514575904754237229e-08 1:0.0202647 2:0.73066598 3:0.66820699 4:0.456 5:0.36700001 6:3.14568 7:7.94491 8:10.07 9:12.9188 10:-24.5229 11:-16.9685 12:-24.6138 #
-6.6998578980782514575904754237229e-08 1:0.034422699 2:0.249318 3:0.25289699 4:0.47979999 5:0.47060001 6:3.1923699 7:8.9911604 8:12.6044 9:13.7546 10:-27.108101 11:-18.2631 12:-27.063601 #
6.6998578980782514575904754237229e-08 1:0.0128472 2:0.732216 3:0.67840499 4:0.465 5:0.3644 6:3.1490901 7:8.0398998 8:10.0792 9:12.9905 10:-24.602301 11:-17.070801 12:-24.788099 #
6.6998578980782514575904754237229e-08 1:0.034422699 2:0.249318 3:0.25289699 4:0.47979999 5:0.47060001 6:3.1923699 7:8.9911604 8:12.6044 9:13.7546 10:-27.108101 11:-18.2631 12:-27.063601 #
-6.6998578980782514575904754237229e-08 1:0.0128472 2:0.732216 3:0.67840499 4:0.465 5:0.3644 6:3.1490901 7:8.0398998 8:10.0792 9:12.9905 10:-24.602301 11:-17.070801 12:-24.788099 #
-6.6998578980782514575904754237229e-08 1:0.053535301 2:0.14674699 3:0.123129 4:0.45750001 5:0.4535 6:3.1927099 7:9.1742401 8:12.0645 9:14.2239 10:-27.374001 11:-18.815901 12:-28.1567 #
6.6998578980782514575904754237229e-08 1:0.0245637 2:0.78917801 3:0.77496397 4:0.4736 5:0.38080001 6:3.1491001 7:8.0262299 8:10.1722 9:13.3723 10:-26.2243 11:-17.731199 12:-25.146099 #
6.6998578980782514575904754237229e-08 1:0.053535301 2:0.14674699 3:0.123129 4:0.45750001 5:0.4535 6:3.1927099 7:9.1742401 8:12.0645 9:14.2239 10:-27.374001 11:-18.815901 12:-28.1567 #
-6.6998578980782514575904754237229e-08 1:0.0245637 2:0.78917801 3:0.77496397 4:0.4736 5:0.38080001 6:3.1491001 7:8.0262299 8:10.1722 9:13.3723 10:-26.2243 11:-17.731199 12:-25.146099 #
-6.6998578980782514575904754237229e-08 1:0.046202902 2:0.199058 3:0.137853 4:0.41769999 5:0.3691 6:3.1711299 7:8.25313 8:10.9681 9:12.2322 10:-23.8762 11:-16.373899 12:-24.201099 #
6.6998578980782514575904754237229e-08 1:0.0158753 2:0.685229 3:0.64400703 4:0.4698 5:0.3696 6:3.14748 7:8.1255903 8:10.0755 9:12.9331 10:-24.607 11:-17.018299 12:-24.570299 #
6.6998578980782514575904754237229e-08 1:0.046202902 2:0.199058 3:0.137853 4:0.41769999 5:0.3691 6:3.1711299 7:8.25313 8:10.9681 9:12.2322 10:-23.8762 11:-16.373899 12:-24.201099 #
-6.6998578980782514575904754237229e-08 1:0.0158753 2:0.685229 3:0.64400703 4:0.4698 5:0.3696 6:3.14748 7:8.1255903 8:10.0755 9:12.9331 10:-24.607 11:-17.018299 12:-24.570299 #
-6.6998578980782514575904754237229e-08 1:0.056338198 2:0.208968 3:0.120902 4:0.45159999 5:0.447 6:3.1901901 7:9.5528097 8:11.5443 9:13.1458 10:-25.500299 11:-18.639 12:-26.176201 #
6.6998578980782514575904754237229e-08 1:0.024604 2:0.76376098 3:0.703857 4:0.47049999 5:0.37670001 6:3.14663 7:7.9075599 8:10.1363 9:12.9979 10:-24.5805 11:-16.954599 12:-25.1451 #
6.6998578980782514575904754237229e-08 1:0.056338198 2:0.208968 3:0.120902 4:0.45159999 5:0.447 6:3.1901901 7:9.5528097 8:11.5443 9:13.1458 10:-25.500299 11:-18.639 12:-26.176201 #
-6.6998578980782514575904754237229e-08 1:0.024604 2:0.76376098 3:0.703857 4:0.47049999 5:0.37670001 6:3.14663 7:7.9075599 8:10.1363 9:12.9979 10:-24.5805 11:-16.954599 12:-25.1451 #
-6.6998578980782514575904754237229e-08 1:0.060222 2:0.20791499 3:0.231557 4:0.43020001 5:0.40200001 6:3.1417 7:7.95821 8:10.9252 9:11.5003 10:-22.782301 11:-15.7432 12:-22.994801 #
6.6998578980782514575904754237229e-08 1:0.025543099 2:0.62496102 3:0.60310298 4:0.45789999 5:0.38389999 6:3.16136 7:7.9768801 8:10.3312 9:12.9814 10:-24.637699 11:-17.281401 12:-26.5166 #
6.6998578980782514575904754237229e-08 1:0.060222 2:0.20791499 3:0.231557 4:0.43020001 5:0.40200001 6:3.1417 7:7.95821 8:10.9252 9:11.5003 10:-22.782301 11:-15.7432 12:-22.994801 #
-6.6998578980782514575904754237229e-08 1:0.025543099 2:0.62496102 3:0.60310298 4:0.45789999 5:0.38389999 6:3.16136 7:7.9768801 8:10.3312 9:12.9814 10:-24.637699 11:-17.281401 12:-26.5166 #
-6.6998578980782514575904754237229e-08 1:0.058557 2:0.247346 3:0.245702 4:0.43779999 5:0.4086 6:3.1628001 7:8.2733097 8:11.4168 9:12.0197 10:-23.8368 11:-17.379999 12:-23.9562 #
6.6998578980782514575904754237229e-08 1:0.0147459 2:0.69768202 3:0.66689497 4:0.47220001 5:0.3698 6:3.1489799 7:8.1133699 8:10.097 9:13.0159 10:-24.685699 11:-17.561701 12:-24.767799 #
6.6998578980782514575904754237229e-08 1:0.058557 2:0.247346 3:0.245702 4:0.43779999 5:0.4086 6:3.1628001 7:8.2733097 8:11.4168 9:12.0197 10:-23.8368 11:-17.379999 12:-23.9562 #
-6.6998578980782514575904754237229e-08 1:0.0147459 2:0.69768202 3:0.66689497 4:0.47220001 5:0.3698 6:3.1489799 7:8.1133699 8:10.097 9:13.0159 10:-24.685699 11:-17.561701 12:-24.767799 #
-6.6998578980782514575904754237229e-08 1:0.051062599 2:0.22167601 3:0.21927699 4:0.40630001 5:0.39430001 6:3.1638 7:8.49646 8:12.4238 9:11.591 10:-23.8319 11:-15.86 12:-23.6891 #
6.6998578980782514575904754237229e-08 1:0.027892901 2:0.72487301 3:0.66170901 4:0.46239999 5:0.3678 6:3.14972 7:8.02458 8:10.0894 9:13.1801 10:-24.880199 11:-17.240801 12:-25.1077 #
6.6998578980782514575904754237229e-08 1:0.051062599 2:0.22167601 3:0.21927699 4:0.40630001 5:0.39430001 6:3.1638 7:8.49646 8:12.4238 9:11.591 10:-23.8319 11:-15.86 12:-23.6891 #
-6.6998578980782514575904754237229e-08 1:0.027892901 2:0.72487301 3:0.66170901 4:0.46239999 5:0.3678 6:3.14972 7:8.02458 8:10.0894 9:13.1801 10:-24.880199 11:-17.240801 12:-25.1077 #
-6.6998578980782514575904754237229e-08 1:0.0618256 2:0.184047 3:0.129269 4:0.4569 5:0.4355 6:3.1895299 7:9.6532698 8:11.6175 9:14.5479 10:-28.2645 11:-19.385401 12:-27.642599 #
6.6998578980782514575904754237229e-08 1:0.0132723 2:0.693699 3:0.65363598 4:0.46959999 5:0.3698 6:3.14905 7:8.08004 8:10.1357 9:13.0082 10:-24.586599 11:-17.055201 12:-25.347099 #
6.6998578980782514575904754237229e-08 1:0.0618256 2:0.184047 3:0.129269 4:0.4569 5:0.4355 6:3.1895299 7:9.6532698 8:11.6175 9:14.5479 10:-28.2645 11:-19.385401 12:-27.642599 #
-6.6998578980782514575904754237229e-08 1:0.0132723 2:0.693699 3:0.65363598 4:0.46959999 5:0.3698 6:3.14905 7:8.08004 8:10.1357 9:13.0082 10:-24.586599 11:-17.055201 12:-25.347099 #
-6.6998578980782514575904754237229e-08 1:0.0577319 2:0.254807 3:0.168524 4:0.41389999 5:0.33430001 6:3.1730599 7:8.0383301 8:11.481 9:12.0442 10:-23.806801 11:-16.4814 12:-25.969801 #
6.6998578980782514575904754237229e-08 1:0.0147517 2:0.694417 3:0.65272802 4:0.4623 5:0.3671 6:3.1486001 7:8.1081896 8:10.0823 9:13.0473 10:-24.686701 11:-17.4998 12:-24.8804 #
6.6998578980782514575904754237229e-08 1:0.0577319 2:0.254807 3:0.168524 4:0.41389999 5:0.33430001 6:3.1730599 7:8.0383301 8:11.481 9:12.0442 10:-23.806801 11:-16.4814 12:-25.969801 #
-6.6998578980782514575904754237229e-08 1:0.0147517 2:0.694417 3:0.65272802 4:0.4623 5:0.3671 6:3.1486001 7:8.1081896 8:10.0823 9:13.0473 10:-24.686701 11:-17.4998 12:-24.8804 #
-6.6998578980782514575904754237229e-08 1:0.043262001 2:0.40023199 3:0.121418 4:0.45950001 5:0.43689999 6:3.1928699 7:9.1310596 8:12.1416 9:13.4844 10:-26.3074 11:-18.4939 12:-26.9716 #
6.6998578980782514575904754237229e-08 1:0.018828399 2:0.67578298 3:0.63757098 4:0.46529999 5:0.3547 6:3.14505 7:7.9591999 8:10.0133 9:12.6619 10:-24.151699 11:-16.787901 12:-24.148199 #
6.6998578980782514575904754237229e-08 1:0.043262001 2:0.40023199 3:0.121418 4:0.45950001 5:0.43689999 6:3.1928699 7:9.1310596 8:12.1416 9:13.4844 10:-26.3074 11:-18.4939 12:-26.9716 #
-6.6998578980782514575904754237229e-08 1:0.018828399 2:0.67578298 3:0.63757098 4:0.46529999 5:0.3547 6:3.14505 7:7.9591999 8:10.0133 9:12.6619 10:-24.151699 11:-16.787901 12:-24.148199 #
-6.6998578980782514575904754237229e-08 1:0.0304101 2:0.420856 3:0.204362 4:0.45370001 5:0.4413 6:3.1935101 7:9.3450499 8:11.3835 9:13.2129 10:-26.0333 11:-19.253599 12:-25.531601 #
6.6998578980782514575904754237229e-08 1:0.017031301 2:0.75611901 3:0.69854999 4:0.4684 5:0.375 6:3.14573 7:7.9387898 8:10.142 9:12.9219 10:-24.811899 11:-17.0233 12:-24.5002 #
6.6998578980782514575904754237229e-08 1:0.0304101 2:0.420856 3:0.204362 4:0.45370001 5:0.4413 6:3.1935101 7:9.3450499 8:11.3835 9:13.2129 10:-26.0333 11:-19.253599 12:-25.531601 #
-6.6998578980782514575904754237229e-08 1:0.017031301 2:0.75611901 3:0.69854999 4:0.4684 5:0.375 6:3.14573 7:7.9387898 8:10.142 9:12.9219 10:-24.811899 11:-17.0233 12:-24.5002 #
-6.6998578980782514575904754237229e-08 1:0.045938998 2:0.223994 3:0.21964499 4:0.47009999 5:0.4497 6:3.1819999 7:10.3612 8:11.7181 9:12.9818 10:-25.4107 11:-18.2104 12:-25.589899 #
6.6998578980782514575904754237229e-08 1:0.0231234 2:0.750211 3:0.689614 4:0.46700001 5:0.37459999 6:3.14676 7:7.95403 8:10.1163 9:12.9303 10:-24.491899 11:-16.9251 12:-24.8487 #
6.6998578980782514575904754237229e-08 1:0.045938998 2:0.223994 3:0.21964499 4:0.47009999 5:0.4497 6:3.1819999 7:10.3612 8:11.7181 9:12.9818 10:-25.4107 11:-18.2104 12:-25.589899 #
-6.6998578980782514575904754237229e-08 1:0.0231234 2:0.750211 3:0.689614 4:0.46700001 5:0.37459999 6:3.14676 7:7.95403 8:10.1163 9:12.9303 10:-24.491899 11:-16.9251 12:-24.8487 #
-6.6998578980782514575904754237229e-08 1:0.17564701 2:0.34887201 3:0.19122501 4:0.3466 5:0.31720001 6:3.0927501 7:8.3222799 8:9.6669598 9:11.6502 10:-22.358601 11:-16.667299 12:-22.6527 #
6.6998578980782514575904754237229e-08 1:0.021601399 2:0.77288997 3:0.71032798 4:0.47080001 5:0.37799999 6:3.14644 7:7.9383898 8:10.1514 9:12.9823 10:-24.7101 11:-17.0105 12:-24.689699 #
6.6998578980782514575904754237229e-08 1:0.17564701 2:0.34887201 3:0.19122501 4:0.3466 5:0.31720001 6:3.0927501 7:8.3222799 8:9.6669598 9:11.6502 10:-22.358601 11:-16.667299 12:-22.6527 #
-6.6998578980782514575904754237229e-08 1:0.021601399 2:0.77288997 3:0.71032798 4:0.47080001 5:0.37799999 6:3.14644 7:7.9383898 8:10.1514 9:12.9823 10:-24.7101 11:-17.0105 12:-24.689699 #
6.6998578980782514575904754237229e-08 1:0.189468 2:0.37126201 3:0.19776399 4:0.3635 5:0.32390001 6:3.1034 7:8.0112801 8:9.7002401 9:11.8097 10:-22.6786 11:-15.8192 12:-22.7593 #
-6.6998578980782514575904754237229e-08 1:0.0209627 2:0.752756 3:0.69182402 4:0.47459999 5:0.37400001 6:3.14676 7:7.9263101 8:10.1387 9:12.9416 10:-24.520399 11:-16.919701 12:-24.875999 #
6.6998578980782514575904754237229e-08 1:0.189468 2:0.37126201 3:0.19776399 4:0.3635 5:0.32390001 6:3.1034 7:8.0112801 8:9.7002401 9:11.8097 10:-22.6786 11:-15.8192 12:-22.7593 #
-6.6998578980782514575904754237229e-08 1:0.0209627 2:0.752756 3:0.69182402 4:0.47459999 5:0.37400001 6:3.14676 7:7.9263101 8:10.1387 9:12.9416 10:-24.520399 11:-16.919701 12:-24.875999 #
-6.6998578980782514575904754237229e-08 1:0.0314149 2:0.33992901 3:0.134068 4:0.4402 5:0.39660001 6:3.1826799 7:8.6327496 8:13.3181 9:12.6881 10:-25.7428 11:-17.0072 12:-26.0287 #
6.6998578980782514575904754237229e-08 1:0.0186194 2:0.76304603 3:0.64179701 4:0.47600001 5:0.37720001 6:3.1405499 7:7.5352998 8:10.1674 9:12.1468 10:-23.336599 11:-15.9235 12:-23.7316 #
6.6998578980782514575904754237229e-08 1:0.0314149 2:0.33992901 3:0.134068 4:0.4402 5:0.39660001 6:3.1826799 7:8.6327496 8:13.3181 9:12.6881 10:-25.7428 11:-17.0072 12:-26.0287 #
-6.6998578980782514575904754237229e-08 1:0.0186194 2:0.76304603 3:0.64179701 4:0.47600001 5:0.37720001 6:3.1405499 7:7.5352998 8:10.1674 9:12.1468 10:-23.336599 11:-15.9235 12:-23.7316 #
-6.6998578980782514575904754237229e-08 1:0.0278209 2:0.409841 3:0.140241 4:0.4562 5:0.4104 6:3.1779499 7:8.4973402 8:10.8077 9:12.8451 10:-24.717699 11:-17.3529 12:-25.030199 #
6.6998578980782514575904754237229e-08 1:0.016830301 2:0.77416497 3:0.72044098 4:0.4718 5:0.373 6:3.14589 7:7.9508801 8:10.1315 9:12.9594 10:-24.6514 11:-16.989201 12:-24.659401 #
6.6998578980782514575904754237229e-08 1:0.0278209 2:0.409841 3:0.140241 4:0.4562 5:0.4104 6:3.1779499 7:8.4973402 8:10.8077 9:12.8451 10:-24.717699 11:-17.3529 12:-25.030199 #
-6.6998578980782514575904754237229e-08 1:0.016830301 2:0.77416497 3:0.72044098 4:0.4718 5:0.373 6:3.14589 7:7.9508801 8:10.1315 9:12.9594 10:-24.6514 11:-16.989201 12:-24.659401 #
-6.6998578980782514575904754237229e-08 1:0.0469741 2:0.21809199 3:0.135298 4:0.43900001 5:0.417 6:3.1889601 7:8.6311903 8:11.3443 9:13.9359 10:-26.742701 11:-18.723101 12:-26.7113 #
6.6998578980782514575904754237229e-08 1:0.017950799 2:0.75704497 3:0.69954598 4:0.47569999 5:0.37490001 6:3.14607 7:7.9699101 8:10.1418 9:12.9983 10:-24.7869 11:-17.073 12:-24.6672 #
6.6998578980782514575904754237229e-08 1:0.0469741 2:0.21809199 3:0.135298 4:0.43900001 5:0.417 6:3.1889601 7:8.6311903 8:11.3443 9:13.9359 10:-26.742701 11:-18.723101 12:-26.7113 #
-6.6998578980782514575904754237229e-08 1:0.017950799 2:0.75704497 3:0.69954598 4:0.47569999 5:0.37490001 6:3.14607 7:7.9699101 8:10.1418 9:12.9983 10:-24.7869 11:-17.073 12:-24.6672 #
-6.6998578980782514575904754237229e-08 1:0.047756702 2:0.39091301 3:0.135721 4:0.4623 5:0.44710001 6:3.18747 7:9.0514698 8:11.9619 9:14.0892 10:-27.7673 11:-19.3561 12:-27.1259 #
6.6998578980782514575904754237229e-08 1:0.014428 2:0.739779 3:0.66646701 4:0.47299999 5:0.37220001 6:3.14591 7:7.8203101 8:10.1433 9:12.5945 10:-24.0231 11:-16.533501 12:-24.273001 #
6.6998578980782514575904754237229e-08 1:0.047756702 2:0.39091301 3:0.135721 4:0.4623 5:0.44710001 6:3.18747 7:9.0514698 8:11.9619 9:14.0892 10:-27.7673 11:-19.3561 12:-27.1259 #
-6.6998578980782514575904754237229e-08 1:0.014428 2:0.739779 3:0.66646701 4:0.47299999 5:0.37220001 6:3.14591 7:7.8203101 8:10.1433 9:12.5945 10:-24.0231 11:-16.533501 12:-24.273001 #
-6.6998578980782514575904754237229e-08 1:0.052143302 2:0.207609 3:0.14178699 4:0.4711 5:0.4163 6:3.1873701 7:9.3766403 8:12.0515 9:14.5827 10:-27.9368 11:-19.2812 12:-28.302299 #
6.6998578980782514575904754237229e-08 1:0 2:0.77046901 3:0.36963701 4:0.3502 5:0.3184 6:3.07198 7:8.9271498 8:11.5884 9:11.1715 10:-22.6647 11:-15.7351 12:-22.746901 #
6.6998578980782514575904754237229e-08 1:0.052143302 2:0.207609 3:0.14178699 4:0.4711 5:0.4163 6:3.1873701 7:9.3766403 8:12.0515 9:14.5827 10:-27.9368 11:-19.2812 12:-28.302299 #
-6.6998578980782514575904754237229e-08 1:0 2:0.77046901 3:0.36963701 4:0.3502 5:0.3184 6:3.07198 7:8.9271498 8:11.5884 9:11.1715 10:-22.6647 11:-15.7351 12:-22.746901 #
-6.6998578980782514575904754237229e-08 1:0.0534494 2:0.21990301 3:0.150085 4:0.43810001 5:0.36289999 6:3.1774299 7:8.1592197 8:11.2079 9:12.373 10:-24.2644 11:-16.560499 12:-24.378099 #
6.6998578980782514575904754237229e-08 1:0.019159401 2:0.74767202 3:0.69527799 4:0.47279999 5:0.37619999 6:3.14656 7:8.0052099 8:10.1229 9:13.0098 10:-24.7271 11:-17.0805 12:-24.726101 #
6.6998578980782514575904754237229e-08 1:0.0534494 2:0.21990301 3:0.150085 4:0.43810001 5:0.36289999 6:3.1774299 7:8.1592197 8:11.2079 9:12.373 10:-24.2644 11:-16.560499 12:-24.378099 #
-6.6998578980782514575904754237229e-08 1:0.019159401 2:0.74767202 3:0.69527799 4:0.47279999 5:0.37619999 6:3.14656 7:8.0052099 8:10.1229 9:13.0098 10:-24.7271 11:-17.0805 12:-24.726101 #
-6.6998578980782514575904754237229e-08 1:0.044669598 2:0.242175 3:0.13439199 4:0.43239999 5:0.4188 6:3.1712 7:9.18015 8:11.963 9:12.7995 10:-25.531401 11:-17.4091 12:-25.228901 #
6.6998578980782514575904754237229e-08 1:0.017374801 2:0.71753001 3:0.65748298 4:0.47600001 5:0.37220001 6:3.1480701 7:7.8931999 8:10.0972 9:12.9888 10:-24.772499 11:-17.050699 12:-24.618799 #
6.6998578980782514575904754237229e-08 1:0.044669598 2:0.242175 3:0.13439199 4:0.43239999 5:0.4188 6:3.1712 7:9.18015 8:11.963 9:12.7995 10:-25.531401 11:-17.4091 12:-25.228901 #
-6.6998578980782514575904754237229e-08 1:0.017374801 2:0.71753001 3:0.65748298 4:0.47600001 5:0.37220001 6:3.1480701 7:7.8931999 8:10.0972 9:12.9888 10:-24.772499 11:-17.050699 12:-24.618799 #
-6.6998578980782514575904754237229e-08 1:0.0643721 2:0.22371601 3:0.152299 4:0.36489999 5:0.36289999 6:3.02338 7:8.8159599 8:11.0915 9:11.7389 10:-23.183399 11:-16.6411 12:-23.6038 #
6.6998578980782514575904754237229e-08 1:0.0236861 2:0.762788 3:0.70436102 4:0.47240001 5:0.38479999 6:3.14803 7:7.9209099 8:10.1734 9:13.2056 10:-24.9475 11:-17.181 12:-25.229099 #
6.6998578980782514575904754237229e-08 1:0.0643721 2:0.22371601 3:0.152299 4:0.36489999 5:0.36289999 6:3.02338 7:8.8159599 8:11.0915 9:11.7389 10:-23.183399 11:-16.6411 12:-23.6038 #
-6.6998578980782514575904754237229e-08 1:0.0236861 2:0.762788 3:0.70436102 4:0.47240001 5:0.38479999 6:3.14803 7:7.9209099 8:10.1734 9:13.2056 10:-24.9475 11:-17.181 12:-25.229099 #
-6.6998578980782514575904754237229e-08 1:0.0215923 2:0.33105201 3:0.201748 4:0.4314 5:0.42919999 6:3.18976 7:8.9117699 8:11.5148 9:12.7463 10:-24.932699 11:-17.879999 12:-25.1992 #
6.6998578980782514575904754237229e-08 1:0.0157388 2:0.69964099 3:0.68464297 4:0.4763 5:0.37189999 6:3.15293 7:8.1125298 8:10.1191 9:13.1772 10:-24.944901 11:-17.9279 12:-25.0119 #
6.6998578980782514575904754237229e-08 1:0.0215923 2:0.33105201 3:0.201748 4:0.4314 5:0.42919999 6:3.18976 7:8.9117699 8:11.5148 9:12.7463 10:-24.932699 11:-17.879999 12:-25.1992 #
-6.6998578980782514575904754237229e-08 1:0.0157388 2:0.69964099 3:0.68464297 4:0.4763 5:0.37189999 6:3.15293 7:8.1125298 8:10.1191 9:13.1772 10:-24.944901 11:-17.9279 12:-25.0119 #
-6.6998578980782514575904754237229e-08 1:0.061717901 2:0.214276 3:0.16282199 4:0.45899999 5:0.45820001 6:3.1852 7:8.1819897 8:13.0537 9:13.3597 10:-26.567699 11:-17.5065 12:-27.682699 #
6.6998578980782514575904754237229e-08 1:0.019978501 2:0.73060101 3:0.68176299 4:0.479 5:0.3748 6:3.1461201 7:8.0235596 8:10.1099 9:13.0918 10:-24.9737 11:-17.223499 12:-24.762199 #
6.6998578980782514575904754237229e-08 1:0.061717901 2:0.214276 3:0.16282199 4:0.45899999 5:0.45820001 6:3.1852 7:8.1819897 8:13.0537 9:13.3597 10:-26.567699 11:-17.5065 12:-27.682699 #
-6.6998578980782514575904754237229e-08 1:0.019978501 2:0.73060101 3:0.68176299 4:0.479 5:0.3748 6:3.1461201 7:8.0235596 8:10.1099 9:13.0918 10:-24.9737 11:-17.223499 12:-24.762199 #
-6.6998578980782514575904754237229e-08 1:0.063808396 2:0.22414801 3:0.230884 4:0.45550001 5:0.4479 6:3.1730299 7:8.6868896 8:12.1783 9:13.2656 10:-26.7124 11:-17.7101 12:-25.995399 #
6.6998578980782514575904754237229e-08 1:0.0207392 2:0.70586401 3:0.678765 4:0.47299999 5:0.37279999 6:3.14838 7:8.0108604 8:10.0921 9:13.2294 10:-25.129299 11:-18.4321 12:-24.9779 #
6.6998578980782514575904754237229e-08 1:0.063808396 2:0.22414801 3:0.230884 4:0.45550001 5:0.4479 6:3.1730299 7:8.6868896 8:12.1783 9:13.2656 10:-26.7124 11:-17.7101 12:-25.995399 #
-6.6998578980782514575904754237229e-08 1:0.0207392 2:0.70586401 3:0.678765 4:0.47299999 5:0.37279999 6:3.14838 7:8.0108604 8:10.0921 9:13.2294 10:-25.129299 11:-18.4321 12:-24.9779 #
-6.6998578980782514575904754237229e-08 1:0.052926101 2:0.21851 3:0.151601 4:0.45370001 5:0.45210001 6:3.18431 7:8.5915699 8:11.712 9:13.6332 10:-26.313801 11:-17.993799 12:-27.0271 #
6.6998578980782514575904754237229e-08 1:0.0152145 2:0.676884 3:0.64348102 4:0.4734 5:0.36379999 6:3.1486499 7:7.9513602 8:10.0512 9:13.337 10:-26.0425 11:-17.692301 12:-25.0331 #
6.6998578980782514575904754237229e-08 1:0.052926101 2:0.21851 3:0.151601 4:0.45370001 5:0.45210001 6:3.18431 7:8.5915699 8:11.712 9:13.6332 10:-26.313801 11:-17.993799 12:-27.0271 #
-6.6998578980782514575904754237229e-08 1:0.0152145 2:0.676884 3:0.64348102 4:0.4734 5:0.36379999 6:3.1486499 7:7.9513602 8:10.0512 9:13.337 10:-26.0425 11:-17.692301 12:-25.0331 #
-6.6998578980782514575904754237229e-08 1:0.073229499 2:0.201967 3:0.15759 4:0.4506 5:0.4224 6:3.19014 7:9.5557499 8:12.665 9:13.3743 10:-26.394199 11:-18.289801 12:-27.839199 #
6.6998578980782514575904754237229e-08 1:0.017887499 2:0.67826998 3:0.64748698 4:0.47409999 5:0.3673 6:3.1503301 7:7.9893498 8:10.0686 9:13.1124 10:-24.7397 11:-17.5268 12:-25.106701 #
6.6998578980782514575904754237229e-08 1:0.073229499 2:0.201967 3:0.15759 4:0.4506 5:0.4224 6:3.19014 7:9.5557499 8:12.665 9:13.3743 10:-26.394199 11:-18.289801 12:-27.839199 #
-6.6998578980782514575904754237229e-08 1:0.017887499 2:0.67826998 3:0.64748698 4:0.47409999 5:0.3673 6:3.1503301 7:7.9893498 8:10.0686 9:13.1124 10:-24.7397 11:-17.5268 12:-25.106701 #
-6.6998578980782514575904754237229e-08 1:0.053944401 2:0.21277501 3:0.124362 4:0.4183 5:0.4075 6:3.1700799 7:9.20965 8:11.6565 9:12.6565 10:-24.9608 11:-17.4685 12:-24.966299 #
6.6998578980782514575904754237229e-08 1:0.0177489 2:0.67880797 3:0.64064699 4:0.4869 5:0.3721 6:3.1477201 7:7.82129 8:10.1158 9:13.5141 10:-27.1157 11:-17.7279 12:-25.329 #
6.6998578980782514575904754237229e-08 1:0.053944401 2:0.21277501 3:0.124362 4:0.4183 5:0.4075 6:3.1700799 7:9.20965 8:11.6565 9:12.6565 10:-24.9608 11:-17.4685 12:-24.966299 #
-6.6998578980782514575904754237229e-08 1:0.0177489 2:0.67880797 3:0.64064699 4:0.4869 5:0.3721 6:3.1477201 7:7.82129 8:10.1158 9:13.5141 10:-27.1157 11:-17.7279 12:-25.329 #
-6.6998578980782514575904754237229e-08 1:0.062651798 2:0.195392 3:0.134307 4:0.46200001 5:0.36680001 6:3.1879499 7:8.7458601 8:11.6789 9:13.2832 10:-25.959999 11:-17.6707 12:-25.8773 #
6.6998578980782514575904754237229e-08 1:0.0147465 2:0.70622802 3:0.63631302 4:0.48190001 5:0.3707 6:3.14433 7:7.7816401 8:10.0855 9:12.8597 10:-24.3946 11:-16.7812 12:-24.6341 #
6.6998578980782514575904754237229e-08 1:0.062651798 2:0.195392 3:0.134307 4:0.46200001 5:0.36680001 6:3.1879499 7:8.7458601 8:11.6789 9:13.2832 10:-25.959999 11:-17.6707 12:-25.8773 #
-6.6998578980782514575904754237229e-08 1:0.0147465 2:0.70622802 3:0.63631302 4:0.48190001 5:0.3707 6:3.14433 7:7.7816401 8:10.0855 9:12.8597 10:-24.3946 11:-16.7812 12:-24.6341 #
-6.6998578980782514575904754237229e-08 1:0.0603237 2:0.14560901 3:0.14518601 4:0.45879999 5:0.44240001 6:3.1313901 7:9.1846199 8:11.9781 9:12.2647 10:-24.396601 11:-17.171499 12:-25.0499 #
6.6998578980782514575904754237229e-08 1:0.028643699 2:0.75094801 3:0.71522897 4:0.48010001 5:0.38229999 6:3.1477599 7:7.9918299 8:10.143 9:13.9821 10:-26.705601 11:-18.4149 12:-26.055201 #
6.6998578980782514575904754237229e-08 1:0.0603237 2:0.14560901 3:0.14518601 4:0.45879999 5:0.44240001 6:3.1313901 7:9.1846199 8:11.9781 9:12.2647 10:-24.396601 11:-17.171499 12:-25.0499 #
-6.6998578980782514575904754237229e-08 1:0.028643699 2:0.75094801 3:0.71522897 4:0.48010001 5:0.38229999 6:3.1477599 7:7.9918299 8:10.143 9:13.9821 10:-26.705601 11:-18.4149 12:-26.055201 #
-6.6998578980782514575904754237229e-08 1:0.060358498 2:0.172152 3:0.16320001 4:0.4727 5:0.4655 6:3.18488 7:9.1752796 8:11.6739 9:13.2344 10:-25.9445 11:-18.0625 12:-25.7684 #
6.6998578980782514575904754237229e-08 1:0.019708499 2:0.75124902 3:0.68474001 4:0.4761 5:0.3795 6:3.1434801 7:7.8738399 8:10.1168 9:13.099 10:-24.7083 11:-17.0361 12:-25.7988 #
6.6998578980782514575904754237229e-08 1:0.060358498 2:0.172152 3:0.16320001 4:0.4727 5:0.4655 6:3.18488 7:9.1752796 8:11.6739 9:13.2344 10:-25.9445 11:-18.0625 12:-25.7684 #
-6.6998578980782514575904754237229e-08 1:0.019708499 2:0.75124902 3:0.68474001 4:0.4761 5:0.3795 6:3.1434801 7:7.8738399 8:10.1168 9:13.099 10:-24.7083 11:-17.0361 12:-25.7988 #
-6.6998578980782514575904754237229e-08 1:0.0453173 2:0.32592899 3:0.133448 4:0.46520001 5:0.42919999 6:3.1754799 7:8.3203602 8:10.9932 9:12.73 10:-24.594999 11:-16.9694 12:-25.498501 #
6.6998578980782514575904754237229e-08 1:0.019220199 2:0.73554999 3:0.68015999 4:0.4743 5:0.38029999 6:3.1459799 7:7.8710999 8:10.1377 9:13.0466 10:-24.8496 11:-17.079599 12:-24.742001 #
6.6998578980782514575904754237229e-08 1:0.0453173 2:0.32592899 3:0.133448 4:0.46520001 5:0.42919999 6:3.1754799 7:8.3203602 8:10.9932 9:12.73 10:-24.594999 11:-16.9694 12:-25.498501 #
-6.6998578980782514575904754237229e-08 1:0.019220199 2:0.73554999 3:0.68015999 4:0.4743 5:0.38029999 6:3.1459799 7:7.8710999 8:10.1377 9:13.0466 10:-24.8496 11:-17.079599 12:-24.742001 #
-6.6998578980782514575904754237229e-08 1:0.0292398 2:0.31283101 3:0.204413 4:0.46070001 5:0.4447 6:3.1909399 7:9.4037104 8:11.8669 9:14.1749 10:-27.5812 11:-19.5054 12:-27.2362 #
6.6998578980782514575904754237229e-08 1:0.025699399 2:0.67037398 3:0.66553801 4:0.47690001 5:0.37869999 6:3.1505401 7:8.0638399 8:10.1443 9:12.946 10:-24.658001 11:-16.999399 12:-24.6264 #
6.6998578980782514575904754237229e-08 1:0.0292398 2:0.31283101 3:0.204413 4:0.46070001 5:0.4447 6:3.1909399 7:9.4037104 8:11.8669 9:14.1749 10:-27.5812 11:-19.5054 12:-27.2362 #
-6.6998578980782514575904754237229e-08 1:0.025699399 2:0.67037398 3:0.66553801 4:0.47690001 5:0.37869999 6:3.1505401 7:8.0638399 8:10.1443 9:12.946 10:-24.658001 11:-16.999399 12:-24.6264 #
-6.6998578980782514575904754237229e-08 1:0.0313324 2:0.38059399 3:0.238609 4:0.46340001 5:0.4366 6:3.1874399 7:9.4260397 8:11.6257 9:13.6619 10:-27.3591 11:-18.484301 12:-26.3074 #
6.6998578980782514575904754237229e-08 1:0.0182685 2:0.69664103 3:0.66527098 4:0.47319999 5:0.37740001 6:3.1486101 7:8.0016499 8:10.1576 9:13.1634 10:-25.187799 11:-17.9708 12:-24.8689 #
6.6998578980782514575904754237229e-08 1:0.0313324 2:0.38059399 3:0.238609 4:0.46340001 5:0.4366 6:3.1874399 7:9.4260397 8:11.6257 9:13.6619 10:-27.3591 11:-18.484301 12:-26.3074 #
-6.6998578980782514575904754237229e-08 1:0.0182685 2:0.69664103 3:0.66527098 4:0.47319999 5:0.37740001 6:3.1486101 7:8.0016499 8:10.1576 9:13.1634 10:-25.187799 11:-17.9708 12:-24.8689 #
-6.6998578980782514575904754237229e-08 1:0.0504013 2:0.246305 3:0.199349 4:0.42250001 5:0.4023 6:3.18221 7:8.6704102 8:11.1847 9:13.0093 10:-25.212601 11:-17.511801 12:-25.312401 #
6.6998578980782514575904754237229e-08 1:0.0169845 2:0.76289099 3:0.68848097 4:0.4716 5:0.3748 6:3.1446199 7:7.9057698 8:10.1392 9:12.8238 10:-24.3102 11:-16.777 12:-25.1292 #
6.6998578980782514575904754237229e-08 1:0.0504013 2:0.246305 3:0.199349 4:0.42250001 5:0.4023 6:3.18221 7:8.6704102 8:11.1847 9:13.0093 10:-25.212601 11:-17.511801 12:-25.312401 #
-6.6998578980782514575904754237229e-08 1:0.0169845 2:0.76289099 3:0.68848097 4:0.4716 5:0.3748 6:3.1446199 7:7.9057698 8:10.1392 9:12.8238 10:-24.3102 11:-16.777 12:-25.1292 #
-6.6998578980782514575904754237229e-08 1:0.061196402 2:0.23819301 3:0.21864501 4:0.377 5:0.3714 6:3.1415801 7:7.65166 8:11.3656 9:11.4958 10:-23.539101 11:-15.7095 12:-22.9398 #
6.6998578980782514575904754237229e-08 1:0.021263501 2:0.79717797 3:0.73971099 4:0.47260001 5:0.3784 6:3.14657 7:7.9779 8:10.1607 9:13.1192 10:-24.790001 11:-17.1115 12:-25.198 #
6.6998578980782514575904754237229e-08 1:0.061196402 2:0.23819301 3:0.21864501 4:0.377 5:0.3714 6:3.1415801 7:7.65166 8:11.3656 9:11.4958 10:-23.539101 11:-15.7095 12:-22.9398 #
-6.6998578980782514575904754237229e-08 1:0.021263501 2:0.79717797 3:0.73971099 4:0.47260001 5:0.3784 6:3.14657 7:7.9779 8:10.1607 9:13.1192 10:-24.790001 11:-17.1115 12:-25.198 #
-6.6998578980782514575904754237229e-08 1:0.064059697 2:0.220349 3:0.22587 4:0.4391 5:0.4341 6:3.17188 7:8.1187696 8:12.2811 9:13.0635 10:-25.9974 11:-17.1432 12:-25.8132 #
6.6998578980782514575904754237229e-08 1:0.0191509 2:0.75079203 3:0.68350399 4:0.47029999 5:0.37650001 6:3.1467099 7:7.9544001 8:10.1412 9:12.9532 10:-24.6572 11:-16.991501 12:-24.644699 #
6.6998578980782514575904754237229e-08 1:0.064059697 2:0.220349 3:0.22587 4:0.4391 5:0.4341 6:3.17188 7:8.1187696 8:12.2811 9:13.0635 10:-25.9974 11:-17.1432 12:-25.8132 #
-6.6998578980782514575904754237229e-08 1:0.0191509 2:0.75079203 3:0.68350399 4:0.47029999 5:0.37650001 6:3.1467099 7:7.9544001 8:10.1412 9:12.9532 10:-24.6572 11:-16.991501 12:-24.644699 #
-6.6998578980782514575904754237229e-08 1:0.060696501 2:0.23733699 3:0.21063399 4:0.4436 5:0.43399999 6:3.1916499 7:8.7008305 8:11.3724 9:13.4897 10:-26.748899 11:-17.8403 12:-25.9256 #
6.6998578980782514575904754237229e-08 1:0.018303899 2:0.75614899 3:0.68526602 4:0.4756 5:0.373 6:3.1438999 7:7.8893299 8:10.0985 9:12.8741 10:-24.378 11:-16.828501 12:-24.915501 #
6.6998578980782514575904754237229e-08 1:0.060696501 2:0.23733699 3:0.21063399 4:0.4436 5:0.43399999 6:3.1916499 7:8.7008305 8:11.3724 9:13.4897 10:-26.748899 11:-17.8403 12:-25.9256 #
-6.6998578980782514575904754237229e-08 1:0.018303899 2:0.75614899 3:0.68526602 4:0.4756 5:0.373 6:3.1438999 7:7.8893299 8:10.0985 9:12.8741 10:-24.378 11:-16.828501 12:-24.915501 #
-6.6998578980782514575904754237229e-08 1:0.032359801 2:0.26468399 3:0.24982201 4:0.45210001 5:0.43130001 6:3.1839001 7:8.1909399 8:11.2841 9:16.4296 10:-30.329399 11:-20.928301 12:-30.659401 #
6.6998578980782514575904754237229e-08 1:0.019849701 2:0.74891597 3:0.69090903 4:0.47549999 5:0.3761 6:3.1448801 7:7.8980999 8:10.1422 9:12.9654 10:-24.633301 11:-16.9606 12:-24.7136 #
6.6998578980782514575904754237229e-08 1:0.032359801 2:0.26468399 3:0.24982201 4:0.45210001 5:0.43130001 6:3.1839001 7:8.1909399 8:11.2841 9:16.4296 10:-30.329399 11:-20.928301 12:-30.659401 #
-6.6998578980782514575904754237229e-08 1:0.019849701 2:0.74891597 3:0.69090903 4:0.47549999 5:0.3761 6:3.1448801 7:7.8980999 8:10.1422 9:12.9654 10:-24.633301 11:-16.9606 12:-24.7136 #
-6.6998578980782514575904754237229e-08 1:0.0384642 2:0.215189 3:0.21676201 4:0.45680001 5:0.44159999 6:3.18308 7:8.5162096 8:11.8054 9:12.9188 10:-25.3314 11:-18.1359 12:-25.621799 #
6.6998578980782514575904754237229e-08 1:0.0151435 2:0.749493 3:0.68471998 4:0.46740001 5:0.3752 6:3.1444099 7:7.8673701 8:10.1159 9:12.9337 10:-24.6108 11:-16.9345 12:-24.6071 #
6.6998578980782514575904754237229e-08 1:0.0384642 2:0.215189 3:0.21676201 4:0.45680001 5:0.44159999 6:3.18308 7:8.5162096 8:11.8054 9:12.9188 10:-25.3314 11:-18.1359 12:-25.621799 #
-6.6998578980782514575904754237229e-08 1:0.0151435 2:0.749493 3:0.68471998 4:0.46740001 5:0.3752 6:3.1444099 7:7.8673701 8:10.1159 9:12.9337 10:-24.6108 11:-16.9345 12:-24.6071 #
-7.0690469310735423781986762491636e-10 1:0.0490456 2:0.196658 3:0.13788299 4:0.40869999 5:0.38909999 6:3.1633401 7:8.3321695 8:10.9945 9:13.8648 10:-27.072701 11:-19.712299 12:-26.3006 #
7.0690469310735423781986762491636e-10 1:0.0155074 2:0.70650899 3:0.663077 4:0.4637 5:0.37490001 6:3.1471901 7:8.10532 8:10.0866 9:12.9636 10:-24.622801 11:-17.680799 12:-24.657 #
7.0690469310735423781986762491636e-10 1:0.0490456 2:0.196658 3:0.13788299 4:0.40869999 5:0.38909999 6:3.1633401 7:8.3321695 8:10.9945 9:13.8648 10:-27.072701 11:-19.712299 12:-26.3006 #
-7.0690469310735423781986762491636e-10 1:0.0155074 2:0.70650899 3:0.663077 4:0.4637 5:0.37490001 6:3.1471901 7:8.10532 8:10.0866 9:12.9636 10:-24.622801 11:-17.680799 12:-24.657 #
7.0690469310735423781986762491636e-10 1:0.0552953 2:0.236121 3:0.25424901 4:0.4314 5:0.39379999 6:3.1759701 7:7.98453 8:11.3405 9:12.3873 10:-24.707001 11:-16.8678 12:-24.279499 #
-7.0690469310735423781986762491636e-10 1:0.019098399 2:0.71313298 3:0.68557799 4:0.46950001 5:0.37869999 6:3.1475699 7:8.0176001 8:10.1175 9:13.2728 10:-25.222601 11:-19.057699 12:-25.0485 #
7.0690469310735423781986762491636e-10 1:0.0552953 2:0.236121 3:0.25424901 4:0.4314 5:0.39379999 6:3.1759701 7:7.98453 8:11.3405 9:12.3873 10:-24.707001 11:-16.8678 12:-24.279499 #
