SVM-light Version V6.20
1 # kernel type
3 # kernel parameter -d 
1 # kernel parameter -g 
1 # kernel parameter -s 
1 # kernel parameter -r 
empty# kernel parameter -u 
13 # highest feature index 
4 # number of training documents 
17 # number of support vectors plus 1 
0 # threshold b, each following line is a SV (starting with alpha*y)
-3.0359039880317278899549010844246e-09 1:0.064059697 2:0.220349 3:0.22587 4:0.4391 5:0.4341 6:3.17188 7:8.1187696 8:12.2811 9:13.0635 10:-25.9974 11:-17.1432 12:-25.8132 #
3.0359039880317278899549010844246e-09 1:0.0191509 2:0.75079203 3:0.68350399 4:0.47029999 5:0.37650001 6:3.1467099 7:7.9544001 8:10.1412 9:12.9532 10:-24.6572 11:-16.991501 12:-24.644699 #
3.0359039880317278899549010844246e-09 1:0.064059697 2:0.220349 3:0.22587 4:0.4391 5:0.4341 6:3.17188 7:8.1187696 8:12.2811 9:13.0635 10:-25.9974 11:-17.1432 12:-25.8132 #
-3.0359039880317278899549010844246e-09 1:0.0191509 2:0.75079203 3:0.68350399 4:0.47029999 5:0.37650001 6:3.1467099 7:7.9544001 8:10.1412 9:12.9532 10:-24.6572 11:-16.991501 12:-24.644699 #
-3.0359039880317278899549010844246e-09 1:0.060696501 2:0.23733699 3:0.21063399 4:0.4436 5:0.43399999 6:3.1916499 7:8.7008305 8:11.3724 9:13.4897 10:-26.748899 11:-17.8403 12:-25.9256 #
3.0359039880317278899549010844246e-09 1:0.018303899 2:0.75614899 3:0.68526602 4:0.4756 5:0.373 6:3.1438999 7:7.8893299 8:10.0985 9:12.8741 10:-24.378 11:-16.828501 12:-24.915501 #
3.0359039880317278899549010844246e-09 1:0.060696501 2:0.23733699 3:0.21063399 4:0.4436 5:0.43399999 6:3.1916499 7:8.7008305 8:11.3724 9:13.4897 10:-26.748899 11:-17.8403 12:-25.9256 #
-3.0359039880317278899549010844246e-09 1:0.018303899 2:0.75614899 3:0.68526602 4:0.4756 5:0.373 6:3.1438999 7:7.8893299 8:10.0985 9:12.8741 10:-24.378 11:-16.828501 12:-24.915501 #
-3.0359039880317278899549010844246e-09 1:0.032359801 2:0.26468399 3:0.24982201 4:0.45210001 5:0.43130001 6:3.1839001 7:8.1909399 8:11.2841 9:16.4296 10:-30.329399 11:-20.928301 12:-30.659401 #
3.0359039880317278899549010844246e-09 1:0.019849701 2:0.74891597 3:0.69090903 4:0.47549999 5:0.3761 6:3.1448801 7:7.8980999 8:10.1422 9:12.9654 10:-24.633301 11:-16.9606 12:-24.7136 #
3.0359039880317278899549010844246e-09 1:0.032359801 2:0.26468399 3:0.24982201 4:0.45210001 5:0.43130001 6:3.1839001 7:8.1909399 8:11.2841 9:16.4296 10:-30.329399 11:-20.928301 12:-30.659401 #
-3.0359039880317278899549010844246e-09 1:0.019849701 2:0.74891597 3:0.69090903 4:0.47549999 5:0.3761 6:3.1448801 7:7.8980999 8:10.1422 9:12.9654 10:-24.633301 11:-16.9606 12:-24.7136 #
3.0359039880317278899549010844246e-09 1:0.0384642 2:0.215189 3:0.21676201 4:0.45680001 5:0.44159999 6:3.18308 7:8.5162096 8:11.8054 9:12.9188 10:-25.3314 11:-18.1359 12:-25.621799 #
-3.0359039880317278899549010844246e-09 1:0.0151435 2:0.749493 3:0.68471998 4:0.46740001 5:0.3752 6:3.1444099 7:7.8673701 8:10.1159 9:12.9337 10:-24.6108 11:-16.9345 12:-24.6071 #
3.0359039880317278899549010844246e-09 1:0.0384642 2:0.215189 3:0.21676201 4:0.45680001 5:0.44159999 6:3.18308 7:8.5162096 8:11.8054 9:12.9188 10:-25.3314 11:-18.1359 12:-25.621799 #
-3.0359039880317278899549010844246e-09 1:0.0151435 2:0.749493 3:0.68471998 4:0.46740001 5:0.3752 6:3.1444099 7:7.8673701 8:10.1159 9:12.9337 10:-24.6108 11:-16.9345 12:-24.6071 #
